#include <math.h>
#include <stdbool.h>
#include <stdint.h>
#include <string.h>

static const double tensor_dense_2_kernel_0[32][1] = 
{
  {-0.36749842762947082520},
  {-0.50224018096923828125},
  {0.61783456802368164062},
  {-0.30050364136695861816},
  {-0.29230991005897521973},
  {-0.34683114290237426758},
  {-0.12116909027099609375},
  {-0.067168906331062316895},
  {0.42466732859611511230},
  {0.25898835062980651855},
  {0.35222589969635009766},
  {-0.38811632990837097168},
  {-0.60978627204895019531},
  {0.30404245853424072266},
  {0.47280150651931762695},
  {0.62324857711791992188},
  {0.50875771045684814453},
  {-0.49660211801528930664},
  {-0.33562237024307250977},
  {-0.44761279225349426270},
  {-0.54421842098236083984},
  {0.46618747711181640625},
  {-0.38881859183311462402},
  {0.18796716630458831787},
  {-0.13544937968254089355},
  {0.54004621505737304688},
  {0.24395556747913360596},
  {-0.26818969845771789551},
  {-0.56945896148681640625},
  {0.68162775039672851562},
  {-0.60443228483200073242},
  {-0.15533380210399627686}
};
static const double tensor_dense_2_bias_0[1] = 
{-0.15952524542808532715};
static const double tensor_scale[32] = 
{1.4170153141021728516, 1.3191798925399780273, 1.9081721305847167969, 1.7032860517501831055, 1.4496754407882690430, 1.7927657365798950195, 1.3593022823333740234, 1.0367761850357055664, 1.6139627695083618164, 1.5730968713760375977, 1.3692257404327392578, 1.6345518827438354492, 1.3444652557373046875, 1.6272429227828979492, 1.6167691946029663086, 1.6500135660171508789, 1.4246625900268554688, 1.6299256086349487305, 1.5606383085250854492, 1.4363458156585693359, 2.0720782279968261719, 1.7612720727920532227, 2.1973996162414550781, 1.4698271751403808594, 2.0406591892242431641, 1.5090143680572509766, 1.9645031690597534180, 2.0951955318450927734, 1.5551627874374389648, 1.8994810581207275391, 1.9044687747955322266, 1.7479079961776733398};
static const double tensor_bias[32] = 
{-0.072085246443748474121, 0.12091964483261108398, -0.19140766561031341553, -0.017902560532093048096, -0.22211560606956481934, 0.17575313150882720947, 0.089628398418426513672, -0.32804819941520690918, 0.22342224419116973877, -0.27880159020423889160, -0.28593572974205017090, -0.13600055873394012451, 0.19100099802017211914, -0.22224652767181396484, 0.29326879978179931641, 0.015904203057289123535, 0.025104671716690063477, -0.49957460165023803711, 0.26151666045188903809, 0.26817104220390319824, -0.026199802756309509277, -0.10542015731334686279, -0.75472408533096313477, 0.20957520604133605957, 0.22988328337669372559, 0.22811141610145568848, 0.0030195266008377075195, -0.34579747915267944336, 0.12938438355922698975, -0.12628410756587982178, -0.46584859490394592285, 0.34041494131088256836};
static const double tensor_mean[32] = 
{0.0000000000000000000, 0.0000000000000000000, 0.0000000000000000000, 0.0000000000000000000, 0.0000000000000000000, -0.0000000000000000000, 0.0000000000000000000, 0.0000000000000000000, -0.0000000000000000000, 0.0000000000000000000, 0.0000000000000000000, 0.0000000000000000000, -0.0000000000000000000, 0.0000000000000000000, -0.0000000000000000000, -0.0000000000000000000, -0.0000000000000000000, 0.0000000000000000000, -0.0000000000000000000, -0.0000000000000000000, 0.0000000000000000000, -0.0000000000000000000, 0.0000000000000000000, -0.0000000000000000000, -0.0000000000000000000, -0.0000000000000000000, -0.0000000000000000000, 0.0000000000000000000, 0.0000000000000000000, -0.0000000000000000000, 0.0000000000000000000, -0.0000000000000000000};
static const double tensor_var[32] = 
{1.0000004768371582031, 1.0000004768371582031, 1.0000004768371582031, 1.0000004768371582031, 1.0000004768371582031, 1.0000004768371582031, 1.0000004768371582031, 1.0000004768371582031, 1.0000004768371582031, 1.0000004768371582031, 1.0000004768371582031, 1.0000004768371582031, 1.0000004768371582031, 1.0000004768371582031, 1.0000004768371582031, 1.0000004768371582031, 1.0000004768371582031, 1.0000004768371582031, 1.0000004768371582031, 1.0000004768371582031, 1.0000004768371582031, 1.0000004768371582031, 1.0000004768371582031, 1.0000004768371582031, 1.0000004768371582031, 1.0000004768371582031, 1.0000004768371582031, 1.0000004768371582031, 1.0000004768371582031, 1.0000004768371582031, 1.0000004768371582031, 1.0000004768371582031};
static const double tensor_dense_1_kernel_0[32][32] = 
{
  {0.070949763059616088867, -0.29062259197235107422, 0.030499339103698730469, 0.22084593772888183594, -0.22326107323169708252, -0.23650734126567840576, 0.047063805162906646729, -0.10488419979810714722, -0.24442708492279052734, -0.049385409802198410034, -0.11013843864202499390, -0.18921479582786560059, -0.028799122199416160583, 0.0059142112731933593750, -0.14919066429138183594, 0.27091154456138610840, 0.047461267560720443726, 0.14821211993694305420, 0.25162631273269653320, -0.53324407339096069336, -0.24236698448657989502, -0.073817968368530273438, -0.10290224850177764893, -0.079378165304660797119, 0.11762826889753341675, 0.034273214638233184814, 0.28872394561767578125, -0.061574928462505340576, 0.035753931850194931030, 0.037007864564657211304, -0.16663046181201934814, -0.027141351252794265747},
  {0.20034484565258026123, -0.056262195110321044922, 0.26930084824562072754, -0.14645877480506896973, 0.10420650243759155273, -0.18877841532230377197, 0.046188019216060638428, 0.33530735969543457031, -0.16400074958801269531, 0.11394989490509033203, -0.16912457346916198730, 0.18442741036415100098, -0.36515897512435913086, -0.0019864770583808422089, 0.10887571424245834351, 0.050642274320125579834, -0.15820373594760894775, 0.13651092350482940674, 0.25494226813316345215, 0.18391068279743194580, -0.30177748203277587891, -0.092204190790653228760, -0.0059771551750600337982, -0.15799291431903839111, -0.048409182578325271606, -0.40426906943321228027, -0.21104541420936584473, -0.17827384173870086670, 0.023139990866184234619, 0.26950621604919433594, 0.065337151288986206055, -0.058527089655399322510},
  {0.25669959187507629395, -0.26591822504997253418, -0.21998305618762969971, -0.094698987901210784912, 0.26721736788749694824, -0.13187859952449798584, -0.12226366996765136719, -0.070347666740417480469, 0.018824808299541473389, 0.20847547054290771484, 0.29589074850082397461, -0.15051639080047607422, -0.33590611815452575684, 0.21602037549018859863, 0.28558865189552307129, 0.14705634117126464844, -0.16629867255687713623, 0.22903414070606231689, -0.086943753063678741455, -0.033153366297483444214, -0.041689231991767883301, -0.036751996725797653198, -0.27805924415588378906, -0.19325678050518035889, -0.15577310323715209961, -0.14535683393478393555, -0.017678851261734962463, 0.27897447347640991211, 0.071711987257003784180, -0.10107961297035217285, 0.026136487722396850586, -0.25503984093666076660},
  {-0.27565622329711914062, -0.18871614336967468262, -0.042069658637046813965, -0.19343820214271545410, 0.22169901430606842041, 0.36854112148284912109, -0.39319735765457153320, 0.0023086713626980781555, 0.13220845162868499756, 0.24035210907459259033, -0.065293475985527038574, -0.41247618198394775391, -0.41594752669334411621, -0.41034680604934692383, 0.24313971400260925293, 0.33388921618461608887, -0.048660621047019958496, 0.0056269075721502304077, -0.39626458287239074707, -0.21988970041275024414, -0.10127488523721694946, 0.31634798645973205566, 0.28646105527877807617, -0.076160266995429992676, 0.18548740446567535400, -0.26818835735321044922, 0.037532735615968704224, 0.17818151414394378662, 0.15174885094165802002, -0.077732920646667480469, 0.17890971899032592773, -0.015391198918223381042},
  {-0.15426400303840637207, -0.23312193155288696289, -0.31677266955375671387, 0.071493938565254211426, -0.10420154780149459839, -0.086642473936080932617, -0.045413810759782791138, 0.14677508175373077393, -0.34708148241043090820, 0.15922842919826507568, 0.40872779488563537598, -0.061222285032272338867, -0.23912867903709411621, 0.25711959600448608398, -0.28753814101219177246, 0.42503052949905395508, -0.18488761782646179199, -0.23831301927566528320, -0.037108372896909713745, -0.14544498920440673828, -0.14816303551197052002, 0.18056228756904602051, 0.32622095942497253418, 0.018806021660566329956, 0.10764856636524200439, -0.31170025467872619629, 0.0094884466379880905151, 0.042671550065279006958, -0.22613628208637237549, -0.12460583448410034180, -0.13652120530605316162, 0.14335820078849792480},
  {0.23540318012237548828, 0.11451594531536102295, 0.038789246231317520142, 0.36439174413681030273, -0.14708578586578369141, -0.012663746252655982971, -0.060993071645498275757, 0.40043300390243530273, -0.055852111428976058960, -0.087080113589763641357, -0.37411940097808837891, -0.092945411801338195801, 0.45796495676040649414, 0.025818131864070892334, -0.16022725403308868408, -0.40084576606750488281, -0.26212024688720703125, -0.062640488147735595703, 0.14604048430919647217, 0.16864366829395294189, -0.083259820938110351562, -0.11989331245422363281, -0.20563532412052154541, -0.23290778696537017822, -0.11130759865045547485, 0.050003975629806518555, 0.16226968169212341309, -0.024664640426635742188, 0.065234564244747161865, 0.045413304120302200317, 0.31500098109245300293, -0.049119036644697189331},
  {-0.27849125862121582031, -0.027492506429553031921, -0.21007755398750305176, -0.13484901189804077148, -0.24231804907321929932, 0.19344109296798706055, 0.27997994422912597656, -0.34971961379051208496, 0.36546650528907775879, -0.16974449157714843750, -0.24204015731811523438, 0.18467059731483459473, -0.10472843050956726074, -0.021853586658835411072, 0.19373486936092376709, -0.18081061542034149170, 0.43071228265762329102, 0.065336756408214569092, 0.072235688567161560059, 0.21707689762115478516, 0.19630786776542663574, -0.048381689935922622681, -0.25810092687606811523, 0.11578320711851119995, 0.21191793680191040039, 0.22916114330291748047, 0.42244246602058410645, 0.23500144481658935547, -0.17312346398830413818, -0.27776062488555908203, -0.15311351418495178223, 0.081251844763755798340},
  {-0.20737977325916290283, 0.29560866951942443848, -0.11973027139902114868, 0.18279498815536499023, -0.14984938502311706543, -0.19590118527412414551, 0.18036559224128723145, 0.098680600523948669434, 0.0056423540227115154266, -0.083118341863155364990, 0.0066479668021202087402, 0.26010623574256896973, 0.46258866786956787109, 0.15496894717216491699, 0.031921885907649993896, 0.17137898504734039307, 0.21462424099445343018, -0.27969157695770263672, 0.12757059931755065918, 0.41893801093101501465, -0.17227120697498321533, 0.15901716053485870361, 0.10755885392427444458, 0.13784679770469665527, -0.019633514806628227234, 0.078118607401847839355, -0.35848724842071533203, 0.097791455686092376709, 0.14895699918270111084, 0.011586725711822509766, 0.16910162568092346191, -0.10039264708757400513},
  {0.022475946694612503052, 0.36410430073738098145, -0.15698203444480895996, 0.14650511741638183594, 0.29386568069458007812, 0.19062265753746032715, 0.47872981429100036621, -0.13945569097995758057, -0.018589125946164131165, -0.017694097012281417847, 0.0079689482226967811584, -0.16746720671653747559, 0.058592122048139572144, -0.26405060291290283203, -0.18663679063320159912, 0.024420822039246559143, 0.17526987195014953613, -0.028878249228000640869, 0.079831130802631378174, 0.24292173981666564941, -0.027036866173148155212, 0.11155154556035995483, 0.020782195031642913818, -0.042121678590774536133, -0.12796294689178466797, -0.31447023153305053711, -0.27650558948516845703, -0.0063879527151584625244, 0.24903027713298797607, 0.23965466022491455078, -0.043964736163616180420, -0.011613183654844760895},
  {0.070031166076660156250, -0.22096908092498779297, 0.069531306624412536621, 0.051178794354200363159, -0.23895607888698577881, -0.038039959967136383057, 0.21112488210201263428, 0.15603689849376678467, -0.084535486996173858643, 0.015434972941875457764, -0.16194243729114532471, -0.28041878342628479004, -0.012974279001355171204, 0.26008516550064086914, -0.13169993460178375244, 0.053098626434803009033, -0.17498502135276794434, -0.11144747585058212280, -0.27054584026336669922, -0.18810042738914489746, -0.10712587833404541016, -0.24757587909698486328, 0.045662835240364074707, -0.17619749903678894043, 0.073570810258388519287, 0.038728076964616775513, -0.38796973228454589844, -0.25443559885025024414, -0.13799381256103515625, -0.0056763137690722942352, 0.074147038161754608154, 0.055705543607473373413},
  {0.33090546727180480957, -0.10945797711610794067, -0.30188775062561035156, 0.22783620655536651611, 0.28747040033340454102, -0.20352032780647277832, -0.10836959630250930786, 0.52568018436431884766, -0.31553360819816589355, 0.16714085638523101807, -0.12104835361242294312, 0.23681758344173431396, 0.13475367426872253418, -0.15835162997245788574, -0.060185626149177551270, 0.20984011888504028320, -0.16132566332817077637, 0.24164746701717376709, 0.16093812882900238037, -0.18699176609516143799, 0.067373558878898620605, -0.46529898047447204590, 0.019536975771188735962, -0.24800124764442443848, -0.014660674147307872772, -0.46999388933181762695, 0.10075760632753372192, 0.31599363684654235840, -0.19844706356525421143, 0.075494378805160522461, -0.12550438940525054932, 0.27901732921600341797},
  {-0.15331378579139709473, -0.077695943415164947510, 0.30534398555755615234, -0.15757369995117187500, 0.25142470002174377441, -0.092095911502838134766, 0.25794324278831481934, 0.21788369119167327881, 0.14603179693222045898, -0.18436525762081146240, 0.23361730575561523438, 0.068990103900432586670, 0.021325750276446342468, -0.028067110106348991394, -0.11105398088693618774, -0.16674691438674926758, -0.15119470655918121338, -0.023116676136851310730, -0.17719374597072601318, 0.0099031170830130577087, 0.097409076988697052002, 0.062108956277370452881, 0.17205157876014709473, 0.14446057379245758057, 0.10033728927373886108, -0.27996695041656494141, 0.22543953359127044678, 0.23222874104976654053, -0.32290992140769958496, -0.050529196858406066895, 0.21604345738887786865, -0.39465835690498352051},
  {0.21615043282508850098, 0.33043411374092102051, -0.060356330126523971558, -0.36838734149932861328, -0.17730571329593658447, -0.38063794374465942383, -0.29989385604858398438, -0.030198778957128524780, 0.24761106073856353760, -0.42055961489677429199, -0.25163412094116210938, -0.38713151216506958008, 0.27675491571426391602, 0.0061686960980296134949, -0.19745533168315887451, 0.32238444685935974121, 0.040957573801279067993, -0.35549908876419067383, -0.19386050105094909668, 0.34526264667510986328, -0.061962723731994628906, 0.10406213998794555664, -0.22308672964572906494, 0.031621053814888000488, -0.46372845768928527832, 0.055020716041326522827, 0.31361326575279235840, -0.34679695963859558105, 0.26855754852294921875, -0.12962388992309570312, 0.033865410834550857544, 0.35103943943977355957},
  {-0.10241016745567321777, -0.0091923065483570098877, -0.19820977747440338135, -0.41285735368728637695, -0.24930092692375183105, -0.31093835830688476562, -0.29507422447204589844, -0.32789838314056396484, 0.11434219777584075928, -0.067118458449840545654, 0.49100598692893981934, -0.49380928277969360352, -0.099816493690013885498, -0.15476420521736145020, 0.0070296018384397029877, 0.53448468446731567383, -0.10164515674114227295, -0.37779206037521362305, -0.50656342506408691406, 0.20985460281372070312, -0.28368750214576721191, 0.16488708555698394775, -0.24705381691455841064, 0.093093849718570709229, -0.11797080188989639282, -0.050536498427391052246, -0.047129783779382705688, -0.17513802647590637207, 0.025564407929778099060, -0.0032561542466282844543, 0.16319060325622558594, -0.10085362195968627930},
  {-0.26047179102897644043, -0.18894571065902709961, -0.13454140722751617432, -0.25279551744461059570, -0.34855726361274719238, -0.34949785470962524414, -0.28262528777122497559, -0.22602029144763946533, 0.053299881517887115479, -0.20011176168918609619, -0.25089028477668762207, 0.11932160705327987671, -0.12883934378623962402, -0.17346988618373870850, 0.10613477975130081177, 0.20523737370967864990, 0.27837866544723510742, -0.069107517600059509277, 0.17101889848709106445, 0.18162156641483306885, -0.24370852112770080566, 0.12908501923084259033, -0.15688695013523101807, 0.058798059821128845215, -0.21167722344398498535, 0.19752131402492523193, 0.019008623436093330383, -0.11400213092565536499, -0.21043549478054046631, 0.20633268356323242188, -0.14587119221687316895, -0.21822950243949890137},
  {0.10203117132186889648, -0.15417425334453582764, -0.15762561559677124023, -0.30771118402481079102, 0.084820888936519622803, -0.16301459074020385742, -0.16740565001964569092, -0.12107258290052413940, 0.32011196017265319824, -0.084749191999435424805, 0.030720865353941917419, -0.41296079754829406738, -0.072114557027816772461, 0.14593982696533203125, 0.39355123043060302734, 0.21990837156772613525, 0.030276436358690261841, -0.094464167952537536621, -0.25676587224006652832, 0.14366286993026733398, -0.16476541757583618164, 0.25097948312759399414, -0.25722491741180419922, 0.27596589922904968262, 0.074947841465473175049, 0.12720420956611633301, 0.11581432819366455078, -0.10938953608274459839, -0.060740150511264801025, 0.17209620773792266846, -0.39705440402030944824, 0.35114496946334838867},
  {0.18185818195343017578, -0.072578601539134979248, 0.22493368387222290039, 0.023172026500105857849, 0.27408364415168762207, 0.021064165979623794556, -0.19786968827247619629, 0.16947908699512481689, 0.31283876299858093262, 0.17526850104331970215, 0.41223692893981933594, -0.12065654247999191284, -0.096098594367504119873, 0.033343318849802017212, -0.16959959268569946289, 0.20342046022415161133, 0.16681717336177825928, 0.32779857516288757324, -0.11350943148136138916, -0.28541782498359680176, 0.24568495154380798340, -0.21028256416320800781, 0.12087240070104598999, -0.066639274358749389648, -0.28363987803459167480, 0.077664092183113098145, -0.097349792718887329102, -0.0016441172920167446136, -0.081841073930263519287, 0.19739508628845214844, -0.0079574864357709884644, -0.24472591280937194824},
  {-0.19588112831115722656, 0.062083289027214050293, -0.011969540268182754517, 0.10018303990364074707, 0.084115251898765563965, -0.028568590059876441956, -0.24834038317203521729, -0.10891004651784896851, -0.079146124422550201416, -0.29220226407051086426, -0.0040927110239863395691, 0.088900081813335418701, 0.22163106501102447510, 0.15612436830997467041, 0.12233616411685943604, 0.043124061077833175659, 0.096380919218063354492, 0.38039761781692504883, -0.24884182214736938477, 0.059675473719835281372, 0.030927529558539390564, 0.10031136870384216309, -0.25646284222602844238, -0.070492781698703765869, 0.23103737831115722656, 0.026850184425711631775, -0.078896775841712951660, 0.023952994495630264282, -0.24266058206558227539, 0.26162168383598327637, 0.036497917026281356812, 0.092159882187843322754},
  {0.022849956527352333069, -0.28572881221771240234, -0.11060280352830886841, -0.11303612589836120605, -0.29580855369567871094, 0.19523163139820098877, 0.10345039516687393188, -0.27607095241546630859, -0.021730827167630195618, 0.087494388222694396973, 0.24210663139820098877, -0.087063103914260864258, -0.25323551893234252930, 0.12802177667617797852, -0.079359896481037139893, 0.18222168087959289551, 0.10313207656145095825, -0.28311830759048461914, -0.012806833721697330475, -0.23146292567253112793, 0.022527817636728286743, 0.42397168278694152832, -0.025128278881311416626, 0.18979309499263763428, 0.15421302616596221924, 0.35136404633522033691, 0.017923930659890174866, -0.0014717491576448082924, 0.059173040091991424561, -0.032531607896089553833, 0.25138103961944580078, 0.16135692596435546875},
  {0.16100583970546722412, 0.045668937265872955322, -0.017663124948740005493, 0.033208526670932769775, -0.096967354416847229004, -0.060938581824302673340, -0.24113611876964569092, 0.18330296874046325684, -0.17062234878540039062, -0.039018407464027404785, 0.099635303020477294922, -0.10149376839399337769, -0.12290284037590026855, 0.16476923227310180664, -0.31160745024681091309, 0.12660041451454162598, -0.51276546716690063477, 0.53054517507553100586, -0.20984713733196258545, 0.18088507652282714844, 0.087029106914997100830, 0.11636042594909667969, 0.032781314104795455933, -0.31843340396881103516, -0.031209126114845275879, -0.22988408803939819336, -0.046017765998840332031, 0.29065805673599243164, 0.043264325708150863647, 0.046665713191032409668, 0.37946525216102600098, 0.020508127287030220032},
  {0.15637685358524322510, 0.16517809033393859863, -0.076018534600734710693, -0.47037729620933532715, -0.012532526627182960510, 0.068511985242366790771, -0.38996964693069458008, -0.037079993635416030884, 0.025476438924670219421, 0.0073621557094156742096, 0.21395175158977508545, -0.41458952426910400391, -0.089037045836448669434, 0.095719456672668457031, -0.025702299550175666809, 0.30875590443611145020, -0.18101811408996582031, 0.16595099866390228271, -0.46246802806854248047, 0.17987646162509918213, 0.21889030933380126953, 0.47298774123191833496, -0.24337418377399444580, -0.0093610910698771476746, 0.14788477122783660889, 0.14753061532974243164, 0.20796340703964233398, 0.056498099118471145630, 0.34042480587959289551, -0.043472699820995330811, -0.14009082317352294922, 0.27161869406700134277},
  {0.35628691315650939941, 0.20848762989044189453, -0.33148238062858581543, -0.078144520521163940430, -0.075849197804927825928, -0.0018740157829597592354, 0.18909966945648193359, 0.10169489681720733643, 0.23043228685855865479, 0.035699680447578430176, 0.12392768263816833496, 0.10490146279335021973, 0.019378973171114921570, 0.097988113760948181152, -0.022328050807118415833, -0.27081146836280822754, 0.23269172012805938721, -0.087834425270557403564, 0.044123169034719467163, -0.19447366893291473389, -0.11636678129434585571, -0.090317212045192718506, -0.032219987362623214722, -0.26430290937423706055, 0.12277746945619583130, -0.24595579504966735840, 0.11468854546546936035, 0.22794140875339508057, 0.19102229177951812744, 0.085919372737407684326, 0.24648830294609069824, 0.057681281119585037231},
  {-0.11600281298160552979, 0.33964285254478454590, -0.097767978906631469727, -0.016704929992556571960, 0.26525029540061950684, 0.29351994395256042480, 0.039673846215009689331, 0.41427886486053466797, 0.055172771215438842773, -0.26501682400703430176, -0.054874531924724578857, 0.068591341376304626465, 0.049176223576068878174, -0.33779844641685485840, -0.18500696122646331787, -0.15570375323295593262, -0.089171312749385833740, 0.26892006397247314453, -0.071384675800800323486, 0.36487501859664916992, -0.20367430150508880615, -0.30382430553436279297, 0.011610379442572593689, -0.16898217797279357910, 0.33887422084808349609, -0.23618185520172119141, -0.25379651784896850586, 0.091337516903877258301, 0.36523205041885375977, -0.25738495588302612305, -0.17489738762378692627, -0.097647108137607574463},
  {0.17138560116291046143, -0.047127544879913330078, 0.14495615661144256592, -0.14931686222553253174, -0.069868132472038269043, -0.21450327336788177490, -0.039484053850173950195, 0.10951910912990570068, -0.055933464318513870239, 0.075526423752307891846, 0.017778355628252029419, -0.22108197212219238281, 0.093281775712966918945, -0.26826471090316772461, -0.15878976881504058838, 0.16339483857154846191, -0.38497653603553771973, 0.18942067027091979980, 0.23578126728534698486, 0.28867560625076293945, 0.18238036334514617920, 0.11485756933689117432, 0.089857801795005798340, -0.35682079195976257324, -0.14826202392578125000, -0.26065683364868164062, 0.022070474922657012939, -0.061824906617403030396, -0.17043946683406829834, 0.017767881974577903748, -0.10045526176691055298, 0.22419466078281402588},
  {0.14195637404918670654, -0.095789544284343719482, 0.33509314060211181641, -0.083058618009090423584, 0.24578604102134704590, 0.086359724402427673340, -0.21578417718410491943, 0.10855687409639358521, 0.26286253333091735840, 0.10385679453611373901, 0.0077783768065273761749, -0.10872767865657806396, 0.0023330906406044960022, -0.14007286727428436279, 0.30359411239624023438, 0.16391462087631225586, 0.25927677750587463379, -0.41717746853828430176, 0.36859291791915893555, 0.082530647516250610352, 0.28532642126083374023, -0.45564237236976623535, -0.21802729368209838867, -0.057414684444665908813, -0.15446960926055908203, 0.23609036207199096680, -0.0038302126340568065643, 0.21247123181819915771, 0.12079653888940811157, 0.21829181909561157227, 0.023162553086876869202, 0.13100522756576538086},
  {0.16976253688335418701, 0.33575811982154846191, -0.37991258502006530762, 0.077913299202919006348, 0.53621506690979003906, 0.17050760984420776367, 0.20713031291961669922, 0.47362735867500305176, -0.36090478301048278809, -0.35465267300605773926, -0.033301949501037597656, 0.060686837881803512573, 0.24628576636314392090, 0.11909665167331695557, -0.38884919881820678711, -0.29683449864387512207, -0.50358670949935913086, 0.57968366146087646484, 0.39389589428901672363, -0.12664321064949035645, 0.35112318396568298340, -0.067592307925224304199, -0.15373125672340393066, -0.31495037674903869629, -0.060376707464456558228, -0.11012640595436096191, 0.067661128938198089600, 0.025315944105386734009, 0.41011369228363037109, -0.32072985172271728516, 0.27477589249610900879, 0.049051105976104736328},
  {-0.50456154346466064453, -0.32741671800613403320, -0.081108868122100830078, 0.23277096450328826904, -0.15333873033523559570, 0.058916874229907989502, 0.11125811934471130371, -0.20757798850536346436, 0.41695925593376159668, 0.34643983840942382812, 0.27040764689445495605, -0.14132998883724212646, -0.16417913138866424561, -0.026127509772777557373, 0.38223129510879516602, 0.12733629345893859863, -0.032867938280105590820, -0.49465137720108032227, 0.13472121953964233398, -0.21108683943748474121, -0.013051871210336685181, -0.29351621866226196289, -0.014572395011782646179, -0.12606143951416015625, 0.21285210549831390381, 0.29414588212966918945, 0.038298085331916809082, -0.15351936221122741699, 0.29335689544677734375, 0.29154482483863830566, -0.34862339496612548828, 0.025479095056653022766},
  {0.48814025521278381348, 0.47757208347320556641, -0.20988032221794128418, 0.0086280554533004760742, 0.26460090279579162598, 0.13905361294746398926, 0.18066629767417907715, 0.20832203328609466553, 0.014706332236528396606, -0.34110677242279052734, -0.33356642723083496094, -0.30442288517951965332, 0.37153923511505126953, -0.40467381477355957031, 0.076985284686088562012, 0.043925829231739044189, -0.030568445101380348206, -0.17774887382984161377, -0.028343673795461654663, 0.38212427496910095215, 0.0030550891533493995667, 0.086466036736965179443, 0.27121496200561523438, -0.20107018947601318359, 0.17737558484077453613, -0.11872238665819168091, 0.19401311874389648438, 0.24340935051441192627, 0.43935579061508178711, -0.18373017013072967529, -0.0076274643652141094208, 0.26784577965736389160},
  {-0.10680773854255676270, 0.093931756913661956787, -0.075424946844577789307, 0.048021670430898666382, -0.27446126937866210938, -0.15746834874153137207, -0.34045177698135375977, -0.36474224925041198730, -0.14535900950431823730, 0.049213565886020660400, -0.054664105176925659180, -0.15467169880867004395, -0.59847527742385864258, 0.036203950643539428711, 0.074137464165687561035, 0.074292875826358795166, 0.16704402863979339600, -0.099292390048503875732, -0.0063036284409463405609, -0.030293406918644905090, -0.085729554295539855957, 0.19676038622856140137, -0.065094180405139923096, -0.066261194646358489990, 0.16635848581790924072, 0.27280652523040771484, 0.034044925123453140259, 0.091827258467674255371, 0.0021915950346738100052, 0.24905817210674285889, -0.21723413467407226562, -0.17951525747776031494},
  {-0.35636192560195922852, -0.023553691804409027100, 0.46965941786766052246, -0.014513387344777584076, -0.39555773138999938965, -0.38538026809692382812, -0.16960489749908447266, 0.10758130997419357300, 0.43415033817291259766, 0.32971867918968200684, 0.20311585068702697754, 0.26611566543579101562, 0.24502880871295928955, 0.40930226445198059082, -0.010111818090081214905, -0.42276707291603088379, -0.074119776487350463867, 0.058163665235042572021, 0.0082369605079293251038, 0.25706166028976440430, -0.093318045139312744141, -0.15048907697200775146, 0.10201536864042282104, 0.29841637611389160156, -0.36858791112899780273, 0.093946099281311035156, -0.00068148935679346323013, -0.28234851360321044922, -0.32766550779342651367, 0.21023468673229217529, -0.33769306540489196777, -0.32709702849388122559},
  {0.18434964120388031006, -0.095644734799861907959, -0.10309778898954391479, -0.15516577661037445068, 0.26950877904891967773, -0.090242244303226470947, 0.089987881481647491455, 0.18314617872238159180, 0.16070485115051269531, 0.21134106814861297607, 0.067301966249942779541, 0.034353107213973999023, 0.12384580820798873901, -0.10691245645284652710, 0.074483849108219146729, 0.12212711572647094727, -0.12855370342731475830, -0.13527147471904754639, 0.064170032739639282227, 0.092954739928245544434, 0.013996785506606101990, -0.16691961884498596191, -0.036421373486518859863, -0.22447393834590911865, -0.21822538971900939941, -0.15500089526176452637, -0.033253110945224761963, -0.23597086966037750244, 0.052931673824787139893, 0.29112157225608825684, -0.17579412460327148438, -0.10655832290649414062},
  {-0.16849686205387115479, 0.26356881856918334961, -0.11904511600732803345, 0.30510666966438293457, 0.17598335444927215576, -0.26529887318611145020, -0.087499335408210754395, 0.087799489498138427734, -0.29902398586273193359, -0.13675056397914886475, -0.041656114161014556885, 0.19630430638790130615, 0.22383415699005126953, -0.093300931155681610107, 0.044937271624803543091, -0.093159101903438568115, 0.12556309998035430908, 0.27123308181762695312, -0.17656964063644409180, -0.13107094168663024902, -0.22475953400135040283, -0.18053308129310607910, -0.058738492429256439209, -0.26338970661163330078, 0.046660091727972030640, -0.21427446603775024414, 0.35315522551536560059, -0.23939159512519836426, 0.047502107918262481689, -0.16158118844032287598, 0.090613104403018951416, 0.19310522079467773438}
};
static const double tensor_dense_1_bias_0[32] = 
{0.16582921147346496582, -0.097840003669261932373, -0.023708272725343704224, -0.090379059314727783203, 0.28123018145561218262, -0.15793673694133758545, -0.070868216454982757568, 0.23099678754806518555, -0.19674959778785705566, 0.13206554949283599854, 0.15323814749717712402, 0.018364403396844863892, -0.022311167791485786438, 0.041682697832584381104, -0.22565774619579315186, -0.12448088079690933228, -0.050308726727962493896, 0.41178527474403381348, -0.24334998428821563721, -0.036650743335485458374, 0.027397658675909042358, 0.12342583388090133667, 0.43544107675552368164, -0.18008551001548767090, -0.092125087976455688477, -0.064765870571136474609, -0.10674415528774261475, 0.12791289389133453369, 0.094532310962677001953, 0.13332794606685638428, 0.22834004461765289307, -0.059645093977451324463};
static const double tensor_scale1[32] = 
{10.777520179748535156, 15.009951591491699219, 5.8211345672607421875, 20.332696914672851562, 15.125522613525390625, 5.1751351356506347656, 14.919242858886718750, 7.2289109230041503906, 10.008629798889160156, 15.364499092102050781, 7.5901532173156738281, 7.2207803726196289062, 17.892839431762695312, 9.2302103042602539062, 5.0804429054260253906, 15.461336135864257812, 8.6585788726806640625, 5.5786318778991699219, 7.8292698860168457031, 5.8685703277587890625, 14.146265029907226562, 8.2556867599487304688, 12.238569259643554688, 8.1564102172851562500, 6.7493295669555664062, 14.196877479553222656, 12.856355667114257812, 6.9624423980712890625, 4.3093338012695312500, 6.9875979423522949219, 10.632060050964355469, 14.597021102905273438};
static const double tensor_bias1[32] = 
{-7.8155026435852050781, 12.780662536621093750, -1.6960946321487426758, 13.972783088684082031, 7.4779353141784667969, -1.6590179204940795898, -13.717497825622558594, -4.4853191375732421875, 7.4982171058654785156, 13.879142761230468750, -3.1793532371520996094, 1.3608142137527465820, -16.040214538574218750, -2.2110347747802734375, -3.5694563388824462891, 13.071406364440917969, 6.2795691490173339844, 3.2588436603546142578, 4.3631048202514648438, -1.0540658235549926758, 9.7082490921020507812, -1.3821085691452026367, -9.5028600692749023438, 3.8496782779693603516, -1.6659533977508544922, -11.679094314575195312, 9.5598993301391601562, -4.4209265708923339844, -1.7049881219863891602, -2.1370460987091064453, 9.2841196060180664062, -11.119612693786621094};
static const double tensor_mean1[32] = 
{0.0000000000000000000, -0.0000000000000000000, 0.0000000000000000000, -0.0000000000000000000, -0.0000000000000000000, 0.0000000000000000000, 0.0000000000000000000, 0.0000000000000000000, -0.0000000000000000000, -0.0000000000000000000, 0.0000000000000000000, -0.0000000000000000000, 0.0000000000000000000, 0.0000000000000000000, 0.0000000000000000000, -0.0000000000000000000, -0.0000000000000000000, -0.0000000000000000000, -0.0000000000000000000, 0.0000000000000000000, -0.0000000000000000000, 0.0000000000000000000, 0.0000000000000000000, -0.0000000000000000000, 0.0000000000000000000, 0.0000000000000000000, -0.0000000000000000000, 0.0000000000000000000, 0.0000000000000000000, 0.0000000000000000000, -0.0000000000000000000, 0.0000000000000000000};
static const double tensor_var1[32] = 
{1.0000004768371582031, 1.0000004768371582031, 1.0000004768371582031, 1.0000004768371582031, 1.0000004768371582031, 1.0000004768371582031, 1.0000004768371582031, 1.0000004768371582031, 1.0000004768371582031, 1.0000004768371582031, 1.0000004768371582031, 1.0000004768371582031, 1.0000004768371582031, 1.0000004768371582031, 1.0000004768371582031, 1.0000004768371582031, 1.0000004768371582031, 1.0000004768371582031, 1.0000004768371582031, 1.0000004768371582031, 1.0000004768371582031, 1.0000004768371582031, 1.0000004768371582031, 1.0000004768371582031, 1.0000004768371582031, 1.0000004768371582031, 1.0000004768371582031, 1.0000004768371582031, 1.0000004768371582031, 1.0000004768371582031, 1.0000004768371582031, 1.0000004768371582031};
static const double tensor_dense_kernel_0[94][32] = 
{
  {-0.068908758461475372314, 0.0047005210071802139282, -0.14520098268985748291, -0.020850440487265586853, 0.18703672289848327637, -0.24242177605628967285, -0.11387441307306289673, 0.13029298186302185059, -0.15114024281501770020, 0.12274587899446487427, 0.012730322778224945068, -0.12478341162204742432, 0.18238607048988342285, -0.13664266467094421387, 0.15755942463874816895, 0.093232385814189910889, -0.064153403043746948242, -0.10211096704006195068, 0.10025194287300109863, 0.096265822649002075195, -0.096265368163585662842, -0.13246756792068481445, 0.12602569162845611572, -0.18684619665145874023, 0.026661872863769531250, -0.021570960059762001038, -0.070983529090881347656, 0.11342891305685043335, 0.12746937572956085205, 0.012004067189991474152, -0.026082288473844528198, -0.096750512719154357910},
  {0.15165832638740539551, 0.084525540471076965332, 0.22522838413715362549, 0.14532178640365600586, 0.16877213120460510254, -0.061133276671171188354, -0.27621564269065856934, -0.17412306368350982666, 0.12562701106071472168, 0.14942376315593719482, -0.10640320181846618652, -0.16803437471389770508, 0.012254745699465274811, 0.058454044163227081299, -0.071907132863998413086, -0.16561128199100494385, 0.092843182384967803955, 0.11139070242643356323, -0.028374396264553070068, -0.081049963831901550293, 0.069984987378120422363, 0.17507147789001464844, -0.051859907805919647217, -0.086484402418136596680, -0.040213778614997863770, 0.046972982585430145264, -0.15683443844318389893, -0.23879641294479370117, 0.014348065480589866638, -0.15101630985736846924, 0.018613234162330627441, 0.12925371527671813965},
  {-0.047423195093870162964, 0.096486777067184448242, -0.16630433499813079834, 0.12093937397003173828, 0.066796503961086273193, 0.043065890669822692871, 0.024787608534097671509, -0.066551476716995239258, -0.072306782007217407227, 0.22285759449005126953, -0.071515925228595733643, 0.16039431095123291016, 0.010855655185878276825, 0.14013071358203887939, -0.12318241596221923828, -0.052416346967220306396, 0.32763603329658508301, 0.14087410271167755127, 0.17129090428352355957, 0.076992623507976531982, -0.011486792005598545074, 0.044087022542953491211, 0.075743183493614196777, 0.15328033268451690674, -0.081569097936153411865, 0.098479740321636199951, 0.19860816001892089844, -0.015910917893052101135, -0.035917907953262329102, 0.17467468976974487305, 0.22617144882678985596, -0.14372633397579193115},
  {0.011023355647921562195, 0.19050036370754241943, 0.13961885869503021240, -0.17562370002269744873, 0.062088482081890106201, -0.11556317657232284546, -0.20459070801734924316, -0.11263097822666168213, 0.20890405774116516113, 0.039853949099779129028, 0.042049802839756011963, -0.19801612198352813721, 0.15989482402801513672, -0.15587580204010009766, 0.10891643166542053223, 0.10001299530267715454, 0.082067832350730895996, 0.011785777285695075989, -0.11054189503192901611, 0.078004211187362670898, -0.13949887454509735107, 0.077120773494243621826, -0.14843897521495819092, -0.12368248403072357178, 0.022607611492276191711, 0.0033127693459391593933, -0.12704803049564361572, 0.061095047742128372192, 0.014564198441803455353, 0.12849570810794830322, 0.085308134555816650391, -0.0023896249476820230484},
  {-0.049015183001756668091, 0.17390176653861999512, 0.15644960105419158936, 0.17268593609333038330, -0.22312390804290771484, -0.21741901338100433350, 0.057263128459453582764, -0.097808443009853363037, 0.0090711526572704315186, -0.013095698319375514984, 0.027653876692056655884, -0.13039435446262359619, -0.096837840974330902100, -0.060775958001613616943, -0.23075671494007110596, -0.093932308256626129150, 0.20908769965171813965, -0.20423667132854461670, 0.078263007104396820068, 0.070138491690158843994, -0.057041853666305541992, 0.18115033209323883057, -0.24316178262233734131, 0.20794755220413208008, -0.23470845818519592285, -0.070049419999122619629, -0.12910293042659759521, -0.091258294880390167236, 0.20723380148410797119, 0.14761561155319213867, 0.18800000846385955811, 0.081140972673892974854},
  {0.019740166142582893372, -0.12086164951324462891, 0.091560386121273040771, 0.072623431682586669922, 0.040383495390415191650, -0.048127431422472000122, -0.052486717700958251953, -0.024577302858233451843, -0.16584731638431549072, 0.081657327711582183838, -0.098772972822189331055, -0.046993732452392578125, -0.043658729642629623413, -0.069981649518013000488, 0.11695148050785064697, 0.050503022968769073486, 0.15080894529819488525, -0.10995610058307647705, 0.11990822851657867432, 0.066953659057617187500, 0.036673873662948608398, 0.0050780251622200012207, 0.097925230860710144043, 0.091864280402660369873, 0.037378109991550445557, 0.10418279469013214111, -0.038872472941875457764, -0.11372038722038269043, 0.22328004240989685059, 0.076381742954254150391, -0.014742918312549591064, -0.19697572290897369385},
  {-0.052179537713527679443, 0.19450378417968750000, -0.098882600665092468262, -0.0093083009123802185059, 0.030371217057108879089, 0.20649376511573791504, -0.068168237805366516113, -0.014988899230957031250, 0.11707765609025955200, -0.075360476970672607422, 0.051499694585800170898, 0.091441698372364044189, -0.14076887071132659912, 0.12361364811658859253, 0.054057989269495010376, -0.049730051308870315552, 0.0040741628035902976990, 0.19116386771202087402, 0.11976687610149383545, 0.16385635733604431152, -0.098923698067665100098, 0.10192419588565826416, -0.076854318380355834961, 0.16719517111778259277, -0.12276504188776016235, -0.13588592410087585449, 0.16153089702129364014, 0.12598717212677001953, 0.023207435384392738342, -0.054502923041582107544, -0.15150165557861328125, 0.085111923515796661377},
  {0.21605864167213439941, 0.086502566933631896973, -0.042818237096071243286, -0.099826000630855560303, 0.18030779063701629639, 0.17818237841129302979, 0.044789280742406845093, -0.17348532378673553467, -0.085393123328685760498, 0.30260109901428222656, 0.18601140379905700684, 0.046087834984064102173, -0.052439875900745391846, -0.014612389728426933289, -0.0016555967740714550018, 0.11218656599521636963, 0.068494431674480438232, 0.0011642270255833864212, 0.14732271432876586914, 0.029063133522868156433, 0.029702942818403244019, -0.17540121078491210938, -0.020436920225620269775, -0.044625908136367797852, 0.14936414361000061035, 0.039687689393758773804, -0.026808233931660652161, -0.20633979141712188721, -0.0025355862453579902649, 0.12456779181957244873, -0.24715711176395416260, -0.27066463232040405273},
  {-0.086285188794136047363, -0.12824256718158721924, -0.16091160476207733154, 0.0095972837880253791809, 0.060485243797302246094, -0.028937185183167457581, -0.049730911850929260254, 0.079626485705375671387, 0.037522528320550918579, 0.040812600404024124146, -0.047811780124902725220, -0.15351745486259460449, -0.10811807960271835327, -0.092977128922939300537, -0.12531805038452148438, -0.21425768733024597168, -0.075440101325511932373, -0.27446195483207702637, 0.055056799203157424927, 0.061234645545482635498, -0.14541928470134735107, -0.16858938336372375488, -0.13493694365024566650, -0.11844766885042190552, 0.053374614566564559937, 0.12157522886991500854, -0.15777347981929779053, 0.064501948654651641846, 0.13188052177429199219, -0.13259769976139068604, 0.0088318046182394027710, 0.099843166768550872803},
  {0.10365700721740722656, -0.017009383067488670349, 0.15343941748142242432, -0.18717463314533233643, -0.12833744287490844727, -0.18676999211311340332, -0.19006402790546417236, -0.097331866621971130371, -0.14125178754329681396, -0.11482728272676467896, -0.12049195170402526855, 0.19701634347438812256, -0.12364137917757034302, -0.10415329784154891968, 0.17276319861412048340, 0.23440264165401458740, 0.19499096274375915527, 0.12345251441001892090, -0.19455732405185699463, -0.13187526166439056396, 0.22466018795967102051, 0.12956108152866363525, -0.16094425320625305176, 0.11881507188081741333, -0.049920927733182907104, 0.087434016168117523193, -0.14401493966579437256, -0.21503326296806335449, 0.17293229699134826660, 0.069933101534843444824, 0.10308205336332321167, -0.023015554994344711304},
  {-0.14194765686988830566, 0.052528992295265197754, -0.11314793676137924194, -0.16774354875087738037, 0.16237482428550720215, 0.045355238020420074463, -0.11106485128402709961, 0.14963276684284210205, 0.048175059258937835693, 0.068868003785610198975, -0.17063146829605102539, 0.11696948856115341187, 0.066123351454734802246, -0.15279623866081237793, -0.049327768385410308838, 0.019173225387930870056, 0.18839107453823089600, -0.045833256095647811890, 0.077930480241775512695, 0.16925694048404693604, -0.0012758767697960138321, -0.017842223867774009705, -0.17131344974040985107, 0.077178515493869781494, 0.020596668124198913574, 0.066866315901279449463, -0.029513964429497718811, -0.14291837811470031738, -0.024800222367048263550, -0.021955635398626327515, 0.10393683612346649170, -0.14366996288299560547},
  {-0.12156414985656738281, -0.056577447801828384399, -0.036553733050823211670, 0.15954649448394775391, 0.052551306784152984619, -0.14995217323303222656, -0.032361727207899093628, -0.17002472281455993652, -0.016083022579550743103, -0.062655746936798095703, 0.086270943284034729004, -0.051726207137107849121, 0.035315994173288345337, -0.063127219676971435547, -0.13611847162246704102, -0.056110326200723648071, 0.17440202832221984863, 0.12164143472909927368, 0.13342306017875671387, 0.010425872169435024261, 0.11060385406017303467, -0.071641355752944946289, -0.24009823799133300781, -0.089793696999549865723, 0.027426738291978836060, -0.084878601133823394775, -0.20618046820163726807, -0.028684318065643310547, 0.23691897094249725342, 0.21307346224784851074, 0.060724359005689620972, 0.20218476653099060059},
  {0.16581617295742034912, 0.019637158140540122986, -0.12436288595199584961, -0.010592587292194366455, -0.15177898108959197998, -0.11664766073226928711, 0.086369395256042480469, 0.076757855713367462158, 0.074590794742107391357, 0.063454464077949523926, -0.19838504493236541748, -0.035066056996583938599, -0.052682243287563323975, 0.11226947605609893799, 0.11238128691911697388, 0.0017074259230867028236, -0.25996395945549011230, -0.036676045507192611694, -0.12193834036588668823, -0.099919900298118591309, 0.019314767792820930481, 0.12163659185171127319, 0.057177431881427764893, 0.12219343334436416626, 0.077957011759281158447, 0.054921619594097137451, 0.0067486683838069438934, 0.21909555792808532715, -0.24536140263080596924, 0.10445922613143920898, -0.046710211783647537231, -0.024500207975506782532},
  {0.034266203641891479492, 0.19497516751289367676, -0.22628191113471984863, 0.016077432781457901001, 0.22200034558773040771, -0.15096440911293029785, 0.25563538074493408203, -0.015654243528842926025, 0.015956141054630279541, -0.011714499443769454956, -0.10517709702253341675, -0.12135799229145050049, 0.079593636095523834229, 0.032364875078201293945, -0.074374839663505554199, 0.11304408311843872070, -0.13230845332145690918, -0.017231239005923271179, -0.023279521614313125610, -0.22782489657402038574, 0.12601652741432189941, -0.087921328842639923096, 0.27922952175140380859, -0.18146814405918121338, -0.12349307537078857422, 0.0011783990776166319847, -0.13654018938541412354, -0.026088535785675048828, -0.062134459614753723145, 0.088117867708206176758, 0.19057407975196838379, -0.14007735252380371094},
  {0.010174013674259185791, 0.18970324099063873291, 0.040076781064271926880, -0.090295642614364624023, -0.17296658456325531006, 0.099237523972988128662, -0.22437228262424468994, 0.087544359266757965088, 0.14491520822048187256, 0.17503629624843597412, 0.20524509251117706299, -0.033052016049623489380, 0.16946695744991302490, 0.20439590513706207275, -0.14399848878383636475, -0.19419488310813903809, -0.17235119640827178955, -0.17496605217456817627, 0.067444860935211181641, -0.0010299108689650893211, -0.035144787281751632690, -0.21274946630001068115, -0.19039660692214965820, 0.15677325427532196045, 0.11688105762004852295, 0.12863929569721221924, -0.027776170521974563599, -0.13162891566753387451, 0.11834865063428878784, -0.14139790832996368408, 0.10912276059389114380, 0.10650873184204101562},
  {-0.16176690161228179932, -0.034760817885398864746, -0.16218940913677215576, -0.084270521998405456543, -0.056246064603328704834, 0.094898007810115814209, -0.049642808735370635986, -0.061514470726251602173, -0.088821053504943847656, 0.017316130921244621277, 0.17202956974506378174, -0.0020210950169712305069, -0.024048700928688049316, -0.059002574533224105835, 0.21272417902946472168, 0.074466742575168609619, 0.10829392075538635254, 0.076802074909210205078, -0.20147356390953063965, 0.048049222677946090698, -0.17583358287811279297, -0.13705983757972717285, 0.021481746807694435120, 0.012494869530200958252, -0.22604306042194366455, -0.12387082725763320923, -0.25527849793434143066, -0.12118776142597198486, 0.031325768679380416870, -0.052962020039558410645, 0.11183250695466995239, -0.19472193717956542969},
  {-0.087779447436332702637, -0.15636952221393585205, -0.055590130388736724854, 0.029324209317564964294, -0.19120010733604431152, 0.24302309751510620117, 0.13589005172252655029, 0.011541314423084259033, -0.077116221189498901367, 0.021809009835124015808, 0.12289211153984069824, -0.067592382431030273438, -0.19722416996955871582, 0.047589629888534545898, -0.026835080236196517944, 0.17894306778907775879, -0.14771862328052520752, 0.11022911220788955688, 0.13092049956321716309, 0.12616449594497680664, -0.026227595284581184387, 0.32856336236000061035, 0.018684200942516326904, -0.16340830922126770020, 0.047992654144763946533, 0.071312256157398223877, 0.11637719720602035522, -0.13586494326591491699, -0.045208681374788284302, -0.071759410202503204346, -0.13637378811836242676, -0.0067965704947710037231},
  {-0.10594642162322998047, -0.091504164040088653564, -0.14807668328285217285, -0.12120334059000015259, -0.11004316806793212891, 0.0096795037388801574707, 0.19987510144710540771, 0.16985715925693511963, 0.16101749241352081299, 0.054029062390327453613, 0.063075952231884002686, 0.11436852812767028809, 0.15460059046745300293, 0.15999948978424072266, -0.11393161118030548096, -0.16062960028648376465, -0.093897208571434020996, -0.050253827124834060669, 0.026268186047673225403, -0.013303644955158233643, 0.081314817070960998535, 0.10006152093410491943, 0.25076025724411010742, 0.075650036334991455078, 0.046181891113519668579, -0.11458894610404968262, -0.15897971391677856445, 0.052749596536159515381, -0.10753929615020751953, -0.13134884834289550781, -0.17106951773166656494, -0.022868320345878601074},
  {0.064136542379856109619, -0.037907920777797698975, -0.073031008243560791016, 0.058821521699428558350, -0.10831344127655029297, 0.065098129212856292725, 0.086111329495906829834, -0.15650174021720886230, -0.11061425507068634033, -0.17039252817630767822, -0.051892042160034179688, -0.14586542546749114990, 0.24618761241436004639, 0.15755829215049743652, 0.033679425716400146484, 0.094482250511646270752, -0.18640384078025817871, 0.16262486577033996582, -0.21969653666019439697, 0.21263913810253143311, -0.14900326728820800781, -0.024869434535503387451, -0.12338462471961975098, 0.18382537364959716797, -0.22444082796573638916, -0.14025346934795379639, -0.081249862909317016602, -0.031553201377391815186, -0.19797290861606597900, 0.074492491781711578369, 0.085415206849575042725, -0.078762903809547424316},
  {-0.13086333870887756348, 0.086433038115501403809, 0.076174534857273101807, 0.11304604262113571167, -0.026833409443497657776, 0.12672592699527740479, 0.22310434281826019287, -0.012779210694134235382, -0.077556692063808441162, -0.11360636353492736816, -0.085128389298915863037, -0.047262106090784072876, 0.30530014634132385254, -0.086026087403297424316, 0.27878373861312866211, 0.062044072896242141724, 0.051253043115139007568, 0.16251696646213531494, -0.12794545292854309082, 0.12987549602985382080, 0.27799347043037414551, -0.17205670475959777832, 0.077069386839866638184, 0.19843496382236480713, -0.017660563811659812927, -0.18638914823532104492, 0.27385911345481872559, -0.025250315666198730469, -0.11940861493349075317, 0.11218561977148056030, -0.13059994578361511230, -0.012400654144585132599},
  {0.042375899851322174072, -0.20017126202583312988, 0.041810583323240280151, -0.0011319830082356929779, 0.10899889469146728516, 0.046722374856472015381, 0.074828036129474639893, 0.12091054022312164307, 0.24133393168449401855, -0.23705905675888061523, -0.17194989323616027832, -0.20914487540721893311, -0.15728443861007690430, 0.082616098225116729736, -0.10520482063293457031, 0.23895011842250823975, -0.077579975128173828125, 0.14358255267143249512, -0.17845682799816131592, -0.020666295662522315979, 0.20779901742935180664, 0.18743230402469635010, -0.048008989542722702026, -0.14968374371528625488, -0.089659109711647033691, -0.15560087561607360840, -0.036054696887731552124, 0.073997229337692260742, -0.085967704653739929199, 0.066439248621463775635, -0.012980020605027675629, -0.15208734571933746338},
  {0.092582650482654571533, -0.11035440117120742798, -0.033477775752544403076, 0.11634446680545806885, -0.022091709077358245850, -0.021666675806045532227, -0.18040601909160614014, -0.23242121934890747070, -0.27836647629737854004, -0.090812459588050842285, 0.19405052065849304199, -0.10393753647804260254, -0.068244583904743194580, -0.19368886947631835938, -0.10438429564237594604, 0.051228851079940795898, 0.045540552586317062378, -0.17602415382862091064, 0.17725506424903869629, 0.031082412227988243103, 0.010180510580539703369, 0.030839027836918830872, -0.081092193722724914551, -0.24456292390823364258, 0.12090989202260971069, -0.054194577038288116455, -0.11463043838739395142, 0.19703376293182373047, -0.12387308478355407715, 0.12897603213787078857, -0.21241568028926849365, 0.065118290483951568604},
  {-0.20143838226795196533, 0.052411034703254699707, -0.20850880444049835205, -0.14658933877944946289, 0.15474848449230194092, 0.13750237226486206055, -0.060835018754005432129, 0.19826254248619079590, 0.14044824242591857910, -0.20156686007976531982, 0.16450853645801544189, -0.089258953928947448730, 0.024291543290019035339, -0.13148055970668792725, 0.22401496767997741699, -0.062695540487766265869, -0.037872895598411560059, -0.030575096607208251953, 0.032796483486890792847, -0.11112184822559356689, -0.19598947465419769287, -0.16246162354946136475, -0.11867576837539672852, 0.064692214131355285645, 0.092529729008674621582, 0.0075187138281762599945, 0.0044975420460104942322, -0.14809955656528472900, 0.11064527183771133423, 0.0071168793365359306335, -0.19916616380214691162, 0.096983388066291809082},
  {0.12601420283317565918, 0.12455488741397857666, -0.093473285436630249023, -0.17797240614891052246, 0.034518677741289138794, 0.12413918226957321167, -0.15681575238704681396, 0.010021023452281951904, 0.075161106884479522705, -0.16463308036327362061, 0.20706567168235778809, 0.13900153338909149170, -0.027024224400520324707, -0.049492456018924713135, -0.20616923272609710693, 0.10207173228263854980, 0.24201309680938720703, -0.075142495334148406982, 0.078690186142921447754, -0.00092011340893805027008, 0.062893636524677276611, -0.12496749311685562134, 0.12468151003122329712, -0.11304878443479537964, -0.0076789194718003273010, -0.10312613844871520996, -0.20077146589756011963, 0.055094085633754730225, 0.036528032273054122925, 0.049185018986463546753, 0.10807497799396514893, 0.077959172427654266357},
  {0.13514119386672973633, -0.18950884044170379639, -0.087646260857582092285, 0.11478617787361145020, 0.074523314833641052246, -0.0014460784150287508965, 0.050772972404956817627, -0.067403748631477355957, -0.083423539996147155762, 0.21490958333015441895, 0.27977868914604187012, -0.11210584640502929688, -0.16089621186256408691, -0.16896438598632812500, -0.21498885750770568848, -0.045930884778499603271, 0.087029531598091125488, 0.11540787667036056519, -0.13084664940834045410, 0.076379597187042236328, -0.22093982994556427002, 0.20393951237201690674, -0.18943858146667480469, -0.19948889315128326416, 0.22319696843624114990, -0.11262433230876922607, -0.025998944416642189026, 0.26992332935333251953, 0.13738997280597686768, -0.12240497022867202759, -0.029914410784840583801, 0.12510424852371215820},
  {-0.12571971118450164795, -0.26838916540145874023, -0.13277575373649597168, 0.12792527675628662109, -0.099908344447612762451, 0.13272257149219512939, 0.26580652594566345215, 0.10520392656326293945, -0.19062772393226623535, -0.038821984082460403442, 0.0078064817935228347778, 0.083702437579631805420, 0.15526954829692840576, -0.098635993897914886475, 0.15526735782623291016, 0.015847261995077133179, 0.14385536313056945801, 0.0073826392181217670441, 0.038595251739025115967, -0.099648892879486083984, -0.049643550068140029907, -0.016301456838846206665, -0.0093177203088998794556, 0.19633193314075469971, -0.012802837416529655457, 0.0034444327466189861298, -0.080539852380752563477, 0.0076947538182139396667, 0.017812618985772132874, -0.066597625613212585449, -0.12722346186637878418, -0.19579523801803588867},
  {-0.17043547332286834717, 0.26834136247634887695, -0.12007355690002441406, -0.11693695932626724243, 0.11688589304685592651, 0.24767433106899261475, -0.21893252432346343994, 0.18639595806598663330, -0.060932230204343795776, -0.0011937342351302504539, 0.12158979475498199463, 0.16119740903377532959, -0.15255139768123626709, -0.035791229456663131714, 0.12840376794338226318, 0.20436592400074005127, -0.064991474151611328125, 0.15171594917774200439, -0.10300595313310623169, 0.28143307566642761230, -0.10077149420976638794, -0.12359035015106201172, -0.058537710458040237427, 0.14240945875644683838, -0.10855370014905929565, -0.20562191307544708252, -0.13139781355857849121, -0.076436936855316162109, 0.072598114609718322754, -0.026138721033930778503, -0.18788914382457733154, 0.10237652063369750977},
  {-0.0039711720310151576996, 0.14048798382282257080, -0.19370594620704650879, -0.14774687588214874268, -0.16194002330303192139, -0.15308208763599395752, 0.072015352547168731689, -0.14290998876094818115, -0.12000374495983123779, -0.022258941084146499634, 0.15814480185508728027, -0.19260315597057342529, -0.17683579027652740479, 0.13439962267875671387, -0.16881395876407623291, 0.14010521769523620605, 0.014013166539371013641, 0.22990427911281585693, -0.14249183237552642822, 0.00072068750159814953804, -0.090022698044776916504, 0.094555817544460296631, 0.096972092986106872559, -0.17857578396797180176, -0.11938376724720001221, -0.016440793871879577637, 0.0032894883770495653152, -0.059703994542360305786, 0.13613668084144592285, -0.061718564480543136597, -0.16081437468528747559, -0.10962750017642974854},
  {-0.12688660621643066406, -0.029445938766002655029, 0.096160568296909332275, 0.092810466885566711426, 0.061293896287679672241, 0.19059729576110839844, -0.16099062561988830566, -0.013596386648714542389, 0.15730877220630645752, 0.024356748908758163452, 0.032544430345296859741, 0.14054650068283081055, -0.0038728637155145406723, -0.014805361628532409668, 0.024838309735059738159, 0.095713496208190917969, -0.14802831411361694336, -0.20652072131633758545, 0.084436729550361633301, -0.069524057209491729736, 0.17007489502429962158, -0.11912798136472702026, -0.039965763688087463379, 0.15384556353092193604, -0.0024952571839094161987, 0.14647828042507171631, -0.049276057630777359009, -0.12526716291904449463, -0.075383760035037994385, 0.11654187738895416260, -0.069745346903800964355, -0.045018095523118972778},
  {-0.13755141198635101318, -0.20303434133529663086, 0.046567179262638092041, 0.10361939668655395508, 0.079439707100391387939, -0.14679712057113647461, 0.19811725616455078125, -0.26687201857566833496, 0.12022447586059570312, 0.18441437184810638428, 0.080469503998756408691, -0.22740027308464050293, 0.084186054766178131104, 0.0075230160728096961975, -0.16896985471248626709, -0.16689322888851165771, 0.032869689166545867920, -0.075316622853279113770, -0.20122376084327697754, 0.097966603934764862061, -0.12853820621967315674, -0.066075339913368225098, -0.032779797911643981934, -0.22752857208251953125, 0.16126382350921630859, -0.12715204060077667236, 0.094991281628608703613, 0.18142431974411010742, 0.081319540739059448242, 0.11853409558534622192, -0.15783749520778656006, 0.092857748270034790039},
  {0.14687849581241607666, 0.056690149009227752686, 0.096100322902202606201, 0.13751505315303802490, 0.055925752967596054077, 0.056549027562141418457, -0.098743274807929992676, -0.071630284190177917480, 0.29822731018066406250, 0.037965428084135055542, -0.045462485402822494507, -0.029819114133715629578, 0.17468878626823425293, 0.10375008732080459595, -0.15639093518257141113, -0.23880143463611602783, 0.050320647656917572021, 0.0022670133039355278015, -0.12362617254257202148, 0.020007032901048660278, 0.0092926509678363800049, -0.33319160342216491699, 0.062778152525424957275, 0.090669989585876464844, 0.21359370648860931396, -0.088157266378402709961, -0.16784437000751495361, 0.070803850889205932617, -0.13766805827617645264, 0.12548415362834930420, 0.081153869628906250000, 0.011060317046940326691},
  {0.17704038321971893311, 0.15005519986152648926, 0.13636288046836853027, -0.018401488661766052246, 0.098113425076007843018, -0.17501206696033477783, 0.054411176592111587524, 0.0020156328100711107254, 0.037698097527027130127, -0.034198619425296783447, -0.065519921481609344482, -0.087254755198955535889, 0.051934223622083663940, 0.076693169772624969482, 0.0075479708611965179443, 0.056302279233932495117, 0.22037112712860107422, 0.052657432854175567627, -0.0094581414014101028442, 0.10477148741483688354, -0.0044342679902911186218, -0.0082057639956474304199, -0.096804097294807434082, -0.14067979156970977783, 0.096166357398033142090, 0.11177320033311843872, -0.19535274803638458252, -0.070437319576740264893, 0.015969151630997657776, -0.042469304054975509644, 0.12078319489955902100, -0.017781607806682586670},
  {0.18198414146900177002, -0.20547631382942199707, 0.11234588176012039185, 0.11810863763093948364, -0.014495854265987873077, -0.074964508414268493652, 0.27543520927429199219, -0.010596408508718013763, -0.10749325156211853027, -0.10857444256544113159, 0.045238062739372253418, -0.13711526989936828613, 0.30919951200485229492, 0.17949913442134857178, 0.16961805522441864014, 0.056798800826072692871, -0.16744531691074371338, 0.12381742149591445923, 0.034701030701398849487, -0.043948240578174591064, 0.34719502925872802734, -0.17999167740345001221, -0.15654960274696350098, -0.19466909766197204590, 0.032868620008230209351, -0.15147489309310913086, 0.097899466753005981445, 0.17694747447967529297, 0.10693541169166564941, -0.10038691759109497070, -0.19839145243167877197, 0.10059345513582229614},
  {0.19578781723976135254, 0.10896031558513641357, 0.22799177467823028564, -0.074696741998195648193, 0.13429997861385345459, -0.063590571284294128418, 0.20434431731700897217, -0.094345644116401672363, 0.066742680966854095459, 0.17613546550273895264, -0.12618547677993774414, -0.33964323997497558594, -0.15305651724338531494, -0.014196600764989852905, -0.013215903192758560181, 0.17099526524543762207, 0.10162352770566940308, 0.13908647000789642334, 0.24219103157520294189, -0.24279949069023132324, -0.11880142986774444580, 0.18090483546257019043, 0.015363829210400581360, -0.023479426279664039612, -0.23052620887756347656, -0.013942766934633255005, -0.028988616541028022766, -0.24875496327877044678, -0.13792921602725982666, -0.076929219067096710205, -0.075386971235275268555, 0.097534477710723876953},
  {-0.13055814802646636963, -0.061980213969945907593, 0.014010283164680004120, 0.074920088052749633789, -0.089334197342395782471, 0.048803556710481643677, -0.12408024817705154419, -0.11386515945196151733, -0.18622551858425140381, 0.12091517448425292969, -7.5735617429018020630e-05, 0.10747855901718139648, 0.14438211917877197266, -0.098525181412696838379, -0.0033464534208178520203, -0.058345444500446319580, 0.25714108347892761230, -0.21164548397064208984, -0.12858119606971740723, 0.15193679928779602051, -0.091564588248729705811, 0.074524506926536560059, 0.036434549838304519653, 0.15208742022514343262, -0.076488643884658813477, -0.056473694741725921631, -0.10317391157150268555, 0.091795563697814941406, 0.21635872125625610352, 0.068715438246726989746, 0.0083443010225892066956, 0.025388566777110099792},
  {-0.022988421842455863953, 0.084007725119590759277, -0.21206398308277130127, 0.028547145426273345947, -0.096049591898918151855, 0.055252902209758758545, 0.0030594661366194486618, -0.088778220117092132568, 0.19871138036251068115, -0.17378243803977966309, -0.18168829381465911865, 0.050624724477529525757, 0.22828677296638488770, 0.078900747001171112061, 0.063564285635948181152, -0.23296824097633361816, 0.049979656934738159180, -0.028575599193572998047, 0.032477751374244689941, -0.17036291956901550293, -0.028936773538589477539, 0.12020878493785858154, 0.24010036885738372803, 0.072182647883892059326, 0.18349289894104003906, 0.15364600718021392822, -0.13520573079586029053, -0.086388871073722839355, -0.065720103681087493896, -0.12629307806491851807, -0.027396865189075469971, -0.037765078246593475342},
  {0.075120806694030761719, 0.018581749871373176575, 0.16291564702987670898, -0.077647522091865539551, -0.078473754227161407471, 0.0059416452422738075256, -0.17442788183689117432, -0.060799531638622283936, -0.13270819187164306641, 0.014003619551658630371, -0.039907548576593399048, -0.0029261026065796613693, -0.12406487017869949341, 0.17399701476097106934, 0.15698459744453430176, 0.093679673969745635986, -0.022719295695424079895, -0.0029501898679882287979, -0.012040249072015285492, -0.076482594013214111328, -0.12777608633041381836, 0.19500258564949035645, 0.15817211568355560303, -0.13499686121940612793, 0.19998049736022949219, 0.17835001647472381592, -0.022488197311758995056, 0.036595024168491363525, 0.039631657302379608154, -0.11687634140253067017, 0.010745957493782043457, -0.062756612896919250488},
  {-0.18640631437301635742, 0.042346972972154617310, -0.13405579328536987305, 0.079541571438312530518, 0.14309352636337280273, 0.17138798534870147705, -0.093859776854515075684, -0.051449485123157501221, 0.036866001784801483154, -0.077524945139884948730, 0.023582095280289649963, 0.21551436185836791992, 0.17015112936496734619, -0.12304710596799850464, 0.13091066479682922363, -0.097498826682567596436, 0.14521761238574981689, 0.31827825307846069336, 0.064443960785865783691, -0.055105976760387420654, -0.10994484275579452515, 0.023223971948027610779, 0.11905038356781005859, 0.22994999587535858154, -0.11476215720176696777, -0.18840180337429046631, -0.15870966017246246338, -0.26693481206893920898, -0.15536871552467346191, 0.030458981171250343323, 0.087316274642944335938, -0.094874456524848937988},
  {0.089103855192661285400, 0.064104326069355010986, -0.19535470008850097656, 0.045480091124773025513, 0.19106307625770568848, 0.13136492669582366943, 0.046394292265176773071, -0.22568537294864654541, 0.12774927914142608643, -0.12140599638223648071, 0.039265535771846771240, 0.031125074252486228943, 0.0025018297601491212845, -0.064354956150054931641, -0.15218263864517211914, -0.12450219690799713135, 0.10760435461997985840, -0.10662118345499038696, -0.18370716273784637451, 0.11671494692564010620, -0.074625723063945770264, -0.039614636451005935669, -0.018263639882206916809, -0.12560038268566131592, -0.11679726094007492065, -0.042310915887355804443, 0.032785981893539428711, 0.19410295784473419189, 0.15032222867012023926, -0.10422189533710479736, -0.12307266891002655029, 0.11829442530870437622},
  {-0.092311874032020568848, 0.27921661734580993652, -0.22643312811851501465, 0.015364026650786399841, 0.046967722475528717041, 0.19542013108730316162, -0.18208146095275878906, 0.062844641506671905518, 0.17932952940464019775, -0.017216688022017478943, 0.065062887966632843018, 0.11881224066019058228, -0.23484589159488677979, -0.059806358069181442261, 0.11776226758956909180, 0.17057347297668457031, 0.16542807221412658691, 0.20642964541912078857, -0.22682970762252807617, 0.063068479299545288086, -0.21844723820686340332, -0.039459500461816787720, -0.052770122885704040527, -0.090525932610034942627, -0.067486576735973358154, 0.046956285834312438965, 0.18887321650981903076, -0.16172634065151214600, -0.19627146422863006592, 0.036212656646966934204, 0.21006293594837188721, 0.0019881990738213062286},
  {0.062138129025697708130, -0.058223824948072433472, -0.031057229265570640564, 0.21754246950149536133, 0.077192775905132293701, 0.17683221399784088135, 0.060522936284542083740, -0.013591949827969074249, 0.077698983252048492432, -0.18437950313091278076, -0.081395633518695831299, 0.29576957225799560547, 0.039121866226196289062, -0.10525418817996978760, 0.24954271316528320312, 0.11493969708681106567, -0.080535866320133209229, -0.084096573293209075928, -0.064775437116622924805, 0.10145540535449981689, -0.028229957446455955505, -0.14553536474704742432, 0.065646126866340637207, 0.015730999410152435303, -0.23978836834430694580, -0.15930479764938354492, 0.19418713450431823730, 0.072549305856227874756, 0.20617443323135375977, -0.090962678194046020508, 0.061465129256248474121, 0.16359995305538177490},
  {0.027174709364771842957, -0.076741479337215423584, 0.022892829030752182007, -0.097060687839984893799, -0.066159300506114959717, -0.14319945871829986572, 0.088262841105461120605, 0.0080328807234764099121, -0.031891118735074996948, -0.28163689374923706055, -0.0079181129112839698792, -0.14605276286602020264, -0.053312737494707107544, 0.077273190021514892578, -0.14237572252750396729, 0.083050705492496490479, 0.12111916393041610718, 0.024575216695666313171, 0.093687266111373901367, -0.11019202321767807007, -0.20128488540649414062, -0.13470214605331420898, -0.040285155177116394043, -0.062090873718261718750, 0.11909936368465423584, -0.13126729428768157959, -0.15904253721237182617, 0.051684167236089706421, 0.088417612016201019287, -0.061587017029523849487, -0.060151867568492889404, 0.096923455595970153809},
  {-0.012104311026632785797, 0.20215895771980285645, 0.14265967905521392822, -0.22961501777172088623, 0.039422262459993362427, 0.058938115835189819336, 0.0021611647680401802063, -0.073720566928386688232, -0.082885324954986572266, -0.035188809037208557129, -0.13615073263645172119, 0.14978457987308502197, -0.037380956113338470459, 0.043077629059553146362, 0.050756428390741348267, -0.22453770041465759277, -0.22094330191612243652, 0.19343942403793334961, -0.12796682119369506836, -0.24765588343143463135, 0.13640375435352325439, -0.19895352423191070557, 0.0077538462355732917786, -0.085491649806499481201, -0.077308811247348785400, 0.15812699496746063232, -0.15992857515811920166, -0.21683663129806518555, 0.14524479210376739502, 0.12176894396543502808, -0.22164946794509887695, 0.052632067352533340454},
  {-0.090136498212814331055, -0.092192582786083221436, 0.058609507977962493896, 0.13384802639484405518, -0.090735748410224914551, 0.084665238857269287109, -0.14994314312934875488, 0.076419383287429809570, -0.19267907738685607910, 0.096721395850181579590, -0.077607393264770507812, 0.18472394347190856934, -0.00097579578869044780731, 0.088318392634391784668, 0.10612717270851135254, -0.23189938068389892578, -0.12583826482295989990, -0.026488492265343666077, -0.12706823647022247314, 0.17832015454769134521, -0.24507747590541839600, -0.088030815124511718750, -0.11499926447868347168, -0.12352156639099121094, 0.21162803471088409424, -0.019197093322873115540, 0.11671688407659530640, 0.064450539648532867432, 0.15153604745864868164, -0.0069875894114375114441, -0.15629950165748596191, 0.056621409952640533447},
  {0.13744804263114929199, 0.12189916521310806274, 0.25830522179603576660, -0.16156895458698272705, -0.083140067756175994873, 0.0018562135519459843636, 0.24623443186283111572, -0.28659006953239440918, -0.11133341491222381592, 0.043428547680377960205, -0.073591619729995727539, -0.058515936136245727539, 0.12183027714490890503, -0.13602487742900848389, -0.052961729466915130615, 0.084582068026065826416, 0.23372197151184082031, -0.095980040729045867920, 0.10982602089643478394, -0.094171129167079925537, -0.074776612222194671631, 0.027040319517254829407, 0.11796824634075164795, 0.13642384111881256104, 0.075543977320194244385, 0.025906160473823547363, 0.12658219039440155029, -0.049512155354022979736, 0.079677604138851165771, -0.033277355134487152100, -0.19966004788875579834, 0.032342553138732910156},
  {0.12230048328638076782, 0.030430987477302551270, -0.10479208081960678101, 0.063580319285392761230, 0.19552946090698242188, 0.00054915656801313161850, 0.010031597688794136047, -0.18580652773380279541, 0.21709141135215759277, 0.25684130191802978516, -0.071067817509174346924, -0.21469070017337799072, 0.075520820915699005127, 0.014229007065296173096, -0.023925134912133216858, -0.031124534085392951965, -0.19508674740791320801, -0.18312877416610717773, -0.079295620322227478027, -0.068665094673633575439, -0.15295019745826721191, 0.13694104552268981934, -0.16883878409862518311, -0.14245185256004333496, 0.027986465021967887878, 0.090584412217140197754, -0.066646851599216461182, -0.10281985998153686523, -0.13935235142707824707, -0.16858847439289093018, -0.042767059057950973511, -0.059143111109733581543},
  {0.17286618053913116455, 0.15284493565559387207, 0.24390232563018798828, -0.054306410253047943115, -0.15700674057006835938, 0.10093747079372406006, -0.16976249217987060547, -0.21471729874610900879, 0.13666228950023651123, -0.15852259099483489990, 0.16225039958953857422, 0.16763180494308471680, -0.30616709589958190918, -0.18065142631530761719, -0.22423858940601348877, 0.024550983682274818420, 0.13134476542472839355, -0.13179828226566314697, -0.11977081000804901123, 0.0059018656611442565918, 0.13769277930259704590, 0.17282173037528991699, 0.14234332740306854248, -0.10826118290424346924, -0.039323206990957260132, 0.048962783068418502808, 0.099581561982631683350, -0.029535986483097076416, 0.0019351213704794645309, -0.15869218111038208008, -0.0023142052814364433289, 0.014523149468004703522},
  {0.10756841301918029785, 0.069566875696182250977, -0.010231932625174522400, 0.14370134472846984863, -0.15212024748325347900, -0.098188281059265136719, -0.20850969851016998291, -0.074076920747756958008, 0.11392458528280258179, 0.13914796710014343262, 0.023760313168168067932, 0.20323891937732696533, 0.084971524775028228760, 0.19929203391075134277, 0.082697264850139617920, 0.050866603851318359375, -0.013413432054221630096, 0.14363270998001098633, 0.12657935917377471924, 0.29156130552291870117, 0.029517857357859611511, -0.15774154663085937500, 0.044613167643547058105, 0.099938526749610900879, -0.12568922340869903564, 0.024450119584798812866, -0.19142541289329528809, -0.056405261158943176270, 0.18911831080913543701, -0.057040195912122726440, 0.059292022138833999634, -0.093273356556892395020},
  {0.16837906837463378906, -0.093117579817771911621, 0.10770852118730545044, 0.11210007965564727783, -0.061461243778467178345, 0.12461888045072555542, 0.071144498884677886963, 0.18046857416629791260, 0.058893773704767227173, -0.065289892256259918213, 0.031826019287109375000, -0.051455397158861160278, 0.19450142979621887207, 0.17883759737014770508, 0.048315200954675674438, -0.11342840641736984253, 0.17219865322113037109, 0.13050818443298339844, 0.083440929651260375977, 0.16375361382961273193, 0.019684212282299995422, -0.13031913340091705322, -0.049544449895620346069, 0.14208234846591949463, 0.093389078974723815918, -0.0066929296590387821198, 0.15613386034965515137, 0.033501550555229187012, 0.15215559303760528564, 0.11182728409767150879, 0.018909560516476631165, 0.15024913847446441650},
  {-0.0063718548044562339783, 0.069821082055568695068, 0.069179862737655639648, -0.14377552270889282227, -0.18105751276016235352, 0.11685677617788314819, -0.17458227276802062988, -0.050764698535203933716, -0.16661481559276580811, 0.10492969304323196411, 0.017643230035901069641, 0.16254846751689910889, 0.24616797268390655518, -0.20432402193546295166, -0.084608428180217742920, 0.15036481618881225586, -0.18216139078140258789, 0.099747523665428161621, 0.10941778123378753662, 0.014735179021954536438, 0.27112394571304321289, -0.084322728216648101807, -0.15395292639732360840, 0.19174490869045257568, -0.10575886815786361694, -0.20741547644138336182, 0.11178924143314361572, 0.073724284768104553223, 0.17207925021648406982, 0.10438305139541625977, -0.078697763383388519287, -0.050280999392271041870},
  {-0.18574899435043334961, 0.14110308885574340820, 0.19312049448490142822, -0.065901942551136016846, 0.095552407205104827881, -0.11588889360427856445, 0.037879094481468200684, 0.11485294252634048462, -0.20731683075428009033, -0.025318212807178497314, -0.063330829143524169922, 0.010279545560479164124, 0.031353972852230072021, -0.073955163359642028809, 0.11627215892076492310, -0.13010448217391967773, -0.18846800923347473145, -0.048164371401071548462, -0.15177144110202789307, -0.17808799445629119873, 0.042937759310007095337, -0.042477756738662719727, 0.080462954938411712646, 0.072953194379806518555, -0.12210757285356521606, -0.13096398115158081055, 0.11157145351171493530, -0.24823254346847534180, 0.13324198126792907715, -0.0072642015293240547180, 0.23080058395862579346, -0.11273636668920516968},
  {-0.10586474090814590454, -0.074463248252868652344, -0.035052645951509475708, -0.20227305591106414795, -0.12369453907012939453, 0.13541060686111450195, 0.13687659800052642822, 0.15086644887924194336, 0.031034683808684349060, -0.26321545243263244629, 0.19030079245567321777, 0.14225688576698303223, -0.054365172982215881348, 0.053231555968523025513, 0.15838095545768737793, -0.14542590081691741943, -0.19116130471229553223, 0.16876623034477233887, 0.062270760536193847656, -0.14470340311527252197, 0.032854713499546051025, 0.18897475302219390869, -0.12735600769519805908, -0.13583916425704956055, -0.050213735550642013550, 0.22638513147830963135, -0.043669369071722030640, -0.14366656541824340820, 0.12360281497240066528, -0.19180853664875030518, -0.22698514163494110107, 0.22461836040019989014},
  {0.020434729754924774170, 0.15045399963855743408, -0.066451229155063629150, 0.039588809013366699219, 0.046867750585079193115, -0.12037096172571182251, -0.21352529525756835938, -0.19323678314685821533, 0.23793382942676544189, 0.038472548127174377441, 0.23436279594898223877, -0.10560464859008789062, 0.13056430220603942871, -0.10506185144186019897, 0.15314759314060211182, -0.046665836125612258911, 0.10518517345190048218, -0.12168153375387191772, 0.080665118992328643799, 0.12334884703159332275, -0.19641907513141632080, -0.067734241485595703125, -0.13209372758865356445, 0.066178724169731140137, 0.038778591901063919067, 0.18569202721118927002, -0.11009872704744338989, -0.15774144232273101807, 0.14243434369564056396, 0.0084568876773118972778, 0.12052244693040847778, 0.18096655607223510742},
  {0.026261668652296066284, 0.13756585121154785156, 0.084151990711688995361, 0.097800463438034057617, 0.17087171971797943115, -0.10546844452619552612, -0.23493702709674835205, -0.078365460038185119629, 0.10444509983062744141, 0.22225411236286163330, -0.093315802514553070068, 0.071151174604892730713, 0.23502328991889953613, 0.070275738835334777832, 0.18976964056491851807, 0.023522228002548217773, -0.23588487505912780762, -0.15910053253173828125, 0.17149356007575988770, 0.25657972693443298340, 0.17702059447765350342, -0.19889998435974121094, 0.049399238079786300659, 0.23666252195835113525, -0.17949189245700836182, 0.22851613163948059082, -0.14611558616161346436, -0.028218029066920280457, 0.18666785955429077148, 0.12812806665897369385, 0.11513867974281311035, 0.24454393982887268066},
  {-0.093589462339878082275, 0.043537892401218414307, -0.15475323796272277832, 0.026170380413532257080, 0.025745509192347526550, 0.041401650756597518921, 0.17766875028610229492, -0.043557267636060714722, -0.14178167283535003662, -0.028657790273427963257, 0.15683266520500183105, -0.055752456188201904297, 0.11323614418506622314, 0.15411309897899627686, -0.074708893895149230957, 0.16188113391399383545, -0.20139719545841217041, -0.22795893251895904541, -0.18127673864364624023, -0.048229228705167770386, -0.15899522602558135986, 0.029631599783897399902, -0.076456196606159210205, 0.096771679818630218506, -0.0084820287302136421204, -0.055826984345912933350, 0.12877078354358673096, 0.053312629461288452148, -0.11712740361690521240, -0.013117548078298568726, -0.23469738662242889404, 0.099788457155227661133},
  {-0.16711683571338653564, 0.046228345483541488647, 0.17672866582870483398, -0.041289687156677246094, 0.010510688647627830505, -0.015928868204355239868, 0.11765832453966140747, -0.078801766037940979004, 0.20101001858711242676, 0.12179529666900634766, 0.16577100753784179688, 0.22495618462562561035, -0.13471913337707519531, 0.10396557301282882690, 0.063938103616237640381, -0.18275158107280731201, 0.057965286076068878174, 0.026274163275957107544, -0.12709890305995941162, -0.026022635400295257568, 0.20710279047489166260, -0.11136029660701751709, -0.090279281139373779297, 0.14640721678733825684, 0.19883838295936584473, 0.21776251494884490967, -0.19575256109237670898, 0.16078737378120422363, -0.15758395195007324219, 0.12989065051078796387, -0.13293351233005523682, -0.072265945374965667725},
  {-0.015278808772563934326, 0.097476825118064880371, -0.014573116786777973175, -0.10122615098953247070, -0.029692303389310836792, -0.17653498053550720215, 0.25848489999771118164, 0.022153457626700401306, -0.096825920045375823975, -0.27273553609848022461, 0.039496909826993942261, -0.13140422105789184570, 0.14646163582801818848, -0.066483795642852783203, -0.21715037524700164795, 0.094475045800209045410, 0.17607456445693969727, 0.15129400789737701416, -0.091847300529479980469, -0.16575737297534942627, 0.059122461825609207153, 0.19423419237136840820, 0.13879176974296569824, 0.12138228118419647217, 0.15435695648193359375, -0.047999266535043716431, -0.22432944178581237793, 0.21132764220237731934, -0.062591157853603363037, 0.0071607902646064758301, -0.096857324242591857910, -0.086960911750793457031},
  {0.16453598439693450928, -0.15899857878684997559, 0.14186419546604156494, 0.085346981883049011230, -0.098219461739063262939, -0.084829710423946380615, -0.22106516361236572266, 0.096022710204124450684, 0.16711561381816864014, 0.14032532274723052979, 0.16204829514026641846, 0.13591033220291137695, -0.20871427655220031738, -0.16302277147769927979, 0.036737188696861267090, -0.12377059459686279297, -0.15063786506652832031, -0.18761871755123138428, 0.099409967660903930664, -0.095501191914081573486, 0.078492507338523864746, -0.071905218064785003662, 0.070987880229949951172, -0.045075189322233200073, 0.18325492739677429199, -0.15039445459842681885, 0.17634522914886474609, -0.066570393741130828857, -0.089200668036937713623, 0.13903155922889709473, -0.031356971710920333862, -0.22494989633560180664},
  {-0.14753070473670959473, 0.16179637610912322998, -0.21331799030303955078, 0.099401511251926422119, 0.055484160780906677246, -0.00086181110236793756485, -0.043680667877197265625, -0.14007128775119781494, -0.17131525278091430664, 0.20303922891616821289, -0.14053195714950561523, -0.22522699832916259766, -0.084633484482765197754, 0.14957739412784576416, -0.10542173683643341064, -0.091087505221366882324, -0.032906278967857360840, 0.10749486833810806274, -0.049051281064748764038, 0.048824369907379150391, -0.0033263722434639930725, 0.10075130313634872437, -0.034289859235286712646, 0.20411743223667144775, -0.055838983505964279175, 0.076163895428180694580, 0.15628121793270111084, -0.057553995400667190552, -0.19658671319484710693, 0.086424946784973144531, -0.21168556809425354004, -0.14547279477119445801},
  {0.0017753266729414463043, -0.17456807196140289307, -0.0054435757920145988464, 0.039801135659217834473, -0.12608869373798370361, -0.014493744820356369019, -0.023251276463270187378, 0.24265222251415252686, -0.15618583559989929199, -0.12292508780956268311, -0.0094829341396689414978, -0.15963491797447204590, 0.042586699128150939941, 0.21023988723754882812, -0.024340152740478515625, 0.11938150972127914429, -0.18654198944568634033, -0.066375829279422760010, 0.10151635110378265381, -0.073475398123264312744, 0.089434005320072174072, -0.13025848567485809326, -0.046805210411548614502, -0.22707979381084442139, 0.11008971929550170898, 0.13875837624073028564, -0.10402247309684753418, 0.14640958607196807861, 0.16143196821212768555, -0.14879043400287628174, 0.014055985026061534882, 0.13527634739875793457},
  {0.040295280516147613525, -0.047901876270771026611, 0.20577554404735565186, -0.071217581629753112793, 0.11765665560960769653, -0.029898840934038162231, 0.18035726249217987061, 0.14998801052570343018, -0.24271322786808013916, -0.11715837568044662476, 0.080351635813713073730, -0.22712434828281402588, -0.16740599274635314941, -0.12078367918729782104, -0.050510030239820480347, -0.21664670109748840332, -0.20237539708614349365, 0.079813092947006225586, 0.17858956754207611084, -0.12471771985292434692, -0.20700755715370178223, 0.081991255283355712891, -0.053386047482490539551, -0.044458489865064620972, 0.17592348158359527588, -0.085022293031215667725, -0.13345910608768463135, 0.16173212230205535889, -0.11975067853927612305, -0.0020160223357379436493, -0.11968023329973220825, 0.012032153084874153137},
  {0.11381521821022033691, -0.080476135015487670898, 0.10043037682771682739, -0.20410923659801483154, 0.11887293308973312378, 0.037312280386686325073, 0.22385579347610473633, -0.039660524576902389526, -0.26318335533142089844, -0.22254388034343719482, -0.15638136863708496094, -0.19099229574203491211, 0.21963299810886383057, -0.090860947966575622559, -0.18578454852104187012, 0.089260429143905639648, -0.043908152729272842407, -0.035549409687519073486, 0.12332181632518768311, 0.077271342277526855469, 0.16364011168479919434, 0.015381553210318088531, -0.11061669141054153442, -0.31735369563102722168, 0.14852130413055419922, -0.16716122627258300781, 0.24226020276546478271, -0.15148618817329406738, -0.091581784188747406006, 0.034973062574863433838, -0.15641030669212341309, 0.12324121594429016113},
  {0.16491694748401641846, -0.063038513064384460449, 0.082103624939918518066, 0.069560900330543518066, -0.064541406929492950439, -0.0057710371911525726318, 0.10268028080463409424, -0.036445248872041702271, 0.069244705140590667725, -0.13940472900867462158, -0.094537422060966491699, -0.022404996678233146667, 0.17364779114723205566, -0.026328347623348236084, 0.11951313167810440063, -0.066267766058444976807, -0.028725570067763328552, -0.097698353230953216553, 0.12278578430414199829, -0.16970551013946533203, 0.23006300628185272217, 0.033602524548768997192, 0.018739318475127220154, -0.17055587470531463623, -0.15584048628807067871, -0.084518812596797943115, 0.077644586563110351562, -0.16921369731426239014, 0.084990046918392181396, 0.084405638277530670166, -0.10660219192504882812, -0.19626677036285400391},
  {-0.048320043832063674927, -0.18897408246994018555, 0.13758921623229980469, 0.11404404789209365845, -0.18748165667057037354, 0.15675467252731323242, -0.025346795096993446350, 0.21230658888816833496, 0.10750457644462585449, 0.034520324319601058960, 0.16813161969184875488, -0.078654751181602478027, 0.11802601814270019531, -0.030668007209897041321, 0.017669491469860076904, 0.13562957942485809326, -0.096186265349388122559, -0.16115312278270721436, -0.16128236055374145508, -0.18962660431861877441, -0.021756010130047798157, -0.17488309741020202637, 0.022774271667003631592, -0.035152923315763473511, -0.028033955022692680359, 0.046389020979404449463, -0.13982203602790832520, -0.12201296538114547729, -0.25836640596389770508, 0.089631117880344390869, -0.26931852102279663086, 0.032703746110200881958},
  {0.24159838259220123291, -0.027124643325805664062, 0.16982941329479217529, -0.089368641376495361328, -0.059466544538736343384, -0.20030011236667633057, 0.024432115256786346436, -0.055572886019945144653, -0.14915476739406585693, -0.14201506972312927246, -0.030053397640585899353, 0.092130564153194427490, 0.19795401394367218018, 0.33715048432350158691, 0.12503631412982940674, -0.26310199499130249023, 0.078555196523666381836, -0.30455926060676574707, 0.16741557419300079346, 0.31908804178237915039, 0.075960509479045867920, -0.057104397565126419067, 0.31913560628890991211, -0.037938669323921203613, 0.16474114358425140381, 0.0088783847168087959290, -0.29862719774246215820, 0.27450227737426757812, 0.22453610599040985107, 0.10348936170339584351, -0.068826578557491302490, -0.068208277225494384766},
  {0.59171360731124877930, 0.21909864246845245361, 0.52757960557937622070, 0.40829238295555114746, 0.41529718041419982910, -0.45389887690544128418, 0.078040771186351776123, -0.12253922224044799805, -0.26611545681953430176, 0.30041575431823730469, -0.41413697600364685059, -0.42387175559997558594, 0.29829424619674682617, 0.61909013986587524414, 0.51494675874710083008, 0.49301517009735107422, 0.035297587513923645020, 0.12994338572025299072, 0.54686033725738525391, -0.53218036890029907227, 0.36937502026557922363, -0.42372694611549377441, -0.35208287835121154785, 0.13287721574306488037, 0.11482365429401397705, -0.46115109324455261230, 0.60084056854248046875, -0.66899496316909790039, 0.81232017278671264648, 0.36519828438758850098, 0.23487122356891632080, -0.20824529230594635010},
  {0.058055169880390167236, -0.23230043053627014160, 0.23711140453815460205, -0.21259754896163940430, -0.11128471046686172485, 0.0029957089573144912720, -0.038625843822956085205, 0.22275117039680480957, -0.078735820949077606201, 0.036559291183948516846, 0.023093309253454208374, -0.026020161807537078857, 0.31455132365226745605, 0.012924264185130596161, 0.010926391929388046265, -0.27555826306343078613, -0.18663939833641052246, -0.058231189846992492676, -0.18967859447002410889, -0.045696236193180084229, -0.24069556593894958496, -0.082307636737823486328, 0.11356135457754135132, 0.0069841137155890464783, -0.085971117019653320312, 0.15309771895408630371, 0.044780563563108444214, 0.057277597486972808838, -0.17482110857963562012, 0.063659876585006713867, -0.022568110376596450806, 0.018617123365402221680},
  {0.16478958725929260254, 0.32072013616561889648, 0.22064790129661560059, 0.19569344818592071533, 0.18227359652519226074, -0.45009723305702209473, -0.16627317667007446289, -0.23544900119304656982, 0.034512318670749664307, 0.11854527890682220459, -0.27915358543395996094, 0.039854709059000015259, -0.43946301937103271484, 0.38498950004577636719, 0.13793046772480010986, 0.38252693414688110352, 0.24269273877143859863, 0.48910701274871826172, 0.27730289101600646973, -0.31506478786468505859, -0.13397341966629028320, 0.19503240287303924561, -0.40229630470275878906, -0.38947081565856933594, -0.022124398499727249146, -0.48283118009567260742, 0.35221469402313232422, -0.57173299789428710938, 0.31451687216758728027, 0.57942301034927368164, 0.40644460916519165039, -0.053494118154048919678},
  {0.24517020583152770996, -0.15523570775985717773, -0.050226271152496337891, 0.11915869265794754028, 0.22894869744777679443, -0.078737117350101470947, -0.031084153801202774048, 0.076699964702129364014, -0.0037546397652477025986, -0.17214113473892211914, -0.036504656076431274414, -0.029736557975411415100, 0.10128938406705856323, 0.12406363338232040405, 0.15073317289352416992, 0.070113487541675567627, 0.028177350759506225586, -0.22635672986507415771, -0.10344891995191574097, 0.037444759160280227661, 0.043992694467306137085, 0.14999938011169433594, 0.055498085916042327881, 0.043210674077272415161, 0.024165496230125427246, 0.0056983339600265026093, -0.22338238358497619629, -0.075100541114807128906, 0.29173150658607482910, 0.20702728629112243652, 0.014757074415683746338, 0.017779491841793060303},
  {0.060240000486373901367, -0.10806318372488021851, 0.18099597096443176270, 0.20284067094326019287, 0.15599383413791656494, 0.0099763963371515274048, 0.13000495731830596924, 0.21047797799110412598, -0.16387216746807098389, -0.052323136478662490845, 0.095200307667255401611, -0.15940724313259124756, 0.19209049642086029053, 0.27439323067665100098, 0.17529568076133728027, -0.11986861377954483032, -0.22655268013477325439, -0.18009977042675018311, 0.12175388634204864502, -0.029861595481634140015, 0.065884210169315338135, -0.15062130987644195557, 0.088925510644912719727, -0.16002258658409118652, -0.16341787576675415039, 0.070941209793090820312, 0.090616121888160705566, 0.29555156826972961426, -0.072939209640026092529, -0.046096015721559524536, -0.22629627585411071777, 0.26224929094314575195},
  {0.13338828086853027344, 0.0045795012265443801880, -0.057665981352329254150, 0.13248077034950256348, 0.074946701526641845703, -0.048603747040033340454, 0.18415848910808563232, 0.011304538697004318237, -0.044910077005624771118, -0.061368778347969055176, 0.23118612170219421387, -0.22861807048320770264, -0.046145148575305938721, 0.042386278510093688965, -0.21342097222805023193, 0.062974721193313598633, 0.034261468797922134399, -0.18132650852203369141, 0.26712462306022644043, 0.062843710184097290039, 0.0027072452940046787262, 0.00018442500731907784939, -0.18065874278545379639, -0.23825734853744506836, -0.12005326896905899048, 0.020500710234045982361, 0.10846359282732009888, 0.12808868288993835449, -0.16103208065032958984, 0.0084714675322175025940, 0.083493448793888092041, -0.067213505506515502930},
  {-0.10482261329889297485, -0.30650010704994201660, 0.19074852764606475830, 0.10368478298187255859, 0.14064000546932220459, -0.19638197124004364014, 0.085486933588981628418, 0.041975062340497970581, 0.15137968957424163818, -0.083912208676338195801, 0.049989044666290283203, -0.11142335087060928345, 0.19684906303882598877, 0.17803269624710083008, -0.010578646324574947357, 0.17204263806343078613, -0.16746807098388671875, -0.014806566759943962097, 0.28819093108177185059, -0.074449680745601654053, 0.28014674782752990723, 0.18351465463638305664, 0.13596041500568389893, 0.035636324435472488403, -0.018145289272069931030, 0.0035175497177988290787, -0.080115258693695068359, 0.077187195420265197754, 0.086396351456642150879, -0.24139004945755004883, -0.13871353864669799805, -0.15465027093887329102},
  {0.15296331048011779785, 0.18841807544231414795, 0.039661876857280731201, -0.23026449978351593018, -0.23673562705516815186, 0.077296517789363861084, 0.11499515920877456665, 0.0087256245315074920654, -0.13027255237102508545, 0.17446671426296234131, -0.014282998628914356232, -0.061682108789682388306, -0.097738735377788543701, 0.098079249262809753418, 0.17923954129219055176, 0.15202245116233825684, 0.19253174960613250732, -0.086422801017761230469, -0.16437561810016632080, -0.021045912057161331177, -0.16105897724628448486, 0.084887899458408355713, -0.26420015096664428711, -0.15922188758850097656, 0.14645990729331970215, 0.074215404689311981201, -0.14485374093055725098, -0.22643439471721649170, 0.074714824557304382324, 0.058940935879945755005, 0.033243145793676376343, -0.14435364305973052979},
  {0.38950833678245544434, 0.17895202338695526123, 0.10121092200279235840, 0.39240422844886779785, 0.28283721208572387695, -0.23523747920989990234, -0.38436716794967651367, -0.15718993544578552246, -0.21915361285209655762, 0.30723306536674499512, -0.10416506975889205933, 0.046319771558046340942, 0.039309598505496978760, 0.38109120726585388184, 0.40481185913085937500, 0.60398024320602416992, 0.15216973423957824707, 0.088575176894664764404, 0.20327703654766082764, 0.071509711444377899170, -0.10073342174291610718, -0.16805087029933929443, -0.40655004978179931641, 4.1694846004247665405e-05, 0.055351242423057556152, -0.34983873367309570312, 0.15266524255275726318, -0.10184489190578460693, 0.37659469246864318848, 0.31200686097145080566, 0.056468021124601364136, -0.32416307926177978516},
  {-0.52970677614212036133, -0.35627281665802001953, -0.26634287834167480469, -0.19948032498359680176, -0.16853679716587066650, -0.049147669225931167603, 0.46510308980941772461, 0.11006200313568115234, 0.41723716259002685547, -0.51538634300231933594, 0.034615054726600646973, -0.33176612854003906250, 0.22622187435626983643, -0.22609660029411315918, -0.42841419577598571777, -0.26892939209938049316, -0.096491515636444091797, -0.27182814478874206543, -0.11095216870307922363, 0.016986841335892677307, 0.44459792971611022949, -0.16183014214038848877, 0.26753616333007812500, 0.013161472976207733154, 0.17477987706661224365, 0.22447545826435089111, -0.30342715978622436523, 0.56351917982101440430, -0.32388505339622497559, -0.48816850781440734863, -0.39371892809867858887, -0.049774322658777236938},
  {0.40324908494949340820, 0.20109161734580993652, 0.12783557176589965820, -0.0074435612186789512634, 0.13474516570568084717, -0.29122823476791381836, -0.49600034952163696289, -0.11925273388624191284, -0.036122303456068038940, 0.27122530341148376465, -0.16315610706806182861, -0.15453776717185974121, -0.24566721916198730469, 0.28945940732955932617, 0.63481998443603515625, 0.42628145217895507812, 0.31573271751403808594, 0.10143175721168518066, 0.058456853032112121582, -0.33597815036773681641, 0.12295527756214141846, -0.20026981830596923828, -0.20053710043430328369, -0.10983411967754364014, 0.37182146310806274414, -0.59886467456817626953, 0.35199686884880065918, -0.61776769161224365234, 0.35336682200431823730, 0.84173524379730224609, 0.24012695252895355225, -0.15383151173591613770},
  {0.031197872012853622437, -0.17587164044380187988, 0.14298538863658905029, 0.036334309726953506470, 0.44407144188880920410, -0.0073469239287078380585, 0.017354125156998634338, 0.0042422143742442131042, 0.10669457167387008667, 0.042948704212903976440, -0.019820654764771461487, -0.37192296981811523438, 0.19746892154216766357, -0.079758316278457641602, -0.22744716703891754150, 0.12773142755031585693, -0.11492373794317245483, -0.25984078645706176758, 0.057554643601179122925, 0.036305941641330718994, 0.18102690577507019043, -0.028062207624316215515, 0.37154003977775573730, 0.067102082073688507080, -0.22896620631217956543, 0.37259474396705627441, -0.0013075948227196931839, 0.30178323388099670410, 0.24389781057834625244, -0.28451427817344665527, -0.36368507146835327148, 0.14211696386337280273},
  {0.17950516939163208008, 0.0021469800267368555069, -0.20170873403549194336, -0.070720061659812927246, -0.11357895284891128540, -0.064426936209201812744, 0.21875090897083282471, -0.11207766830921173096, 0.0029020679648965597153, 0.078355476260185241699, 0.010331535711884498596, -0.077058508992195129395, 0.025297669693827629089, -0.17028099298477172852, 0.12615731358528137207, -0.054339382797479629517, 0.027760552242398262024, 0.14639984071254730225, -0.033477671444416046143, -0.022496297955513000488, 0.012010516598820686340, -0.16587905585765838623, 0.056714892387390136719, 0.037213943898677825928, 0.20916290581226348877, -0.14520749449729919434, -0.053152151405811309814, -0.071831122040748596191, -0.053393464535474777222, 0.12919382750988006592, -0.14819751679897308350, -0.19633412361145019531},
  {-0.10744517296552658081, -0.13320550322532653809, -0.13618884980678558350, 0.027035864070057868958, -0.11379653960466384888, 0.18148241937160491943, 0.20964992046356201172, -0.14544132351875305176, -0.049792602658271789551, -0.35008472204208374023, 0.12959036231040954590, 0.13481608033180236816, 0.20814843475818634033, -0.12383379787206649780, 0.094303220510482788086, -0.30718937516212463379, -0.080149725079536437988, -0.14706118404865264893, -0.12303551286458969116, -0.11307210475206375122, -0.091070041060447692871, 0.062492590397596359253, 0.19639199972152709961, 0.024910083040595054626, 0.022429836913943290710, 0.17939297854900360107, -0.26506519317626953125, 0.10180428624153137207, 0.031538691371679306030, 0.15617385506629943848, -0.19032940268516540527, -0.11488080024719238281},
  {0.042489860206842422485, 0.022189181298017501831, -0.23342712223529815674, 0.052755728363990783691, -0.0096853170543909072876, 0.24045036733150482178, -0.086106583476066589355, -0.096164733171463012695, -0.084657534956932067871, -0.22398182749748229980, 0.14230242371559143066, 0.048533461987972259521, 0.21889218688011169434, -0.21444623172283172607, -0.19914272427558898926, 0.077778056263923645020, -0.25074487924575805664, -0.16342802345752716064, -0.19043265283107757568, 0.083164781332015991211, -0.091620840132236480713, -0.10500628501176834106, 0.38687491416931152344, 0.15094211697578430176, 0.11409888416528701782, 0.31983169913291931152, -0.14532788097858428955, 0.32513478398323059082, 0.14644615352153778076, -0.29616749286651611328, 0.084268517792224884033, 0.12860997021198272705},
  {0.24219304323196411133, -0.26851257681846618652, -0.060166455805301666260, 0.20717385411262512207, -0.072638168931007385254, -0.082136452198028564453, 0.17744775116443634033, -0.17266942560672760010, 0.29940551519393920898, -0.28281432390213012695, 0.12759958207607269287, 0.10812389850616455078, -0.071072928607463836670, -0.22133545577526092529, 0.12291558831930160522, -0.23192320764064788818, 0.049167491495609283447, -0.076647542417049407959, -0.19661578536033630371, 0.12009543180465698242, 0.12862843275070190430, 0.19170780479907989502, 0.068057671189308166504, 0.23416315019130706787, -0.34545257687568664551, 0.24274706840515136719, -0.12050368636846542358, -0.10604283213615417480, -0.13479591906070709229, -0.27063637971878051758, -0.11453137546777725220, 0.30949276685714721680},
  {0.015922158956527709961, 0.061521172523498535156, 0.21883407235145568848, 0.034873001277446746826, -0.016581607982516288757, 0.23209120333194732666, 0.25792068243026733398, -0.095714949071407318115, 0.15318568050861358643, 0.00092040433082729578018, 0.35666263103485107422, -0.072853483259677886963, 0.26070713996887207031, 0.056073430925607681274, -0.12827077507972717285, -0.14068540930747985840, -0.35584136843681335449, -0.028748368844389915466, 0.018465161323547363281, 0.10874416679143905640, 0.11466155201196670532, 0.14941368997097015381, 0.18482832610607147217, -0.14659668505191802979, 0.045780569314956665039, 0.25484812259674072266, 0.058442819863557815552, 0.035207945853471755981, -0.071140818297863006592, -0.29211968183517456055, -0.22284945845603942871, 0.17814172804355621338},
