#include <math.h>
#include <stdbool.h>
#include <stdint.h>
#include <string.h>

static const double tensor_dense_2_kernel_0[32][1] = 
{
  {0.10360114276409149170},
  {0.25168442726135253906},
  {-0.33803218603134155273},
  {0.52963417768478393555},
  {-0.23711797595024108887},
  {-0.20893186330795288086},
  {0.42872017621994018555},
  {0.41493484377861022949},
  {-0.52041858434677124023},
  {0.41360452771186828613},
  {-0.24015705287456512451},
  {0.41219520568847656250},
  {0.10384198278188705444},
  {0.52690851688385009766},
  {0.24923852086067199707},
  {0.42496961355209350586},
  {0.084568329155445098877},
  {-0.56666409969329833984},
  {-0.41976386308670043945},
  {-0.12244381010532379150},
  {-0.39019098877906799316},
  {-0.48811161518096923828},
  {-0.47206151485443115234},
  {-0.16242934763431549072},
  {0.11605253815650939941},
  {0.36481052637100219727},
  {0.48779556155204772949},
  {-0.35091251134872436523},
  {-0.24719516932964324951},
  {0.30965784192085266113},
  {0.36012515425682067871},
  {0.29741659760475158691}
};
static const double tensor_dense_2_bias_0[1] = 
{-0.0047541842795908451080};
static const double tensor_scale[32] = 
{1.5173419713973999023, 1.4528071880340576172, 1.4796452522277832031, 1.6383603811264038086, 2.0068974494934082031, 1.6680911779403686523, 1.7309991121292114258, 1.5481367111206054688, 1.7985244989395141602, 1.1347295045852661133, 1.6418873071670532227, 1.6728661060333251953, 1.6183093786239624023, 1.8069659471511840820, 1.2975476980209350586, 1.4968515634536743164, 1.6595615148544311523, 2.0172848701477050781, 1.1699644327163696289, 1.5105074644088745117, 2.2185938358306884766, 1.6851066350936889648, 1.3263138532638549805, 1.3155312538146972656, 2.3250844478607177734, 1.5395314693450927734, 1.3830796480178833008, 1.6833851337432861328, 1.8259708881378173828, 2.1407387256622314453, 1.3640495538711547852, 1.2270969152450561523};
static const double tensor_bias[32] = 
{0.12251039594411849976, 0.16441272199153900146, 0.025695880874991416931, 0.56667393445968627930, -1.1558432579040527344, -0.56781238317489624023, -0.88700383901596069336, -0.12414090335369110107, -0.91244405508041381836, -0.19739513099193572998, -0.52435773611068725586, 0.74365651607513427734, -0.61648792028427124023, 1.0193129777908325195, -0.51833921670913696289, 0.68064540624618530273, -0.80114668607711791992, 1.0812814235687255859, -0.16179344058036804199, -0.75013083219528198242, 1.2052903175354003906, -0.67146319150924682617, 0.45865333080291748047, 0.10971257835626602173, -0.82427847385406494141, 0.26173222064971923828, -0.26331758499145507812, -0.77085250616073608398, 0.36360296607017517090, -1.1893754005432128906, -0.51148307323455810547, -0.12655662000179290771};
static const double tensor_mean[32] = 
{-0.0000000000000000000, -0.0000000000000000000, -0.0000000000000000000, -0.0000000000000000000, 0.0000000000000000000, 0.0000000000000000000, 0.0000000000000000000, 0.0000000000000000000, 0.0000000000000000000, 0.0000000000000000000, 0.0000000000000000000, -0.0000000000000000000, 0.0000000000000000000, -0.0000000000000000000, 0.0000000000000000000, -0.0000000000000000000, 0.0000000000000000000, -0.0000000000000000000, 0.0000000000000000000, 0.0000000000000000000, -0.0000000000000000000, 0.0000000000000000000, -0.0000000000000000000, -0.0000000000000000000, 0.0000000000000000000, -0.0000000000000000000, 0.0000000000000000000, 0.0000000000000000000, -0.0000000000000000000, 0.0000000000000000000, 0.0000000000000000000, 0.0000000000000000000};
static const double tensor_var[32] = 
{1.0000004768371582031, 1.0000004768371582031, 1.0000004768371582031, 1.0000004768371582031, 1.0000004768371582031, 1.0000004768371582031, 1.0000004768371582031, 1.0000004768371582031, 1.0000004768371582031, 1.0000004768371582031, 1.0000004768371582031, 1.0000004768371582031, 1.0000004768371582031, 1.0000004768371582031, 1.0000004768371582031, 1.0000004768371582031, 1.0000004768371582031, 1.0000004768371582031, 1.0000004768371582031, 1.0000004768371582031, 1.0000004768371582031, 1.0000004768371582031, 1.0000004768371582031, 1.0000004768371582031, 1.0000004768371582031, 1.0000004768371582031, 1.0000004768371582031, 1.0000004768371582031, 1.0000004768371582031, 1.0000004768371582031, 1.0000004768371582031, 1.0000004768371582031};
static const double tensor_dense_1_kernel_0[32][32] = 
{
  {0.21005970239639282227, -0.26625135540962219238, -0.18255065381526947021, 0.19263000786304473877, -0.13930304348468780518, 0.21248453855514526367, 0.38318809866905212402, 0.43828427791595458984, -0.27777472138404846191, -0.41041547060012817383, -0.066217683255672454834, 0.26179257035255432129, 0.36491814255714416504, 0.16311182081699371338, 0.0047304388135671615601, 0.00029859121423214673996, 0.41317546367645263672, -0.27024799585342407227, 0.13323059678077697754, -0.11496576666831970215, -0.29863491654396057129, 0.17044351994991302490, -0.18979741632938385010, 0.060377266258001327515, 0.0027153016999363899231, -0.13061267137527465820, -0.16009016335010528564, -0.084541141986846923828, -0.29990556836128234863, 0.30844420194625854492, 0.060502052307128906250, 0.24398365616798400879},
  {-0.060209885239601135254, -0.30210435390472412109, 0.26047411561012268066, -0.059709895402193069458, 0.25060096383094787598, 0.061189416795969009399, 0.16806647181510925293, -0.41096457839012145996, 0.22383145987987518311, -0.060954056680202484131, 0.32599508762359619141, 0.25932866334915161133, 0.16077560186386108398, -0.21186774969100952148, -0.038306411355733871460, 0.050121583044528961182, -0.023150783032178878784, -0.29929995536804199219, -0.14519767463207244873, 0.10778002440929412842, -0.060282673686742782593, -0.32142114639282226562, -0.21317911148071289062, -0.15116344392299652100, 0.28401529788970947266, -0.32049980759620666504, 0.30286541581153869629, 0.39614036679267883301, -0.17364124953746795654, -0.081399850547313690186, 0.38606616854667663574, 0.13409782946109771729},
  {-0.019743263721466064453, -0.23687517642974853516, 0.33184236288070678711, 0.23975108563899993896, -0.12935018539428710938, -0.12465719878673553467, 0.084998965263366699219, 0.017095714807510375977, -0.21340554952621459961, -0.24496600031852722168, 0.19742168486118316650, 0.11200028657913208008, 0.20765557885169982910, -0.24116501212120056152, -0.082470245659351348877, -0.036342058330774307251, 0.069732509553432464600, -0.12092848122119903564, -0.10575149208307266235, -0.022468481212854385376, -0.24922476708889007568, 0.12306510657072067261, 0.11912724375724792480, 0.0066692773252725601196, 0.36396637558937072754, -0.34829059243202209473, 0.18563793599605560303, -0.025787550956010818481, -0.27568241953849792480, 0.14010879397392272949, 0.088496975600719451904, 0.22670875489711761475},
  {-0.071589641273021697998, 0.12500198185443878174, 0.38897988200187683105, -0.21160672605037689209, 0.26452633738517761230, 0.21372707188129425049, 0.12901932001113891602, -0.49008470773696899414, 0.22611199319362640381, 0.24257987737655639648, -0.075825653970241546631, -0.14441213011741638184, 0.14874371886253356934, -0.34536385536193847656, 0.37051984667778015137, -0.33735850453376770020, 0.076852999627590179443, 0.28454479575157165527, -0.30199256539344787598, 0.26610413193702697754, 0.17940026521682739258, 0.16385664045810699463, -0.036002617329359054565, -0.10502770543098449707, -0.0036376828793436288834, -0.058856487274169921875, 0.18143764138221740723, 0.44474768638610839844, -0.24219805002212524414, 0.012038597837090492249, -0.16778486967086791992, 0.31490063667297363281},
  {-0.27646377682685852051, -0.19065035879611968994, -0.11570210009813308716, -0.053190413862466812134, 0.20325511693954467773, 0.27285060286521911621, 0.018654309213161468506, 0.12383140623569488525, 0.11331246048212051392, 0.32102176547050476074, -0.076635658740997314453, 0.22459176182746887207, -0.26154065132141113281, 0.089835204184055328369, 0.017864309251308441162, 0.084284469485282897949, -0.037624444812536239624, 0.25966200232505798340, -0.46756917238235473633, -0.22383460402488708496, 0.26806440949440002441, 0.060460876673460006714, 0.10230221599340438843, 0.12063688784837722778, -0.25604581832885742188, -0.13389994204044342041, 0.20672050118446350098, -0.13589805364608764648, 0.44863292574882507324, -0.35882574319839477539, -0.32998147606849670410, 0.42489272356033325195},
  {-0.19309875369071960449, 0.34576132893562316895, -0.29876062273979187012, -0.23540508747100830078, 0.24866150319576263428, -0.25777947902679443359, 0.023939214646816253662, 0.051461849361658096313, -0.030984316021203994751, -0.028363052755594253540, 0.28467053174972534180, -0.14118976891040802002, 0.31328439712524414062, -0.13600470125675201416, -0.13391610980033874512, -0.33011180162429809570, 0.060534648597240447998, 0.31007328629493713379, 0.24515666067600250244, 0.14322297275066375732, 0.018008137121796607971, 0.46400168538093566895, -0.28227797150611877441, -0.30537810921669006348, -0.26966992020606994629, -0.18039056658744812012, 0.11696504801511764526, -0.14606195688247680664, 0.38244494795799255371, 0.14004531502723693848, 0.11621904373168945312, -0.11416503041982650757},
  {0.025720469653606414795, 0.069529905915260314941, 0.13988162577152252197, 0.22677648067474365234, 0.26273936033248901367, -0.24819040298461914062, 0.20683954656124114990, 0.48272380232810974121, 0.11417865753173828125, -0.27241528034210205078, -0.24332895874977111816, 0.077354155480861663818, -0.010336322709918022156, -0.0094484519213438034058, 0.019818173721432685852, -0.18306042253971099854, 0.12448433786630630493, -0.065245538949966430664, 0.12068258225917816162, 0.085119970142841339111, 0.14253763854503631592, -0.16480785608291625977, -0.024370864033699035645, 0.25006908178329467773, -0.099672645330429077148, 0.24604901671409606934, -0.040691450238227844238, 0.22140879929065704346, -0.26926344633102416992, 0.096410788595676422119, 0.0025210101157426834106, -0.28810682892799377441},
  {0.34728610515594482422, -0.21985934674739837646, -0.047451060265302658081, 0.23830495774745941162, -0.29861667752265930176, -0.22827030718326568604, -0.18791148066520690918, -0.0054505709558725357056, -0.21772125363349914551, 0.15149138867855072021, 0.081090435385704040527, 0.38117057085037231445, -0.17401424050331115723, 0.21420876681804656982, -0.12676513195037841797, 0.085369355976581573486, -0.021437235176563262939, 0.37913179397583007812, 0.25832182168960571289, -0.40682756900787353516, 0.17039516568183898926, -0.11912891268730163574, 0.0036112037487328052521, -0.086949452757835388184, 0.022497767582535743713, 0.17575281858444213867, -0.18190588057041168213, -0.38694173097610473633, 0.28405120968818664551, -0.047477222979068756104, -0.29989659786224365234, 0.26924523711204528809},
  {-0.11952415108680725098, 0.29426223039627075195, 0.23281382024288177490, -0.22177863121032714844, -0.23850694298744201660, 0.12080974876880645752, 0.070846833288669586182, 0.10243678092956542969, -0.25141143798828125000, -0.46143311262130737305, -0.041568987071514129639, 0.26124262809753417969, -0.016755800694227218628, 0.054821539670228958130, -0.13528253138065338135, 0.28699618577957153320, 0.011942593380808830261, -0.23072193562984466553, -0.020453840494155883789, 0.16130578517913818359, 0.049325551837682723999, 0.0024031391367316246033, -0.45663118362426757812, 0.0092071043327450752258, 0.28290775418281555176, 0.27560651302337646484, -0.017013531178236007690, -0.31733489036560058594, 0.085488468408584594727, 0.038626659661531448364, -0.025376046076416969299, 0.053838148713111877441},
  {-0.23050025105476379395, 0.18826584517955780029, -0.086734823882579803467, -0.28428074717521667480, 0.29168120026588439941, -0.0088696498423814773560, -0.10797569900751113892, -0.034225616604089736938, 0.025220688432455062866, -0.11350634694099426270, -0.23961542546749114990, -0.14620974659919738770, -0.20547907054424285889, -0.15840311348438262939, -0.12460631132125854492, 0.43977913260459899902, 0.18087781965732574463, 0.15407679975032806396, 0.014797936193645000458, 0.13665197789669036865, 0.0057098870165646076202, 0.18207623064517974854, 0.037855628877878189087, 0.54380953311920166016, -0.14480410516262054443, 0.12488083541393280029, -0.079817175865173339844, -0.00090919563081115484238, -0.17545457184314727783, -0.11791860312223434448, 0.25634130835533142090, 0.26759120821952819824},
  {-0.087231628596782684326, 0.17313207685947418213, -0.25482052564620971680, 0.17829273641109466553, -0.10240767151117324829, 0.11977955698966979980, 0.19892606139183044434, 0.048561602830886840820, 0.0033391199540346860886, -0.17117890715599060059, 0.26859846711158752441, -0.19733242690563201904, 0.097914524376392364502, -0.22548116743564605713, 0.31008192896842956543, -0.025754237547516822815, 0.25710448622703552246, -0.14149759709835052490, 0.094682127237319946289, -0.18194156885147094727, -0.22891373932361602783, 0.051574852317571640015, -0.060415703803300857544, -0.21017546951770782471, 0.40919682383537292480, 0.18795391917228698730, -0.26835438609123229980, 0.020710734650492668152, -0.17265915870666503906, 0.31339448690414428711, 0.43015351891517639160, -0.32580265402793884277},
  {-0.052901417016983032227, 0.22692739963531494141, 0.39396622776985168457, -0.021231997758150100708, 0.098584927618503570557, -0.19965778291225433350, -0.20005652308464050293, 0.24345351755619049072, -0.27506586909294128418, -0.15166594088077545166, -0.0010601412504911422729, 0.21828895807266235352, 0.070829719305038452148, 0.22032965719699859619, -0.032405402511358261108, 0.28621453046798706055, 0.00037960126064717769623, 0.037759855389595031738, 0.061370123177766799927, -0.25423106551170349121, 0.23858132958412170410, 0.22591029107570648193, 0.29189956188201904297, -0.11215256899595260620, -0.064592853188514709473, 0.012338600121438503265, 0.12766410410404205322, 0.092484824359416961670, -0.21271868050098419189, -0.36170583963394165039, 0.23126800358295440674, 0.072817936539649963379},
  {-0.0056494921445846557617, 0.21236047148704528809, 0.11073406040668487549, 0.099496610462665557861, 0.22846068441867828369, -0.28098639845848083496, -0.14677660167217254639, -0.21783898770809173584, -0.029545869678258895874, -0.012643324211239814758, 0.36460602283477783203, 0.12032622098922729492, -0.042605891823768615723, 0.28725698590278625488, -0.056618839502334594727, 0.18000374734401702881, -0.078288711607456207275, -0.18051037192344665527, -0.52453207969665527344, 0.32960671186447143555, 0.094433315098285675049, -0.44232550263404846191, -0.22845809161663055420, 0.11422708630561828613, -0.15122140944004058838, -0.26115760207176208496, 0.20325288176536560059, 0.17841835319995880127, -0.058494392782449722290, -0.25190994143486022949, -0.029435731470584869385, -0.30924209952354431152},
  {0.38540637493133544922, 0.082790181040763854980, -0.37136998772621154785, -0.21427634358406066895, 0.41536694765090942383, -0.12789474427700042725, -0.0064942520111799240112, 0.36347079277038574219, 0.19726979732513427734, -0.033899530768394470215, 0.13728800415992736816, -0.48901686072349548340, 0.20687292516231536865, 0.23185482621192932129, 0.21653872728347778320, -0.24856130778789520264, 0.40430238842964172363, -0.0064889537170529365540, 0.032435394823551177979, -0.29635849595069885254, -0.011391422711312770844, 0.22241769731044769287, -0.20780545473098754883, 0.14017659425735473633, 0.034503214061260223389, -0.13770334422588348389, -0.35004913806915283203, -0.32277205586433410645, 0.14342726767063140869, 0.17440488934516906738, -0.16491805016994476318, 0.41352602839469909668},
  {0.096435032784938812256, -0.35729432106018066406, 0.052288457751274108887, 0.018012274056673049927, 0.25063967704772949219, 0.26096448302268981934, -0.24284370243549346924, -0.19460916519165039062, -0.10936178267002105713, 0.24881954491138458252, 0.22772412002086639404, 0.059571471065282821655, 0.36905840039253234863, -0.10965628921985626221, 0.078772366046905517578, 0.098462626338005065918, -0.24994844198226928711, -0.31799095869064331055, 0.011337597854435443878, -0.081413604319095611572, -0.10649511218070983887, -0.37970444560050964355, -0.12184721231460571289, -0.11591696739196777344, 0.26167070865631103516, -0.11752448230981826782, -0.081994503736495971680, -0.32913592457771301270, -0.21403063833713531494, 0.15097402036190032959, -0.29673770070075988770, -0.32232782244682312012},
  {-0.19852624833583831787, -0.012925934046506881714, 0.18913069367408752441, -0.049721840769052505493, -0.11587487906217575073, -0.23710359632968902588, -0.29864215850830078125, 0.26345834136009216309, -0.23268213868141174316, 0.028381770476698875427, 0.10162715613842010498, 0.19295960664749145508, 0.17787124216556549072, 0.24354533851146697998, -0.43262735009193420410, 0.15790319442749023438, 0.31080272793769836426, 0.058099459856748580933, -0.062349949032068252563, -0.35021260380744934082, 0.068187020719051361084, -0.20742312073707580566, 0.19401708245277404785, 0.30046379566192626953, -0.18839356303215026855, 0.014234276488423347473, 0.053517628461122512817, -0.064706958830356597900, -0.018595330417156219482, 0.10914120078086853027, -0.34780547022819519043, -0.038014054298400878906},
  {-0.022758945822715759277, 0.066169589757919311523, -0.17959018051624298096, -0.035160072147846221924, -0.27076548337936401367, 0.10330734401941299438, -0.075522780418395996094, -0.45530235767364501953, -0.043626405298709869385, -0.053487990051507949829, 0.23398731648921966553, -0.23552908003330230713, 0.072511628270149230957, 0.28155824542045593262, 0.24105337262153625488, -0.093432880938053131104, 0.36906459927558898926, 0.19178229570388793945, 0.33886677026748657227, 0.040080118924379348755, -0.30870038270950317383, 0.20720055699348449707, -0.29743939638137817383, -0.36745890974998474121, 0.040170710533857345581, -0.31694710254669189453, 0.26841139793395996094, -0.047106239944696426392, 0.15529212355613708496, 0.26388782262802124023, 0.17451681196689605713, -0.12165846675634384155},
  {-0.030351204797625541687, 0.22651034593582153320, -0.0026212688535451889038, -0.18016594648361206055, -0.059671826660633087158, -0.17260748147964477539, -0.10482423007488250732, 0.11479382216930389404, 0.14762364327907562256, 0.22914510965347290039, 0.40241247415542602539, -0.25138467550277709961, 0.048229262232780456543, -0.25898385047912597656, -0.25442564487457275391, -0.20894891023635864258, -0.084308609366416931152, -0.26044425368309020996, -0.32596868276596069336, 0.16920866072177886963, 0.11164820939302444458, 0.22332321107387542725, -0.063146069645881652832, -0.065020777285099029541, -0.0051021799445152282715, -0.27356716990470886230, 0.51097357273101806641, 0.41503280401229858398, 0.024404596537351608276, 0.035494893789291381836, 0.34309774637222290039, -0.015151692554354667664},
  {0.21755494177341461182, 0.15805749595165252686, 0.063669607043266296387, 0.19064041972160339355, -0.012411518022418022156, -0.11520591378211975098, 0.13080039620399475098, 0.45057126879692077637, -0.074494332075119018555, 0.16805882751941680908, 0.10844101756811141968, 0.057354774326086044312, 0.14797218143939971924, -0.28371852636337280273, 0.16073034703731536865, -0.35576850175857543945, 0.12912355363368988037, -0.091113820672035217285, 0.10328939557075500488, 0.37063142657279968262, -0.056098077446222305298, 0.15438619256019592285, 0.050199415534734725952, 0.15472310781478881836, -0.048590838909149169922, 0.29098594188690185547, 0.19947336614131927490, 0.16006593406200408936, 0.29889953136444091797, 0.019138636067509651184, 0.11536370217800140381, -0.10290781408548355103},
  {-0.20814231038093566895, 0.10476615279912948608, 0.013417691923677921295, 0.17299395799636840820, 0.32268890738487243652, 0.0025743490550667047501, -0.16781087219715118408, 0.26249244809150695801, -0.21115623414516448975, 0.15487091243267059326, -0.15954817831516265869, -0.063982814550399780273, -0.21189701557159423828, -0.15202666819095611572, 0.048141062259674072266, -0.24251827597618103027, -0.17826181650161743164, 0.088163837790489196777, -0.11989873647689819336, 0.083227880299091339111, -0.14778292179107666016, 0.41984722018241882324, -0.23257270455360412598, -0.29233166575431823730, 0.26108846068382263184, 0.32203954458236694336, -0.40751200914382934570, -0.026840176433324813843, 0.36840659379959106445, 0.25144243240356445312, -0.14531609416007995605, 0.22108344733715057373},
  {0.15422621369361877441, 0.038530055433511734009, 0.13909348845481872559, 0.085705853998661041260, 0.21473431587219238281, -0.011026790365576744080, -0.15816454589366912842, 0.020437749102711677551, 0.20774582028388977051, -0.036610182374715805054, -0.074310749769210815430, 0.056701332330703735352, -0.049903154373168945312, 0.20629487931728363037, -0.049699258059263229370, -0.21389886736869812012, -0.12809489667415618896, -0.28997999429702758789, 0.35814446210861206055, -0.053383622318506240845, -0.19727446138858795166, -0.22529409825801849365, 0.094632275402545928955, 0.087909400463104248047, 0.017147444188594818115, -0.20054931938648223877, -0.043139532208442687988, -0.098844550549983978271, 0.058753076940774917603, -0.17192554473876953125, 0.47892665863037109375, -0.18659035861492156982},
  {-0.17113561928272247314, -0.35964477062225341797, 0.32720965147018432617, -0.16370412707328796387, -0.030660225078463554382, 0.42258450388908386230, 0.041515965014696121216, -0.39597201347351074219, -0.24073028564453125000, 0.032682366669178009033, -0.0069995624944567680359, 0.049497328698635101318, 0.049987409263849258423, -0.33623525500297546387, -0.16705930233001708984, 0.30992969870567321777, 0.20560309290885925293, -0.16442318260669708252, -0.24735952913761138916, 0.12750409543514251709, 0.16442734003067016602, -0.22654221951961517334, 0.18581075966358184814, -0.10724216699600219727, -0.19451172649860382080, 0.0039595942944288253784, 0.53861892223358154297, -0.32189914584159851074, -0.16996298730373382568, 0.22039017081260681152, -0.089868955314159393311, 0.24961483478546142578},
  {-0.20834390819072723389, -0.18633627891540527344, 0.20434866845607757568, 0.17981365323066711426, -0.25192716717720031738, -0.17047801613807678223, -0.11518332362174987793, -0.12429601699113845825, -0.17847645282745361328, -0.18295250833034515381, -0.39687421917915344238, -0.11768422275781631470, 0.23864059150218963623, 0.16970136761665344238, 0.0044698570854961872101, -0.065425425767898559570, 0.025782542303204536438, -0.011242319829761981964, 0.13270032405853271484, -0.050620138645172119141, -0.20331826806068420410, -0.080902129411697387695, 0.26383888721466064453, -0.46331769227981567383, -0.23374614119529724121, -0.025329768657684326172, 0.096759781241416931152, 0.062988363206386566162, -0.076628208160400390625, -0.21771456301212310791, -0.052131745964288711548, -0.27961778640747070312},
  {0.52527028322219848633, -0.33149084448814392090, 0.20142404735088348389, 0.26867952942848205566, 0.16904927790164947510, -0.18095432221889495850, 0.19391649961471557617, -0.096868686378002166748, -0.14846357703208923340, -0.35734936594963073730, 0.30114454030990600586, 0.18494579195976257324, 0.38961771130561828613, -0.11696349829435348511, 0.24842756986618041992, 0.32184693217277526855, -0.24454133212566375732, 0.041790138930082321167, 0.29525026679039001465, -0.36694076657295227051, -0.30416277050971984863, -0.29324895143508911133, 0.11905148625373840332, -0.28372958302497863770, -0.12963250279426574707, -0.12819428741931915283, -0.28268462419509887695, -0.37551590800285339355, 0.049062304198741912842, 0.11734911054372787476, 0.22575283050537109375, -0.26792687177658081055},
  {0.081780694425106048584, 0.20805059373378753662, -0.27214661240577697754, 0.028362147510051727295, -0.16908141970634460449, 0.072033502161502838135, -0.33405190706253051758, 0.27699568867683410645, -0.062603868544101715088, -0.27653396129608154297, -0.14722399413585662842, 0.19401831924915313721, -0.27181902527809143066, 0.14946681261062622070, -0.051586449146270751953, 0.21617314219474792480, -0.12189363688230514526, 0.24872304499149322510, -0.066247425973415374756, -0.34156528115272521973, 0.26125800609588623047, -0.010103324428200721741, 0.17900371551513671875, -0.084292098879814147949, -0.065335586667060852051, -0.36118948459625244141, -0.075070597231388092041, -0.24438403546810150146, 0.22421556711196899414, -0.089029587805271148682, -0.088768430054187774658, 0.065130360424518585205},
  {0.25868678092956542969, 0.19103093445301055908, 0.36559796333312988281, -0.24726371467113494873, 0.17537075281143188477, 0.26126646995544433594, 0.27361765503883361816, -0.31763395667076110840, -0.14852063357830047607, 0.019019497558474540710, -0.11447987705469131470, -0.054330050945281982422, 0.21778903901576995850, 0.14308790862560272217, 0.40892359614372253418, -0.028644934296607971191, -0.062381021678447723389, -0.32119065523147583008, 0.30925863981246948242, -0.15705986320972442627, 0.22533899545669555664, -0.18172429502010345459, -0.46321114897727966309, -0.28956532478332519531, 0.31168201565742492676, -0.017364762723445892334, -0.25624668598175048828, -0.018686266615986824036, -0.077903479337692260742, 0.13572335243225097656, -0.052757225930690765381, -0.19955725967884063721},
  {0.31152179837226867676, -0.23048011958599090576, -0.18721953034400939941, 0.17235994338989257812, 0.23018094897270202637, 0.16290444135665893555, 0.19571271538734436035, 0.20150575041770935059, -0.21334020793437957764, 0.18231256306171417236, 0.13326741755008697510, 0.069752223789691925049, -0.12449744343757629395, 0.28166535496711730957, -0.34271299839019775391, -0.29227545857429504395, -0.029365388676524162292, 0.32636281847953796387, -0.35017299652099609375, 0.15122084319591522217, -0.23631948232650756836, 0.0021114605478942394257, -0.042647931724786758423, 0.13629646599292755127, -0.010829339735209941864, -0.12538026273250579834, -0.28473207354545593262, -0.44750988483428955078, -0.052585855126380920410, -0.23159210383892059326, 0.0061358478851616382599, 0.21077065169811248779},
  {0.34088531136512756348, -0.15081170201301574707, -0.070383600890636444092, 0.079980172216892242432, -0.039364263415336608887, -0.14731797575950622559, 0.062697321176528930664, -0.073385082185268402100, 0.13361033797264099121, 0.034098524600267410278, 0.18640987575054168701, -0.13581304252147674561, 0.058832604438066482544, -0.17204372584819793701, -0.38774716854095458984, -0.21490152180194854736, 0.20400989055633544922, 0.28090813755989074707, 0.011487735435366630554, 0.17366839945316314697, -0.044244185090065002441, 0.22710131108760833740, 0.39822971820831298828, -0.012977856211364269257, -0.040524896234273910522, -0.13814602792263031006, 0.039080057293176651001, 0.14990249276161193848, 0.14375416934490203857, 0.041003774851560592651, -0.042168311774730682373, 0.33122333884239196777},
  {0.19175350666046142578, -0.10532501339912414551, -0.28220835328102111816, 0.19445653259754180908, -0.046693719923496246338, 0.11450821906328201294, -0.10827444493770599365, -0.20466563105583190918, 0.14514794945716857910, -0.018443172797560691833, 0.15510128438472747803, -0.24727764725685119629, -0.19801948964595794678, -0.30066147446632385254, -0.23674970865249633789, -0.12182468175888061523, 0.052038107067346572876, -0.00096222502179443836212, -0.31717091798782348633, -0.16897551715373992920, -0.019439417868852615356, -0.14521731436252593994, 0.67085695266723632812, -0.082826279103755950928, 0.23431356251239776611, -0.18844978511333465576, 0.13737085461616516113, -0.063686504960060119629, -0.034260068088769912720, 0.12276148051023483276, -0.17145076394081115723, 0.11043201386928558350},
  {0.20893086493015289307, -0.33920845389366149902, -0.074884034693241119385, -0.21106025576591491699, 0.034119445830583572388, 0.42301878333091735840, -0.032462436705827713013, 0.13397382199764251709, 0.092366285622119903564, -0.054055809974670410156, -0.026863131672143936157, 0.18910695612430572510, -0.27345967292785644531, -0.57827693223953247070, -0.12127634137868881226, -0.20586580038070678711, 0.063344471156597137451, -0.26986762881278991699, -0.14787362515926361084, 0.24747703969478607178, -0.075172916054725646973, 0.045070543885231018066, -0.019613588228821754456, 0.22060805559158325195, -0.37854602932929992676, -0.21647416055202484131, 0.30201047658920288086, 0.049059681594371795654, -0.039072211831808090210, -0.068715095520019531250, -0.16454118490219116211, 0.13438555598258972168},
  {-0.31981649994850158691, -0.10277599096298217773, 0.043179728090763092041, -0.079344645142555236816, 0.29704266786575317383, -0.048085667192935943604, -0.044603370130062103271, 0.024821037426590919495, 0.19780971109867095947, 0.091510482132434844971, 0.20052194595336914062, -0.11985614895820617676, 0.016966141760349273682, -0.29952013492584228516, -0.096429042518138885498, -0.20582240819931030273, 0.27657794952392578125, -0.046678431332111358643, 0.36847108602523803711, 0.38347253203392028809, -0.23685579001903533936, -0.10078471899032592773, 0.19454707205295562744, 0.17110565304756164551, 0.23471143841743469238, 0.083668880164623260498, 0.39019370079040527344, 0.26301115751266479492, 0.34511840343475341797, 0.27272289991378784180, 0.079623050987720489502, -0.13732674717903137207},
  {0.089871883392333984375, -0.097455047070980072021, -0.19445255398750305176, 0.17268149554729461670, -0.18222475051879882812, -0.066221088171005249023, -0.21535325050354003906, -0.11574281007051467896, -0.26053956151008605957, 0.0093782348558306694031, -0.078835502266883850098, 0.011483670212328433990, 0.19092682003974914551, 0.21724312007427215576, -0.39294368028640747070, 0.35736235976219177246, -0.23858572542667388916, -0.063195690512657165527, 0.11151642352342605591, -0.27886435389518737793, 0.15679027140140533447, -0.29275757074356079102, 0.35551217198371887207, 0.12260974943637847900, 0.24168018996715545654, 0.22779816389083862305, 0.28480538725852966309, -0.12179077416658401489, 0.098839111626148223877, 0.026754394173622131348, -0.28524467349052429199, -0.31996995210647583008}
};
static const double tensor_dense_1_bias_0[32] = 
{0.024856809526681900024, -0.21056465804576873779, -0.10779914259910583496, -0.19869604706764221191, 0.50988376140594482422, 0.21725964546203613281, 0.25911334156990051270, 0.32835668325424194336, 0.40924310684204101562, 0.12381716817617416382, 0.066447414457798004150, -0.33982637524604797363, 0.38061508536338806152, -0.42111936211585998535, 0.23985971510410308838, -0.12607033550739288330, 0.21815009415149688721, -0.38558351993560791016, 0.12476822733879089355, 0.19202975928783416748, -0.44667017459869384766, 0.12979668378829956055, -0.11715267598628997803, -0.13316559791564941406, 0.10229074209928512573, -0.022581785917282104492, 0.11421392858028411865, 0.24737291038036346436, -0.20386719703674316406, 0.31294503808021545410, 0.16994658112525939941, 0.14725691080093383789};
static const double tensor_scale1[32] = 
{14.506169319152832031, 18.434490203857421875, 20.844121932983398438, 9.1804199218750000000, 3.9357748031616210938, 17.953210830688476562, 8.5871410369873046875, 11.192100524902343750, 3.9796347618103027344, 7.1233272552490234375, 13.850971221923828125, 8.8491334915161132812, 11.112923622131347656, 15.923966407775878906, 21.029830932617187500, 17.336868286132812500, 11.068083763122558594, 6.8255720138549804688, 5.4022097587585449219, 6.9848356246948242188, 4.4678034782409667969, 14.821203231811523438, 4.8902125358581542969, 5.2764368057250976562, 10.197753906250000000, 2.9123940467834472656, 6.9088349342346191406, 8.7406940460205078125, 4.9724607467651367188, 23.351152420043945312, 7.6639938354492187500, 12.583980560302734375};
static const double tensor_bias1[32] = 
{-12.677920341491699219, 12.966103553771972656, 19.765138626098632812, 6.6825652122497558594, -1.2833607196807861328, -12.990118980407714844, -7.3274073600769042969, 6.1004443168640136719, 0.45258063077926635742, -4.7356948852539062500, -12.626045227050781250, -1.0352427959442138672, 8.6600246429443359375, 6.2078881263732910156, 18.455167770385742188, 15.470676422119140625, 7.0961356163024902344, -3.7002048492431640625, 3.4021093845367431641, -3.4136831760406494141, -3.3080627918243408203, 9.9164066314697265625, -1.9503842592239379883, -0.96248239278793334961, 7.6467461585998535156, -0.50887417793273925781, 3.3162605762481689453, -6.0248990058898925781, 3.4940814971923828125, 22.342445373535156250, -3.5263223648071289062, 10.357028961181640625};
static const double tensor_mean1[32] = 
{0.0000000000000000000, -0.0000000000000000000, -0.0000000000000000000, -0.0000000000000000000, 0.0000000000000000000, 0.0000000000000000000, 0.0000000000000000000, -0.0000000000000000000, -0.0000000000000000000, 0.0000000000000000000, 0.0000000000000000000, 0.0000000000000000000, -0.0000000000000000000, -0.0000000000000000000, -0.0000000000000000000, -0.0000000000000000000, -0.0000000000000000000, 0.0000000000000000000, -0.0000000000000000000, 0.0000000000000000000, 0.0000000000000000000, -0.0000000000000000000, 0.0000000000000000000, 0.0000000000000000000, -0.0000000000000000000, 0.0000000000000000000, -0.0000000000000000000, 0.0000000000000000000, -0.0000000000000000000, -0.0000000000000000000, 0.0000000000000000000, -0.0000000000000000000};
static const double tensor_var1[32] = 
{1.0000004768371582031, 1.0000004768371582031, 1.0000004768371582031, 1.0000004768371582031, 1.0000004768371582031, 1.0000004768371582031, 1.0000004768371582031, 1.0000004768371582031, 1.0000004768371582031, 1.0000004768371582031, 1.0000004768371582031, 1.0000004768371582031, 1.0000004768371582031, 1.0000004768371582031, 1.0000004768371582031, 1.0000004768371582031, 1.0000004768371582031, 1.0000004768371582031, 1.0000004768371582031, 1.0000004768371582031, 1.0000004768371582031, 1.0000004768371582031, 1.0000004768371582031, 1.0000004768371582031, 1.0000004768371582031, 1.0000004768371582031, 1.0000004768371582031, 1.0000004768371582031, 1.0000004768371582031, 1.0000004768371582031, 1.0000004768371582031, 1.0000004768371582031};
static const double tensor_dense_kernel_0[94][32] = 
{
  {-0.057437639683485031128, -0.14972008764743804932, 0.16633963584899902344, -0.086596161127090454102, -0.017068775370717048645, 0.18421176075935363770, -0.26548835635185241699, -0.030151419341564178467, -0.040759295225143432617, 0.036711689084768295288, -0.14237667620182037354, -0.21774527430534362793, 0.19115900993347167969, -0.072541944682598114014, -0.18577094376087188721, -0.073144115507602691650, -0.046247504651546478271, 0.055450253188610076904, 0.14058905839920043945, -0.044203463941812515259, -0.14837107062339782715, -0.10409278422594070435, -0.056223049759864807129, 0.17697761952877044678, 0.056461621075868606567, -0.19454184174537658691, 0.15178439021110534668, -0.099809527397155761719, 0.19074769318103790283, 0.24361127614974975586, -0.11712777614593505859, -0.19445371627807617188},
  {-0.056701570749282836914, 0.27795714139938354492, -0.078563705086708068848, -0.13918524980545043945, 0.10960045456886291504, -0.090889088809490203857, 0.10520152002573013306, 0.061513029038906097412, 0.19181315600872039795, -0.050064969807863235474, -0.19406901299953460693, 0.077545002102851867676, 0.14732095599174499512, 0.045896869152784347534, 0.096917524933815002441, 0.031265638768672943115, -0.097444765269756317139, 0.0049411710351705551147, -0.18483075499534606934, 0.099145546555519104004, 0.19117768108844757080, -0.18615494668483734131, 0.11637014150619506836, -0.19959264993667602539, -0.16247498989105224609, 0.23750407993793487549, -0.048174388706684112549, -0.24626579880714416504, -0.19739070534706115723, 0.13079161942005157471, -0.20878586173057556152, -0.17832717299461364746},
  {-0.16300292313098907471, -0.15000231564044952393, 0.017409769818186759949, -0.21743454039096832275, -0.095288686454296112061, -0.015581705607473850250, 0.087979465723037719727, 0.11574777215719223022, -0.18164697289466857910, 0.076335228979587554932, -0.13749447464942932129, -0.18710316717624664307, -0.13056175410747528076, -0.079224742949008941650, 0.17981673777103424072, -0.0081566115841269493103, -0.12057992815971374512, 0.15965124964714050293, 0.069992773234844207764, 0.21091251075267791748, 0.013010419905185699463, -0.16724812984466552734, 0.17687152326107025146, -0.11930656433105468750, -0.17943949997425079346, -0.19740046560764312744, -0.19356188178062438965, -0.11352442950010299683, -0.18062388896942138672, 0.049100808799266815186, 0.10002384334802627563, -0.071541219949722290039},
  {0.068979546427726745605, -0.091722235083580017090, 0.14439664781093597412, -0.029826665297150611877, -0.14744192361831665039, -0.045129131525754928589, 0.25167503952980041504, -0.10575286298990249634, -0.028148405253887176514, -0.036400336772203445435, -0.17049771547317504883, 0.11420661211013793945, 0.033633340150117874146, -0.050704788416624069214, -0.12725253403186798096, 0.074880614876747131348, -0.079403772950172424316, -0.16851621866226196289, -0.092886544764041900635, -0.15208812057971954346, 0.13578374683856964111, 0.10838016867637634277, -0.15288837254047393799, 0.20652441680431365967, -0.041892454028129577637, 0.051723320037126541138, 0.18474529683589935303, -0.25852918624877929688, -0.20140242576599121094, 0.0081199696287512779236, 0.15998637676239013672, -0.27613726258277893066},
  {0.081359699368476867676, 0.25816968083381652832, -0.14011195302009582520, -0.095075346529483795166, 0.012020041234791278839, -0.15383939445018768311, 0.13119453191757202148, -0.098199494183063507080, 0.19117891788482666016, 0.17087478935718536377, 0.16829858720302581787, 0.035135950893163681030, -0.022945251315832138062, -0.14702472090721130371, -0.051876109093427658081, 0.23374710977077484131, 0.091103106737136840820, -0.12791605293750762939, -0.19431708753108978271, 0.063030175864696502686, -0.077663443982601165771, -0.018920442089438438416, 0.086608983576297760010, -0.074812531471252441406, 0.0011960451956838369370, 0.058933820575475692749, -0.18654131889343261719, 0.12432768940925598145, -0.11849956214427947998, -0.12959808111190795898, -0.060653191059827804565, 0.099449560046195983887},
  {-0.12953330576419830322, 0.21389739215373992920, 0.058425147086381912231, -0.074656277894973754883, -0.10650985687971115112, 0.096930980682373046875, 0.16142378747463226318, -0.012122322805225849152, -0.094365008175373077393, -0.011284560896456241608, 0.21449273824691772461, -0.20681706070899963379, 0.15439403057098388672, -0.073520503938198089600, 0.19323223829269409180, -0.11828683316707611084, -0.081088885664939880371, 0.16847923398017883301, 0.070751100778579711914, 0.15799050033092498779, -0.14242407679557800293, -0.025963904336094856262, -0.21846742928028106689, 0.045663550496101379395, 0.13256573677062988281, 0.14314149320125579834, 0.051303174346685409546, 0.086718574166297912598, 0.028616379946470260620, -0.065138921141624450684, -0.055179234594106674194, -0.016131402924656867981},
  {0.025386324152350425720, 0.10103535652160644531, -0.13352644443511962891, -0.043795909732580184937, 0.12802883982658386230, 0.12353225052356719971, -0.048655301332473754883, -0.069245494902133941650, -0.098838940262794494629, -0.063508123159408569336, -0.048838175833225250244, 0.13920800387859344482, -0.12226414680480957031, -0.093800671398639678955, 0.13922263681888580322, -0.090822272002696990967, 0.21502661705017089844, 0.12157769501209259033, 0.23503541946411132812, 0.13628824055194854736, 0.19752529263496398926, -0.088914901018142700195, 0.036325357854366302490, 0.25060501694679260254, 0.096471905708312988281, 0.037820611149072647095, 0.029952974990010261536, -0.057818416506052017212, -0.27373415231704711914, -0.057466469705104827881, -0.018116051331162452698, 0.0055023077875375747681},
  {0.092131316661834716797, -0.040351264178752899170, -0.14206525683403015137, 0.0082560507580637931824, 0.14848336577415466309, -0.065488524734973907471, -0.17276151478290557861, 0.19562746584415435791, -0.086721673607826232910, -0.029190540313720703125, 0.099618077278137207031, 0.034996956586837768555, 0.22709494829177856445, -0.057596433907747268677, -0.20437051355838775635, -0.19409872591495513916, 0.062920652329921722412, 0.12135854363441467285, -0.20432746410369873047, 0.047040104866027832031, 0.094085372984409332275, -0.093886569142341613770, 0.0058307410217821598053, -0.10366423428058624268, -0.18786796927452087402, 0.18332257866859436035, 0.18604588508605957031, -0.10669849812984466553, 0.076385319232940673828, -0.15734490752220153809, -0.22237366437911987305, 0.18499314785003662109},
  {-0.19234268367290496826, 0.028299530968070030212, -0.15095570683479309082, -0.086811959743499755859, -0.0092949187383055686951, -0.12179073691368103027, 0.10369208455085754395, -0.088272295892238616943, -0.14710447192192077637, 0.15890248119831085205, -0.016922945156693458557, 0.12050062417984008789, 0.33841741085052490234, -0.19755977392196655273, -0.0043758265674114227295, 0.13095293939113616943, -0.0043127089738845825195, 0.16315457224845886230, -0.14294075965881347656, 0.10756288468837738037, 0.13889229297637939453, -0.056221004575490951538, 0.037066195160150527954, -0.0084047131240367889404, -0.016636306419968605042, 0.0089965825900435447693, 0.087650410830974578857, -0.096362307667732238770, -0.13662426173686981201, -0.21532121300697326660, -0.11273647844791412354, 0.25702807307243347168},
  {-0.13901317119598388672, -0.15572972595691680908, -0.055709481239318847656, -0.13474006950855255127, 0.11930135637521743774, 0.19978885352611541748, 0.16413222253322601318, -0.11429021507501602173, 0.073131769895553588867, -0.068101577460765838623, 0.012386802583932876587, -0.19743834435939788818, -0.13008147478103637695, -0.13345815241336822510, 0.14573916792869567871, -0.24476338922977447510, -0.0026883841492235660553, 0.20607005059719085693, -0.20128366351127624512, -0.044838473200798034668, 0.13658210635185241699, 0.0085685206577181816101, -0.066603399813175201416, -0.19588857889175415039, -0.053282115608453750610, 0.035321921110153198242, 0.14777371287345886230, -0.038874447345733642578, -0.067995578050613403320, 0.030551346018910408020, -0.13998730480670928955, -0.18634200096130371094},
  {0.024471817538142204285, 0.10433454811573028564, -0.10744514316320419312, 0.030144428834319114685, -0.0078632989898324012756, -0.027839779853820800781, 0.12244074046611785889, -0.036929510533809661865, 0.11522816866636276245, 0.21211171150207519531, 0.13546328246593475342, -0.18266248703002929688, -0.095909483730792999268, -0.031493872404098510742, 0.022777816280722618103, -0.089442268013954162598, 0.12967631220817565918, -0.050843022763729095459, -0.23302936553955078125, -0.16160173714160919189, -0.076799750328063964844, 0.049336276948451995850, -0.14517913758754730225, -0.12958805263042449951, -0.090384908020496368408, -0.051183894276618957520, -0.19417539238929748535, -0.12685464322566986084, -0.17173801362514495850, -0.020584151148796081543, 0.18201525509357452393, 0.084556147456169128418},
  {0.18036924302577972412, 0.11261533200740814209, -0.14062581956386566162, 0.15220132470130920410, 0.19991657137870788574, -0.017633184790611267090, 0.016953300684690475464, 0.0053095817565917968750, -0.042849421501159667969, 0.30023801326751708984, -0.060096122324466705322, 0.024941118434071540833, -0.28958407044410705566, 0.080219618976116180420, 0.11163138598203659058, -0.13256032764911651611, -0.014642853289842605591, -0.12334821373224258423, 0.043930131942033767700, 0.020186776295304298401, -0.21427372097969055176, 0.15502999722957611084, -0.11740325391292572021, -0.18748445808887481689, 0.023701056838035583496, 0.13755555450916290283, 0.14365428686141967773, 0.26915541291236877441, 0.18418224155902862549, 0.083580382168292999268, 0.024341186508536338806, -0.14497990906238555908},
  {-0.14950525760650634766, -0.026580581441521644592, 0.043880376964807510376, -0.096954412758350372314, -0.064121536910533905029, 0.17557619512081146240, 0.15174871683120727539, 0.081361666321754455566, 0.15077100694179534912, -0.20939916372299194336, -0.059239979833364486694, -0.089935101568698883057, 0.031663544476032257080, -0.11762896925210952759, -0.12968188524246215820, -0.12893213331699371338, -0.043666936457157135010, -0.11139944940805435181, -0.10590629279613494873, 0.19978459179401397705, 0.15333536267280578613, -0.12504932284355163574, -0.13727705180644989014, 0.16294634342193603516, -0.051233962178230285645, 0.14805723726749420166, 0.070471338927745819092, -0.11075346171855926514, 0.082299232482910156250, 0.068136319518089294434, 0.029380494728684425354, -0.16821233928203582764},
  {-0.21695722639560699463, -0.058165702968835830688, 0.12933310866355895996, -0.16660623252391815186, -0.064916446805000305176, 0.091544494032859802246, 0.12046586722135543823, 0.029273608699440956116, 0.26128819584846496582, 0.062437705695629119873, 0.089855194091796875000, 0.087478563189506530762, 0.052046220749616622925, -0.092391200363636016846, 0.088333375751972198486, -0.019245129078626632690, 0.078855901956558227539, -0.19917273521423339844, -0.00058919563889503479004, -0.087307468056678771973, 0.013983612880110740662, 0.048114068806171417236, -0.011016181670129299164, 0.087493360042572021484, -0.051180634647607803345, 0.18423436582088470459, 0.041437029838562011719, 0.066153831779956817627, -0.044664114713668823242, -0.0098927058279514312744, 0.15897175669670104980, -0.20001852512359619141},
  {-0.029615119099617004395, -0.052333720028400421143, -0.14511308073997497559, 0.083695918321609497070, 0.015737304463982582092, -0.13692937791347503662, -0.055869881063699722290, 0.12899006903171539307, -0.067842051386833190918, -0.13991148769855499268, 0.18536858260631561279, -0.063038997352123260498, 0.10351644456386566162, 0.12626421451568603516, 0.22359423339366912842, 0.30480328202247619629, 0.079795137047767639160, -0.027850406244397163391, -0.022932494059205055237, 0.016500478610396385193, 0.14673805236816406250, 0.058395314961671829224, -0.24225318431854248047, 0.15604862570762634277, -0.020317468792200088501, -0.075835190713405609131, 0.058741193264722824097, -0.28570580482482910156, -0.0086682671681046485901, 0.10340300202369689941, 0.078760221600532531738, 0.11103880405426025391},
  {0.10529140383005142212, 0.0043414561077952384949, 0.021749367937445640564, -0.044338904321193695068, 0.082978323101997375488, -0.058261238038539886475, 0.11488581448793411255, -0.059625603258609771729, -0.16081333160400390625, -0.057041242718696594238, 0.11240613460540771484, -0.082763828337192535400, -0.031710702925920486450, 0.14534348249435424805, 0.24714680016040802002, -0.23405471444129943848, 0.22558453679084777832, -0.10549562424421310425, 0.029997987672686576843, 0.079181909561157226562, 0.14226417243480682373, 0.13931941986083984375, 0.23947976529598236084, 0.14574874937534332275, 0.057709347456693649292, -0.13784964382648468018, -0.076424382627010345459, -0.098005726933479309082, 0.020213913172483444214, 0.13771107792854309082, -0.066441640257835388184, 0.037399385124444961548},
  {0.11206043511629104614, 0.093775406479835510254, -0.17302799224853515625, 0.025888407602906227112, 0.037346016615629196167, -0.012804047204554080963, -0.075367383658885955811, 0.14039890468120574951, -0.088360376656055450439, 0.085054829716682434082, -0.26071640849113464355, -0.22191663086414337158, -0.076962985098361968994, 0.027837065979838371277, 0.015886798501014709473, 0.15554985404014587402, -0.16640381515026092529, 0.21192044019699096680, 0.26078760623931884766, -0.045425254851579666138, 0.088871344923973083496, 0.23332999646663665771, -0.10753517597913742065, -0.061039213091135025024, 0.14867173135280609131, -0.15432952344417572021, -0.019612180069088935852, 0.13646981120109558105, -0.072049431502819061279, 0.0015127910301089286804, 0.23009051382541656494, 0.099190674722194671631},
  {-0.13690960407257080078, -0.11834777891635894775, -0.20002309978008270264, -0.17087191343307495117, 0.13687051832675933838, 0.026467476040124893188, 0.066177211701869964600, -0.11793584376573562622, 0.17434141039848327637, 0.11745081841945648193, 0.29154869914054870605, -0.22706079483032226562, 0.17320144176483154297, 0.13272571563720703125, 0.14088505506515502930, -0.085873119533061981201, 0.035604089498519897461, 0.12454071640968322754, 0.068866692483425140381, 0.23327723145484924316, 0.13225346803665161133, 0.11090574413537979126, 0.12959074974060058594, -0.12832577526569366455, 0.056157700717449188232, 0.15075808763504028320, 0.10331869870424270630, -0.11661160737276077271, 0.15050247311592102051, 0.19157505035400390625, -0.0071319984272122383118, 0.11758097261190414429},
  {0.044553600251674652100, 0.067723378539085388184, 0.26165887713432312012, -0.15296156704425811768, 0.012703629210591316223, 0.15001848340034484863, -0.024504976347088813782, 0.10972683131694793701, -0.13838052749633789062, -0.16997772455215454102, -0.036736741662025451660, 0.10867109149694442749, 0.076883375644683837891, -0.074843108654022216797, 0.075090907514095306396, 0.27848482131958007812, 0.0025600555818527936935, -0.17044939100742340088, -0.10763193666934967041, 0.18673184514045715332, 0.082507193088531494141, 0.23296535015106201172, 0.082528091967105865479, 0.14898639917373657227, 0.025999993085861206055, 0.085439309477806091309, -0.067741841077804565430, -0.19096744060516357422, -0.19666664302349090576, 0.21195010840892791748, 0.00036971672670915722847, -0.14824183285236358643},
  {-0.19762030243873596191, 0.021485587581992149353, -0.0026059548836201429367, 0.088166519999504089355, -0.13893997669219970703, -0.21662580966949462891, -0.21040958166122436523, -0.049500156193971633911, -0.14666210114955902100, 0.061758540570735931396, -0.13477869331836700439, -0.18357868492603302002, 0.20058213174343109131, 0.058852441608905792236, -0.15291027724742889404, -0.20178811252117156982, -0.22665037214756011963, 0.069782435894012451172, 0.19261635839939117432, 0.086692541837692260742, -0.0084585333243012428284, 0.091918468475341796875, -0.23262880742549896240, 0.18050850927829742432, -0.14436510205268859863, 0.034319698810577392578, -0.11750549823045730591, -0.084061853587627410889, -0.12283328175544738770, 0.19169020652770996094, -0.038529593497514724731, 0.099571131169795989990},
  {0.16660609841346740723, -0.053604889661073684692, 0.065084330737590789795, 0.15620525181293487549, -0.12161172926425933838, 0.19992558658123016357, -0.11081524938344955444, -0.020507069304585456848, 0.16342277824878692627, 0.017718546092510223389, -0.026493441313505172729, 0.039750698953866958618, 0.13261190056800842285, -0.20107021927833557129, -0.18702058494091033936, -0.26509839296340942383, -0.19360762834548950195, 0.015711542218923568726, -0.15572202205657958984, -0.048023190349340438843, -0.029737249016761779785, -0.076019264757633209229, 0.021020064130425453186, 0.19627366960048675537, -0.016134757548570632935, -0.0090919798240065574646, -0.18538650870323181152, 0.22057940065860748291, -0.071471810340881347656, 0.18714462220668792725, 0.017767641693353652954, 0.11955072730779647827},
  {0.072670079767704010010, 0.016506835818290710449, -0.059121217578649520874, 0.0049997949972748756409, 0.068294793367385864258, -0.15275831520557403564, 0.033000960946083068848, 0.092480055987834930420, 0.17042036354541778564, -0.020199952647089958191, 0.036488529294729232788, -0.083689332008361816406, -0.011389028280973434448, 0.12423010170459747314, -0.076395705342292785645, -0.081945218145847320557, 0.23308587074279785156, 0.24701583385467529297, -0.062698163092136383057, 0.019683416932821273804, 0.085801444947719573975, -0.027393639087677001953, -0.0085143437609076499939, 0.046864036470651626587, 0.073879346251487731934, -0.21670232713222503662, 0.057859640568494796753, -0.014716246165335178375, -0.058868404477834701538, -0.050293203443288803101, -0.10055587440729141235, -0.044809281826019287109},
  {0.00033371563768014311790, -0.13553315401077270508, -0.21494233608245849609, -0.091966062784194946289, 0.18867775797843933105, 0.15794643759727478027, 0.14043390750885009766, -0.13526184856891632080, 0.14329753816127777100, -0.21437469124794006348, 0.094296857714653015137, 0.13511562347412109375, 0.13447639346122741699, -0.037473868578672409058, -0.11998142302036285400, 0.19051079452037811279, 0.014282022602856159210, 0.13884416222572326660, 0.15622811019420623779, 0.027266938239336013794, 0.16767847537994384766, 0.13862782716751098633, -0.024495175108313560486, 0.19206595420837402344, 0.051326263695955276489, -0.061656612902879714966, 0.061639424413442611694, 0.14511790871620178223, -0.0040474506095051765442, 0.077649347484111785889, 0.12235620617866516113, 0.10841134190559387207},
  {-0.049493912607431411743, -0.093878127634525299072, -0.17694503068923950195, 0.051317490637302398682, 0.13043202459812164307, 0.17746254801750183105, -0.074480354785919189453, 0.12596012651920318604, 0.066380076110363006592, -0.15764518082141876221, 0.072350397706031799316, -0.17564940452575683594, 0.15388675034046173096, -0.13607358932495117188, -0.0080765243619680404663, 0.0094168055802583694458, 0.17018610239028930664, 0.018704922869801521301, -0.075522273778915405273, -0.21205499768257141113, 0.038785353302955627441, 0.0060141966678202152252, 0.060129631310701370239, -0.063188463449478149414, 0.051279611885547637939, 0.18308974802494049072, -0.17070241272449493408, -0.15937446057796478271, -0.17564964294433593750, -0.0049686110578477382660, 0.096098631620407104492, 0.041658025234937667847},
  {0.12789784371852874756, -0.11664070188999176025, -0.16734570264816284180, 0.16463734209537506104, 0.12260256707668304443, 0.074400834739208221436, 0.14358656108379364014, 0.033052168786525726318, 0.094686225056648254395, -0.15002138912677764893, 0.17521594464778900146, 0.075477138161659240723, -0.058384306728839874268, -0.090754702687263488770, -0.015831410884857177734, -0.25413024425506591797, -0.084498666226863861084, 0.11878705769777297974, 0.17493468523025512695, -0.17189051210880279541, 0.061901699751615524292, -0.045013539493083953857, 0.057326607406139373779, -0.098412990570068359375, -0.0021658351179212331772, 0.14738950133323669434, -0.021291168406605720520, -0.16123464703559875488, -0.14785332977771759033, -0.22925212979316711426, -0.13739266991615295410, -0.24356368184089660645},
  {0.18341812491416931152, 0.10939542204141616821, 0.093560308218002319336, -0.17725397646427154541, -0.066263154149055480957, 0.11872342973947525024, -0.031841110438108444214, -0.016229681670665740967, 0.023239849135279655457, 0.087050020694732666016, -0.014849618077278137207, -0.025526760146021842957, 0.012148910202085971832, 0.029236052185297012329, 0.18841245770454406738, 0.22814725339412689209, 0.093908056616783142090, 0.0097226444631814956665, 0.11402819305658340454, -0.094771273434162139893, 0.089489229023456573486, -0.049867253750562667847, -0.23680868744850158691, -0.19788275659084320068, 0.079878583550453186035, 0.022235820069909095764, 0.021837603300809860229, -0.19070705771446228027, -0.22639821469783782959, 0.11289513856172561646, 0.022838506847620010376, 0.044491138309240341187},
  {-0.076117888092994689941, 0.066609822213649749756, 0.028595808893442153931, 0.098891101777553558350, 0.14543211460113525391, 0.066065005958080291748, -0.17593762278556823730, 0.051728464663028717041, 0.062158454209566116333, 0.022950014099478721619, -0.0071440613828599452972, 0.086472138762474060059, 0.19607205688953399658, -0.10781228542327880859, 0.045605450868606567383, -0.053136996924877166748, -0.18405598402023315430, -0.064251050353050231934, -0.079865187406539916992, -0.18179404735565185547, -0.23552185297012329102, -0.024696884676814079285, -0.00034634547773748636246, -0.14929236471652984619, -0.15914016962051391602, -0.18647697567939758301, 0.18447242677211761475, 0.16089668869972229004, 0.15193496644496917725, 0.020699033513665199280, 0.23300208151340484619, -0.12376525998115539551},
  {-0.17258606851100921631, 0.017072107642889022827, -0.014240100979804992676, 0.14923378825187683105, 0.097716473042964935303, -0.065626055002212524414, 0.20769377052783966064, 0.026706533506512641907, 0.089713640511035919189, 0.11482881009578704834, 0.079834394156932830811, 0.13878262042999267578, 0.14538851380348205566, 0.064373448491096496582, -0.044030331075191497803, -0.040505029261112213135, -0.23105807602405548096, 0.17799177765846252441, 0.037188194692134857178, 0.032119814306497573853, -0.14562641084194183350, -0.050710625946521759033, -0.18749251961708068848, 0.10892071574926376343, 0.21452893316745758057, -0.073212265968322753906, 0.19444742798805236816, 0.26587054133415222168, -0.13820837438106536865, -0.19067189097404479980, -0.042717084288597106934, 0.24740658700466156006},
  {-0.11681766062974929810, -0.0010191700421273708344, -0.041503440588712692261, -0.18703858554363250732, -0.076592728495597839355, 0.048741199076175689697, 0.074294604361057281494, -0.10793610662221908569, 0.10870080441236495972, -0.029083233326673507690, -0.16849961876869201660, 0.18652422726154327393, -0.031003467738628387451, -0.15149040520191192627, 0.0091199316084384918213, -0.022207111120223999023, 0.14514574408531188965, 0.12225730717182159424, -0.061865415424108505249, 0.031132973730564117432, 0.15868522226810455322, 0.0090449564158916473389, -0.17257240414619445801, 0.24627426266670227051, 0.10634839534759521484, 0.089851424098014831543, 0.22789633274078369141, -0.17600031197071075439, 0.14254890382289886475, 0.18780988454818725586, 0.14424967765808105469, -0.061823137104511260986},
  {-0.18234230577945709229, 0.11286714673042297363, -0.16772186756134033203, -0.059470795094966888428, -0.012588066048920154572, 0.10083130747079849243, 0.12062572687864303589, 0.20302507281303405762, 0.010603250935673713684, -0.25973230600357055664, -0.025247760117053985596, -0.0096845533698797225952, 0.28752774000167846680, 0.078936785459518432617, -0.071893334388732910156, -0.26045328378677368164, -0.090776242315769195557, 0.026876736432313919067, 0.049053799360990524292, 0.12661719322204589844, 0.18771935999393463135, 0.18504656851291656494, 0.086727671325206756592, 0.011514781974256038666, 0.0047325780615210533142, 0.18873932957649230957, -0.21020987629890441895, 0.13187141716480255127, -0.11768564581871032715, 0.098149679601192474365, 0.082058489322662353516, 0.095304653048515319824},
  {0.11676148325204849243, -0.043799933046102523804, 0.15296486020088195801, -0.022221403196454048157, -0.19312468171119689941, -0.070186719298362731934, 0.21796207129955291748, -0.13731501996517181396, -0.12717501819133758545, -0.16535875201225280762, -0.071151882410049438477, 0.034148335456848144531, -0.038920138031244277954, 0.066880419850349426270, -0.11285417526960372925, 0.065968222916126251221, -0.20962454378604888916, 0.053395640105009078979, -0.058886960148811340332, -0.18352575600147247314, -0.10493553429841995239, 0.091112181544303894043, -0.032972835004329681396, -0.16318993270397186279, -0.0056030144914984703064, 0.22109843790531158447, -0.095394469797611236572, 0.16266991198062896729, 0.25110816955566406250, 0.032473988831043243408, 0.076428182423114776611, 0.20726116001605987549},
  {-0.10149382054805755615, -0.086859382688999176025, 0.15325652062892913818, -0.082335203886032104492, -0.045616265386343002319, 0.16035391390323638916, -0.12440241873264312744, 0.21644328534603118896, 0.20443674921989440918, 0.022788072004914283752, 0.18482080101966857910, 0.049384776502847671509, 0.073476284742355346680, 0.00066790229175239801407, -0.035810191184282302856, 0.088287554681301116943, 0.15129977464675903320, -0.033302951604127883911, 0.13146522641181945801, 0.085425823926925659180, 0.18151402473449707031, 0.065899848937988281250, -0.081692427396774291992, 0.12190393358469009399, 0.055577356368303298950, -0.15730129182338714600, 0.12757135927677154541, -0.19025081396102905273, -0.18596808612346649170, 0.094269402325153350830, -0.11345729231834411621, -0.16496230661869049072},
  {-0.083044916391372680664, -0.063634201884269714355, -0.18947649002075195312, -0.047733470797538757324, -0.16687263548374176025, -0.045208469033241271973, 0.084162168204784393311, -0.10928919166326522827, -0.23120255768299102783, -0.20014584064483642578, -0.060488354414701461792, 0.18508914113044738770, 0.060881450772285461426, 0.12019000947475433350, 0.056319121271371841431, -0.21893729269504547119, 0.014922315254807472229, -0.15572202205657958984, -0.077677212655544281006, 0.032206453382968902588, 0.19681885838508605957, 0.065548859536647796631, 0.026383824646472930908, -0.16085420548915863037, 0.062167968600988388062, 0.18402512371540069580, 0.20116919279098510742, 0.078366853296756744385, -0.18345294892787933350, -0.078990265727043151855, -0.23036232590675354004, 0.058675002306699752808},
  {0.034092709422111511230, -0.015729220584034919739, -0.098281614482402801514, 0.13055653870105743408, -0.10804354399442672729, 0.065823391079902648926, -0.071289584040641784668, -0.074772991240024566650, -0.093946114182472229004, 0.21940222382545471191, 0.16734890639781951904, 0.079498738050460815430, -0.0051939440891146659851, 0.085332736372947692871, -0.15647926926612854004, 0.018902709707617759705, -0.22521165013313293457, -0.091729141771793365479, -0.23365075886249542236, -0.15838268399238586426, 0.12190881371498107910, -0.0088757695630192756653, -0.052192308008670806885, -0.19039100408554077148, 0.080776065587997436523, -0.25891661643981933594, 0.19436645507812500000, -0.13294032216072082520, -0.00098044448532164096832, 0.025716030970215797424, -0.026096371933817863464, 0.11114756762981414795},
  {-0.10479204356670379639, -0.041956391185522079468, -0.11725110560655593872, -0.13054502010345458984, -0.038213618099689483643, -0.0056084198877215385437, 0.046870570629835128784, -0.023598624393343925476, -0.14448884129524230957, 0.35556152462959289551, 0.076982744038105010986, -0.19148373603820800781, -0.035709451884031295776, 0.016029018908739089966, 0.061706710606813430786, -0.065246559679508209229, -0.078757591545581817627, 0.088196747004985809326, -0.11322098225355148315, -0.056059420108795166016, -0.045361429452896118164, 0.073647305369377136230, 0.047763083130121231079, -0.18305917084217071533, -0.17186561226844787598, -0.19861577451229095459, 0.14904668927192687988, 0.025872392579913139343, 0.19333864748477935791, 0.24802780151367187500, -0.068086817860603332520, 0.19077892601490020752},
  {0.098527245223522186279, 0.024053130298852920532, -0.093230292201042175293, 0.0041417363099753856659, -0.049529287964105606079, -0.15390656888484954834, -0.34502711892127990723, -0.041854400187730789185, -0.095144569873809814453, -0.26538628339767456055, 0.12498196959495544434, -0.25248786807060241699, -0.17415477335453033447, 0.20445376634597778320, 0.27777391672134399414, 0.17252588272094726562, 0.014136045239865779877, 0.059091772884130477905, 0.18531520664691925049, 0.035391353070735931396, 0.0027734600007534027100, -0.055713705718517303467, 0.30807685852050781250, 0.058644719421863555908, -0.27571937441825866699, 0.10999024659395217896, -0.075042434036731719971, 0.13476762175559997559, -0.11587280780076980591, -0.090592227876186370850, -0.098393388092517852783, -0.10364902764558792114},
  {0.025629039853811264038, 0.059190433472394943237, 0.16318833827972412109, 0.15905040502548217773, -0.029918363317847251892, -0.12479794770479202271, 0.076399855315685272217, 0.017631826922297477722, -0.14374855160713195801, -0.022842114791274070740, 0.028369283303618431091, -0.16188402473926544189, -0.039117120206356048584, -0.0085622593760490417480, -0.031942039728164672852, -0.22810482978820800781, 0.0058836508542299270630, -0.053374584764242172241, -0.0081243030726909637451, -0.075783148407936096191, 0.15506014227867126465, -0.0030806371942162513733, 0.28931131958961486816, -0.095831312239170074463, -0.16404157876968383789, 0.026560377329587936401, 0.078748114407062530518, -0.049432218074798583984, 0.016760721802711486816, -0.11266127973794937134, -0.071917138993740081787, 0.18332496285438537598},
  {-0.094541236758232116699, -0.15815086662769317627, -0.10398961603641510010, 0.086807884275913238525, 0.25211268663406372070, -0.10237046331167221069, 0.15198765695095062256, -0.065404422581195831299, 0.064254559576511383057, 0.026649264618754386902, 0.14835098385810852051, 0.16529552638530731201, 0.22110815346240997314, 0.014632368460297584534, 0.10856439173221588135, 0.20401622354984283447, -0.15189582109451293945, 0.051026608794927597046, 0.17240191996097564697, 0.14073573052883148193, -0.065776638686656951904, 0.16254012286663055420, -0.027909945696592330933, -0.11987949907779693604, 0.080505445599555969238, 0.18809013068675994873, 0.12424152344465255737, 0.039844993501901626587, -0.30466821789741516113, 0.17873631417751312256, 0.039841603487730026245, -0.18600170314311981201},
  {0.10951547324657440186, 0.14024245738983154297, 0.13075825572013854980, -0.030002055689692497253, 0.16414290666580200195, -0.22466082870960235596, 0.045871492475271224976, 0.14242756366729736328, 0.18757110834121704102, -0.049415230751037597656, -0.088090173900127410889, 0.10916694998741149902, -0.16908013820648193359, 0.12284294515848159790, -0.24182426929473876953, -0.13080285489559173584, 0.26117447018623352051, 0.14625023305416107178, -0.23956221342086791992, -0.044676799327135086060, -0.12669667601585388184, 0.089382752776145935059, -0.15141357481479644775, 0.14827969670295715332, -0.13562737405300140381, 0.23807442188262939453, -0.055638533085584640503, 0.15081755816936492920, 0.0094237048178911209106, 0.13345094025135040283, -0.11431508511304855347, -0.23426225781440734863},
  {-0.16840231418609619141, 0.17633934319019317627, -0.31764179468154907227, -0.044617597013711929321, 0.19560286402702331543, -0.15083484351634979248, -0.13654501736164093018, -0.00073698483174666762352, 0.12949530780315399170, -0.012527660466730594635, 0.084816172719001770020, 0.039735186845064163208, 0.032403707504272460938, 0.00035869836574420332909, -0.21180117130279541016, 0.071434766054153442383, 0.15627606213092803955, -0.16535037755966186523, 0.19769363105297088623, -0.13873295485973358154, -0.018225517123937606812, -0.12311966717243194580, 0.14147748053073883057, -0.10043803602457046509, -0.11579830199480056763, 0.19269922375679016113, -0.16590332984924316406, -0.017751650884747505188, 0.061739828437566757202, -0.16740897297859191895, 0.16720639169216156006, 0.035327170044183731079},
  {-0.13069729506969451904, 0.15936264395713806152, -0.20841164886951446533, -0.11128194630146026611, 0.17107553780078887939, -0.18860925734043121338, 0.20168311893939971924, 0.0060822842642664909363, -0.12757775187492370605, 0.19248574972152709961, 0.18545277416706085205, -0.13246008753776550293, -0.15675204992294311523, -0.10614758729934692383, 0.069226920604705810547, -0.18042449653148651123, 0.10500273853540420532, -0.089582957327365875244, 0.22596345841884613037, -0.14388039708137512207, 0.21031692624092102051, -0.080491207540035247803, -0.21688736975193023682, -0.15597294270992279053, 0.10577674210071563721, -0.078668944537639617920, -0.13675032556056976318, 0.26848155260086059570, 0.29734566807746887207, 0.33593231439590454102, 0.17200614511966705322, 0.10824461281299591064},
  {0.063112229108810424805, 0.017266936600208282471, 0.19070675969123840332, -0.22718426585197448730, 0.052468005567789077759, 0.076230093836784362793, -0.12038463354110717773, 0.082218304276466369629, -0.17061744630336761475, 0.15487618744373321533, 0.018782870844006538391, -0.28180631995201110840, 0.10218907147645950317, 0.19224032759666442871, -0.023652851581573486328, -0.081919111311435699463, -0.17963619530200958252, -0.14868077635765075684, -0.035520017147064208984, -0.098499029874801635742, -0.27650514245033264160, 0.16106344759464263916, -0.18123437464237213135, 0.0030938745476305484772, 0.032206423580646514893, -0.16569016873836517334, -0.16574153304100036621, 0.22120146453380584717, 0.085245043039321899414, 0.071464248001575469971, -0.0097747603431344032288, 0.11224704980850219727},
  {0.14366978406906127930, 0.048493549227714538574, 0.086358688771724700928, -0.00023126415908336639404, -0.10532902926206588745, -0.0088101373985409736633, 0.17971818149089813232, -0.078781262040138244629, -0.027449022978544235229, -0.11119719594717025757, -0.21440048515796661377, 0.13678857684135437012, 0.097480162978172302246, -0.12205426394939422607, -0.10727272182703018188, -0.14505064487457275391, 0.035050563514232635498, 0.076233088970184326172, 0.10961593687534332275, -0.095758803188800811768, -0.15425127744674682617, -0.13313692808151245117, -0.28678908944129943848, 0.037547402083873748779, -0.12640428543090820312, 0.14669933915138244629, -0.12082701176404953003, -0.13301433622837066650, -0.18576614558696746826, 0.026306159794330596924, 0.071813881397247314453, -0.14097273349761962891},
  {-0.078866459429264068604, 0.054182395339012145996, -0.026191787794232368469, -0.21786847710609436035, 0.18926437199115753174, 0.0010686184978112578392, 0.12582719326019287109, 0.13778248429298400879, 0.037349157035350799561, 0.12759390473365783691, 0.18226875364780426025, -0.13509458303451538086, -0.18876449763774871826, 0.14206779003143310547, 0.18189452588558197021, 0.27012777328491210938, 0.13953359425067901611, -0.14482213556766510010, 0.11525135487318038940, -0.085841484367847442627, -0.13541269302368164062, 0.14484095573425292969, -0.20713070034980773926, -0.17537853121757507324, -0.19887270033359527588, 0.19761402904987335205, 0.050942555069923400879, -0.11404771357774734497, -0.031117510050535202026, -0.021870059892535209656, -0.11547032743692398071, -0.096227675676345825195},
  {0.016566609963774681091, 0.069937236607074737549, -0.24687778949737548828, 0.18556138873100280762, -0.066115818917751312256, -0.050518088042736053467, -0.057493373751640319824, 0.26867467164993286133, 0.17835609614849090576, -0.084839917719364166260, -0.16940909624099731445, -0.15906219184398651123, -0.15268650650978088379, -0.014407618902623653412, 0.17397536337375640869, -0.064843744039535522461, 0.19588786363601684570, -0.15792532265186309814, 0.24124155938625335693, -0.013572359457612037659, 0.10550983995199203491, 0.068587236106395721436, -0.13784009218215942383, -0.027538891881704330444, 0.054432019591331481934, 0.12481327354907989502, -0.024254070594906806946, -0.076005965471267700195, -0.40173193812370300293, -0.14014270901679992676, -0.091935709118843078613, -0.18435035645961761475},
  {-0.17170932888984680176, 0.10599603503942489624, -0.28920117020606994629, 0.18447475135326385498, -0.13049674034118652344, 0.18365074694156646729, -0.17148983478546142578, -0.029639091342687606812, -0.086161196231842041016, 0.15655232965946197510, -0.10726962983608245850, 0.11862148344516754150, -0.094891928136348724365, 0.015251077711582183838, 0.086968004703521728516, -0.17289520800113677979, -0.20827934145927429199, 0.021773105487227439880, -0.072776742279529571533, -0.035458393394947052002, 0.032184079289436340332, 0.080941006541252136230, -0.13558200001716613770, -0.084770590066909790039, -0.12917606532573699951, 0.27921521663665771484, -0.28444305062294006348, -0.14429534971714019775, -0.26699459552764892578, 0.13435789942741394043, 0.12778659164905548096, -0.19495399296283721924},
  {-0.092320173978805541992, -0.071537330746650695801, -0.21969294548034667969, 0.11393912881612777710, -0.050252843648195266724, 0.042612209916114807129, -0.080409020185470581055, 0.12613497674465179443, 0.11976382881402969360, -0.17582088708877563477, -0.010121141560375690460, -0.26088866591453552246, 0.35061195492744445801, -0.012982653453946113586, -0.078529864549636840820, 0.0075337882153689861298, 0.17711384594440460205, -0.10047706216573715210, 0.12545675039291381836, -0.12004581093788146973, 0.12944330275058746338, -0.052642434835433959961, -0.046366196125745773315, 0.14291439950466156006, -0.0092697674408555030823, -0.015787705779075622559, 0.038372941315174102783, -0.12899313867092132568, -0.10005176067352294922, -0.052427958697080612183, 0.11793748289346694946, -0.072274334728717803955},
  {0.13366688787937164307, 0.051887255162000656128, 0.071300648152828216553, 0.18160180747509002686, -0.13338744640350341797, 0.12199039012193679810, 0.12826324999332427979, -0.10010530054569244385, 0.049269296228885650635, -0.17575369775295257568, 0.23385913670063018799, -0.0085943108424544334412, 0.21930408477783203125, 0.021237686276435852051, 0.023076307028532028198, -0.022044407203793525696, 0.11898417770862579346, -0.15919665992259979248, 0.0032580189872533082962, 0.20233291387557983398, -0.31526899337768554688, 0.050392195582389831543, -0.11615937203168869019, 0.14179272949695587158, 0.14602424204349517822, -0.18099546432495117188, -0.035382729023694992065, 0.077823914587497711182, 0.070464603602886199951, -0.15067595243453979492, 0.077755354344844818115, 0.065930478274822235107},
  {-0.055949769914150238037, -0.057679373770952224731, -0.016651688143610954285, 0.17540670931339263916, -0.13763271272182464600, -0.014786605723202228546, 0.27977940440177917480, -0.029957249760627746582, 0.064121797680854797363, 0.21944817900657653809, 0.11045188456773757935, 0.019537780433893203735, 0.20966129004955291748, -0.10328389704227447510, 0.20453931391239166260, 0.019185425713658332825, -0.043334320187568664551, 0.16532935202121734619, -0.19330453872680664062, -0.10386348515748977661, -0.025918677449226379395, -0.18194888532161712646, 0.17990106344223022461, 0.055735174566507339478, 0.22781640291213989258, -0.15395931899547576904, 0.083707317709922790527, -0.10670758038759231567, 0.26700827479362487793, -0.14715822041034698486, -0.13900737464427947998, 0.079936169087886810303},
  {-0.21122863888740539551, -0.11061881482601165771, -0.18132095038890838623, -0.058355242013931274414, 0.17397187650203704834, -0.081731028854846954346, -0.061626784503459930420, -0.046347234398126602173, 0.11645913124084472656, -0.042157273739576339722, -0.15741206705570220947, 0.22231584787368774414, 0.26790872216224670410, 0.10001669079065322876, 0.19383095204830169678, 0.23743411898612976074, -0.11055310815572738647, 0.10464604943990707397, 0.22368654608726501465, 0.17545595765113830566, 0.24276413023471832275, 0.071553841233253479004, 0.16757436096668243408, -0.13601544499397277832, -0.083928838372230529785, 0.047305475920438766479, 0.020271252840757369995, 0.22307558357715606689, -0.0015965424245223402977, 0.13907743990421295166, 0.20634254813194274902, -0.16104747354984283447},
  {0.18230587244033813477, 0.081529863178730010986, -0.065885603427886962891, 0.091518841683864593506, 0.085616402328014373779, -0.11009769141674041748, 0.20524138212203979492, -0.18737567961215972900, -0.15653467178344726562, 0.024600425735116004944, 0.25015139579772949219, -0.10613681375980377197, 0.15665864944458007812, 0.15490803122520446777, -0.10735541582107543945, 0.082629077136516571045, 0.21170130372047424316, 0.084456726908683776855, -0.10289000719785690308, -0.054920628666877746582, -0.061064567416906356812, -0.14702658355236053467, -0.019135631620883941650, 0.12190453708171844482, 0.18701452016830444336, 0.18963357806205749512, -0.22326035797595977783, 0.034847207367420196533, -0.11506301164627075195, -0.15286757051944732666, -0.082378402352333068848, -0.032248765230178833008},
  {-0.028460783883929252625, 0.13226835429668426514, -0.061921156942844390869, -0.11614063382148742676, 0.019876167178153991699, -0.062372181564569473267, -0.14168372750282287598, 0.064877517521381378174, 0.13893060386180877686, -0.16400003433227539062, -0.081256479024887084961, -0.0032191183418035507202, -0.031920704990625381470, -0.029372347518801689148, 0.14918459951877593994, 0.029040174558758735657, 0.094258338212966918945, -0.21433949470520019531, -0.21344663202762603760, -0.11572611331939697266, -0.27673318982124328613, 0.10339682549238204956, 0.34821996092796325684, 0.14108195900917053223, -0.051627699285745620728, -0.0025558206252753734589, -0.065238699316978454590, 0.0016302310395985841751, -0.10478372871875762939, -0.16767114400863647461, 0.031909827142953872681, 0.13017998635768890381},
  {-0.068780601024627685547, 0.022026682272553443909, -0.24887870252132415771, 0.085413299500942230225, 0.013766407966613769531, -0.014429405331611633301, 0.070823535323143005371, 0.24662242829799652100, -0.13680674135684967041, 0.090851552784442901611, 0.017934128642082214355, 0.14139193296432495117, 0.31132638454437255859, -0.017908520996570587158, -0.072045363485813140869, 0.34792953729629516602, -0.21139959990978240967, -0.018066195771098136902, -0.092360004782676696777, 0.068149961531162261963, -0.14025355875492095947, 0.041907548904418945312, -0.014771450310945510864, 0.14459815621376037598, -0.23926800489425659180, -0.14438420534133911133, 0.0025842147879302501678, -0.026639714837074279785, 0.014128281734883785248, -0.25692027807235717773, -0.077725663781166076660, -0.14059287309646606445},
  {0.14012999832630157471, 0.020440969616174697876, 0.021063344553112983704, -0.059759974479675292969, -0.023481639102101325989, 0.061350334435701370239, 0.15874236822128295898, -0.071363881230354309082, 0.086818799376487731934, 0.15988677740097045898, 0.13210083544254302979, 0.10990163683891296387, 0.051193233579397201538, 0.19834291934967041016, -0.16060455143451690674, -0.077516116201877593994, -0.047510813921689987183, -0.025850843638181686401, 0.15931309759616851807, 0.031362574547529220581, 0.0048377825878560543060, 0.030783539637923240662, -0.067514568567276000977, -0.097170740365982055664, 0.034464716911315917969, 0.10932796448469161987, 0.030436130240559577942, -0.11274292320013046265, -0.19213053584098815918, -0.10368461906909942627, 0.14435173571109771729, -0.15835669636726379395},
  {0.012862275354564189911, 0.0038227289915084838867, -0.027521187439560890198, 0.15475372970104217529, -0.069221951067447662354, 0.15142045915126800537, -0.17349971830844879150, 0.14680859446525573730, 0.20598082244396209717, -0.14122058451175689697, -0.23078069090843200684, 0.11333985626697540283, -0.12915399670600891113, -0.23896731436252593994, -0.20964890718460083008, -0.060697950422763824463, -0.020621644333004951477, 0.026876874268054962158, 0.18778814375400543213, 0.33285889029502868652, 0.092076085507869720459, -0.077260911464691162109, -0.099046446382999420166, 0.033851183950901031494, -0.035164725035429000854, 0.031918898224830627441, 0.16418577730655670166, -0.20528534054756164551, -0.035559702664613723755, -0.18960614502429962158, -0.010063813067972660065, -0.091550387442111968994},
  {0.20376665890216827393, -0.0050979750230908393860, 0.028537543490529060364, -0.11179713159799575806, -0.18703584372997283936, 0.013275383040308952332, 0.019789798185229301453, -0.11916088312864303589, 0.016103208065032958984, -0.15747399628162384033, 0.17932200431823730469, -0.21099653840065002441, 0.072941757738590240479, 0.13087663054466247559, -0.043802235275506973267, 0.017658162862062454224, 0.072035461664199829102, -0.054321285337209701538, 0.17785529792308807373, 0.087459564208984375000, -0.034962810575962066650, -0.080609433352947235107, 0.15684175491333007812, -0.13624702394008636475, -0.19946794211864471436, 0.011130176484584808350, 0.21507278084754943848, -0.087399996817111968994, -0.31580182909965515137, 0.082883283495903015137, -0.12926091253757476807, -0.14687193930149078369},
  {0.14509122073650360107, 0.0033310307189822196960, -0.16697511076927185059, -0.020015083253383636475, -0.20644161105155944824, -0.068634353578090667725, -0.028545636683702468872, -0.0076393042691051959991, -0.085763685405254364014, 0.19781482219696044922, -0.10829456150531768799, -0.065505273640155792236, 0.037849526852369308472, -0.10538485646247863770, -0.060842160135507583618, 0.10856139659881591797, -0.065495088696479797363, -0.055301073938608169556, -0.11254896223545074463, -0.13660667836666107178, 0.014145289547741413116, 0.16743899881839752197, -0.30442184209823608398, -0.12449117004871368408, -0.10893127322196960449, -0.067838035523891448975, -0.11896428465843200684, -0.16623777151107788086, 0.21195040643215179443, 0.033471159636974334717, -0.16081617772579193115, -0.15830397605895996094},
  {0.090665884315967559814, -0.072559706866741180420, 0.12080786377191543579, 0.22836117446422576904, 0.10266990959644317627, 0.14547452330589294434, -0.20013529062271118164, 0.094857595860958099365, -0.0026432098820805549622, -0.11141611635684967041, -0.12130882591009140015, -0.10813964903354644775, 0.055673848837614059448, -0.10841502249240875244, 0.060911644250154495239, 0.021625448018312454224, -0.069746538996696472168, 0.060515925288200378418, -0.076827891170978546143, -0.0010120526421815156937, -0.089011318981647491455, 0.039444006979465484619, 0.034543331712484359741, 0.18851031363010406494, -0.071476429700851440430, -0.10303666442632675171, 0.19396167993545532227, -0.21991090476512908936, 0.21595977246761322021, 0.079663030803203582764, 0.044887829571962356567, 0.030992273241281509399},
  {-0.068396933376789093018, 0.074341900646686553955, 0.094832025468349456787, 0.036216046661138534546, 0.0016737004043534398079, -0.017411416396498680115, 0.073964461684226989746, -0.15769273042678833008, 0.12633700668811798096, -0.12728767096996307373, -0.12603995203971862793, 0.22354294359683990479, -0.22721910476684570312, -0.063812002539634704590, 0.084263727068901062012, 0.080163925886154174805, 0.16114799678325653076, -0.0090207718312740325928, -0.20521627366542816162, -0.019198514521121978760, 0.091775104403495788574, -0.15024955570697784424, -0.073218226432800292969, 0.0080770496279001235962, -0.050418257713317871094, -0.098102204501628875732, 0.088582523167133331299, -0.053850766271352767944, 0.18449458479881286621, -0.044372893869876861572, 0.052789103239774703979, -0.0036907382309436798096},
  {-0.20994918048381805420, 0.032718319445848464966, 0.041170828044414520264, 0.038426160812377929688, 0.049946729093790054321, 0.11801623553037643433, -0.10909299552440643311, -0.069522738456726074219, -0.066414505243301391602, -0.27394992113113403320, 0.18670955300331115723, 0.21429859101772308350, 0.096718519926071166992, -0.098127648234367370605, 0.16777062416076660156, -0.058723602443933486938, 0.063382253050804138184, 0.066143661737442016602, -0.072996847331523895264, 0.039180025458335876465, -0.0098151443526148796082, 0.12811759114265441895, 0.19451242685317993164, 0.16552399098873138428, 0.16206385195255279541, -0.19601701200008392334, 0.16575859487056732178, -0.042456716299057006836, 0.16340290009975433350, 0.13724906742572784424, 0.060714285820722579956, 0.15193015336990356445},
  {-0.081267125904560089111, 0.15505138039588928223, 0.14006225764751434326, -0.058942750096321105957, -0.13365827500820159912, 0.0057378546334803104401, -0.38499927520751953125, -0.042402941733598709106, -0.27155658602714538574, -0.27118554711341857910, 0.051063310354948043823, -0.31899887323379516602, 0.023982968181371688843, -0.073180615901947021484, 0.039855208247900009155, -0.020461719483137130737, 0.20804668962955474854, 0.089671127498149871826, -0.082034856081008911133, -0.051063787192106246948, 0.20506156980991363525, 0.15710790455341339111, 0.17432036995887756348, 0.12098415195941925049, 0.089294806122779846191, -0.20142836868762969971, 0.096627928316593170166, -0.021376559510827064514, 0.018011935055255889893, 0.011216783896088600159, -0.045763507485389709473, -0.011722184717655181885},
  {-0.10260187089443206787, -0.16428185999393463135, 0.16752620041370391846, -0.14820890128612518311, 0.15098170936107635498, 0.13756456971168518066, 0.16804772615432739258, -0.058349404484033584595, -0.19424580037593841553, -0.049842797219753265381, 0.079268179833889007568, 0.19369530677795410156, -0.15063564479351043701, -0.087274976074695587158, 0.12441824376583099365, -0.15236479043960571289, 0.027053216472268104553, -0.0045511615462601184845, 0.068432249128818511963, 0.0066661629825830459595, 0.17583434283733367920, 0.042395729571580886841, -0.019799759611487388611, 0.024535331875085830688, -0.085253030061721801758, -0.10054774582386016846, 0.095111675560474395752, 0.023697052150964736938, 0.16246204078197479248, -0.074334502220153808594, 0.12180137634277343750, 0.10550489276647567749},
  {0.12714849412441253662, -0.043848197907209396362, 0.0083857337012887001038, -0.15273924171924591064, -0.011177887208759784698, -0.089199595153331756592, -0.15950085222721099854, -0.16554597020149230957, -0.29494625329971313477, 0.13283349573612213135, -0.22789965569972991943, 0.044071789830923080444, 0.060308367013931274414, 0.042909361422061920166, 0.10195446759462356567, -0.25323912501335144043, 0.26173976063728332520, 0.18755416572093963623, 0.20335081219673156738, 0.11565061658620834351, 0.26973471045494079590, -0.081016011536121368408, 0.022821439430117607117, 0.044403914362192153931, -0.25468406081199645996, 0.11136921495199203491, -0.012620107270777225494, 0.19746215641498565674, 0.065645657479763031006, -0.061916701495647430420, -0.091207966208457946777, 0.12165316194295883179},
  {0.18455554544925689697, -0.099555961787700653076, -0.13822858035564422607, 0.12186945229768753052, -0.063175775110721588135, -0.012718583457171916962, 0.26397350430488586426, -0.043346546590328216553, -0.074288383126258850098, -0.21794001758098602295, 0.016350008547306060791, -0.18660373985767364502, 0.14702133834362030029, 0.031010052189230918884, 0.085565693676471710205, -0.0025849398225545883179, -0.0064366050064563751221, -0.035947583615779876709, 0.087210863828659057617, -0.099586047232151031494, 0.19055148959159851074, -0.10212666541337966919, -0.27528738975524902344, 0.076985560357570648193, -0.041467096656560897827, -0.14720366895198822021, -0.099653393030166625977, 0.18159580230712890625, 0.17448735237121582031, 0.091079182922840118408, 0.12558269500732421875, 0.090088106691837310791},
  {0.33022326231002807617, -0.16450923681259155273, -0.068383939564228057861, 0.090712867677211761475, 0.29508820176124572754, 0.15178254246711730957, 0.26151853799819946289, 0.11534065008163452148, 0.079148747026920318604, 0.11333440989255905151, 0.10387291014194488525, -0.080339387059211730957, -0.19423645734786987305, 0.046178963035345077515, -0.017152829095721244812, -0.19484414160251617432, 0.0071783307939767837524, 0.081143662333488464355, 0.053498208522796630859, 0.15360234677791595459, 0.073679588735103607178, -0.27126497030258178711, 0.29234567284584045410, -0.045741733163595199585, -0.11394304782152175903, 0.21160987019538879395, 0.082186520099639892578, -0.15033961832523345947, -0.11350665986537933350, -0.25322955846786499023, -0.11391558498144149780, 0.049446173012256622314},
  {0.53459548950195312500, -0.10614065825939178467, 0.27497625350952148438, -0.93637132644653320312, -0.34599712491035461426, -0.69923895597457885742, 0.36853685975074768066, 1.1287695169448852539, 0.69787478446960449219, -0.64977526664733886719, 0.19685783982276916504, 0.26745206117630004883, 0.13653127849102020264, 0.22536444664001464844, 0.50500583648681640625, 0.027529306709766387939, -0.45027658343315124512, -0.28153836727142333984, -0.0080511141568422317505, 0.27327030897140502930, -0.030957883223891258240, 0.17257343232631683350, 0.60391807556152343750, 0.61473095417022705078, -0.10004197061061859131, 0.29230600595474243164, 0.55572688579559326172, -0.53595030307769775391, -0.095407769083976745605, -0.30618825554847717285, -0.69728368520736694336, 0.044109761714935302734},
  {0.33881586790084838867, -0.19361439347267150879, -0.29299733042716979980, -0.17888942360877990723, 0.18394069373607635498, 0.23313985764980316162, -0.12859265506267547607, -0.00012272014282643795013, -0.12003356963396072388, 0.13777285814285278320, 0.046487629413604736328, -0.043551698327064514160, -0.072598315775394439697, -0.14014948904514312744, -0.16496780514717102051, -0.18374738097190856934, 0.15664961934089660645, -0.15302376449108123779, -0.12317265570163726807, 0.078268669545650482178, 0.091458231210708618164, -0.063781671226024627686, 0.093906335532665252686, -0.12345080822706222534, -0.15129448473453521729, -0.18915253877639770508, 0.0016690655611455440521, 0.15681044757366180420, 0.060457549989223480225, -0.10145094990730285645, 0.10961587727069854736, -0.24881246685981750488},
  {0.54280412197113037109, 0.17142179608345031738, 0.30709448456764221191, -0.21604034304618835449, -0.29354882240295410156, -0.35037043690681457520, 0.37523341178894042969, 0.18636035919189453125, 0.31058347225189208984, -0.29245820641517639160, 0.060459397733211517334, -0.095847912132740020752, 0.22048163414001464844, 0.17508794367313385010, 0.33439895510673522949, 0.023113183677196502686, -0.43456169962882995605, -0.13467979431152343750, 0.16308043897151947021, -0.063741214573383331299, 0.073142454028129577637, 0.37000855803489685059, 0.22914934158325195312, 0.33136469125747680664, -0.025713792070746421814, 0.26843261718750000000, 0.099556416273117065430, -0.29982340335845947266, -0.17964637279510498047, -0.22901533544063568115, -0.061400976032018661499, 0.24208082258701324463},
  {-0.015709994360804557800, -0.034576810896396636963, -0.015344637446105480194, -0.26313221454620361328, -0.055256947875022888184, 0.046812385320663452148, 0.17227387428283691406, -0.016286628320813179016, -0.11313753575086593628, -0.15603236854076385498, 0.26499563455581665039, 0.069238178431987762451, -0.15459407866001129150, -0.18619625270366668701, 0.033553607761859893799, 0.041788190603256225586, -0.13654030859470367432, 0.13761350512504577637, -0.18820512294769287109, -0.0013312622904777526855, 0.019231816753745079041, -0.25825175642967224121, 0.14323598146438598633, 0.021063972264528274536, -0.080772027373313903809, -0.10334910452365875244, -0.24563433229923248291, 0.10962733626365661621, -0.16902117431163787842, -0.41901683807373046875, -0.10575495660305023193, -0.20598360896110534668},
  {0.26011025905609130859, -0.15043532848358154297, -0.15356172621250152588, -0.28194746375083923340, 0.23180072009563446045, 0.14584040641784667969, 0.20323020219802856445, -0.079761765897274017334, 0.0014039862435311079025, -0.12376694381237030029, 0.034123733639717102051, 0.032492935657501220703, -0.19393025338649749756, -0.19938345253467559814, 0.021802980452775955200, 0.057885631918907165527, -0.098452962934970855713, -0.16179215908050537109, 0.057246237993240356445, -0.022687423974275588989, -0.10366290062665939331, -0.23650731146335601807, -0.034475959837436676025, 0.17676597833633422852, -0.13024160265922546387, 0.038009718060493469238, -0.069331124424934387207, 0.025089126080274581909, -0.25612539052963256836, -0.34112647175788879395, 0.10365873575210571289, -0.20717215538024902344},
  {-0.010107149370014667511, -0.14659620821475982666, 0.088686905801296234131, -0.026886597275733947754, -0.063738167285919189453, -0.082525409758090972900, -0.034148901700973510742, 0.19940021634101867676, 0.13124231994152069092, 0.053578641265630722046, 0.17486335337162017822, 0.043335996568202972412, -0.083282455801963806152, -0.034633964300155639648, -0.060935407876968383789, 0.12189816683530807495, 0.030938748270273208618, 0.038278806954622268677, 0.19160607457160949707, 0.042740382254123687744, -0.15426987409591674805, -0.017885072156786918640, 0.20229659974575042725, -0.062219802290201187134, 0.13697344064712524414, -0.11373399198055267334, -0.13048483431339263916, 0.20587538182735443115, -0.054054602980613708496, -0.17050950229167938232, 0.17171044647693634033, -0.0086495755240321159363},
  {0.17011348903179168701, -0.34474414587020874023, 0.0073596481233835220337, -0.25493550300598144531, -0.089743904769420623779, 0.15291392803192138672, 0.62695723772048950195, 0.095881022512912750244, 0.22554072737693786621, 0.072250477969646453857, 0.36527940630912780762, 0.065145611763000488281, -0.11408917605876922607, 0.17045024037361145020, -0.33642560243606567383, 0.054248545318841934204, -0.22125628590583801270, -0.19890850782394409180, 0.19502364099025726318, 0.26646211743354797363, 0.10591287165880203247, -0.30520117282867431641, -0.18398185074329376221, -0.28567093610763549805, 0.24166266620159149170, 0.039460279047489166260, -0.097683124244213104248, -0.18479812145233154297, -0.0043816776014864444733, -0.14014382660388946533, 0.12100946903228759766, -0.12006161361932754517},
  {-0.031899493187665939331, -0.15448154509067535400, 0.12527537345886230469, -0.097408436238765716553, -0.22241908311843872070, -0.36657080054283142090, -0.018321026116609573364, -0.24521978199481964111, 0.015737269073724746704, 0.17922347784042358398, 0.25899744033813476562, 0.072893738746643066406, 0.21091981232166290283, -0.084013096988201141357, -0.016738731414079666138, 0.13337311148643493652, -0.51087689399719238281, 0.26570975780487060547, 0.084730014204978942871, 0.21316730976104736328, 0.054256599396467208862, 0.16296294331550598145, -0.057524468749761581421, -0.12230388820171356201, -0.43702006340026855469, 0.043785508722066879272, 0.058653697371482849121, -0.19631664454936981201, -0.13043230772018432617, -0.23890252411365509033, -0.049043722450733184814, 0.13329574465751647949},
  {1.0214090347290039062, 0.0089828167110681533813, 0.33321207761764526367, -0.51259440183639526367, -0.65273535251617431641, -0.31227174401283264160, 0.50627022981643676758, -0.040874492377042770386, 0.65061360597610473633, -0.34058290719985961914, 1.1392716169357299805, -0.028117408975958824158, 0.36826235055923461914, 0.40825644135475158691, 0.22923398017883300781, 0.19019953906536102295, -0.24186556041240692139, -0.39780923724174499512, -0.20328931510448455811, 0.33627161383628845215, 0.12208449840545654297, -0.095378644764423370361, 0.11954598873853683472, 0.40999761223793029785, 0.083227418363094329834, 0.24528822302818298340, 0.59587609767913818359, -0.20236749947071075439, -0.041023302823305130005, -0.31954064965248107910, -0.41753655672073364258, 0.24183142185211181641},
  {-0.65442126989364624023, -0.13999262452125549316, -0.34241285920143127441, 0.44037702679634094238, 0.54161846637725830078, 0.50421512126922607422, -0.43520575761795043945, -0.024833701550960540771, -0.53510892391204833984, 0.16413563489913940430, -0.64701980352401733398, 0.19799007475376129150, -0.26929891109466552734, -0.33975306153297424316, -0.59862905740737915039, -0.19117024540901184082, 0.39675691723823547363, 0.065987437963485717773, -0.091785535216331481934, -0.11839950829744338989, -0.24365888535976409912, -0.34566557407379150391, 0.077684879302978515625, -0.23857164382934570312, -0.041725147515535354614, 0.18071664869785308838, -0.25886934995651245117, 0.27850547432899475098, 0.037625748664140701294, -0.11045043170452117920, 0.24729180335998535156, -0.056526795029640197754},
  {0.15018203854560852051, -0.047801360487937927246, 0.22689321637153625488, 0.045366078615188598633, 0.058867331594228744507, -0.052211865782737731934, -0.14903317391872406006, -0.19891257584095001221, 0.21804420650005340576, -0.24795277416706085205, 0.017254397273063659668, 0.14061613380908966064, -0.036886263638734817505, 0.0023909562733024358749, 0.019939504563808441162, 0.20679885149002075195, -0.055748097598552703857, 0.085644885897636413574, -0.19634832441806793213, 0.23269011080265045166, -0.015281105414032936096, 0.13815571367740631104, 0.20677790045738220215, 0.097391583025455474854, -0.26532801985740661621, 0.0069206845946609973907, -0.17479741573333740234, -0.069093242287635803223, -0.13066925108432769775, -0.053791023790836334229, -0.20103773474693298340, 0.019056003540754318237},
  {0.086611866950988769531, -0.61271005868911743164, -0.39471167325973510742, -0.20836794376373291016, 0.41808068752288818359, 0.30493062734603881836, 0.073644496500492095947, 0.34571307897567749023, -0.068823307752609252930, -0.050695639103651046753, -0.25852748751640319824, 0.29857388138771057129, -0.29160714149475097656, 0.31554377079010009766, -0.37161102890968322754, -0.037814043462276458740, -0.20605663955211639404, 0.14945065975189208984, 0.42341697216033935547, 0.34689953923225402832, 0.024290572851896286011, -0.59704315662384033203, 0.11331895738840103149, -0.24566569924354553223, 0.11333283782005310059, -0.67004925012588500977, 0.25148463249206542969, 0.059907212853431701660, -0.0061574773862957954407, -0.28901302814483642578, -0.15264087915420532227, -0.22156026959419250488},
  {-0.15257503092288970947, 0.27734446525573730469, -0.12160079181194305420, 0.17392943799495697021, 0.11876704543828964233, -0.17132157087326049805, 0.16413684189319610596, -0.069977283477783203125, 0.060328833758831024170, -0.084032729268074035645, 0.14809195697307586670, 0.13203895092010498047, 0.19811476767063140869, -0.20085133612155914307, -0.049044139683246612549, -0.025449089705944061279, -0.13090002536773681641, 0.066712558269500732422, 0.061868924647569656372, -0.17660732567310333252, 0.051546830683946609497, 0.30933240056037902832, -0.12312298268079757690, 0.21673533320426940918, 0.15099050104618072510, 0.12459959834814071655, -0.26386427879333496094, 0.25448212027549743652, -0.16497768461704254150, -0.024646643549203872681, -0.054077554494142532349, 0.14771607518196105957},
  {-0.23230364918708801270, -0.049496743828058242798, -0.23251591622829437256, 0.11622396856546401978, -0.12128565460443496704, 0.30054381489753723145, -0.17185606062412261963, -0.20484043657779693604, 0.027231169864535331726, 0.25645232200622558594, 0.24647970497608184814, -0.21820604801177978516, 0.064161203801631927490, -0.040061108767986297607, -0.036523431539535522461, -0.32614490389823913574, 0.14629963040351867676, 0.29815599322319030762, -0.21297143399715423584, 0.029318057000637054443, 0.032196082174777984619, 0.086940966546535491943, -0.041343517601490020752, -0.13932645320892333984, 0.20234341919422149658, -0.12234605848789215088, -0.23879003524780273438, 0.21676331758499145508, 0.078819192945957183838, -0.19848516583442687988, -0.029962565749883651733, -0.19096168875694274902},
  {0.061300817877054214478, 0.10244688391685485840, -0.31907755136489868164, 0.19324472546577453613, 0.20713219046592712402, 0.16681697964668273926, -0.10566867887973785400, 0.048005234450101852417, -0.17913985252380371094, 0.053550653159618377686, -0.31474399566650390625, 0.10624594986438751221, 0.094064533710479736328, 0.10612788051366806030, -0.24967351555824279785, 0.036832168698310852051, -0.24727453291416168213, 0.25508216023445129395, 0.22582305967807769775, 0.060524024069309234619, 0.10111644119024276733, -0.059086974710226058960, 0.11866239458322525024, 0.019894210621714591980, -0.19137726724147796631, -0.33370786905288696289, 0.20786476135253906250, 0.17542456090450286865, 0.0064866472966969013214, 0.18829241394996643066, -0.10095163434743881226, 0.24014283716678619385},
  {0.15866522490978240967, 0.051575083285570144653, -0.32962605357170104980, 0.11897943913936614990, 0.045173909515142440796, 0.31393879652023315430, 0.11272238194942474365, -0.014090036973357200623, -0.32248720526695251465, 0.18640205264091491699, 0.19193571805953979492, -0.12205786257982254028, -0.20247222483158111572, 0.29968339204788208008, -0.32767733931541442871, -0.052123304456472396851, 0.15136836469173431396, 0.098483450710773468018, -0.13340561091899871826, 0.064982958137989044189, 0.22478283941745758057, 0.017510069534182548523, -0.20728902518749237061, -0.098002806305885314941, -0.062713757157325744629, 0.26125672459602355957, -0.026185087859630584717, 0.19893501698970794678, -0.10662613064050674438, 0.23272417485713958740, 0.21521136164665222168, -0.28788405656814575195},
  {-0.29734832048416137695, -0.19718192517757415771, -0.20791594684123992920, -0.10936408489942550659, -0.0012897977139800786972, 0.40307384729385375977, 0.034208551049232482910, 0.13711737096309661865, -0.0030200276523828506470, 0.13444021344184875488, 0.052556015551090240479, -0.087881609797477722168, -0.26577147841453552246, 0.30113664269447326660, -0.30169743299484252930, -0.42163643240928649902, 0.071444317698478698730, 0.17543503642082214355, -0.15241095423698425293, 0.19732604920864105225, 0.22343812882900238037, -0.38621526956558227539, -0.054410807788372039795, 0.048683270812034606934, -0.10947067290544509888, -0.044033646583557128906, -0.043397225439548492432, 0.13367515802383422852, 0.062338929623365402222, -0.15646775066852569580, 0.21550171077251434326, -0.52497565746307373047},
