#include <math.h>
#include <stdbool.h>
#include <stdint.h>
#include <string.h>

static const double tensor_dense_2_kernel_0[32][1] = 
{
  {0.48856621980667114258},
  {-0.29659554362297058105},
  {0.37361320853233337402},
  {0.60033422708511352539},
  {-0.85169655084609985352},
  {0.52081096172332763672},
  {-0.71586215496063232422},
  {-0.42147755622863769531},
  {-0.56939411163330078125},
  {-0.57292318344116210938},
  {-0.61412382125854492188},
  {0.46766996383666992188},
  {0.43705520033836364746},
  {-0.37821206450462341309},
  {-0.41331484913825988770},
  {-0.70018470287322998047},
  {-0.58214211463928222656},
  {0.38465097546577453613},
  {0.31547880172729492188},
  {0.29693713784217834473},
  {0.29817596077919006348},
  {0.65369123220443725586},
  {0.67704141139984130859},
  {0.64520317316055297852},
  {0.32089611887931823730},
  {-0.50813293457031250000},
  {0.16616600751876831055},
  {-0.53284764289855957031},
  {-0.42294529080390930176},
  {0.34061941504478454590},
  {0.33652970194816589355},
  {-0.23631371557712554932}
};
static const double tensor_dense_2_bias_0[1] = 
{-0.17206077277660369873};
static const double tensor_scale[32] = 
{1.4529641866683959961, 1.3957519531250000000, 1.6085841655731201172, 1.3961217403411865234, 2.3105683326721191406, 1.9847563505172729492, 1.9064719676971435547, 1.5259149074554443359, 1.7227106094360351562, 1.6740928888320922852, 1.6611924171447753906, 1.9531924724578857422, 2.1005620956420898438, 2.2240738868713378906, 2.1239726543426513672, 2.1933736801147460938, 1.8117623329162597656, 1.6683378219604492188, 1.7477322816848754883, 1.3114503622055053711, 1.4326881170272827148, 1.6139626502990722656, 1.7346837520599365234, 1.7727373838424682617, 1.4986206293106079102, 1.3740564584732055664, 2.1161046028137207031, 1.5283095836639404297, 1.8283056020736694336, 1.6842904090881347656, 2.1520564556121826172, 1.2675127983093261719};
static const double tensor_bias[32] = 
{-0.33827573060989379883, 0.31049013137817382812, -0.59517157077789306641, -0.20105798542499542236, 0.83866059780120849609, 0.63319861888885498047, -0.25012683868408203125, 0.011325716972351074219, 0.19186572730541229248, 0.53850412368774414062, -0.28128024935722351074, 0.53835856914520263672, 0.70757544040679931641, 0.016934826970100402832, 0.081167370080947875977, -0.81289112567901611328, -0.12652733922004699707, -0.26512658596038818359, 0.36548805236816406250, -0.23351725935935974121, -0.31764492392539978027, -0.59848999977111816406, -0.068336375057697296143, 0.11758968234062194824, 0.11894549429416656494, 0.14845991134643554688, 0.10840694606304168701, 0.55331087112426757812, -0.30037271976470947266, 0.010313704609870910645, 0.61722767353057861328, 0.35498470067977905273};
static const double tensor_mean[32] = 
{0.0000000000000000000, -0.0000000000000000000, 0.0000000000000000000, 0.0000000000000000000, -0.0000000000000000000, -0.0000000000000000000, 0.0000000000000000000, 0.0000000000000000000, -0.0000000000000000000, -0.0000000000000000000, 0.0000000000000000000, -0.0000000000000000000, -0.0000000000000000000, 0.0000000000000000000, 0.0000000000000000000, 0.0000000000000000000, 0.0000000000000000000, 0.0000000000000000000, -0.0000000000000000000, 0.0000000000000000000, 0.0000000000000000000, 0.0000000000000000000, -0.0000000000000000000, -0.0000000000000000000, -0.0000000000000000000, 0.0000000000000000000, -0.0000000000000000000, -0.0000000000000000000, 0.0000000000000000000, -0.0000000000000000000, -0.0000000000000000000, -0.0000000000000000000};
static const double tensor_var[32] = 
{1.0000004768371582031, 1.0000004768371582031, 1.0000004768371582031, 1.0000004768371582031, 1.0000004768371582031, 1.0000004768371582031, 1.0000004768371582031, 1.0000004768371582031, 1.0000004768371582031, 1.0000004768371582031, 1.0000004768371582031, 1.0000004768371582031, 1.0000004768371582031, 1.0000004768371582031, 1.0000004768371582031, 1.0000004768371582031, 1.0000004768371582031, 1.0000004768371582031, 1.0000004768371582031, 1.0000004768371582031, 1.0000004768371582031, 1.0000004768371582031, 1.0000004768371582031, 1.0000004768371582031, 1.0000004768371582031, 1.0000004768371582031, 1.0000004768371582031, 1.0000004768371582031, 1.0000004768371582031, 1.0000004768371582031, 1.0000004768371582031, 1.0000004768371582031};
static const double tensor_dense_1_kernel_0[32][32] = 
{
  {0.36324328184127807617, 0.33986461162567138672, -0.25060915946960449219, -0.014483136124908924103, -0.097047820687294006348, -0.29540601372718811035, 0.14085701107978820801, -0.39187294244766235352, 0.11088736355304718018, 0.26567840576171875000, -0.27388289570808410645, 0.33322358131408691406, -0.42831256985664367676, 0.098307065665721893311, 0.26179873943328857422, 0.10380385071039199829, -0.27145743370056152344, 0.31743311882019042969, 0.41435632109642028809, 0.037542492151260375977, -0.16261613368988037109, -0.0026346803642809391022, 0.19463786482810974121, 0.46261733770370483398, 0.28625631332397460938, -0.24677793681621551514, -0.17023852467536926270, 0.045220471918582916260, -0.51407593488693237305, 0.41954120993614196777, -0.13841010630130767822, 0.31333556771278381348},
  {0.29076486825942993164, -0.35129785537719726562, 0.21717296540737152100, 0.073149740695953369141, 0.032029621303081512451, -0.070625059306621551514, 0.23642921447753906250, -0.095718853175640106201, -0.30932876467704772949, -0.28579732775688171387, 0.11738581210374832153, -0.16580824553966522217, 0.23140071332454681396, 0.11210422962903976440, 0.040427688509225845337, -0.15986335277557373047, 0.14160604774951934814, 0.11149875819683074951, 0.16392835974693298340, 0.14987942576408386230, 0.37781798839569091797, 0.067726589739322662354, 0.35505929589271545410, -0.039983090013265609741, 0.095931224524974822998, -0.055391255766153335571, 0.33534628152847290039, -0.23347997665405273438, 0.23659896850585937500, 0.068955026566982269287, -0.16111539304256439209, 0.11372096091508865356},
  {-0.30164515972137451172, 0.24733932316303253174, -0.16100576519966125488, -0.18136124312877655029, 0.16050422191619873047, 0.032096173614263534546, 0.14421565830707550049, -0.16369158029556274414, 0.18644677102565765381, 0.27683642506599426270, 0.056580919772386550903, 0.097233615815639495850, -0.13820233941078186035, -0.26437801122665405273, -0.057965904474258422852, 0.16661801934242248535, 0.11521410942077636719, -0.19009833037853240967, 0.051812402904033660889, 0.041624870151281356812, -0.30142673850059509277, -0.23351335525512695312, -0.16957344114780426025, 0.067931436002254486084, -0.16393184661865234375, 0.15809507668018341064, -0.15898758172988891602, 0.42784509062767028809, -0.061164956539869308472, -0.16625386476516723633, 0.10270288586616516113, 0.38678917288780212402},
  {0.53856587409973144531, -0.18281526863574981689, -0.21878597140312194824, 0.36193713545799255371, -0.24214215576648712158, -0.28080713748931884766, 0.024484343826770782471, -0.010020815767347812653, -0.40220513939857482910, 0.16330923140048980713, -0.097413659095764160156, 0.021229200065135955811, -0.082957699894905090332, -0.17449931800365447998, -0.16515301167964935303, 0.21782352030277252197, -0.050064895302057266235, -0.10886841267347335815, 0.21365098655223846436, 0.46103319525718688965, -0.070171914994716644287, 0.16446147859096527100, 0.44479092955589294434, 0.15028022229671478271, 0.022367332130670547485, -0.20391330122947692871, 0.033025089651346206665, -0.18148760497570037842, 0.015319038182497024536, -0.23215623199939727783, -0.070490114390850067139, -0.21856655180454254150},
  {0.14908380806446075439, 0.071829974651336669922, -0.12480749189853668213, -0.14324802160263061523, -0.12276657670736312866, 0.17098195850849151611, -0.012306315824389457703, -0.091110631823539733887, 0.11038726568222045898, -0.18559181690216064453, 0.18102642893791198730, -0.37070316076278686523, 0.16485272347927093506, -0.15645518898963928223, 0.29942795634269714355, 0.27408966422080993652, 0.37546810507774353027, 0.068917304277420043945, -0.27739399671554565430, 0.015169330872595310211, -0.093705601990222930908, -0.18908286094665527344, 0.17041300237178802490, 0.15728828310966491699, -0.38090261816978454590, 0.035811234265565872192, -0.20506857335567474365, -0.17374375462532043457, 0.30790966749191284180, -0.40959608554840087891, 0.24099619686603546143, -0.34432321786880493164},
  {-0.48626908659934997559, -0.069093056023120880127, -0.061044778674840927124, -0.18273155391216278076, -0.15861368179321289062, -0.12557359039783477783, 0.16667628288269042969, 0.25622150301933288574, -0.12284438312053680420, 0.11662891507148742676, -0.12904275953769683838, -0.16880650818347930908, 0.23412400484085083008, -0.073132708668708801270, -0.0041687893681228160858, 0.064243726432323455811, -0.050587184727191925049, -0.19967024028301239014, 0.10743649303913116455, -0.58893853425979614258, -0.26813524961471557617, 0.20386570692062377930, -0.025392714887857437134, -0.16732777655124664307, -0.071048773825168609619, 0.53099977970123291016, 0.097922764718532562256, 0.012852781452238559723, 0.31542798876762390137, -0.17318688333034515381, 0.014274871908128261566, -0.099984601140022277832},
  {-0.13802564144134521484, -0.13191287219524383545, 0.25975254178047180176, 0.37108623981475830078, 0.079135410487651824951, 0.20794449746608734131, 0.086592286825180053711, -0.27150830626487731934, 0.29524919390678405762, 0.15411809086799621582, 0.11921041458845138550, 0.14119605720043182373, -0.054000843316316604614, 0.21052756905555725098, 0.33178487420082092285, 0.017950003966689109802, 0.14772491157054901123, 0.13922744989395141602, 0.073502227663993835449, 0.36524879932403564453, 0.43959295749664306641, 0.37431266903877258301, 0.38850620388984680176, 0.15656040608882904053, -0.20137245953083038330, -0.43487170338630676270, -0.24592684209346771240, -0.089112170040607452393, 0.065439768135547637939, 0.17300516366958618164, -0.26799032092094421387, -0.14811782538890838623},
  {-0.45082706212997436523, 0.41238719224929809570, -0.14806105196475982666, -0.24838820099830627441, -0.32911968231201171875, -0.30461186170578002930, 0.36539193987846374512, -0.23114681243896484375, 0.11952985078096389771, 0.27489474415779113770, 0.29602685570716857910, -0.44897407293319702148, -0.25377681851387023926, 0.089446261525154113770, -0.20174588263034820557, 0.40806320309638977051, 0.043179176747798919678, -0.36968189477920532227, -0.32298198342323303223, -0.15566648542881011963, -0.32617497444152832031, 0.20149274170398712158, -0.079635806381702423096, -0.27614104747772216797, -0.072005897760391235352, 0.042740475386381149292, 0.20732314884662628174, 0.14999625086784362793, -0.10283218324184417725, 0.095944792032241821289, -0.45365107059478759766, 0.018170880153775215149},
  {0.29583680629730224609, 0.10541455447673797607, -0.022651765495538711548, -0.17840477824211120605, 0.021926922723650932312, -0.12182313203811645508, 0.18223212659358978271, -0.33472907543182373047, 0.15025490522384643555, -0.088892437517642974854, -0.40160703659057617188, -0.16269434988498687744, 0.18589769303798675537, -0.13766431808471679688, 0.24602562189102172852, -0.17996226251125335693, -0.27326995134353637695, -0.22489063441753387451, -0.13782256841659545898, -0.15880998969078063965, -0.0043638236820697784424, -0.22936636209487915039, 0.11983054131269454956, 0.17079699039459228516, 0.29334291815757751465, 0.18509967625141143799, 0.075396224856376647949, 0.20105719566345214844, -0.21536678075790405273, 0.31677269935607910156, 0.023758355528116226196, 0.10426965355873107910},
  {0.31866243481636047363, 0.00046851829392835497856, 0.095704063773155212402, 0.28987312316894531250, 0.087247624993324279785, 0.27893653512001037598, -0.26558062434196472168, -0.047634635120630264282, 0.23770265281200408936, -0.024526353925466537476, -0.016090931370854377747, -0.15927939116954803467, 0.26227971911430358887, -0.17803400754928588867, 0.076861172914505004883, -0.23335580527782440186, 0.021348878741264343262, 0.10056459158658981323, 0.14924901723861694336, 0.20822475850582122803, 0.24135872721672058105, 0.070731334388256072998, 0.39110153913497924805, -0.41510167717933654785, 0.030903460457921028137, -0.32274216413497924805, 0.36884880065917968750, -0.061210498213768005371, -0.062285408377647399902, -0.39541774988174438477, 0.059830397367477416992, 0.21807840466499328613},
  {-0.22629489004611968994, 0.080075174570083618164, 0.092033304274082183838, -0.33995971083641052246, -0.29738694429397583008, 0.36397910118103027344, 0.060622472316026687622, -0.22875279188156127930, -0.049647103995084762573, 0.31977504491806030273, 0.10565472394227981567, -0.19636905193328857422, -0.058839108794927597046, 0.14230409264564514160, -0.089009851217269897461, -0.25120961666107177734, 0.16772407293319702148, 0.26795667409896850586, -0.15025900304317474365, 0.010795981623232364655, 0.12569318711757659912, -0.36303126811981201172, -0.54126048088073730469, 0.26011869311332702637, 0.15004718303680419922, -0.12859630584716796875, 0.13678815960884094238, -0.035108465701341629028, 0.19092588126659393311, 0.051962267607450485229, 0.047533899545669555664, 0.15452779829502105713},
  {0.029200885444879531860, 0.098415032029151916504, 0.28090578317642211914, 0.14355517923831939697, -0.21090033650398254395, 0.19921509921550750732, -0.060147330164909362793, -0.32427230477333068848, 0.14783923327922821045, 0.11822235584259033203, -0.41163778305053710938, 0.37281557917594909668, -0.15389826893806457520, 0.16807569563388824463, -0.26943072676658630371, -0.17674373090267181396, -0.32946196198463439941, 0.077854096889495849609, 0.35240969061851501465, -0.013622768223285675049, 0.36530289053916931152, 0.24473428726196289062, -0.13942024111747741699, 0.21890740096569061279, 0.10009913146495819092, -0.14412811398506164551, 0.22730816900730133057, -0.32040250301361083984, -0.40064305067062377930, 0.28366479277610778809, -0.036081921309232711792, -0.30723500251770019531},
  {0.086210705339908599854, 0.21583378314971923828, 0.024849621579051017761, 0.069393947720527648926, 0.022554518654942512512, -0.10628153383731842041, 0.044581510126590728760, 0.029389254748821258545, 0.28571492433547973633, -0.12597239017486572266, -0.18226519227027893066, -0.15983454883098602295, -0.24374416470527648926, -0.17505869269371032715, 0.051580555737018585205, 0.32188522815704345703, -0.073780067265033721924, 0.12083009630441665649, -0.28774532675743103027, -0.37534233927726745605, 0.18030193448066711426, 0.30086693167686462402, -0.27285850048065185547, 0.34148809313774108887, -0.15933395922183990479, 0.18054829537868499756, 0.17599828541278839111, 0.30716836452484130859, -0.29514497518539428711, -0.10315063595771789551, -0.16505098342895507812, -0.20260465145111083984},
  {-0.34772872924804687500, -0.11148937791585922241, -0.17374080419540405273, -0.15704588592052459717, 0.063218697905540466309, -0.37418150901794433594, 0.18179942667484283447, 0.16156083345413208008, 0.30681711435317993164, 0.12154259532690048218, 0.19412404298782348633, -0.0099706370383501052856, -0.15934889018535614014, -0.19893628358840942383, 0.033016588538885116577, 0.13078720867633819580, -0.16778042912483215332, -0.28730544447898864746, -0.039480477571487426758, -0.12827096879482269287, -0.16090196371078491211, -0.29525867104530334473, 0.33133828639984130859, -0.14546178281307220459, -0.21494862437248229980, 0.47322162985801696777, 0.12555362284183502197, -0.095051303505897521973, 0.096378125250339508057, 0.10848230123519897461, -0.091408178210258483887, 0.13205049932003021240},
  {-0.24091386795043945312, -0.18538410961627960205, -0.017691615968942642212, 0.23690529167652130127, 0.23880445957183837891, -0.16522401571273803711, 0.096753910183906555176, 0.13947664201259613037, -0.15167050063610076904, 0.20817147195339202881, -0.14112269878387451172, 0.22853282094001770020, -0.24395658075809478760, 0.25518238544464111328, 0.20123600959777832031, -0.021041370928287506104, -0.18657951056957244873, -0.30250716209411621094, -0.10112162679433822632, 0.0019481396302580833435, 0.21648901700973510742, 0.28348866105079650879, -0.30522364377975463867, -0.17117023468017578125, -0.27783820033073425293, 0.048691041767597198486, -0.073816053569316864014, 0.017802992835640907288, -0.19672477245330810547, -0.085824012756347656250, -0.33515071868896484375, 0.00081375124864280223846},
  {-0.055601660162210464478, 0.27351433038711547852, -0.24274551868438720703, 0.13734729588031768799, 0.50901436805725097656, 0.067830815911293029785, -0.31943145394325256348, 0.64016491174697875977, -0.30974587798118591309, 0.091258257627487182617, 0.26160418987274169922, -0.050078772008419036865, 0.16934256255626678467, -0.30479291081428527832, -0.11251632869243621826, -0.046880733221769332886, 0.30018895864486694336, 0.0090964213013648986816, 0.072576172649860382080, 0.0057028979063034057617, -0.061437264084815979004, -0.41874012351036071777, 0.40766876935958862305, 0.14036022126674652100, 0.14556543529033660889, -0.18687742948532104492, 0.017380693927407264709, -0.13057288527488708496, 0.35637068748474121094, -0.29924222826957702637, 0.19861674308776855469, 0.089948683977127075195},
  {-0.14553049206733703613, -0.20781657099723815918, -0.33833560347557067871, 0.048862393945455551147, 0.22379212081432342529, 0.22577656805515289307, -0.22641329467296600342, 0.076153464615345001221, 0.043211232870817184448, 0.18091732263565063477, 0.16261729598045349121, 0.14638411998748779297, 0.090511783957481384277, 0.12245904654264450073, 0.25420099496841430664, 0.0080878240987658500671, 0.27408400177955627441, -0.40707126259803771973, -0.10748592019081115723, 0.17272247374057769775, -0.22150611877441406250, 0.49442678689956665039, 0.28471887111663818359, -0.17843526601791381836, -0.27663573622703552246, 0.14074857532978057861, 0.050711221992969512939, 0.13254778087139129639, -0.25704273581504821777, 0.32715266942977905273, 0.073371507227420806885, 0.14370833337306976318},
  {-0.0057824337854981422424, 0.33152902126312255859, 0.15558680891990661621, -0.27770227193832397461, 0.47534236311912536621, 0.074333325028419494629, -0.16676802933216094971, 0.65406417846679687500, -0.28446409106254577637, 0.075846731662750244141, 0.50818449258804321289, 0.15693975985050201416, -0.13276021182537078857, 0.21164567768573760986, -0.21007524430751800537, -0.19231213629245758057, 0.39739817380905151367, -0.21805201470851898193, 0.050520461052656173706, -0.13389787077903747559, 0.13279168307781219482, -0.095961667597293853760, 0.25934770703315734863, -0.12963959574699401855, -0.058352924883365631104, -0.038322929292917251587, 0.14759208261966705322, 0.25178685784339904785, 0.066887520253658294678, -0.41540613770484924316, -0.28799661993980407715, -0.056017238646745681763},
  {0.040886089205741882324, 0.059697601944208145142, 0.39694640040397644043, 0.17813116312026977539, -0.019157385453581809998, -0.19182498753070831299, 0.16731697320938110352, -0.10559543222188949585, 0.16898605227470397949, -0.53065001964569091797, 0.083991274237632751465, 0.036025442183017730713, 0.065273642539978027344, -0.013639373704791069031, -0.095830373466014862061, -0.053099356591701507568, -0.073435112833976745605, 0.26230370998382568359, -0.068398691713809967041, 0.18490685522556304932, 0.022779339924454689026, 0.30352076888084411621, -0.066091261804103851318, -0.29365941882133483887, 0.20853185653686523438, -0.23704399168491363525, 0.054802998900413513184, -0.14794592559337615967, -0.021491894498467445374, -0.22870440781116485596, -0.17857024073600769043, -0.63899624347686767578},
  {-0.21705038845539093018, 0.056479234248399734497, 0.024538418278098106384, -0.30790117383003234863, -0.24611057341098785400, -0.29464769363403320312, 0.22573556005954742432, -0.45931097865104675293, 0.15325716137886047363, -0.19359852373600006104, -0.54464471340179443359, -0.16454283893108367920, -0.24349081516265869141, 0.075102217495441436768, 0.25165808200836181641, -0.054084964096546173096, -0.44869413971900939941, -0.16954649984836578369, 0.099995523691177368164, 0.028246605768799781799, 0.059736531227827072144, -0.011460409499704837799, 0.097805105149745941162, 0.25484371185302734375, 0.25934827327728271484, -0.048719033598899841309, -0.28303653001785278320, -0.26486173272132873535, -0.55823117494583129883, 0.25029429793357849121, -0.13682511448860168457, 0.10841087996959686279},
  {0.31385442614555358887, 0.10356404632329940796, -0.0036190538667142391205, -0.23448351025581359863, -0.060178883373737335205, -0.058985006064176559448, -0.24888189136981964111, -0.054212503135204315186, -0.30886733531951904297, 0.094584174454212188721, -0.0036460200790315866470, -0.25594162940979003906, 0.054880619049072265625, -0.12838703393936157227, 0.22223415970802307129, 0.20513346791267395020, -0.18388892710208892822, 0.24273028969764709473, -0.29019978642463684082, 0.044316753745079040527, -0.018116677179932594299, 0.044979933649301528931, -0.052415944635868072510, -0.27886208891868591309, -0.20414829254150390625, -0.19010515511035919189, -0.19883000850677490234, 0.24523414671421051025, 0.018547737970948219299, 0.26238182187080383301, -0.21521091461181640625, 0.089437700808048248291},
  {0.0041021169163286685944, 0.24250300228595733643, -0.19222244620323181152, -0.42081856727600097656, 0.12901848554611206055, 0.13776659965515136719, -0.33885908126831054688, -0.27844387292861938477, -0.34947291016578674316, -0.29331791400909423828, -0.14646816253662109375, -0.33738797903060913086, 0.19121392071247100830, -0.25573939085006713867, -0.20417714118957519531, -0.39080703258514404297, 0.081059508025646209717, -0.14992153644561767578, -0.026595467701554298401, -0.27316331863403320312, -0.11593891680240631104, -0.063876807689666748047, -0.034870635718107223511, -0.046046718955039978027, -0.075027234852313995361, -0.086787879467010498047, 0.26651248335838317871, 0.29877656698226928711, -0.13468444347381591797, 0.11892848461866378784, 0.39694672822952270508, -0.18494363129138946533},
  {0.16342397034168243408, -0.10406970232725143433, -0.051061980426311492920, -0.16979953646659851074, -0.36294415593147277832, 0.043428409844636917114, -0.21947017312049865723, 0.11874503642320632935, -0.26265019178390502930, -0.21372354030609130859, -0.27110496163368225098, 0.090773247182369232178, -0.014135521836578845978, -0.11924828588962554932, -0.36908736824989318848, -0.22067669034004211426, 0.037430331110954284668, 0.11756857484579086304, 0.14869609475135803223, 0.26022657752037048340, 0.26713731884956359863, -0.19652593135833740234, -0.059146743267774581909, -0.016331780701875686646, 0.058740749955177307129, -0.11493057012557983398, 0.21124719083309173584, 0.015229610726237297058, 0.11430860310792922974, -0.084874272346496582031, 0.19151696562767028809, 0.16589762270450592041},
  {0.23197607696056365967, 0.32832556962966918945, -0.011084857396781444550, -0.062340181320905685425, -0.029024539515376091003, -0.0047250422649085521698, 0.20574273169040679932, 0.16244253516197204590, -0.097635209560394287109, 0.28551399707794189453, 0.080325849354267120361, -0.22072735428810119629, 0.13702067732810974121, -0.033972393721342086792, -0.074623219668865203857, -0.26964291930198669434, -0.013435482047498226166, 0.082834392786026000977, -0.13085980713367462158, 0.076494760811328887939, -0.12581613659858703613, 0.18921467661857604980, 0.35209384560585021973, -0.43075555562973022461, 0.39211413264274597168, 0.070343919098377227783, 0.18209071457386016846, 0.35937556624412536621, 0.27355444431304931641, -0.20063765347003936768, 0.11387926340103149414, -0.051090653985738754272},
  {0.14850357174873352051, -0.37723401188850402832, -0.19749411940574645996, -0.057161539793014526367, -0.23336765170097351074, 0.097274512052536010742, -0.042748309671878814697, -0.39588648080825805664, -0.089901305735111236572, 0.018896756693720817566, 0.031502310186624526978, 0.14839743077754974365, 0.20715403556823730469, -0.058369133621454238892, -0.28097414970397949219, -0.20305636525154113770, -0.074022926390171051025, 0.26092746853828430176, 0.41393172740936279297, 0.13273055851459503174, 0.072458185255527496338, 0.38433524966239929199, 0.098977401852607727051, 0.15276707708835601807, -0.20937404036521911621, -0.34859725832939147949, 0.0074930316768586635590, 0.078948527574539184570, -0.37432622909545898438, 0.43311351537704467773, 0.060014382004737854004, -0.13219358026981353760},
  {0.18539758026599884033, 0.14637671411037445068, 0.19261106848716735840, -0.095710702240467071533, -0.23553238809108734131, 0.23884069919586181641, -0.18272221088409423828, -0.13946475088596343994, -0.37481987476348876953, 0.11769976466894149780, 0.028472140431404113770, 0.25674906373023986816, 0.34465360641479492188, -0.023798976093530654907, -0.12124705314636230469, -0.29493460059165954590, 0.035998020321130752563, 0.090378962457180023193, -0.16079127788543701172, -0.19590058922767639160, -0.082311034202575683594, -0.30359438061714172363, 0.11639833450317382812, -0.0034575420431792736053, -0.0088742896914482116699, 0.10250941663980484009, 0.16715694963932037354, 0.13555005192756652832, 0.16753315925598144531, -0.17169007658958435059, 0.056657496839761734009, -0.052972279489040374756},
  {-0.23244050145149230957, 0.18619072437286376953, 0.18724818527698516846, -0.12058913707733154297, -0.25542852282524108887, -0.14408956468105316162, -0.024183297529816627502, -0.20583343505859375000, -0.041273348033428192139, -0.26843982934951782227, 0.32591477036476135254, -0.066624820232391357422, -0.0053460188210010528564, -0.32900008559226989746, 0.19624063372611999512, -0.049688063561916351318, -0.050744820386171340942, -0.054715573787689208984, -0.27440899610519409180, -0.23819389939308166504, 0.038814019411802291870, 0.32103917002677917480, -0.071537211537361145020, -0.18563315272331237793, 0.026398954913020133972, 0.22485733032226562500, -0.094242312014102935791, 0.060246538370847702026, -0.095215387642383575439, 0.11574275046586990356, 0.044332578778266906738, 0.063429318368434906006},
  {-0.038071829825639724731, 0.24875338375568389893, -0.25055238604545593262, -0.017456853762269020081, 0.19449560344219207764, 0.17575262486934661865, -0.21412910521030426025, -0.00053804990602657198906, 0.055744040757417678833, 0.11896400898694992065, -0.26077303290367126465, 0.14361166954040527344, 0.29837879538536071777, 0.015683444216847419739, -0.023326536640524864197, 0.10385379195213317871, -0.30598366260528564453, 0.062181729823350906372, 0.34278690814971923828, -0.011328231543302536011, 0.0072292429395020008087, -0.22779437899589538574, 0.30708411335945129395, -0.035720705986022949219, 0.16145384311676025391, 0.060300402343273162842, 0.021622842177748680115, 0.15699727833271026611, -0.29213249683380126953, -0.16497521102428436279, -0.10908204317092895508, 0.041703891009092330933},
  {-0.17817956209182739258, 0.39739432930946350098, -0.24422380328178405762, -0.26790726184844970703, -0.15309199690818786621, -0.15865443646907806396, -0.18050380051136016846, -0.45789518952369689941, -0.21213360130786895752, 0.16796532273292541504, -0.18389028310775756836, -0.37411314249038696289, -0.28169021010398864746, 0.22677788138389587402, -0.065075889229774475098, 0.18233452737331390381, 0.027218174189329147339, -0.26148277521133422852, -0.51948064565658569336, -0.43010395765304565430, -0.16114555299282073975, 0.30357855558395385742, 0.048287738114595413208, 0.092726230621337890625, -0.0011451984755694866180, 0.42586627602577209473, 0.054245684295892715454, 0.27544113993644714355, -0.33029755949974060059, 0.33283722400665283203, -0.24324090778827667236, 0.51053172349929809570},
  {-0.11625249683856964111, -0.087118580937385559082, 0.20133459568023681641, -0.21708695590496063232, 0.010931034572422504425, -0.045966099947690963745, -0.31211146712303161621, -0.16892307996749877930, -0.44832998514175415039, -0.21165660023689270020, -0.34546911716461181641, 0.15715804696083068848, 0.098694227635860443115, -0.34631377458572387695, -0.25955101847648620605, -0.077069297432899475098, -0.23400732874870300293, -0.037146367132663726807, -0.13075122237205505371, 0.30698916316032409668, 0.056715857237577438354, -0.15356558561325073242, 0.038356915116310119629, 0.24599994719028472900, 0.38612261414527893066, -0.15633286535739898682, 0.43309333920478820801, 0.18040269613265991211, -0.15933880209922790527, -0.14705091714859008789, 0.051007140427827835083, -0.071694314479827880859},
  {-0.083075344562530517578, 0.019968200474977493286, -0.23796047270298004150, -0.19339868426322937012, 0.24462482333183288574, 0.30776515603065490723, 0.13872258365154266357, 0.17591618001461029053, 0.019226644188165664673, 0.18711702525615692139, -0.17974692583084106445, -0.13542972505092620850, 0.16007943451404571533, -0.014586033299565315247, -0.056993499398231506348, -0.19503529369831085205, -0.058655649423599243164, -0.0045273024588823318481, 0.18879912793636322021, -0.15133014321327209473, -0.24781772494316101074, 0.018657071515917778015, -0.18120600283145904541, 0.21669989824295043945, -0.015380457043647766113, -0.023749893531203269958, 0.20608167350292205811, 0.25031992793083190918, -0.31156969070434570312, 0.28259393572807312012, -0.015276700258255004883, -0.13904747366905212402},
  {-0.16614957153797149658, -0.33271819353103637695, -0.20148599147796630859, 0.10883482545614242554, 0.32478621602058410645, -0.090776205062866210938, 0.38546463847160339355, -0.15393655002117156982, 0.12636414170265197754, 0.058826610445976257324, 0.23611778020858764648, -0.034207362681627273560, -0.35409173369407653809, 0.24266943335533142090, -0.14481827616691589355, -0.086027592420578002930, 0.37638083100318908691, 0.064976960420608520508, -0.27079093456268310547, 0.19570676982402801514, -0.23658502101898193359, 0.30580580234527587891, -0.13597135245800018311, -0.0036622269544750452042, -0.38605403900146484375, 0.35074156522750854492, 0.13644115626811981201, -0.24680756032466888428, 0.038779575377702713013, -0.013823108747601509094, -0.061011143028736114502, -0.013722388073801994324}
};
static const double tensor_dense_1_bias_0[32] = 
{0.093434900045394897461, -0.17699851095676422119, 0.22933110594749450684, 0.075663231313228607178, -0.18689334392547607422, -0.17551970481872558594, 0.022529091686010360718, 0.16485095024108886719, -0.13290786743164062500, -0.20122565329074859619, 0.12534600496292114258, -0.38633066415786743164, -0.41032946109771728516, 0.089902661740779876709, -0.094351291656494140625, 0.34392830729484558105, 0.13987225294113159180, 0.079129450023174285889, -0.25010541081428527832, 0.080293118953704833984, 0.16845020651817321777, 0.19404871761798858643, -0.061421494930982589722, -0.16400696337223052979, -0.15859766304492950439, 0.0031261041294783353806, 0.12553419172763824463, -0.16606251895427703857, 0.26122534275054931641, -0.21415323019027709961, -0.22469520568847656250, -0.060732245445251464844};
static const double tensor_scale1[32] = 
{14.513831138610839844, 8.5610427856445312500, 6.2048139572143554688, 9.3461713790893554688, 20.635660171508789062, 10.770203590393066406, 6.1694955825805664062, 21.042455673217773438, 11.398189544677734375, 15.279543876647949219, 14.479770660400390625, 14.355216979980468750, 8.3574399948120117188, 8.2171335220336914062, 7.5386071205139160156, 17.114665985107421875, 12.862863540649414062, 12.168718338012695312, 12.196528434753417969, 14.895908355712890625, 10.267418861389160156, 18.432382583618164062, 12.069360733032226562, 13.926586151123046875, 4.4492225646972656250, 9.7432003021240234375, 6.8355154991149902344, 26.729574203491210938, 15.741226196289062500, 13.172339439392089844, 5.8133249282836914062, 9.3723926544189453125};
static const double tensor_bias1[32] = 
{-13.102226257324218750, -4.9393424987792968750, 2.1259002685546875000, -4.1380662918090820312, 19.508773803710937500, -6.6866717338562011719, 2.0659189224243164062, -17.231105804443359375, -10.447976112365722656, 11.318627357482910156, -11.981922149658203125, 12.990917205810546875, -2.5745530128479003906, -1.5853747129440307617, -5.4319672584533691406, -10.678325653076171875, 8.7904577255249023438, -8.0175085067749023438, 6.0084619522094726562, 5.4400811195373535156, 8.5176773071289062500, -17.222482681274414062, 8.6182098388671875000, -6.2870693206787109375, 2.2021918296813964844, -8.9074535369873046875, -3.6038880348205566406, -25.985874176025390625, -8.1590528488159179688, 11.123148918151855469, 0.39078983664512634277, 4.5150861740112304688};
static const double tensor_mean1[32] = 
{0.0000000000000000000, 0.0000000000000000000, -0.0000000000000000000, 0.0000000000000000000, -0.0000000000000000000, 0.0000000000000000000, -0.0000000000000000000, 0.0000000000000000000, 0.0000000000000000000, -0.0000000000000000000, 0.0000000000000000000, -0.0000000000000000000, 0.0000000000000000000, 0.0000000000000000000, 0.0000000000000000000, 0.0000000000000000000, -0.0000000000000000000, 0.0000000000000000000, -0.0000000000000000000, -0.0000000000000000000, -0.0000000000000000000, 0.0000000000000000000, -0.0000000000000000000, 0.0000000000000000000, -0.0000000000000000000, 0.0000000000000000000, 0.0000000000000000000, 0.0000000000000000000, 0.0000000000000000000, -0.0000000000000000000, -0.0000000000000000000, -0.0000000000000000000};
static const double tensor_var1[32] = 
{1.0000004768371582031, 1.0000004768371582031, 1.0000004768371582031, 1.0000004768371582031, 1.0000004768371582031, 1.0000004768371582031, 1.0000004768371582031, 1.0000004768371582031, 1.0000004768371582031, 1.0000004768371582031, 1.0000004768371582031, 1.0000004768371582031, 1.0000004768371582031, 1.0000004768371582031, 1.0000004768371582031, 1.0000004768371582031, 1.0000004768371582031, 1.0000004768371582031, 1.0000004768371582031, 1.0000004768371582031, 1.0000004768371582031, 1.0000004768371582031, 1.0000004768371582031, 1.0000004768371582031, 1.0000004768371582031, 1.0000004768371582031, 1.0000004768371582031, 1.0000004768371582031, 1.0000004768371582031, 1.0000004768371582031, 1.0000004768371582031, 1.0000004768371582031};
static const double tensor_dense_kernel_0[94][32] = 
{
  {0.16373437643051147461, -0.22107529640197753906, -0.014575410634279251099, -0.051416382193565368652, -0.19736750423908233643, 0.0024245150852948427200, -0.0061843669973313808441, -0.048301085829734802246, 0.070736318826675415039, 0.074899338185787200928, 0.15358562767505645752, 0.10697687417268753052, -0.12541978061199188232, -0.14684897661209106445, -0.068900413811206817627, 0.13722123205661773682, 0.065122745931148529053, 0.082314409315586090088, 0.11203613132238388062, 0.054599430412054061890, -0.24858945608139038086, 0.13827601075172424316, -0.27583664655685424805, 0.040324266999959945679, 0.097397573292255401611, 0.15758003294467926025, 0.17981582880020141602, -0.23957817256450653076, 0.24318659305572509766, 0.090122766792774200439, 0.17625470459461212158, -0.10109165310859680176},
  {-0.032584957778453826904, 0.13054826855659484863, 0.14856156706809997559, 0.088541038334369659424, 0.061055235564708709717, -0.022952323779463768005, -0.13974447548389434814, 0.13854393362998962402, -0.23502884805202484131, 0.037496257573366165161, -0.21470475196838378906, 0.14418643712997436523, -0.16543748974800109863, 0.032968644052743911743, 0.074343621730804443359, -0.27532064914703369141, -0.087689265608787536621, 0.031010931357741355896, 0.086016677320003509521, 0.052323032170534133911, 0.068537570536136627197, 0.10844677686691284180, -0.0055706929415464401245, -0.056156266480684280396, -0.088454827666282653809, -0.11330384016036987305, 0.10159906744956970215, -0.21023650467395782471, 0.11876599490642547607, 0.13424128293991088867, -0.19168730080127716064, -0.18961109220981597900},
  {-0.14372295141220092773, 0.19657215476036071777, -0.16661021113395690918, 0.13881538808345794678, 0.19110329449176788330, -0.096690401434898376465, 0.16801576316356658936, -0.056094847619533538818, -0.11257573217153549194, -0.030728008598089218140, 0.20563356578350067139, 0.16921107470989227295, 0.00051609613001346588135, -0.025580197572708129883, 0.016078263521194458008, 0.10263351351022720337, 0.058424204587936401367, 0.16620300710201263428, 0.084697410464286804199, -0.11104241013526916504, -0.16723914444446563721, -0.10000387579202651978, -0.071189232170581817627, 0.052667066454887390137, -0.16863654553890228271, -0.093748629093170166016, -0.052955251187086105347, -0.14835327863693237305, -0.074700511991977691650, -0.056056957691907882690, -0.0025691955816000699997, 0.18646997213363647461},
  {-0.069931291043758392334, -0.050176460295915603638, 0.071221008896827697754, -0.10204433649778366089, 0.11816353350877761841, -0.039904959499835968018, -0.097302064299583435059, -0.080161437392234802246, -0.054644547402858734131, -0.14392395317554473877, 0.011415312066674232483, -0.019715679809451103210, 0.010078574530780315399, -0.00016377620340790599585, -0.27177181839942932129, -0.086493574082851409912, 0.20845140516757965088, 0.16027115285396575928, 0.013357672840356826782, -0.15481625497341156006, 0.011523612774908542633, -0.016640778630971908569, -0.11717758327722549438, 0.056827876716852188110, -0.024679277092218399048, 0.088934354484081268311, 0.46205171942710876465, -0.35305505990982055664, -0.058418579399585723877, -0.067531555891036987305, -0.13796804845333099365, -0.027921797707676887512},
  {-0.39147245883941650391, 0.067173771560192108154, -0.075642302632331848145, 0.13697838783264160156, 0.14938008785247802734, 0.019783223047852516174, 0.25012251734733581543, -0.22764295339584350586, -0.24456390738487243652, -0.11171989142894744873, 0.12984432280063629150, -0.27708438038825988770, 0.10775601118803024292, -0.12714362144470214844, 0.052865892648696899414, 0.068350851535797119141, -0.018484178930521011353, -0.059352271258831024170, -0.033663239330053329468, 0.049720879644155502319, 0.089232280850410461426, 0.15033525228500366211, 0.21442136168479919434, -0.015143048949539661407, -0.059261422604322433472, -0.23295882344245910645, -0.014614678919315338135, -0.048947632312774658203, -0.043182019144296646118, -0.032475464046001434326, -0.16532064974308013916, 0.079504191875457763672},
  {-0.25049313902854919434, 0.066510237753391265869, -0.037064697593450546265, 0.064996868371963500977, 0.15491169691085815430, 0.15295420587062835693, 0.11788412183523178101, -0.047914914786815643311, -0.059173680841922760010, -0.23619279265403747559, -0.11704315990209579468, 0.25923565030097961426, 0.0093248421326279640198, 0.15907566249370574951, 0.21338951587677001953, -0.17643906176090240479, -0.015405318699777126312, 0.11520086973905563354, -0.079220704734325408936, -0.012831804342567920685, 0.036083173006772994995, -0.28141129016876220703, -0.13670125603675842285, -0.17734114825725555420, -0.079649381339550018311, -0.26582020521163940430, 0.043123353272676467896, -0.097258590161800384521, -0.13553668558597564697, 0.024253301322460174561, -0.0095992535352706909180, 0.10622239857912063599},
  {-0.058533158153295516968, -0.15524873137474060059, 0.19309990108013153076, -0.10275452584028244019, 0.14017826318740844727, 0.18109986186027526855, -0.053348425775766372681, 0.020129553973674774170, 0.025720341131091117859, 0.12974376976490020752, 0.083473578095436096191, 0.10414501279592514038, 0.054810520261526107788, -0.20265953242778778076, -0.11714269965887069702, -0.21402871608734130859, -0.16958422958850860596, -0.17230165004730224609, 0.011453366838395595551, 0.12547804415225982666, 0.25885710120201110840, -0.18487128615379333496, -0.18157330155372619629, 0.15966475009918212891, -0.13230820000171661377, 0.039245020598173141479, 0.032589808106422424316, -0.15954428911209106445, -0.18890729546546936035, 0.18692319095134735107, 0.21329425275325775146, 0.0092735290527343750000},
  {-0.0040368516929447650909, 0.013026500120759010315, -0.18166428804397583008, 0.14395968616008758545, 0.072986558079719543457, -0.21492263674736022949, 0.054834127426147460938, 0.18513989448547363281, -0.25469332933425903320, -0.17646244168281555176, -0.16552989184856414795, 0.058091528713703155518, -0.11438694596290588379, -0.096178136765956878662, 0.15171591937541961670, 0.10324788093566894531, -0.0029261962044984102249, -0.072846457362174987793, -0.039649464190006256104, 0.077291056513786315918, 0.10541821271181106567, -0.23795275390148162842, -0.029598386958241462708, 0.039492119103670120239, 0.12075959891080856323, 0.066930159926414489746, -0.19586952030658721924, -0.33245971798896789551, 0.033558636903762817383, 0.12515886127948760986, -0.26500728726387023926, 0.00060953269712626934052},
  {-0.039544772356748580933, 0.084645785391330718994, 0.10626464337110519409, 0.19328896701335906982, 0.26583907008171081543, -0.13127957284450531006, 0.015412727370858192444, -0.17350628972053527832, -0.24634373188018798828, -0.055449232459068298340, -0.16091848909854888916, 0.079903535544872283936, 0.10354667156934738159, -0.056210558861494064331, -0.22931857407093048096, 0.028965676203370094299, 0.17214526236057281494, 0.027970992028713226318, 0.079508185386657714844, 0.14014801383018493652, 0.23174877464771270752, -0.019446639344096183777, 0.11039333045482635498, -0.047315772622823715210, -0.066840820014476776123, 0.076705552637577056885, 0.051628887653350830078, -0.11782623827457427979, 0.012661714106798171997, -0.18086056411266326904, -0.26490649580955505371, -0.074544891715049743652},
  {0.30116122961044311523, 0.11437633633613586426, -0.012102951295673847198, -0.037229105830192565918, -0.11710539460182189941, 0.17968688905239105225, -0.25117486715316772461, -0.045872729271650314331, 0.21338126063346862793, -0.014879531227052211761, 0.084714509546756744385, 0.049022272229194641113, -0.20472121238708496094, 0.099584057927131652832, -0.076678261160850524902, -0.041103847324848175049, -0.17054519057273864746, -0.016618702560663223267, -0.084724716842174530029, -0.064886160194873809814, -0.24741345643997192383, 0.077245011925697326660, -0.068960048258304595947, -0.19166429340839385986, -0.075713217258453369141, -0.13522587716579437256, 0.10614927113056182861, 0.13183324038982391357, 0.037038736045360565186, -0.12987118959426879883, 0.31225258111953735352, 0.092853888869285583496},
  {-0.079863540828227996826, 0.033207178115844726562, 0.014754060655832290649, -0.022130576893687248230, 0.15757201611995697021, -0.18485237658023834229, 0.098193317651748657227, -0.049941517412662506104, 0.11322281509637832642, 0.097589783370494842529, -0.22216704487800598145, 0.28694057464599609375, -0.062857113778591156006, 0.033554222434759140015, 0.19432295858860015869, -0.19590577483177185059, -0.054289977997541427612, -0.037628293037414550781, 0.16516755521297454834, -0.0053446036763489246368, -0.25120609998703002930, 0.054677356034517288208, -0.12353915721178054810, -0.22732384502887725830, 0.023122336715459823608, -0.020628232508897781372, -0.19110991060733795166, 0.048645824193954467773, 0.14220012724399566650, -0.034815039485692977905, 0.060609195381402969360, -0.086581289768218994141},
  {-0.094239138066768646240, -0.16620522737503051758, -0.15707087516784667969, -0.16966719925403594971, 0.038823708891868591309, -0.10146398097276687622, -0.040296323597431182861, -0.031935233622789382935, 0.12539307773113250732, 0.087578170001506805420, -0.23752318322658538818, -0.093772813677787780762, 0.050875831395387649536, -0.0044125588610768318176, -0.25245207548141479492, 0.012297367677092552185, -0.035821847617626190186, -0.11415601521730422974, 0.0080219171941280364990, -0.13261923193931579590, 0.078868798911571502686, 0.027614992111921310425, 0.010765830054879188538, 0.13437175750732421875, -0.015448596328496932983, 0.062042504549026489258, 0.020159725099802017212, 0.013885619118809700012, -0.16525255143642425537, -0.087254814803600311279, 0.24045762419700622559, -0.00097610999364405870438},
  {-0.092984974384307861328, 0.0045935013331472873688, -0.0013950332067906856537, 0.12006866931915283203, 0.18641991913318634033, -0.033051516860723495483, -0.13405661284923553467, 0.13336502015590667725, 0.18633909523487091064, 0.017022555693984031677, 0.15989470481872558594, 0.049025841057300567627, -0.12597244977951049805, 0.051278546452522277832, 0.063139356672763824463, 0.081485718488693237305, -0.070810072124004364014, 0.00071134796598926186562, -0.14672049880027770996, 0.049330092966556549072, 0.19148962199687957764, 0.14317810535430908203, -0.084458440542221069336, 0.057839307934045791626, -0.065628685057163238525, 0.18518076837062835693, -0.0052719186060130596161, 0.061408627778291702271, -0.23627367615699768066, 0.27652797102928161621, 0.11095394939184188843, 0.052161369472742080688},
  {0.17048332095146179199, 0.20030733942985534668, 0.052886437624692916870, 0.23608650267124176025, 0.13555184006690979004, -0.12773819267749786377, 0.16737999022006988525, 0.010688444599509239197, -0.34793666005134582520, 0.0040552178397774696350, 0.15097942948341369629, -0.12827323377132415771, 0.070625796914100646973, -0.020082872360944747925, 0.18803997337818145752, 0.0031141294166445732117, 0.049644295126199722290, -0.14459222555160522461, 0.067709021270275115967, 0.011380523443222045898, 0.063432902097702026367, -0.090423882007598876953, 0.20325545966625213623, 0.11799977719783782959, -0.039599072188138961792, 0.087585859000682830811, -0.12975569069385528564, -0.11039682477712631226, -0.13289409875869750977, 0.17951601743698120117, 0.052249960601329803467, -0.14303925633430480957},
  {0.10723838955163955688, -0.13096259534358978271, -0.043195985257625579834, 0.073919631540775299072, 0.18710099160671234131, -0.23180165886878967285, 0.10164201259613037109, 0.13501113653182983398, 0.10176682472229003906, 0.037326123565435409546, 0.0064787757582962512970, -0.11469681560993194580, 0.15512642264366149902, 0.11947052925825119019, 0.21658608317375183105, -0.17656107246875762939, 0.12854380905628204346, 0.072372056543827056885, 0.18258856236934661865, 0.010389276780188083649, -0.090304657816886901855, -0.14191818237304687500, -0.10936058312654495239, 0.033496160060167312622, -0.21239498257637023926, -0.17984102666378021240, -0.16271163523197174072, 0.21451656520366668701, 0.16293618083000183105, 0.19602420926094055176, 0.19082236289978027344, 0.15306767821311950684},
  {0.067248329520225524902, -0.15203653275966644287, 0.11462441086769104004, -0.14687448740005493164, -0.093754351139068603516, -0.052646640688180923462, 0.24888049066066741943, -0.11647290736436843872, -0.15667779743671417236, -0.073433168232440948486, 0.17281626164913177490, 0.079275958240032196045, 0.0079101640731096267700, 0.071257092058658599854, 0.10771571099758148193, 0.11609679460525512695, 0.11668868362903594971, -0.20132748782634735107, 0.087589241564273834229, 0.16631351411342620850, -0.15157003700733184814, -0.25911018252372741699, -0.025396179407835006714, 0.18225759267807006836, 0.18953397870063781738, -0.080064289271831512451, -0.11799276620149612427, 0.099747464060783386230, 0.14234732091426849365, -0.25648376345634460449, 0.18719273805618286133, -0.089137822389602661133},
  {-0.065840557217597961426, -0.19219353795051574707, -0.20385773479938507080, 0.075196474790573120117, -0.23357750475406646729, 0.052791431546211242676, 0.047075636684894561768, 0.12496728450059890747, -0.040204897522926330566, 0.13765244185924530029, 0.062292709946632385254, 0.092132031917572021484, 0.029590971767902374268, -0.15705621242523193359, -0.010805123485624790192, -0.10322013497352600098, -0.11346080154180526733, 0.15979981422424316406, 0.037390258163213729858, 0.091289289295673370361, 0.29185548424720764160, -0.24239231646060943604, -0.10146643966436386108, 0.061043832451105117798, 0.13595773279666900635, -0.034241128712892532349, 0.045971203595399856567, -0.27121418714523315430, -0.042247585952281951904, -0.19502474367618560791, -0.21516136825084686279, 0.22930420935153961182},
  {0.18276876211166381836, -0.041882891207933425903, 0.23510439693927764893, 0.077952936291694641113, -0.18783919513225555420, 0.12429533153772354126, -0.13742509484291076660, 0.058808322995901107788, 0.20538455247879028320, -0.16438955068588256836, -0.083490490913391113281, -0.094644762575626373291, -0.063860557973384857178, -0.17519643902778625488, 0.081895865499973297119, -0.042832292616367340088, 0.11301388591527938843, -0.025628753006458282471, 0.098022706806659698486, 0.00016355681873392313719, 0.21083143353462219238, 0.049429837614297866821, -0.14285005629062652588, -0.13305304944515228271, 0.15970601141452789307, -0.038479857146739959717, -0.12739276885986328125, 0.23716770112514495850, 0.16091309487819671631, 0.10243847221136093140, -0.060559857636690139771, 0.010956303216516971588},
  {-0.22755703330039978027, -0.011342037469148635864, 0.082090288400650024414, -0.0030821491964161396027, 0.14208033680915832520, 0.16224069893360137939, 0.13126532733440399170, 0.072091281414031982422, -0.33216682076454162598, 0.14818750321865081787, 0.082042202353477478027, -0.17654655873775482178, 0.061565700918436050415, -0.12504824995994567871, 0.023665260523557662964, 0.076363563537597656250, 0.12414672970771789551, -0.096450440585613250732, 0.075509727001190185547, -0.11445570737123489380, -0.078389793634414672852, -0.20175737142562866211, 0.22189329564571380615, 0.032878391444683074951, 0.22729493677616119385, -0.074323415756225585938, -0.044740870594978332520, -0.13541284203529357910, 0.16309225559234619141, 0.19124522805213928223, -0.14921878278255462646, 0.056665651500225067139},
  {0.16160614788532257080, -0.058371644467115402222, 0.13523676991462707520, 0.14360079169273376465, 0.11575340479612350464, -0.052467439323663711548, -0.088306806981563568115, -0.22480498254299163818, -0.13600893318653106689, 0.10375548154115676880, -0.051416289061307907104, -0.13411545753479003906, -0.17191134393215179443, -0.10671760886907577515, 0.13960252702236175537, 0.26515290141105651855, 0.14772221446037292480, 0.15639807283878326416, -0.19339907169342041016, -0.16531902551651000977, -0.11901920288801193237, 0.19565384089946746826, 0.10153438895940780640, -0.14707848429679870605, 0.20646484196186065674, 0.056869544088840484619, -0.020303636789321899414, 0.11560864001512527466, -0.13385863602161407471, 0.21357235312461853027, 0.12004747241735458374, -0.069532342255115509033},
  {-0.20233759284019470215, 0.10181076079607009888, -0.048175763338804244995, 0.070403680205345153809, 0.16696131229400634766, -0.24448052048683166504, 0.19299875199794769287, -0.045699823647737503052, -0.20669415593147277832, 0.080302417278289794922, -0.12964808940887451172, -0.079262800514698028564, 0.015147916041314601898, -0.071606665849685668945, 0.13899037241935729980, -0.14646412432193756104, -0.12480004131793975830, -0.12596617639064788818, -0.16284924745559692383, -0.14749136567115783691, 0.033990766853094100952, 0.11009794473648071289, -0.21227450668811798096, 0.070997707545757293701, -0.13135533034801483154, -0.20664723217487335205, 0.15562266111373901367, -0.050823207944631576538, 0.13878230750560760498, 0.15377138555049896240, -0.23416116833686828613, 0.13332872092723846436},
  {-0.0025761411525309085846, 0.061509843915700912476, -0.13216955959796905518, -0.088063366711139678955, -0.025749187916517257690, -0.22560465335845947266, 0.11904317885637283325, -0.044595148414373397827, -0.16782775521278381348, -0.20629934966564178467, -0.12630726397037506104, 0.055506590753793716431, 0.076934210956096649170, -0.18997971713542938232, -0.11419069021940231323, 0.038622327148914337158, -0.0064904773607850074768, -0.050588894635438919067, -0.015756890177726745605, 0.22365854680538177490, -0.091488145291805267334, -0.13201457262039184570, -0.10579347610473632812, -0.21441616117954254150, -0.16523928940296173096, -0.16179896891117095947, -0.15683832764625549316, -0.11249065399169921875, -0.15049812197685241699, -0.13600735366344451904, 0.19294935464859008789, 0.14764204621315002441},
  {0.19838735461235046387, 0.15220820903778076172, 0.17946638166904449463, -0.047817151993513107300, 0.023840390145778656006, -0.19759741425514221191, 0.16566039621829986572, -0.15904662013053894043, 0.10147409886121749878, -0.046402096748352050781, 0.069891288876533508301, 0.10247546434402465820, -0.026183832436800003052, 0.081235662102699279785, 0.10826537013053894043, 0.22840678691864013672, 0.098467417061328887939, -0.080004170536994934082, 0.0053582442924380302429, -0.087955087423324584961, 0.36273947358131408691, 0.10810641944408416748, -0.079959683120250701904, 0.14839728176593780518, -0.0012677076738327741623, 0.20834901928901672363, 0.11659996956586837769, 0.011368045583367347717, 0.18016420304775238037, -0.084121286869049072266, 0.14199236035346984863, -0.075950570404529571533},
  {-0.070629917085170745850, -0.10156938433647155762, -0.11671164631843566895, 0.058573406189680099487, 0.25685954093933105469, -0.054662670940160751343, -0.090268120169639587402, 0.10030639916658401489, -0.19622458517551422119, 0.088706038892269134521, 0.21548785269260406494, -0.17714864015579223633, -0.12715235352516174316, -0.21536055207252502441, -0.051503933966159820557, 0.034306079149246215820, -0.053040232509374618530, -0.035169575363397598267, 0.098069742321968078613, -0.18734960258007049561, -0.021851751953363418579, 0.35949367284774780273, -0.074189797043800354004, 0.14048285782337188721, -0.12290339171886444092, 0.29612562060356140137, 0.14941525459289550781, 0.029332259669899940491, 0.15028694272041320801, 0.18918640911579132080, -0.054489310830831527710, -0.13057580590248107910},
  {0.10721082985401153564, -0.0080004781484603881836, 0.19531551003456115723, 0.030566016212105751038, 0.11601720750331878662, 0.23922221362590789795, -0.11204983294010162354, 0.12441403418779373169, 0.22293695807456970215, -0.13303747773170471191, 0.24286916851997375488, -0.17074717581272125244, 0.15446825325489044189, 0.10586239397525787354, 0.11727917939424514771, -0.010380197316408157349, 0.17020663619041442871, 0.00051940605044364929199, -0.089390695095062255859, 0.18515126407146453857, -0.055522922426462173462, -0.17452251911163330078, -0.027484528720378875732, -0.085923142731189727783, 0.014421804808080196381, -0.24245324730873107910, -0.13472588360309600830, -0.16246439516544342041, 0.14610771834850311279, 0.14818453788757324219, 0.12674945592880249023, -0.20081084966659545898},
  {0.31131970882415771484, -0.20212052762508392334, -0.064411051571369171143, 0.16571523249149322510, -0.12459009885787963867, -0.10019786655902862549, 0.16616789996623992920, -0.042739659547805786133, 0.16683489084243774414, -0.037816245108842849731, -0.14440956711769104004, -0.21185812354087829590, -0.19991645216941833496, 0.20982338488101959229, -0.064530171453952789307, -0.14170552790164947510, 0.25961998105049133301, -0.22335538268089294434, -0.14288377761840820312, -0.14493702352046966553, -0.20635227859020233154, -0.18986277282238006592, 0.13471752405166625977, -0.14724798500537872314, -0.032480884343385696411, 0.091344721615314483643, 0.25404205918312072754, 0.079144909977912902832, -0.14278949797153472900, -0.29904392361640930176, -0.075299985706806182861, 0.060152549296617507935},
  {0.11898303031921386719, 0.062001489102840423584, -0.12241891026496887207, -0.17927445471286773682, 0.033942680805921554565, -0.071435011923313140869, 0.21371161937713623047, -0.17490276694297790527, -0.089095823466777801514, -0.016774134710431098938, 0.16120173037052154541, 0.25409445166587829590, -0.17967598140239715576, 0.067628361284732818604, 0.14998567104339599609, -0.16038538515567779541, 0.066739737987518310547, -0.19061428308486938477, 0.10009907186031341553, -0.10026924312114715576, -0.25420862436294555664, -0.052362568676471710205, -0.0016308577032759785652, -0.23951077461242675781, 0.036595068871974945068, -0.12001709640026092529, -0.31222414970397949219, -0.025609483942389488220, -0.0073344460688531398773, 0.064051508903503417969, 0.059960585087537765503, 0.022897385060787200928},
  {-0.099799767136573791504, -0.15797719359397888184, -0.022987019270658493042, 0.13562694191932678223, -0.042928986251354217529, -0.095310851931571960449, -0.0047618956305086612701, -0.099881321191787719727, -0.23311024904251098633, -0.063167959451675415039, -0.011714238673448562622, 0.17520014941692352295, 0.010537122376263141632, 0.14149835705757141113, 0.13746500015258789062, 0.087411455810070037842, -0.16053345799446105957, -0.033056743443012237549, -0.12395242601633071899, -0.020327484235167503357, 0.13819986581802368164, -0.13076108694076538086, 0.18287694454193115234, -0.17417912185192108154, -0.077688746154308319092, 0.0042184009216725826263, 0.080684557557106018066, -0.34491893649101257324, 0.21604920923709869385, 0.085116907954216003418, -0.017118191346526145935, -0.18559336662292480469},
  {-0.084742970764636993408, 0.071351915597915649414, -0.12016510963439941406, -0.057994198054075241089, 0.0089736972004175186157, -0.20342832803726196289, 0.067469872534275054932, 0.057481553405523300171, 0.056199811398983001709, 0.071421697735786437988, -0.082966126501560211182, 0.010808390565216541290, -0.087208621203899383545, 0.085732690989971160889, -0.049939326941967010498, -0.016683140769600868225, -0.080109298229217529297, 0.099635399878025054932, 0.038029391318559646606, -0.13516041636466979980, 0.013530630618333816528, 0.21286220848560333252, -0.035339042544364929199, -0.11037386208772659302, 0.059069946408271789551, -0.11613492667675018311, 0.031531330198049545288, -0.12773592770099639893, 0.074446588754653930664, 0.14939247071743011475, -0.010027267970144748688, 0.16073541343212127686},
  {-0.14429849386215209961, 0.011849615722894668579, 0.061438325792551040649, 0.027913568541407585144, 0.11292912811040878296, 0.14811113476753234863, -0.051856219768524169922, 0.079822257161140441895, 0.073373541235923767090, 0.13733462989330291748, -0.0092595946043729782104, -0.092488303780555725098, 0.0062241135165095329285, -0.12548634409904479980, 0.046423885971307754517, -0.082614779472351074219, 0.068779990077018737793, -0.093153908848762512207, 0.0094411727041006088257, 0.031730398535728454590, 0.12376902252435684204, -0.078104324638843536377, -0.12531208992004394531, 0.13355456292629241943, 0.085318669676780700684, -0.22501736879348754883, 0.064233563840389251709, -0.14046899974346160889, 0.0095391673967242240906, 0.067964956164360046387, -0.21694163978099822998, 0.15832339227199554443},
  {-0.15211008489131927490, 0.22961999475955963135, -0.16962023079395294189, -0.20807810127735137939, 0.062598787248134613037, 0.16875210404396057129, 0.22175067663192749023, 0.10332691669464111328, -0.14935073256492614746, 0.11195031553506851196, -0.039267685264348983765, -0.088103368878364562988, 0.12678009271621704102, 0.15498833358287811279, 0.062669269740581512451, -0.12119156867265701294, 0.11210707575082778931, -0.12987235188484191895, 0.14073459804058074951, 0.19359612464904785156, -0.31354713439941406250, 0.10809477418661117554, 0.020316440612077713013, 0.035885393619537353516, -0.20298919081687927246, -0.20640249550342559814, -0.089639939367771148682, -0.12048926949501037598, -0.0094458824023604393005, -0.029986899346113204956, -0.072312824428081512451, -0.10328748822212219238},
  {-0.055257014930248260498, 0.13676336407661437988, -0.22304122149944305420, -0.14087316393852233887, 0.13137874007225036621, 0.057910155504941940308, 0.32215729355812072754, 0.016746044158935546875, 0.019432386383414268494, -0.10111559927463531494, -0.18855109810829162598, 0.080132134258747100830, 0.13702522218227386475, -0.052186623215675354004, -0.23080514371395111084, 0.082527428865432739258, 0.075957655906677246094, 0.24777601659297943115, 0.043067883700132369995, 0.22249312698841094971, -0.18728864192962646484, 0.053751122206449508667, 0.092323578894138336182, -0.28508138656616210938, -0.071080766618251800537, 0.030711555853486061096, 0.018056418746709823608, 0.21729937195777893066, -0.13232621550559997559, -0.071175001561641693115, 0.11760030686855316162, -0.12439164519309997559},
  {-0.084153957664966583252, 0.21697732806205749512, 0.16719783842563629150, 0.071230426430702209473, -0.023106366395950317383, -0.13833485543727874756, 0.13203050196170806885, -0.12190666049718856812, -0.10652399808168411255, -0.10814981162548065186, 0.12298575788736343384, -0.014410462230443954468, 0.19301359355449676514, -0.050302959978580474854, 0.19011339545249938965, 0.080896906554698944092, -0.011563709005713462830, -0.0025589403230696916580, -0.13949091732501983643, 0.13908761739730834961, -0.12177883833646774292, -0.26005682349205017090, -0.10480828583240509033, -0.16843374073505401611, 0.11617932468652725220, -0.24730512499809265137, -0.044990580528974533081, 0.059365183115005493164, -0.13913080096244812012, 0.039186917245388031006, -0.12383676320314407349, 0.19374425709247589111},
  {-0.20514619350433349609, 0.11985601484775543213, -0.013484330847859382629, 0.087282903492450714111, 0.27349415421485900879, -0.16210153698921203613, 0.26147022843360900879, 0.12759920954704284668, -0.31355592608451843262, 0.14966301620006561279, 0.18720377981662750244, -0.036694142967462539673, -0.054188285022974014282, -0.062208820134401321411, -0.21533477306365966797, 0.020687023177742958069, -0.036856159567832946777, -0.13623975217342376709, 0.19820965826511383057, -0.14371192455291748047, 0.19580562412738800049, -0.031192515045404434204, -0.13185818493366241455, 0.031107475981116294861, -0.088973633944988250732, 0.15256148576736450195, 0.0048571778461337089539, -0.23115943372249603271, 0.010325293987989425659, -0.16275280714035034180, 0.026741091161966323853, 0.20730593800544738770},
  {0.12373519688844680786, 0.00067398470127955079079, 0.15354123711585998535, -0.079922899603843688965, 0.082093335688114166260, 0.15376232564449310303, -0.018232760950922966003, -0.030281476676464080811, 0.17564573884010314941, -0.18185973167419433594, 0.019839588552713394165, -0.31501707434654235840, 0.080577053129673004150, -0.023661604151129722595, 0.19685082137584686279, 0.032990459352731704712, 0.24706658720970153809, -0.036503519862890243530, -0.098480522632598876953, 0.10826929658651351929, 0.075670309364795684814, 0.060183599591255187988, -0.20430925488471984863, -0.094678997993469238281, 0.066232122480869293213, -0.23821261525154113770, 0.022952558472752571106, -0.17865854501724243164, -0.099566668272018432617, -0.029564319178462028503, 0.071490161120891571045, -0.023031288757920265198},
  {0.22468464076519012451, 0.011181592941284179688, 0.12503683567047119141, 0.097445286810398101807, -0.14965514838695526123, -0.19518645107746124268, -0.10070657730102539062, 0.18542841076850891113, -0.16040611267089843750, -0.057762913405895233154, -0.082257039844989776611, -0.059754226356744766235, 0.0061278417706489562988, -0.15553174912929534912, -0.060995731502771377563, -0.039587415754795074463, -0.014520376920700073242, -0.017547678202390670776, -0.17263559997081756592, -0.015392481349408626556, -0.19653771817684173584, 0.054643485695123672485, 0.072074100375175476074, -0.10689218342304229736, -0.036615990102291107178, -0.22317861020565032959, -0.070160761475563049316, 0.032429903745651245117, 0.093644343316555023193, -0.11189980059862136841, 0.24085085093975067139, -0.087602660059928894043},
  {-0.12289075553417205811, -0.19543945789337158203, 0.026993615552783012390, 0.022280965000391006470, -0.16100953519344329834, -0.11090966314077377319, -0.14360609650611877441, -0.16334268450736999512, 0.32459056377410888672, -0.11050998419523239136, 0.11640763282775878906, -0.079585477709770202637, -0.13478218019008636475, 0.15560688078403472900, -0.17029266059398651123, 0.26264274120330810547, 0.094229586422443389893, -0.080825634300708770752, -0.20632372796535491943, 0.25747108459472656250, -0.064201712608337402344, 0.074340522289276123047, -0.16716392338275909424, -0.23079951107501983643, -0.026464348658919334412, -0.092604041099548339844, -0.094860367476940155029, 0.30320206284523010254, 0.026679428294301033020, -0.032241929322481155396, 0.064173661172389984131, 0.12755720317363739014},
  {-0.20257510244846343994, -0.047168288379907608032, 0.18833103775978088379, -0.19805237650871276855, 0.11613522469997406006, 0.010762738063931465149, -0.045087222009897232056, 0.026844583451747894287, 0.049787648022174835205, -0.026546120643615722656, 0.011905749328434467316, -0.088499717414379119873, 0.15898652374744415283, 0.18033947050571441650, 0.10494092106819152832, 0.21216993033885955811, 0.094691723585128784180, -0.036356490105390548706, 0.00041229400085285305977, -0.015861043706536293030, 0.069795340299606323242, 0.057306021451950073242, -0.13532301783561706543, 0.043382838368415832520, 0.095088034868240356445, -0.0016299296403303742409, 0.20869445800781250000, -0.018094010651111602783, 0.11601382493972778320, 0.016185658052563667297, -0.016895515844225883484, -0.22023883461952209473},
  {-0.0086691081523895263672, 0.13760399818420410156, 0.090362310409545898438, 0.072949968278408050537, 0.20342259109020233154, 0.0090300524607300758362, 0.13459320366382598877, -0.14755240082740783691, -0.12095123529434204102, -0.012020380236208438873, 0.13217836618423461914, 0.14282476902008056641, -0.18253870308399200439, -0.014653051272034645081, -0.15082234144210815430, 0.089299082756042480469, 0.029772562906146049500, 0.15568104386329650879, -0.0041281725279986858368, -0.059681158512830734253, -0.23685602843761444092, -0.16892108321189880371, -0.10691853612661361694, -0.22045639157295227051, -0.13203836977481842041, 0.039779826998710632324, 0.13198566436767578125, 0.17413163185119628906, -0.090931482613086700439, 0.15607987344264984131, -0.031615398824214935303, 0.18427364528179168701},
  {-0.18904352188110351562, 0.093970946967601776123, -0.097949631512165069580, -0.049386907368898391724, 0.12332755327224731445, -0.12527073919773101807, 0.21853643655776977539, -0.097777441143989562988, -0.21072219312191009521, -0.060457587242126464844, 0.039038002490997314453, 0.088021114468574523926, 0.18242180347442626953, -0.096188507974147796631, -0.048528172075748443604, 0.14325308799743652344, 0.038222540169954299927, -0.014480393379926681519, 0.10191457718610763550, 0.13669738173484802246, -0.23318094015121459961, -0.091044425964355468750, 0.11063342541456222534, -0.12548054754734039307, -0.16203732788562774658, 0.035911019891500473022, -0.12683589756488800049, 0.15838299691677093506, -0.022836245596408843994, -0.19846604764461517334, 0.10939738154411315918, -0.071843340992927551270},
  {-0.17353616654872894287, -0.12176558375358581543, 0.091442644596099853516, -0.013318363577127456665, 0.12199588865041732788, 0.084183126688003540039, 0.074818417429924011230, -0.16436529159545898438, 0.045887425541877746582, -0.10124448686838150024, 0.19319476187229156494, 0.011587081477046012878, -0.030602496117353439331, 0.059333804994821548462, -0.066165141761302947998, 0.090878881514072418213, 0.21247902512550354004, -0.0045386026613414287567, 0.0012397349346429109573, 0.16937614977359771729, -0.0015342540573328733444, 0.051284510642290115356, 0.041075080633163452148, 0.070819459855556488037, -0.12780340015888214111, 0.16967251896858215332, -0.10337050259113311768, 0.18847203254699707031, -0.059106837958097457886, 0.046856790781021118164, -0.0041009793058037757874, 0.076706290245056152344},
  {-0.10522430390119552612, 0.075100101530551910400, -0.024143556132912635803, 0.045576695352792739868, 0.10363464057445526123, -0.24699129164218902588, 0.12655507028102874756, 0.14759291708469390869, -0.12606400251388549805, -0.093918859958648681641, -0.049597356468439102173, 0.025422098115086555481, -0.071507416665554046631, 0.19037945568561553955, -0.010610149241983890533, -0.10238806903362274170, 0.19881309568881988525, -0.084422066807746887207, -0.17276385426521301270, -0.16110791265964508057, 0.29694384336471557617, -0.053453743457794189453, -0.19598186016082763672, 0.075390502810478210449, -0.13640499114990234375, -0.081805802881717681885, 0.26480704545974731445, -0.17547726631164550781, 0.012273072265088558197, -0.038716368377208709717, 0.13772605359554290771, -0.18572939932346343994},
  {0.16224010288715362549, -0.11540561169385910034, -0.14121454954147338867, -0.071392394602298736572, -0.10811261832714080811, -0.18533599376678466797, 0.12002600729465484619, 0.17194235324859619141, 0.15320855379104614258, -0.071824572980403900146, 0.053997188806533813477, -0.24019975960254669189, 0.18627828359603881836, -0.072866521775722503662, 0.13963267207145690918, -0.060779958963394165039, 0.069464921951293945312, 0.035555321723222732544, -0.20354893803596496582, -0.18223200738430023193, 0.28031098842620849609, 0.16481915116310119629, 0.089539982378482818604, -0.013321039266884326935, 0.21442312002182006836, 0.18455143272876739502, 0.18176838755607604980, 0.084236659109592437744, -0.20688343048095703125, -0.071835853159427642822, -0.014470949769020080566, 0.10831609368324279785},
  {-0.0087556317448616027832, 0.065601713955402374268, 0.20058523118495941162, 0.012330247089266777039, -0.19616560637950897217, 0.12209914624691009521, -0.19951899349689483643, 0.16700212657451629639, 0.36467826366424560547, -0.12322120368480682373, -0.18827229738235473633, -0.0064276489429175853729, 0.024641489610075950623, -0.085674598813056945801, 0.17325519025325775146, 0.044705871492624282837, 0.11469131708145141602, -0.18166646361351013184, 0.016150329262018203735, 0.17235244810581207275, -0.097584709525108337402, 0.26384955644607543945, -0.16763038933277130127, 0.037446003407239913940, -0.11227036267518997192, -0.24686768651008605957, 0.11667145043611526489, 0.22334131598472595215, 0.18717932701110839844, -0.014811174012720584869, -0.065150886774063110352, 0.13061359524726867676},
  {-0.11205959320068359375, -0.13118518888950347900, 0.21789029240608215332, 0.021569667384028434753, 0.093905530869960784912, -0.0045187799260020256042, -0.032921642065048217773, 0.091078661382198333740, -0.076874181628227233887, 0.062245834618806838989, -0.13635678589344024658, -0.14120186865329742432, 0.039294082671403884888, -0.21063680946826934814, 0.16958710551261901855, -0.16721440851688385010, 0.032320909202098846436, 0.14895136654376983643, 0.19598191976547241211, -0.14961938560009002686, -0.025382010266184806824, -0.36692962050437927246, -0.10727235674858093262, -0.15496666729450225830, -0.14486306905746459961, -0.27657243609428405762, -0.12514334917068481445, -0.23613519966602325439, -0.061428353190422058105, -0.023891944438219070435, 0.060993906110525131226, 0.067522510886192321777},
  {0.062981136143207550049, -0.13861009478569030762, 0.065972901880741119385, 0.057359009981155395508, -0.28696516156196594238, 0.070412911474704742432, -0.11285766959190368652, -0.083951234817504882812, -0.10447715222835540771, -0.16921710968017578125, -0.15545432269573211670, 0.19044308364391326904, -0.22225394845008850098, 0.22119572758674621582, 0.14177556335926055908, -0.033616364002227783203, 0.13067309558391571045, 0.045347474515438079834, -0.036907203495502471924, 0.18656358122825622559, 0.0030888984911143779755, 0.031392876058816909790, -0.056756805628538131714, -7.2668248321861028671e-05, -0.048109047114849090576, 0.056270152330398559570, -0.14085720479488372803, 0.057721275836229324341, -0.043202307075262069702, 0.21496137976646423340, 0.042427595704793930054, -0.052116382867097854614},
  {-0.22128836810588836670, 0.26703977584838867188, -0.071247279644012451172, 0.20441395044326782227, 0.28086215257644653320, -0.058418851345777511597, -0.065145641565322875977, 0.041934136301279067993, -0.30106082558631896973, 0.022960674017667770386, -0.13596777617931365967, 0.075537443161010742188, 0.20042522251605987549, 0.14764773845672607422, 0.16397371888160705566, -0.13434034585952758789, -0.14094400405883789062, -0.14152918756008148193, -0.085773959755897521973, 0.16415014863014221191, -0.081784732639789581299, 0.012802882120013237000, 0.12956029176712036133, -0.17480802536010742188, -0.15593057870864868164, -0.096842244267463684082, 0.18646346032619476318, 0.10281942784786224365, 0.074956692755222320557, 0.15045052766799926758, -0.21259990334510803223, 0.22051428258419036865},
  {0.23927724361419677734, -0.21722036600112915039, -0.11842736601829528809, -0.0062551577575504779816, 0.19921179115772247314, -0.14295496046543121338, 0.14097884297370910645, -0.0012330170720815658569, 0.043407984077930450439, 0.10443418473005294800, 0.15105174481868743896, 0.070485815405845642090, -0.14227755367755889893, -0.15177492797374725342, -0.12725310027599334717, -0.10322147607803344727, 0.092234730720520019531, -0.16935968399047851562, -0.051036521792411804199, -0.070977061986923217773, 0.21953661739826202393, 0.14073298871517181396, -0.12104820460081100464, 0.11104253679513931274, 0.12198794633150100708, 0.19592612981796264648, 0.039370127022266387939, -0.25584012269973754883, 0.093120068311691284180, 0.20935219526290893555, -0.053823258727788925171, -0.15746021270751953125},
  {-0.014401459135115146637, -0.20453935861587524414, -0.075382925570011138916, -0.24098826944828033447, 0.053847543895244598389, 0.035246334969997406006, 0.18389740586280822754, 0.15989834070205688477, -0.0018218114273622632027, 0.12560056149959564209, -0.081556588411331176758, 0.24253563582897186279, 0.20092827081680297852, -0.077753677964210510254, -0.15113921463489532471, -0.17924962937831878662, -0.082473695278167724609, 0.12411306798458099365, 0.19999308884143829346, -0.031406346708536148071, -0.18451218307018280029, -0.12115655094385147095, 0.087838552892208099365, 0.16236738860607147217, -0.059396021068096160889, 0.064534850418567657471, -0.074314408004283905029, -0.037417240440845489502, 0.15414924919605255127, 0.011785930953919887543, 0.10012022405862808228, -0.10033378005027770996},
  {0.17843347787857055664, -0.11069340258836746216, -0.0069181318394839763641, 0.093217693269252777100, -0.064048305153846740723, -0.12223695218563079834, 0.021941071376204490662, -0.074443951249122619629, 0.20171844959259033203, -0.22629778087139129639, 0.10525120049715042114, -0.065780073404312133789, 0.052018348127603530884, -0.064534239470958709717, 0.18360151350498199463, -0.066818125545978546143, 0.078000046312808990479, -0.049885056912899017334, -0.11294688284397125244, 0.10602624714374542236, 0.098903745412826538086, -0.26114115118980407715, -0.022551517933607101440, -0.066713996231555938721, 0.14618121087551116943, 0.23881649971008300781, -0.099268123507499694824, 0.24718897044658660889, -0.030674975365400314331, -0.15603867173194885254, 0.24328398704528808594, 0.18789896368980407715},
  {-0.28729680180549621582, 0.080255515873432159424, -0.20886193215847015381, 0.26158535480499267578, 0.32749101519584655762, 0.096665792167186737061, 0.10253855586051940918, 0.13521006703376770020, -0.0041035423055291175842, -0.10267703235149383545, 0.14192198216915130615, -0.055605493485927581787, 0.079495511949062347412, -0.10250511765480041504, -0.085339851677417755127, -0.10780792683362960815, 0.031807895749807357788, -0.0053817955777049064636, -0.045566435903310775757, -0.0018185216467827558517, -0.16617791354656219482, 0.073518350720405578613, 0.16472227871417999268, -0.19321362674236297607, 0.21404449641704559326, -0.17273546755313873291, 0.097300499677658081055, -0.38438177108764648438, -0.027411419898271560669, 0.019996147602796554565, -0.12346742302179336548, 0.060321412980556488037},
  {0.14759612083435058594, 0.13596878945827484131, -0.096533641219139099121, 0.16192214190959930420, 0.070503905415534973145, -0.029435299336910247803, 0.10808195918798446655, 0.10880865156650543213, -0.11301794648170471191, 0.16096228361129760742, 0.19972100853919982910, 0.22966745495796203613, -0.10251529514789581299, 0.046789202839136123657, 0.091934956610202789307, 0.091125011444091796875, -0.061883792281150817871, 0.068416610360145568848, 0.025174574926495552063, -0.028670167550444602966, 0.032714277505874633789, -0.034863267093896865845, 0.14679645001888275146, 0.041953835636377334595, 0.18352384865283966064, 0.15331368148326873779, 0.058258626610040664673, -0.054358318448066711426, 0.10769764333963394165, 0.090672127902507781982, 0.17976620793342590332, 0.048809278756380081177},
  {0.064829044044017791748, 0.092057324945926666260, 0.19379426538944244385, -0.22566799819469451904, -0.18664659559726715088, 0.054595392197370529175, -0.25352725386619567871, 0.15127202868461608887, -0.020935021340847015381, -0.12749594449996948242, 0.043182667344808578491, 0.061007477343082427979, -0.0038774330168962478638, -0.13812841475009918213, 0.24852006137371063232, 0.10428764671087265015, -0.20994137227535247803, 0.020620621740818023682, -0.041928313672542572021, -0.11755159497261047363, -0.25966677069664001465, -0.14252541959285736084, -0.010153706185519695282, 0.0068093175068497657776, 0.13218353688716888428, -0.25890493392944335938, -0.39423432946205139160, 0.026977086439728736877, -0.16159552335739135742, 0.017904810607433319092, 0.29920199513435363770, 0.022249240428209304810},
  {-0.17633856832981109619, 0.11516961455345153809, -0.25582277774810791016, -0.15211226046085357666, 0.17979592084884643555, 0.034621138125658035278, 0.15217910706996917725, -0.051897194236516952515, -0.24660798907279968262, -0.073577269911766052246, 0.26928469538688659668, 0.074170030653476715088, -0.058870207518339157104, -0.15294338762760162354, 0.077264733612537384033, 0.13806445896625518799, 0.0041717169806361198425, -0.18678998947143554688, -0.099288664758205413818, -0.18856202065944671631, 0.16769346594810485840, 0.070779509842395782471, 0.055803727358579635620, -0.037173960357904434204, -0.12978188693523406982, -0.051472365856170654297, 0.066983886063098907471, 0.050326600670814514160, -0.0059539647772908210754, 0.22759909927845001221, -0.16521649062633514404, 0.14478129148483276367},
  {0.19115084409713745117, 0.069480016827583312988, 0.18129001557826995850, 0.17297603189945220947, -0.029529727995395660400, 0.16463816165924072266, -0.066351786255836486816, -0.18309740722179412842, -0.074376977980136871338, 0.11804862320423126221, 0.12977643311023712158, 0.096001714468002319336, 0.11506510525941848755, -0.14004756510257720947, -0.046861838549375534058, 0.026377627626061439514, 0.14786863327026367188, -0.097488828003406524658, 0.084451325237751007080, 0.024204909801483154297, -0.0089224083349108695984, -0.070311717689037322998, -0.020710011944174766541, 0.16756205260753631592, -0.11103852093219757080, 0.089266993105411529541, 0.14164850115776062012, -0.15517331659793853760, 0.057639755308628082275, -0.078143641352653503418, 0.066850423812866210938, 0.13113813102245330811},
  {0.049633458256721496582, 0.14883665740489959717, -0.080448389053344726562, -0.15940012037754058838, 0.15683381259441375732, 0.24554838240146636963, 0.17757582664489746094, -0.15236148238182067871, 0.34833756089210510254, -0.0017486214637756347656, 0.19776859879493713379, 0.13593922555446624756, 0.12820526957511901855, -0.023611897602677345276, 0.0077306190505623817444, 0.050478514283895492554, -0.10436262935400009155, -0.19823040068149566650, 0.11430451273918151855, 0.13759839534759521484, -0.15750959515571594238, -0.10774502903223037720, -0.0027455242816358804703, 0.11429943144321441650, 0.035865906625986099243, 0.033048331737518310547, 0.13263994455337524414, -0.12898443639278411865, 0.15176345407962799072, 0.20602235198020935059, 0.039258733391761779785, -0.060987811535596847534},
  {-0.12836427986621856689, 0.24264118075370788574, -0.046424649655818939209, -0.15065816044807434082, 0.22245217859745025635, 0.019977565854787826538, -0.013033840805292129517, 0.10606299340724945068, -0.0097027551382780075073, 0.11599443107843399048, 0.12379524111747741699, -0.31794667243957519531, 0.035971663892269134521, -0.072619013488292694092, 0.047455064952373504639, -0.15368935465812683105, -0.10799760371446609497, -0.16530768573284149170, 0.22823615372180938721, -0.12409734725952148438, 0.19360671937465667725, -0.16298948228359222412, -0.18511570990085601807, -0.060552082955837249756, -0.10115002095699310303, -0.20594489574432373047, 0.076060920953750610352, -0.18530306220054626465, 0.012972281314432621002, 0.070160739123821258545, -0.25225335359573364258, 0.11600793898105621338},
  {-0.11355680972337722778, 0.095166109502315521240, -0.11222270876169204712, -0.058906607329845428467, 0.15566359460353851318, 0.17563112080097198486, -0.16664837300777435303, 0.10750357061624526978, 0.0015059673460200428963, 0.11717737466096878052, -0.079259641468524932861, 0.065887801349163055420, -0.057052858173847198486, -0.16235405206680297852, 0.25897818803787231445, 0.19897551834583282471, 0.044221788644790649414, 0.13323390483856201172, 0.14824335277080535889, 0.079675272107124328613, 0.17164207994937896729, -0.12319969385862350464, 0.090707264840602874756, -0.076617591083049774170, 0.054004009813070297241, -0.051742780953645706177, -0.10981914401054382324, 0.15138255059719085693, 0.19037899374961853027, -0.095559850335121154785, 0.011635271832346916199, -0.13567595183849334717},
  {0.24841649830341339111, 0.054003395140171051025, 0.11170701682567596436, -0.12207424640655517578, -0.30662077665328979492, -0.0055505903437733650208, 0.14692971110343933105, 0.0031367058400064706802, -0.051694799214601516724, 0.17084704339504241943, -0.00045217809383757412434, 0.030382802709937095642, -0.17515353858470916748, 0.17371372878551483154, 0.057657551020383834839, 0.099680200219154357910, 0.10457623749971389771, 0.071121916174888610840, 0.19105350971221923828, -0.043861236423254013062, -0.094755597412586212158, -0.055176716297864913940, -0.092523999512195587158, -0.0057831467129290103912, 0.092327885329723358154, -0.10458227992057800293, -0.075932234525680541992, 0.036607548594474792480, -0.038832932710647583008, -0.060450181365013122559, -0.031479407101869583130, -0.024621754884719848633},
  {-0.28334864974021911621, 0.25716161727905273438, -0.19983117282390594482, -0.042770430445671081543, 0.32061365246772766113, 0.097233928740024566650, 0.22494708001613616943, -0.020438717678189277649, 0.0014613894745707511902, 0.10551865398883819580, -0.22415591776371002197, -0.24176105856895446777, -0.21671046316623687744, 0.063725940883159637451, 0.046092107892036437988, 0.19853560626506805420, 0.080335579812526702881, -0.15055936574935913086, 0.24265305697917938232, -0.18678063154220581055, -0.079810962080955505371, 0.030480826273560523987, 0.15152770280838012695, 0.090139165520668029785, -0.15712587535381317139, -0.22508670389652252197, 0.087607637047767639160, -0.34957265853881835938, -0.14101454615592956543, -0.094331339001655578613, 0.087466977536678314209, 0.012899089604616165161},
  {-0.080062940716743469238, 0.16817264258861541748, -0.10472968220710754395, 0.10865758359432220459, 0.12553815543651580811, -0.052902251482009887695, 0.12950858473777770996, -0.23317638039588928223, -0.18905293941497802734, 0.12191427499055862427, 0.042794674634933471680, 0.0011167081538587808609, 0.026906052604317665100, 0.14354656636714935303, -0.025776613503694534302, 0.12809050083160400391, -0.27336734533309936523, 0.048781827092170715332, 0.17685316503047943115, 0.041209064424037933350, -0.034871499985456466675, 0.018479721620678901672, 0.030317876487970352173, 0.16692325472831726074, 0.087056115269660949707, -0.11128745228052139282, -0.072761259973049163818, -0.22789371013641357422, 0.14931087195873260498, -0.11936920881271362305, -0.28653365373611450195, 0.055972930043935775757},
  {-0.14600007236003875732, 0.20608931779861450195, -0.032718371599912643433, 0.18503290414810180664, 0.11449141800403594971, -0.14014889299869537354, 0.14932934939861297607, 0.19025146961212158203, 0.049885679036378860474, 0.18977430462837219238, -0.033870294690132141113, 0.28678336739540100098, -0.097410075366497039795, 0.11618116497993469238, 0.19462876021862030029, -0.081725664436817169189, 0.095403060317039489746, -0.21317322552204132080, -0.13034281134605407715, 0.022773429751396179199, -0.13073316216468811035, -0.37313452363014221191, -0.11885293573141098022, -0.051366131752729415894, 0.19956086575984954834, -0.072178915143013000488, -0.13039590418338775635, -0.22934901714324951172, 0.12058863043785095215, 0.032389525324106216431, -0.0065933959558606147766, 0.082110404968261718750},
  {-0.13553322851657867432, 0.14524166285991668701, 0.038877531886100769043, 0.14889800548553466797, 0.077122040092945098877, -0.14281114935874938965, -0.038631226867437362671, -0.23116093873977661133, -0.11221077293157577515, 0.18437397480010986328, 0.12312296032905578613, 0.0029440764337778091431, 0.095433153212070465088, 0.22903171181678771973, -0.079266622662544250488, -0.19330267608165740967, -0.14511705935001373291, 0.22807754576206207275, 0.11115081608295440674, 0.19646203517913818359, -0.094841890037059783936, -0.0081186424940824508667, -0.10973820090293884277, -0.011074818670749664307, -0.13494437932968139648, -0.17527070641517639160, 0.011830591596662998199, -0.0098602576181292533875, -0.0010143867693841457367, -0.18304800987243652344, 0.14385356009006500244, 0.18023996055126190186},
  {0.074061743915081024170, 0.33155244588851928711, -0.13787360489368438721, 0.039746791124343872070, -0.0097832698374986648560, 0.15429037809371948242, -0.089998506009578704834, -0.0026182441506534814835, -0.018428407609462738037, 0.12637013196945190430, -0.11539565026760101318, -0.19895994663238525391, -0.20984224975109100342, 0.13532337546348571777, -0.065783612430095672607, -0.025483487173914909363, -0.036801122128963470459, -0.11782903224229812622, 0.34297186136245727539, 0.12733097374439239502, -0.020288834348320960999, 0.11604549735784530640, 0.11574683338403701782, 0.015139266848564147949, 0.069378115236759185791, -0.12080910801887512207, -0.081526383757591247559, 0.091765508055686950684, -0.087386392056941986084, 0.25246888399124145508, -0.18210367858409881592, -0.067544706165790557861},
  {-0.15313839912414550781, 0.32944566011428833008, -0.28453823924064636230, 0.20138002932071685791, 0.078032806515693664551, -0.050660364329814910889, -0.088381409645080566406, 0.084647707641124725342, -0.083843290805816650391, 0.055774826556444168091, 0.021789083257317543030, -0.39105391502380371094, 0.015334690921008586884, -0.043643064796924591064, -0.083833441138267517090, 0.13462422788143157959, -0.10329300165176391602, 0.21400111913681030273, 0.15561424195766448975, 0.080988354980945587158, -0.19195285439491271973, 0.095805183053016662598, 0.15024657547473907471, 0.38980358839035034180, -0.085844121873378753662, 0.067342974245548248291, -0.013452497310936450958, 0.092036873102188110352, -0.10998355597257614136, -0.27998173236846923828, -0.017670258879661560059, -0.13542592525482177734},
  {0.012250525876879692078, 0.60827046632766723633, -0.69105559587478637695, 0.75276780128479003906, 0.099410608410835266113, -0.57528734207153320312, 0.38007634878158569336, -0.60182201862335205078, 0.47434282302856445312, 0.34903883934020996094, -0.68722170591354370117, 0.64218312501907348633, -0.67841917276382446289, -0.74394041299819946289, -0.50702697038650512695, 0.29712161421775817871, 0.017991757020354270935, -0.37040382623672485352, 0.43567788600921630859, 0.41654440760612487793, -0.13316074013710021973, 0.20375323295593261719, 0.14468438923358917236, 0.74323809146881103516, 0.69198620319366455078, 0.22894939780235290527, 0.043629448860883712769, -0.065630562603473663330, -0.48829945921897888184, 0.59236401319503784180, 0.047715745866298675537, -0.62125748395919799805},
  {0.18555878102779388428, 0.19755989313125610352, -0.032196152955293655396, 0.22141085565090179443, -0.027418522164225578308, 0.36505576968193054199, -0.15982608497142791748, 0.16760212182998657227, 0.25860202312469482422, -0.084454976022243499756, 0.32501992583274841309, -0.18883228302001953125, -0.023095453158020973206, -0.061396621167659759521, 0.18521104753017425537, 0.074249431490898132324, -0.26130315661430358887, -0.042454708367586135864, -0.028139621019363403320, -0.10786728560924530029, -0.25907808542251586914, 0.24164156615734100342, -0.21934737265110015869, 0.26745361089706420898, -0.25711134076118469238, 0.31549888849258422852, -0.070020422339439392090, 0.26201325654983520508, 0.046841923147439956665, 0.0047243516892194747925, 0.040745466947555541992, -0.12347212433815002441},
  {-0.30445760488510131836, 0.36445900797843933105, -0.30423378944396972656, 0.19624550640583038330, 0.21035073697566986084, -0.18887181580066680908, 0.16700179874897003174, -0.57123541831970214844, -0.24006800353527069092, 0.23953828215599060059, -0.030755087733268737793, 0.62771832942962646484, -0.37376680970191955566, -0.55316007137298583984, -0.36677822470664978027, 0.32406955957412719727, -0.17581912875175476074, -0.050791069865226745605, 0.13816970586776733398, -0.020813647657632827759, -0.11719082295894622803, 0.18510282039642333984, 0.49718323349952697754, -0.14209637045860290527, 0.26148313283920288086, 0.23832638561725616455, -0.063063293695449829102, -0.19845403730869293213, -0.46597069501876831055, 0.35600775480270385742, -0.13419771194458007812, -0.097580529749393463135},
  {0.085286848247051239014, -0.032838013023138046265, -0.25568965077400207520, 0.010295882821083068848, -0.28201860189437866211, 0.20320861041545867920, 0.043656844645738601685, -0.096849933266639709473, 0.11672072857618331909, 0.016008760780096054077, 0.29743576049804687500, -0.26640361547470092773, -0.19836828112602233887, -0.17008759081363677979, 0.032356310635805130005, 0.085945971310138702393, -0.13619819283485412598, -0.00040371913928538560867, -0.24801461398601531982, 0.039657540619373321533, 0.094832666218280792236, 0.19525860249996185303, -0.012119589373469352722, 0.26551198959350585938, -0.0042581725865602493286, 0.040544115006923675537, 0.12531757354736328125, 0.13399660587310791016, -0.047928940504789352417, -0.19060812890529632568, -0.10954937338829040527, -0.20383295416831970215},
  {-0.11415880173444747925, 0.39415508508682250977, -0.28393781185150146484, 0.24548733234405517578, 0.017398398369550704956, 0.19847325980663299561, 0.14270864427089691162, 0.087635315954685211182, 0.10896784812211990356, 0.20520167052745819092, 0.20291242003440856934, -0.20155869424343109131, -0.023396493867039680481, 0.019268998876214027405, -0.014638394117355346680, 0.13047727942466735840, -0.080415181815624237061, 0.060852326452732086182, 0.073908671736717224121, -0.0055715986527502536774, -0.13455669581890106201, 0.14994558691978454590, -0.18941524624824523926, 0.34064164757728576660, -0.024551151320338249207, 0.24283966422080993652, -0.059835750609636306763, 0.010100550949573516846, 0.061466339975595474243, -0.31432971358299255371, 0.087263301014900207520, -0.21164119243621826172},
  {-0.12447404861450195312, -0.066292136907577514648, -0.26123434305191040039, -0.11323254555463790894, -0.057871688157320022583, 0.069595411419868469238, 0.035774603486061096191, -0.20155444741249084473, -0.089233152568340301514, -0.042596232146024703979, -0.23806022107601165771, 0.10338611900806427002, -0.096994601190090179443, -0.093752391636371612549, -0.038143768906593322754, -0.067622877657413482666, 0.24124622344970703125, -0.045416552573442459106, 0.091780215501785278320, -0.044315859675407409668, -0.17959195375442504883, 0.077526204288005828857, 0.11159852147102355957, 0.27967128157615661621, -0.10060869902372360229, 0.084360510110855102539, -0.12068744003772735596, 0.0070318114012479782104, -0.067660793662071228027, 0.040463816374540328979, -0.15542264282703399658, -0.052117172628641128540},
  {0.30376642942428588867, 0.071214072406291961670, 0.044401619583368301392, 0.15037785470485687256, -0.069183580577373504639, 0.036233492195606231689, 0.13846446573734283447, -0.14862847328186035156, 0.11811033636331558228, -0.11630131304264068604, -0.17949107289314270020, 0.12668338418006896973, -0.15765994787216186523, 0.12618678808212280273, -0.20206052064895629883, 0.22737403213977813721, 0.27941840887069702148, 0.26387327909469604492, -0.28503099083900451660, 0.014955668710172176361, 0.088964596390724182129, -0.036869879812002182007, -0.11469241231679916382, 0.046528942883014678955, -0.0076166335493326187134, -0.10700409859418869019, -0.23927372694015502930, 0.28208726644515991211, 0.084825314581394195557, 0.29378357529640197754, -0.044591519981622695923, -0.051269650459289550781},
  {0.089908488094806671143, -0.072409421205520629883, -0.026597687974572181702, 0.069937549531459808350, 0.14960308372974395752, -0.19153238832950592041, -0.13418635725975036621, -0.16704671084880828857, -0.17445690929889678955, -0.078439928591251373291, 0.18955589830875396729, -0.18921750783920288086, 0.0029809260740876197815, -0.14380884170532226562, 0.10946686565876007080, 0.20214684307575225830, -0.19760651886463165283, 0.10468639433383941650, -0.0062600206583738327026, -0.072330482304096221924, 0.24921332299709320068, 0.28477111458778381348, 0.0037132564466446638107, -0.31866639852523803711, -0.062554039061069488525, 0.28515878319740295410, 0.12291046231985092163, 0.099027603864669799805, -0.11573628336191177368, 0.13917069137096405029, -0.060021948069334030151, -0.12720304727554321289},
  {-0.46911397576332092285, 0.11092681437730789185, -0.32307019829750061035, 0.11439687758684158325, 0.12054687738418579102, -0.24235767126083374023, 0.025890735909342765808, -0.75529789924621582031, 0.057607941329479217529, 0.42135322093963623047, -0.29665634036064147949, -0.0054838159121572971344, -0.24882262945175170898, -0.38143095374107360840, -0.53118634223937988281, 0.43894419074058532715, -0.29731249809265136719, 0.078709080815315246582, 0.38779610395431518555, -0.35135459899902343750, -0.063791617751121520996, -0.078905664384365081787, 0.40247610211372375488, 0.13586899638175964355, 0.32216107845306396484, 0.45811811089515686035, 0.019876189529895782471, -0.011627782136201858521, -0.49007046222686767578, 0.77776736021041870117, -0.16356731951236724854, -0.40446993708610534668},
  {0.64341419935226440430, -0.47514396905899047852, 0.74377316236495971680, -0.17828562855720520020, -0.69775873422622680664, 0.14798220992088317871, -0.33804503083229064941, 0.72797888517379760742, 0.10368296504020690918, -0.56825828552246093750, 0.19037927687168121338, -0.39047500491142272949, 0.49109530448913574219, 0.69766420125961303711, 0.59648799896240234375, -0.067948989570140838623, 0.055285483598709106445, 0.36723518371582031250, -0.37767404317855834961, 0.41500958800315856934, -0.15711884200572967529, -0.23785424232482910156, -0.65946888923645019531, -0.54868662357330322266, -0.78885555267333984375, -0.19703432917594909668, -0.50150382518768310547, 0.55821633338928222656, 0.51827710866928100586, -0.40179750323295593262, 0.49252247810363769531, 0.47633811831474304199},
  {-0.35537597537040710449, 0.14529405534267425537, -0.40170553326606750488, 0.49684473872184753418, 0.19622287154197692871, -0.084009006619453430176, 0.074033863842487335205, -0.67430889606475830078, -0.084663331508636474609, 0.30675709247589111328, -0.013123521581292152405, 0.066277064383029937744, -0.32447996735572814941, -0.45230847597122192383, -0.18163150548934936523, 0.15384399890899658203, -0.36580464243888854980, -0.16125597059726715088, 0.068216070532798767090, -0.22167269885540008545, 0.15562991797924041748, 0.24056217074394226074, 0.43301534652709960938, 0.36733412742614746094, 0.42231962084770202637, 0.38861963152885437012, -0.064428173005580902100, -0.083004310727119445801, -0.72864854335784912109, 0.22304669022560119629, 0.022406492382287979126, -0.45421129465103149414},
  {0.23159025609493255615, -0.10024826228618621826, 0.094584167003631591797, 0.030386298894882202148, -0.23163585364818572998, 0.17063716053962707520, -0.12153469771146774292, 0.23933677375316619873, 0.076347574591636657715, 0.013087214902043342590, -0.19978557527065277100, -0.31991526484489440918, -0.096745148301124572754, -0.10198419541120529175, -0.085894756019115447998, 0.31248268485069274902, 0.46435600519180297852, 0.34259158372879028320, 0.048081960529088973999, -0.47521865367889404297, 0.070456437766551971436, 0.12718541920185089111, -0.071467719972133636475, -0.077652134001255035400, -0.33791849017143249512, 0.0018212834838777780533, -0.31926408410072326660, 0.022181296721100807190, -0.045987103134393692017, -0.030764127150177955627, -0.045035626739263534546, 0.048148199915885925293},
  {0.20777975022792816162, -0.17516623437404632568, 0.22739109396934509277, 0.062468517571687698364, 0.028535362333059310913, -0.18937194347381591797, -0.15639629960060119629, 0.21200069785118103027, 0.024747323244810104370, -0.26073169708251953125, 0.17372944951057434082, 0.10757979750633239746, 0.18196173012256622314, 0.081183873116970062256, 0.068001158535480499268, -0.25352022051811218262, -0.052866995334625244141, -0.32460311055183410645, -0.18108473718166351318, 0.12142761796712875366, -0.19440209865570068359, 0.14470234513282775879, 0.062974721193313598633, -0.23682978749275207520, 0.13668838143348693848, -0.025854688137769699097, 0.027288539335131645203, 0.10848522186279296875, 0.15667003393173217773, -0.018774678930640220642, 0.13004526495933532715, 0.031910013407468795776},
  {0.24504204094409942627, -0.14699123799800872803, 0.14446616172790527344, 0.10646302253007888794, 0.0015283821849152445793, 0.15593917667865753174, -0.0037808553315699100494, 0.28809526562690734863, 0.15863616764545440674, -0.11619147658348083496, -0.091563917696475982666, -0.16862297058105468750, -0.039696712046861648560, 0.25548166036605834961, 0.29893451929092407227, -0.042798355221748352051, 0.24213716387748718262, 0.29741704463958740234, 0.081722661852836608887, 0.0091897780075669288635, -0.39157077670097351074, -0.20240865647792816162, -0.29366448521614074707, 0.13962368667125701904, -0.092812001705169677734, -0.022145818918943405151, 0.10104401409626007080, 0.17398627102375030518, 0.25599762797355651855, -0.30555492639541625977, 0.15979495644569396973, 0.20589359104633331299},
  {-0.11868455260992050171, 0.019480554386973381042, 0.14970986545085906982, -0.15938952565193176270, 0.19725382328033447266, 0.0053949058055877685547, -0.069757483899593353271, 0.010398435406386852264, 0.12709715962409973145, -0.23303902149200439453, 0.14029991626739501953, -0.32969292998313903809, 0.14529375731945037842, 0.23344977200031280518, 0.16109630465507507324, 0.10427822917699813843, 0.053598817437887191772, 0.38912999629974365234, -0.026933765038847923279, -0.30339300632476806641, 0.15900588035583496094, 0.11585908383131027222, -0.021142685785889625549, -0.026126671582460403442, -0.20069475471973419189, -0.032257486134767532349, 0.21299624443054199219, 0.073635682463645935059, -0.074705056846141815186, -0.28854188323020935059, 0.085433162748813629150, 0.12644636631011962891},
  {0.071085557341575622559, 0.068254306912422180176, 0.062444791197776794434, -0.21443758904933929443, -0.30521780252456665039, -0.042195178568363189697, -0.061217505484819412231, 0.11372603476047515869, 0.031617738306522369385, -0.096815377473831176758, 0.033183276653289794922, -0.035286497324705123901, 0.065668545663356781006, -0.12415699660778045654, 0.20079949498176574707, 0.24578215181827545166, 0.0016073094448074698448, -0.045170627534389495850, 0.011197598651051521301, -0.19306661188602447510, -0.35315307974815368652, -0.20996831357479095459, -0.17080324888229370117, -0.12514345347881317139, -0.15680526196956634521, 0.10662584006786346436, 0.12101837247610092163, -0.14158035814762115479, -0.17925436794757843018, 0.066502436995506286621, 0.13399416208267211914, 0.11550627648830413818},
  {-0.026862153783440589905, 0.11172771453857421875, 0.21419544517993927002, -0.15994799137115478516, -0.25737443566322326660, -0.071955747902393341064, 0.16864372789859771729, 0.035415180027484893799, 0.049883693456649780273, -0.33790621161460876465, -0.16144728660583496094, -0.21734492480754852295, 0.18773095309734344482, -0.060280881822109222412, 0.032245870679616928101, -0.018800221383571624756, -0.0085148038342595100403, 0.32289615273475646973, 0.020793603733181953430, -0.21392045915126800537, -0.31215709447860717773, 0.15190576016902923584, -0.23500706255435943604, -0.17375391721725463867, -0.26069554686546325684, -0.15671934187412261963, 0.061068858951330184937, 0.096728757023811340332, 0.15696606040000915527, -0.21759434044361114502, -0.20928132534027099609, 0.10958345979452133179},
