#include <math.h>
#include <stdbool.h>
#include <stdint.h>
#include <string.h>

static const double tensor_dense_2_kernel_0[16][1] = 
{
  {-0.32857778668403625488},
  {-0.30750966072082519531},
  {-0.34548607468605041504},
  {0.56941390037536621094},
  {0.40497624874114990234},
  {-0.53271430730819702148},
  {0.75644093751907348633},
  {-0.20333625376224517822},
  {0.45211553573608398438},
  {0.11358256638050079346},
  {-0.56403648853302001953},
  {-0.26423096656799316406},
  {0.37810599803924560547},
  {-0.42653825879096984863},
  {0.23233261704444885254},
  {-0.37818834185600280762}
};
static const double tensor_dense_2_bias_0[1] = 
{-0.19928666949272155762};
static const double tensor_scale[16] = 
{1.0640834569931030273, 2.0348742008209228516, 1.6796247959136962891, 0.75162720680236816406, 1.2803796529769897461, 1.1725497245788574219, 0.93475055694580078125, 4.5117173194885253906, 1.5465275049209594727, 3.1842269897460937500, 1.5221415758132934570, 2.9404933452606201172, 1.0582801103591918945, 1.3076826333999633789, 1.5390080213546752930, 1.7476204633712768555};
static const double tensor_bias[16] = 
{-1.1181428432464599609, -0.89036476612091064453, -1.1852060556411743164, -0.86698114871978759766, -1.2058458328247070312, -0.81684458255767822266, -0.97205728292465209961, -0.62447869777679443359, -0.77561384439468383789, -0.76282584667205810547, -1.0676493644714355469, -1.0695452690124511719, -1.0491036176681518555, -1.0410144329071044922, -1.1567639112472534180, -1.3766856193542480469};
static const double tensor_mean[16] = 
{0.0000000000000000000, 0.0000000000000000000, 0.0000000000000000000, 0.0000000000000000000, 0.0000000000000000000, 0.0000000000000000000, 0.0000000000000000000, 0.0000000000000000000, 0.0000000000000000000, 0.0000000000000000000, 0.0000000000000000000, 0.0000000000000000000, 0.0000000000000000000, 0.0000000000000000000, 0.0000000000000000000, 0.0000000000000000000};
static const double tensor_var[16] = 
{1.0000004768371582031, 1.0000004768371582031, 1.0000004768371582031, 1.0000004768371582031, 1.0000004768371582031, 1.0000004768371582031, 1.0000004768371582031, 1.0000004768371582031, 1.0000004768371582031, 1.0000004768371582031, 1.0000004768371582031, 1.0000004768371582031, 1.0000004768371582031, 1.0000004768371582031, 1.0000004768371582031, 1.0000004768371582031};
static const double tensor_dense_1_kernel_0[32][16] = 
{
  {0.38818970322608947754, -0.18278494477272033691, -0.064371667802333831787, -0.011056833900511264801, -0.058954760432243347168, 0.13026563823223114014, -0.14793933928012847900, 0.011032046750187873840, 0.068486519157886505127, -0.056943342089653015137, 0.22903873026371002197, 0.093021661043167114258, -0.26629871129989624023, -0.21466495096683502197, 0.089657127857208251953, 0.51106059551239013672},
  {0.50879460573196411133, 0.33070462942123413086, -0.031267628073692321777, 0.12435627728700637817, 0.57049536705017089844, 0.054125502705574035645, 0.029048241674900054932, -0.15556773543357849121, -0.41665732860565185547, 0.18956211209297180176, -0.0025870050303637981415, -0.39412483572959899902, -0.0043723508715629577637, 0.33941531181335449219, -0.16114045679569244385, 0.28753951191902160645},
  {-0.10116864740848541260, 0.46980491280555725098, 0.020883852615952491760, 0.34267774224281311035, -0.34459707140922546387, 0.34607568383216857910, -0.038678433746099472046, 0.16421057283878326416, 0.27918735146522521973, 0.24386782944202423096, 0.26498508453369140625, 0.10213095694780349731, -0.20681175589561462402, 0.086244411766529083252, 0.33304160833358764648, -0.34588667750358581543},
  {0.26022580265998840332, -0.10351298749446868896, -0.32318603992462158203, 0.22172383964061737061, 0.080186381936073303223, 0.014364423230290412903, -0.33730840682983398438, 0.35030227899551391602, 0.45163339376449584961, 0.10321620851755142212, -0.37328991293907165527, -0.16647270321846008301, 0.53683292865753173828, 0.17770889401435852051, 0.12836907804012298584, 0.012851868756115436554},
  {0.42235282063484191895, 0.17975968122482299805, 0.041973751038312911987, -0.21783968806266784668, 0.36025264859199523926, -0.13679863512516021729, -0.10398530215024948120, 0.45031458139419555664, -0.32424852252006530762, 0.30210691690444946289, -0.21618573367595672607, 0.36651995778083801270, -0.072422191500663757324, -0.13802237808704376221, -0.19695918262004852295, -0.31203451752662658691},
  {-0.070046909153461456299, 0.20513491332530975342, -0.18319360911846160889, 0.26565748453140258789, 0.24417375028133392334, -0.32613319158554077148, 0.17045561969280242920, -0.098702803254127502441, -0.47008994221687316895, 0.16555063426494598389, -0.33170753717422485352, 0.077271580696105957031, -0.16936111450195312500, 0.085319072008132934570, 0.40222305059432983398, -0.18338444828987121582},
  {0.42052039504051208496, -0.084551885724067687988, -0.0057652560062706470490, 0.068474501371383666992, -0.43171715736389160156, 0.51650869846343994141, -0.16507478058338165283, -0.54553717374801635742, 0.19002287089824676514, -0.29762190580368041992, 0.054089162498712539673, -0.27185800671577453613, 0.032065350562334060669, 0.39246916770935058594, -0.0055583855137228965759, 0.14440360665321350098},
  {-0.41014143824577331543, -0.062837012112140655518, -0.26367181539535522461, 0.20182785391807556152, 0.056638680398464202881, 0.046427708119153976440, -0.22256319224834442139, 0.11425055563449859619, -0.15362112224102020264, 0.21023502945899963379, -0.17424605786800384521, -0.071716971695423126221, -0.11039470881223678589, 0.10535439103841781616, -0.38514250516891479492, 0.032226283103227615356},
  {0.31332862377166748047, 0.023514660075306892395, 0.32168954610824584961, 0.34015825390815734863, 0.18256671726703643799, -0.44049656391143798828, -0.20393602550029754639, 0.19278822839260101318, -0.0075583062134683132172, -0.015119422227144241333, -0.020980168133974075317, 0.13007852435111999512, -0.14658817648887634277, 0.34504878520965576172, 0.32985576987266540527, -0.24551385641098022461},
  {-0.36885145306587219238, -0.33129140734672546387, 0.57364380359649658203, -0.17205145955085754395, -0.31223824620246887207, 0.081459857523441314697, 0.31874641776084899902, -0.082490473985671997070, 0.016033755615353584290, -0.23848006129264831543, 0.10734393447637557983, 0.21387882530689239502, 0.078655257821083068848, -0.54543286561965942383, 0.53690820932388305664, -0.23948183655738830566},
  {0.18849246203899383545, -0.054052166640758514404, -0.40588366985321044922, 0.17041561007499694824, -0.11368016898632049561, 0.14678789675235748291, 0.12361996620893478394, -0.29550302028656005859, -0.29252871870994567871, 0.36679181456565856934, 0.58168643712997436523, -0.038198135793209075928, 0.11133730411529541016, -0.053615957498550415039, -0.40278491377830505371, -0.15747764706611633301},
  {-0.013473605737090110779, -0.074585720896720886230, -0.10179102420806884766, 0.20456996560096740723, -0.044293943792581558228, 0.0076492396183311939240, -0.058105487376451492310, 0.075743645429611206055, 0.14612528681755065918, 0.061029355973005294800, -0.47504118084907531738, -0.041930913925170898438, 0.33077666163444519043, 0.13851532340049743652, -0.56540405750274658203, -0.32631799578666687012},
  {0.14310376346111297607, 0.16289381682872772217, -0.45861718058586120605, 0.51908701658248901367, -0.16175280511379241943, 0.16237255930900573730, -0.46402460336685180664, 0.075166590511798858643, 0.37582221627235412598, -0.12873215973377227783, 0.13798986375331878662, -0.61928117275238037109, 0.12751878798007965088, 0.24075512588024139404, -0.57265204191207885742, -0.13946694135665893555},
  {-0.48791247606277465820, 0.0020690278615802526474, -0.43478560447692871094, 0.29153355956077575684, 0.20096337795257568359, 0.21784500777721405029, -0.21374529600143432617, 0.20433597266674041748, 0.017748506739735603333, -0.23439379036426544189, -0.094889283180236816406, -0.35690107941627502441, -0.33329981565475463867, -0.079084977507591247559, 0.0084014013409614562988, 0.097738884389400482178},
  {-0.14123281836509704590, -0.44994017481803894043, 0.36765152215957641602, 0.086335226893424987793, 0.21323534846305847168, -0.13678461313247680664, -0.093797542154788970947, -0.16849893331527709961, -0.086650557816028594971, 0.30388417840003967285, 0.18185631930828094482, -0.14747779071331024170, -0.13744992017745971680, 0.37863779067993164062, 0.20805069804191589355, -0.053179379552602767944},
  {0.13415884971618652344, -0.014637234620749950409, -0.19210636615753173828, 0.033699564635753631592, 0.43565255403518676758, 0.19696573913097381592, -0.34781381487846374512, 0.28187027573585510254, 0.14766696095466613770, -0.063170626759529113770, 0.051325764507055282593, -0.30977952480316162109, -0.027987720444798469543, 0.42807799577713012695, 0.012446415610611438751, -0.35818281769752502441},
  {-0.27132800221443176270, -0.40393197536468505859, 0.11294201761484146118, -0.10389607399702072144, 0.31804472208023071289, -0.10228757560253143311, -0.48312300443649291992, 0.25047612190246582031, -0.10641640424728393555, 0.064056113362312316895, 0.080804519355297088623, 0.25325065851211547852, -0.29578885436058044434, 0.33909377455711364746, -0.29550051689147949219, -0.28460946679115295410},
  {-0.22172167897224426270, -0.22415319085121154785, -0.44401779770851135254, -0.22702446579933166504, -0.26637476682662963867, -0.072807505726814270020, 0.046681582927703857422, -0.35061880946159362793, 0.12739206850528717041, -0.16733559966087341309, -0.11275582015514373779, -0.25699219107627868652, 0.076132811605930328369, 0.047755703330039978027, 0.22217661142349243164, 0.10186079144477844238},
  {0.11595004051923751831, -0.17432241141796112061, -0.010495589114725589752, -0.17197956144809722900, 0.44310566782951354980, -0.40288689732551574707, 0.37162721157073974609, 0.31319478154182434082, 0.13068489730358123779, 0.45737627148628234863, 0.040739260613918304443, 0.038189496845006942749, -0.14480808377265930176, 0.28055429458618164062, -0.13571642339229583740, -0.013178172521293163300},
  {-0.030508521944284439087, 0.20444320142269134521, -0.29771304130554199219, 0.17272576689720153809, 0.16302381455898284912, -0.019129252061247825623, 0.60118424892425537109, 0.21295404434204101562, -0.27263364195823669434, 0.21352337300777435303, 0.43613517284393310547, 0.13594947755336761475, 0.021405121311545372009, -0.33783856034278869629, 0.16913516819477081299, 0.21266612410545349121},
  {-0.36976918578147888184, -0.15631294250488281250, -0.16388833522796630859, 0.54221469163894653320, -0.31594836711883544922, 0.27536338567733764648, 0.27525234222412109375, -0.54397517442703247070, -0.17052771151065826416, 0.081488706171512603760, 0.024737162515521049500, 0.33962309360504150391, 0.10808425396680831909, -0.16492787003517150879, -0.21226184070110321045, 0.18396545946598052979},
  {-0.30775645375251770020, 0.16726744174957275391, 0.031859502196311950684, 0.0017750894185155630112, 0.089416980743408203125, 0.34109285473823547363, 0.073255531489849090576, -0.19737473130226135254, 0.15543152391910552979, 0.039046693593263626099, -0.36522391438484191895, -0.14377576112747192383, 0.31381633877754211426, 0.53507900238037109375, -0.084195598959922790527, -0.046273943036794662476},
  {-0.12126427143812179565, -0.48957577347755432129, -0.035240475088357925415, -0.21915209293365478516, 0.087356768548488616943, 0.10108020156621932983, -0.17714038491249084473, 0.13383050262928009033, -0.18514689803123474121, -0.25998494029045104980, -0.056119441986083984375, -0.62827056646347045898, -0.30187654495239257812, 0.42924371361732482910, 0.22639481723308563232, 0.096138045191764831543},
  {-0.28567573428153991699, -0.17821609973907470703, -0.37052750587463378906, -0.12585170567035675049, -0.032489053905010223389, 0.41496932506561279297, -0.081641189754009246826, -0.088143736124038696289, 0.26989516615867614746, -0.23510673642158508301, 0.15437491238117218018, -0.19133396446704864502, 0.056750725954771041870, 0.37000912427902221680, -0.15058940649032592773, 0.032046478241682052612},
  {0.18322500586509704590, 0.040300298482179641724, -0.093093380331993103027, -0.13627415895462036133, -0.51341545581817626953, -0.026140067726373672485, 0.071548126637935638428, 0.091503977775573730469, -0.15045610070228576660, -0.13253538310527801514, -0.17369927465915679932, -0.21339076757431030273, 0.52472770214080810547, 0.23333093523979187012, 0.039233289659023284912, 0.15799099206924438477},
  {0.041699696332216262817, -0.34000378847122192383, -0.29563167691230773926, 0.18033634126186370850, -0.052831824868917465210, 0.031081011518836021423, -0.50010859966278076172, 0.41929548978805541992, -0.22492563724517822266, -0.30352413654327392578, 0.13349024951457977295, -0.23176260292530059814, -0.061482854187488555908, -0.093626298010349273682, -0.16409076750278472900, 0.58609771728515625000},
  {-0.065576367080211639404, -0.39819157123565673828, 0.17407844960689544678, 0.24851292371749877930, 0.13255988061428070068, -0.35533860325813293457, 0.037260368466377258301, -0.24956029653549194336, 0.17049486935138702393, -0.25019192695617675781, 0.32636299729347229004, -0.38219243288040161133, 0.12229568511247634888, -0.035951014608144760132, 0.16496017575263977051, -0.28861761093139648438},
  {0.059819851070642471313, -0.19817869365215301514, -0.10067565739154815674, -0.039624173194169998169, 0.21965798735618591309, 0.19845095276832580566, -0.32261663675308227539, -0.49290576577186584473, 0.12299117445945739746, -0.0053480272181332111359, 0.43365597724914550781, -0.43569967150688171387, 0.43465995788574218750, -0.44739490747451782227, 0.12604789435863494873, 0.11803386360406875610},
  {-0.024713775143027305603, 0.024442328140139579773, -0.019648347049951553345, -0.60271400213241577148, 0.078202798962593078613, -0.39526310563087463379, -0.54950886964797973633, -0.29857698082923889160, -0.26170405745506286621, -0.25408264994621276855, 0.54235005378723144531, -0.14074598252773284912, -0.0096097001805901527405, 0.31637030839920043945, -0.41712674498558044434, 0.038602869957685470581},
  {0.0067240665666759014130, -0.10527987033128738403, 0.10217886418104171753, 0.032127276062965393066, 0.33696082234382629395, 0.34654527902603149414, -0.042911451309919357300, -0.20576196908950805664, 0.22353976964950561523, -0.12970480322837829590, 0.51046246290206909180, -0.0070932297967374324799, 0.084024675190448760986, 0.10739547014236450195, -0.23643335700035095215, -0.072100728750228881836},
  {-0.029896879568696022034, -0.058110136538743972778, 0.47433054447174072266, -0.34509050846099853516, 0.47273376584053039551, 0.11919746547937393188, -0.37391203641891479492, 0.34867158532142639160, -0.38912472128868103027, -0.46433383226394653320, -0.026971621438860893250, 0.049894250929355621338, 0.12273771315813064575, -0.47174966335296630859, -0.30949541926383972168, 0.28665328025817871094},
  {-0.021588411182165145874, -0.25676628947257995605, -0.30053496360778808594, -0.10987046360969543457, 0.21512795984745025635, 0.44034644961357116699, 0.044931944459676742554, 0.29125639796257019043, -0.11071861535310745239, 0.0035410351119935512543, 0.016743181273341178894, 0.25122010707855224609, 0.053872279822826385498, 0.063888870179653167725, 0.10006854683160781860, 0.071074254810810089111}
};
static const double tensor_dense_1_bias_0[16] = 
{0.10928311944007873535, 0.011500586755573749542, 0.073526032269001007080, 0.00030754387262277305126, -0.056705355644226074219, -0.0038711440283805131912, 0.0087317405268549919128, -0.081195235252380371094, -0.038576424121856689453, -0.011373199522495269775, 0.031509894877672195435, 0.047574538737535476685, 0.063475318253040313721, 0.083976708352565765381, 0.059402633458375930786, 0.16171702742576599121};
static const double tensor_scale1[32] = 
{1.6545549631118774414, 4.5368738174438476562, 5.3094730377197265625, 2.7247338294982910156, 2.2169394493103027344, 10.562068939208984375, 3.1421234607696533203, 12.109786033630371094, 7.7419466972351074219, 3.4062125682830810547, 11.366550445556640625, 2.9363157749176025391, 10.504183769226074219, 6.0273737907409667969, 9.4479084014892578125, 3.8468899726867675781, 7.3179950714111328125, 2.7419378757476806641, 7.7968268394470214844, 7.4499650001525878906, 3.4873430728912353516, 4.3044095039367675781, 10.773793220520019531, 2.2920024394989013672, 3.4176347255706787109, 2.2870650291442871094, 2.2850444316864013672, 8.0788145065307617188, 1.6322705745697021484, 3.8211681842803955078, 1.7886048555374145508, 11.252138137817382812};
static const double tensor_bias1[32] = 
{-0.77636134624481201172, 1.5242062807083129883, 2.9458885192871093750, 1.0580929517745971680, 0.12015366554260253906, 8.3736801147460937500, 0.20198079943656921387, 10.508421897888183594, -4.5265569686889648438, -0.99052691459655761719, 8.9789505004882812500, -0.51765483617782592773, 9.7459421157836914062, 3.9632248878479003906, -7.9683194160461425781, 1.7730213403701782227, -4.3996424674987792969, 1.4572447538375854492, -4.3164253234863281250, -5.3046875000000000000, -0.064307488501071929932, 1.5180451869964599609, 9.5492401123046875000, 0.12286213040351867676, -0.68669450283050537109, -0.83190661668777465820, 0.25134500861167907715, -6.3703551292419433594, -0.59521996974945068359, -2.5210413932800292969, -0.94235467910766601562, 8.4155750274658203125};
static const double tensor_mean1[32] = 
{0.0000000000000000000, -0.0000000000000000000, -0.0000000000000000000, -0.0000000000000000000, -0.0000000000000000000, -0.0000000000000000000, -0.0000000000000000000, -0.0000000000000000000, 0.0000000000000000000, 0.0000000000000000000, -0.0000000000000000000, 0.0000000000000000000, -0.0000000000000000000, -0.0000000000000000000, 0.0000000000000000000, -0.0000000000000000000, 0.0000000000000000000, -0.0000000000000000000, 0.0000000000000000000, 0.0000000000000000000, 0.0000000000000000000, -0.0000000000000000000, -0.0000000000000000000, -0.0000000000000000000, 0.0000000000000000000, 0.0000000000000000000, -0.0000000000000000000, 0.0000000000000000000, 0.0000000000000000000, 0.0000000000000000000, 0.0000000000000000000, -0.0000000000000000000};
static const double tensor_var1[32] = 
{1.0000004768371582031, 1.0000004768371582031, 1.0000004768371582031, 1.0000004768371582031, 1.0000004768371582031, 1.0000004768371582031, 1.0000004768371582031, 1.0000004768371582031, 1.0000004768371582031, 1.0000004768371582031, 1.0000004768371582031, 1.0000004768371582031, 1.0000004768371582031, 1.0000004768371582031, 1.0000004768371582031, 1.0000004768371582031, 1.0000004768371582031, 1.0000004768371582031, 1.0000004768371582031, 1.0000004768371582031, 1.0000004768371582031, 1.0000004768371582031, 1.0000004768371582031, 1.0000004768371582031, 1.0000004768371582031, 1.0000004768371582031, 1.0000004768371582031, 1.0000004768371582031, 1.0000004768371582031, 1.0000004768371582031, 1.0000004768371582031, 1.0000004768371582031};
static const double tensor_dense_kernel_0[114][32] = 
{
  {-0.0075707640498876571655, -0.15265633165836334229, 0.094388931989669799805, -0.0034576701000332832336, 0.10739388316869735718, -0.10308879613876342773, 0.11193517595529556274, -0.21483835577964782715, -0.15582393109798431396, 0.065837450325489044189, -0.23192308843135833740, -0.063653960824012756348, 0.18920479714870452881, 0.059272050857543945312, 0.054117493331432342529, 0.13284249603748321533, 0.10573715716600418091, -0.14137962460517883301, -0.13814032077789306641, -0.072335220873355865479, 0.036146834492683410645, 0.12936881184577941895, 0.056781496852636337280, -0.053588788956403732300, -0.044958420097827911377, -0.015253938734531402588, -0.078205846250057220459, 0.043689951300621032715, 0.17333325743675231934, -0.16385082900524139404, -0.0042488453909754753113, -0.16244983673095703125},
  {0.020946741104125976562, 0.052850842475891113281, 0.10833443701267242432, -0.21027420461177825928, -0.15141759812831878662, 0.031501229852437973022, 0.17732030153274536133, 0.069872081279754638672, 0.14627818763256072998, -0.12894229590892791748, -0.052534531801939010620, 0.13939051330089569092, 0.061996232718229293823, -0.042770951986312866211, 0.16240042448043823242, 0.089439295232295989990, 0.14549808204174041748, 0.11521356552839279175, -0.21475969254970550537, -0.15390181541442871094, -0.057899922132492065430, -0.060602474957704544067, 0.016637550666928291321, 0.0086503699421882629395, -0.11763293296098709106, 0.15826664865016937256, -0.022006694227457046509, -0.080635957419872283936, -0.033297702670097351074, 0.14396433532238006592, -0.066433914005756378174, 0.077602095901966094971},
  {0.0033102931920439004898, -0.12968526780605316162, -0.045533332973718643188, -0.11624900251626968384, 0.17907403409481048584, -0.0085497740656137466431, -0.088181890547275543213, -0.17782367765903472900, -0.15931576490402221680, -0.17896908521652221680, -0.12528263032436370850, -0.13587419688701629639, -0.070334866642951965332, -0.15511669218540191650, -0.15596203505992889404, -0.16341438889503479004, -0.11527312546968460083, -0.081437811255455017090, 0.00034297231468372046947, -0.14243313670158386230, 0.018239267170429229736, -0.031048251315951347351, 0.13971877098083496094, -0.19812937080860137939, 0.10736612230539321899, 0.18402101099491119385, 0.11931037157773971558, -0.060113891959190368652, -0.078383065760135650635, -0.12615154683589935303, 0.17234346270561218262, -0.12207105755805969238},
  {0.0089436629787087440491, 0.10225987434387207031, -0.080933444201946258545, -0.022051569074392318726, 0.019474353641271591187, -0.16698649525642395020, -0.013644075952470302582, -0.16257409751415252686, 0.078519530594348907471, 0.12275736033916473389, -0.18112702667713165283, -0.090369224548339843750, -0.065326526761054992676, -0.096903361380100250244, 0.11993435770273208618, -0.038102231919765472412, 0.15771873295307159424, 0.019713027402758598328, -0.028367105871438980103, -0.041963983327150344849, 0.17567072808742523193, 0.15245312452316284180, -0.13558389246463775635, -0.16156031191349029541, -0.12364049255847930908, 0.19415105879306793213, -0.032393135130405426025, 0.090547464787960052490, -0.099875971674919128418, 0.13494232296943664551, 0.21402136981487274170, -0.11865064501762390137},
  {-0.18502318859100341797, -0.15699423849582672119, -0.18945896625518798828, 0.14725813269615173340, -0.072285167872905731201, -0.12119349092245101929, -0.043417803943157196045, 0.069409772753715515137, -0.018055986613035202026, 0.16675843298435211182, 0.15967890620231628418, -0.057873714715242385864, -0.14551536738872528076, 0.17650426924228668213, -0.048612277954816818237, -0.19469344615936279297, -0.18467059731483459473, 0.10876147449016571045, -0.076134942471981048584, -0.064430981874465942383, 0.20954422652721405029, 0.045646708458662033081, 0.057380881160497665405, -0.12802995741367340088, 0.11296989768743515015, -0.11173906922340393066, -0.18485093116760253906, -0.10534764826297760010, -0.076690688729286193848, 0.20790025591850280762, -0.17852097749710083008, -0.10334579646587371826},
  {0.22982527315616607666, 0.26563867926597595215, -0.029602680355310440063, -0.012298441492021083832, -0.14627340435981750488, 0.047188635915517807007, -0.13586884737014770508, -0.14582465589046478271, -0.040127277374267578125, 0.10196492075920104980, 0.16731825470924377441, 0.018326234072446823120, -0.049883324652910232544, 0.0091153122484683990479, -0.066165640950202941895, -0.20106440782546997070, -0.088524676859378814697, -0.078453965485095977783, 0.050697557628154754639, -0.041022755205631256104, 0.22246848046779632568, 0.14406670629978179932, -0.044929862022399902344, 0.0039864475838840007782, -0.071633540093898773193, -0.020533982664346694946, 0.038035534322261810303, 0.0028553213924169540405, -0.11662046611309051514, 0.11793668568134307861, 0.076266452670097351074, 0.065440393984317779541},
  {-0.060232244431972503662, 0.064496055245399475098, -0.13613396883010864258, 0.046241126954555511475, 0.039184454828500747681, 0.10815670341253280640, 0.13169431686401367188, -0.13335925340652465820, 0.024489115923643112183, -0.042315889149904251099, -0.0010922463843598961830, -0.19554954767227172852, 0.051803577691316604614, 0.10695496946573257446, -0.18104155361652374268, -0.10022788494825363159, 0.10348469763994216919, 0.040434308350086212158, -0.15117946267127990723, -0.15064141154289245605, 0.17349714040756225586, -0.27178016304969787598, 0.027109760791063308716, -0.043526556342840194702, -0.20137771964073181152, -0.059266954660415649414, -0.027142750099301338196, 0.12434834986925125122, -0.12622533738613128662, -0.11727301776409149170, -0.10928369313478469849, -0.19131438434123992920},
  {0.11537604779005050659, -0.18331103026866912842, 0.062846161425113677979, -0.14804026484489440918, 0.057603150606155395508, 0.087224975228309631348, 0.16933034360408782959, 0.20357003808021545410, -0.16272358596324920654, -0.036903221160173416138, 0.037270396947860717773, 0.065804339945316314697, 0.027994379401206970215, -0.060464233160018920898, 0.057989772409200668335, -0.016468800604343414307, 0.050926227122545242310, -0.10936750471591949463, -0.15216620266437530518, 0.043498765677213668823, -0.053282402455806732178, -0.053075503557920455933, 0.12710447609424591064, 0.17980542778968811035, 0.088037297129631042480, 0.18096144497394561768, -0.062617592513561248779, 0.10512965172529220581, -0.097313374280929565430, 0.14921398460865020752, -0.018683975562453269958, -0.17586652934551239014},
  {0.11896122246980667114, -0.00036789439036510884762, 0.093180544674396514893, 0.17154474556446075439, 0.10826947540044784546, 0.11768636107444763184, 0.0047988365404307842255, -0.15564799308776855469, 0.015664635226130485535, 0.15833662450313568115, 0.033144552260637283325, -0.12827445566654205322, 0.16428847610950469971, 0.14914280176162719727, 0.070446670055389404297, -0.13096971809864044189, 0.19747622311115264893, 0.051115095615386962891, 0.034955985844135284424, 0.078849546611309051514, 0.10435266047716140747, -0.11625140160322189331, 0.065713487565517425537, 0.13412605226039886475, 0.049087993800640106201, -0.049754753708839416504, -0.14039041101932525635, 0.11121204495429992676, 0.13284316658973693848, -0.10716143995523452759, -0.048699405044317245483, -0.031849503517150878906},
  {-0.11622085422277450562, 0.12331684678792953491, 0.16117757558822631836, -0.090674869716167449951, -0.13344866037368774414, -0.14452806115150451660, -0.14175188541412353516, 0.096117876470088958740, -0.14292240142822265625, -0.035429090261459350586, 0.16035854816436767578, -0.18392026424407958984, -0.21715286374092102051, 0.095139749348163604736, 0.19761838018894195557, -0.032051581889390945435, 0.015834549441933631897, 0.074195556342601776123, 0.088842473924160003662, 0.039845459163188934326, -0.084760628640651702881, 0.045214086771011352539, -0.0054432922042906284332, -0.22120201587677001953, -0.060695342719554901123, -0.21053309738636016846, -0.046315670013427734375, -0.054782677441835403442, -0.16497872769832611084, -0.19980685412883758545, 0.046581968665122985840, -0.20051646232604980469},
  {-0.12239241600036621094, 0.064475715160369873047, -0.14049980044364929199, -0.064349621534347534180, 0.18841136991977691650, -0.031826738268136978149, 0.11065825074911117554, 0.16009607911109924316, -0.080989912152290344238, 0.12803463637828826904, 0.13515481352806091309, -0.11638127267360687256, -0.11099696904420852661, 0.10749506205320358276, -0.21114118397235870361, 0.17249798774719238281, 0.21371623873710632324, 0.14836125075817108154, -0.036746799945831298828, 0.076777778565883636475, 0.088295765221118927002, -0.021629260852932929993, -0.15299031138420104980, 0.17382083833217620850, -0.066817700862884521484, -0.015187774784862995148, 0.096872940659523010254, -0.050536040216684341431, 0.053957451134920120239, -0.047833073884248733521, -0.19992649555206298828, -0.11663130670785903931},
  {-0.11162809282541275024, 0.10388458520174026489, 0.024583915248513221741, 0.14156267046928405762, 0.13344927132129669189, -0.0033846376463770866394, 0.027393937110900878906, -0.18969322741031646729, -0.10767022520303726196, -0.18376336991786956787, 0.064317785203456878662, 0.17683783173561096191, 0.0044549894519150257111, 0.11044136434793472290, 0.17710927128791809082, 0.10473424941301345825, 0.024904567748308181763, 0.16061013936996459961, -0.064967170357704162598, 0.10855539888143539429, -0.21330568194389343262, 0.061992555856704711914, -0.16419376432895660400, 0.067327633500099182129, 0.039151594042778015137, 0.10946214199066162109, -0.041779022663831710815, -0.023648625239729881287, -0.076427549123764038086, 0.15689885616302490234, 0.027355039492249488831, -0.17961686849594116211},
  {-0.095648437738418579102, 0.12854921817779541016, -0.063678421080112457275, 0.22017860412597656250, 0.075161404907703399658, -0.20420521497726440430, -0.020161358639597892761, -0.22028176486492156982, 0.069104753434658050537, -0.0058738789521157741547, 0.20198193192481994629, 0.17945490777492523193, 0.14805279672145843506, 0.19251635670661926270, -0.15642273426055908203, 0.012546463869512081146, -0.073670245707035064697, 0.089443631470203399658, -0.046171285212039947510, 0.087484061717987060547, 0.060421295464038848877, 0.10307024419307708740, -0.078506797552108764648, -0.048842292279005050659, -0.18582828342914581299, 0.097380541265010833740, 0.028107324615120887756, -0.046905476599931716919, -0.19060707092285156250, 0.20187216997146606445, 0.14156453311443328857, 0.040857657790184020996},
  {-0.014902110211551189423, -0.099399380385875701904, 0.22078616917133331299, 0.11399625241756439209, 0.21643356978893280029, -0.12816375494003295898, -0.060021240264177322388, -0.092372223734855651855, -0.13079725205898284912, -0.17234130203723907471, 0.19320508837699890137, 0.15507985651493072510, 0.15305837988853454590, 0.15907999873161315918, -0.031061643734574317932, -0.041535846889019012451, 0.13818439841270446777, -0.15634728968143463135, 0.13101163506507873535, 0.13313478231430053711, 0.017651105299592018127, 0.042063459753990173340, -0.0023831671569496393204, 0.11675465852022171021, -0.19126249849796295166, -0.12895575165748596191, -0.091033861041069030762, 0.13220363855361938477, -0.11803528666496276855, 0.030068786814808845520, -0.0048721539787948131561, 0.043632354587316513062},
  {-0.051085021346807479858, 0.057414982467889785767, 0.16228489577770233154, -0.15428671240806579590, -0.076335288584232330322, -0.036966253072023391724, 0.035368140786886215210, 0.0065546296536922454834, 0.0067821866832673549652, -0.0069198794662952423096, -0.11063249409198760986, -0.11840417981147766113, 0.026847317814826965332, -0.079689949750900268555, 0.097719281911849975586, -0.020556353032588958740, 0.14720408618450164795, 0.10344539582729339600, -0.083061695098876953125, -0.18151752650737762451, -0.14484658837318420410, -0.022727426141500473022, -0.12270203977823257446, 0.026696965098381042480, -0.12490858137607574463, 0.11327244341373443604, 0.11360173672437667847, -0.10044373571872711182, -0.13281399011611938477, -0.11967676877975463867, 0.18260905146598815918, -0.18760831654071807861},
  {0.069108724594116210938, 0.027785785496234893799, -0.0068452330306172370911, 0.0065226200968027114868, 0.17134070396423339844, 0.17369969189167022705, -0.053652103990316390991, 0.067117027938365936279, 0.14782750606536865234, -0.19079020619392395020, 0.23742139339447021484, 0.12330914288759231567, -0.14095461368560791016, 0.19935679435729980469, 0.11775993555784225464, -0.12168056517839431763, 0.037381540983915328979, -0.10331170260906219482, -0.019131654873490333557, -0.11956508457660675049, -0.075130775570869445801, 0.085735656321048736572, 0.14849652349948883057, 0.16142234206199645996, -0.16853608191013336182, 0.11400344967842102051, 0.10099780559539794922, 0.016856526955962181091, -0.014127491973340511322, 0.16725322604179382324, -0.14635290205478668213, 0.086830079555511474609},
  {-0.16089648008346557617, 0.019412212073802947998, -0.11440999805927276611, 0.16579712927341461182, -0.013649954460561275482, 0.14329351484775543213, -0.077234730124473571777, 0.17368499934673309326, 0.097566783428192138672, 0.097022548317909240723, -0.10878403484821319580, 0.078091666102409362793, 0.024040203541517257690, 0.13846519589424133301, 0.19064699113368988037, -0.22273010015487670898, 0.14386485517024993896, 0.010813601315021514893, 0.14038905501365661621, -0.071660153567790985107, 0.029356444254517555237, -0.12309563905000686646, 0.0077411658130586147308, 0.13969869911670684814, -0.0014558810507878661156, -0.017795201390981674194, 0.17408902943134307861, -0.022484749555587768555, -0.0055972966365516185760, 0.059875898063182830811, -0.16955283284187316895, -0.12657952308654785156},
  {0.18513140082359313965, -0.16507802903652191162, -0.13414451479911804199, 0.033096913248300552368, 0.14600193500518798828, -0.19465163350105285645, -0.13535420596599578857, 0.014414394274353981018, -0.10284367203712463379, 0.0069459173828363418579, 0.11330391466617584229, 0.10385048389434814453, -0.076748721301555633545, 0.15003365278244018555, -0.23230679333209991455, -0.075457304716110229492, -0.027430029585957527161, 0.028352383524179458618, 0.024528997018933296204, 0.16456088423728942871, 0.13016952574253082275, -0.19177837669849395752, -0.13527430593967437744, 0.071525678038597106934, -0.13572257757186889648, -0.022244546562433242798, 0.063266970217227935791, 0.022521121427416801453, 0.061028543859720230103, 0.11248251795768737793, -0.16760587692260742188, 0.030368741601705551147},
  {0.11888464540243148804, -0.21756811439990997314, -0.019624104723334312439, -0.020534843206405639648, -0.025673622265458106995, -0.090763770043849945068, 0.052756100893020629883, 0.0011175808031111955643, -0.012844290584325790405, -0.14955741167068481445, -0.10638390481472015381, 0.11778360605239868164, 0.10476922988891601562, 0.023030318319797515869, -0.19388589262962341309, -0.14506219327449798584, 0.099847115576267242432, 0.13723288476467132568, -0.18848700821399688721, 0.028650224208831787109, 0.059772297739982604980, -0.11559583246707916260, -0.10040148347616195679, 0.092298209667205810547, -0.13960398733615875244, -0.15994746983051300049, -0.098397336900234222412, -0.072909720242023468018, 0.061618331819772720337, -0.082069791853427886963, 0.15713784098625183105, -0.10629772394895553589},
  {0.053155016154050827026, -0.056435044854879379272, -0.17360877990722656250, 0.10259189456701278687, -0.16892965137958526611, 0.022987388074398040771, -0.096871241927146911621, -0.090474963188171386719, 0.0033513563685119152069, -0.18137396872043609619, 0.16702803969383239746, -0.12813869118690490723, 0.029542250558733940125, 0.22518600523471832275, -0.15875536203384399414, 0.14091852307319641113, 0.16171239316463470459, 0.23781590163707733154, -0.16056802868843078613, -0.070976264774799346924, 0.056858148425817489624, 0.022332919761538505554, -0.038075894117355346680, 0.042068697512149810791, -0.11870822310447692871, 0.097142904996871948242, -0.14710469543933868408, 0.11070391535758972168, -0.20762172341346740723, 0.064265735447406768799, -0.025225566700100898743, -0.20470337569713592529},
  {-0.25321456789970397949, 0.030015982687473297119, -0.11321073770523071289, 0.064600907266139984131, 0.10639934241771697998, 0.058080520480871200562, 0.011683971621096134186, 0.074324630200862884521, 0.20280142128467559814, -0.077337130904197692871, 0.099982380867004394531, -0.12796765565872192383, -0.041668415069580078125, 0.044921971857547760010, -0.24350480735301971436, -0.13056391477584838867, 0.018638947978615760803, 0.19334998726844787598, -0.13254767656326293945, 0.021619979292154312134, -0.13885979354381561279, 0.074791096150875091553, 0.015820534899830818176, -0.019021216779947280884, 0.20221948623657226562, -0.16243836283683776855, 0.062099296599626541138, 0.20262408256530761719, 0.14847908914089202881, 0.13625088334083557129, -0.025359794497489929199, -0.046403024345636367798},
  {-0.089189916849136352539, -0.010389319621026515961, -0.13686630129814147949, 0.18256421387195587158, -0.058060672134160995483, -0.022514048963785171509, -0.098384886980056762695, 0.076499082148075103760, 0.21512338519096374512, 0.12497665733098983765, -0.16641671955585479736, -0.089517198503017425537, 0.061526808887720108032, -0.17713363468647003174, -0.13484276831150054932, -0.041303597390651702881, -0.089946702122688293457, 0.016275746747851371765, 0.21606768667697906494, 0.15397876501083374023, 0.16652587056159973145, 0.073677398264408111572, -0.11505315452814102173, 0.12165454775094985962, -0.16974018514156341553, 0.0028609607834368944168, -0.12240464985370635986, -0.011650098487734794617, 0.040225379168987274170, -0.14260406792163848877, -0.084891475737094879150, -0.13350719213485717773},
  {0.13456028699874877930, -0.13946670293807983398, 0.20133651793003082275, 0.037583637982606887817, 0.067452408373355865479, 0.14528733491897583008, -0.087066024541854858398, 0.11396209895610809326, 0.034300360828638076782, -0.13507141172885894775, -0.16819986701011657715, -0.12548197805881500244, -0.15267334878444671631, 0.064085580408573150635, -0.039191603660583496094, -0.011509829200804233551, 0.19802391529083251953, 0.21892511844635009766, 0.15006840229034423828, -0.027019379660487174988, 0.15854828059673309326, -0.19871759414672851562, 0.10527433454990386963, -0.090522073209285736084, 0.011067131534218788147, -0.18457096815109252930, 0.10189279913902282715, -0.14705088734626770020, 0.10971656441688537598, 0.098425976932048797607, -0.16249619424343109131, 0.11181443929672241211},
  {-0.17966976761817932129, -0.080341078341007232666, 0.15851239860057830811, 0.0093222521245479583740, 0.15955446660518646240, 0.20433221757411956787, 0.17844371497631072998, 0.056953456252813339233, -0.071028649806976318359, -0.042277745902538299561, -0.21321870386600494385, -0.047085095196962356567, -0.096074409782886505127, -0.044939056038856506348, 0.13344575464725494385, -0.10288270562887191772, 0.17583088576793670654, -0.030814563855528831482, 0.049976471811532974243, -0.083350569009780883789, 0.23061399161815643311, 0.097135342657566070557, -0.16351293027400970459, 0.16417610645294189453, -0.12065582722425460815, -0.20483486354351043701, 0.0055538499727845191956, 0.044163249433040618896, 0.18473300337791442871, -0.17020595073699951172, -0.14575587213039398193, 0.17340666055679321289},
  {-0.010395880788564682007, -0.16361548006534576416, -0.032477617263793945312, 0.048760075122117996216, -0.048221487551927566528, 0.046957213431596755981, 0.055000931024551391602, 0.19428622722625732422, -0.14562416076660156250, 0.062298033386468887329, 0.098896980285644531250, 0.039721313863992691040, 0.00084145495202392339706, -0.096656218171119689941, -0.089157231152057647705, -0.095767430961132049561, -0.061173841357231140137, -0.031385846436023712158, -0.036982230842113494873, 0.015871141105890274048, 0.17764838039875030518, -0.13570706546306610107, 0.080966807901859283447, -0.048040341585874557495, 0.047429535537958145142, -0.18860915303230285645, 0.037123274058103561401, -0.12965102493762969971, 0.13833075761795043945, -0.0030688152182847261429, 0.13760565221309661865, -0.075180783867835998535},
  {0.097057901322841644287, 0.046930827200412750244, -0.087250359356403350830, 0.057869471609592437744, -0.062512449920177459717, -0.039084378629922866821, -0.20039807260036468506, 0.082272544503211975098, -0.016405154019594192505, -0.040653903037309646606, 0.080168008804321289062, 0.071416817605495452881, 0.084484837949275970459, 0.030196994543075561523, -0.033504292368888854980, 0.16083720326423645020, 0.22058036923408508301, -0.014167598448693752289, 0.11147231608629226685, 0.031991139054298400879, -0.25002026557922363281, -0.0040885116904973983765, -0.093148663640022277832, 0.16387970745563507080, 0.016027692705392837524, -0.096020400524139404297, 0.028987322002649307251, -0.026355711743235588074, -0.13800820708274841309, 0.13385276496410369873, 0.14148809015750885010, -0.044078323990106582642},
  {0.17814473807811737061, 0.060047976672649383545, 0.047746367752552032471, -0.12436610460281372070, 0.13055458664894104004, -0.15763321518898010254, -0.11395549029111862183, -0.038220666348934173584, 0.080349333584308624268, 0.081558562815189361572, 0.066247120499610900879, -0.16227017343044281006, -0.15732756257057189941, -0.19621136784553527832, 0.089666619896888732910, -0.067003972828388214111, -0.22995148599147796631, -0.0027983314357697963715, 0.20901954174041748047, -0.10252130031585693359, -0.14729425311088562012, 0.18086530268192291260, -0.13453249633312225342, -0.047040823847055435181, 0.068540364503860473633, 0.19054701924324035645, -0.0092285750433802604675, 0.16610309481620788574, 0.17772176861763000488, 0.032861072570085525513, -0.14066642522811889648, 0.087375864386558532715},
  {-0.14921100437641143799, 0.16637663543224334717, -0.036821380257606506348, 0.15031634271144866943, -0.13327588140964508057, -0.10765872895717620850, 0.096029773354530334473, 0.16659443080425262451, 0.20191884040832519531, -0.16846102476119995117, 0.17854170501232147217, 0.13090290129184722900, -0.14918352663516998291, 0.053664512932300567627, 0.032950371503829956055, 0.19403126835823059082, -0.077277116477489471436, -0.19265307486057281494, 0.13896106183528900146, 0.095636993646621704102, 0.14598028361797332764, -0.11426824331283569336, -0.16627122461795806885, -0.064120054244995117188, 0.14631512761116027832, -0.16583646833896636963, -0.10922301560640335083, 0.063958249986171722412, 0.10367884486913681030, 0.10213030874729156494, -0.0033547240309417247772, 0.037091858685016632080},
  {0.13521111011505126953, 0.12114648520946502686, -0.042871005833148956299, 0.13531640172004699707, -0.15260647237300872803, -0.14954030513763427734, 0.062343228608369827271, -0.028157144784927368164, -0.10360705107450485229, -0.015709638595581054688, 0.13851571083068847656, -0.15258248150348663330, 0.071551263332366943359, 0.076057165861129760742, 0.059011712670326232910, -0.042098868638277053833, -0.0070269466377794742584, -0.15577656030654907227, 0.034853734076023101807, -0.054462496191263198853, 0.20441766083240509033, 0.089372269809246063232, 0.053610417991876602173, 0.043228510767221450806, -0.24256941676139831543, 0.057560734450817108154, -0.14905951917171478271, 0.0086791142821311950684, 0.088144883513450622559, -0.089142411947250366211, -0.10514695197343826294, -0.10512306541204452515},
  {-0.068056181073188781738, -0.018274284899234771729, 0.14125826954841613770, 0.11264679580926895142, 0.049468260258436203003, -0.11118172109127044678, 0.014706273563206195831, 0.11288986355066299438, -0.039772361516952514648, -0.012282390147447586060, -0.030566455796360969543, 0.18381513655185699463, 0.13248665630817413330, 0.20893558859825134277, -0.14182250201702117920, 0.11942534148693084717, -0.068181924521923065186, -0.18002739548683166504, -0.022012906149029731750, 0.060683555901050567627, -0.17227409780025482178, -0.10157732665538787842, -0.080285213887691497803, 0.030582996085286140442, 0.15377295017242431641, 0.00092063029296696186066, 0.059887219220399856567, -0.018166074529290199280, -0.16389618813991546631, -0.077685825526714324951, 0.18192358314990997314, -0.10992196947336196899},
  {0.12332601100206375122, -0.0048946421593427658081, 0.18761129677295684814, 0.16080938279628753662, 0.082553721964359283447, 0.18879204988479614258, -0.029303951188921928406, -0.10162010043859481812, -0.19934324920177459717, -0.080554611980915069580, -0.10759463906288146973, 0.16519543528556823730, -0.12879295647144317627, 0.029980130493640899658, -0.012301369570195674896, 0.21350279450416564941, -0.061687432229518890381, -0.0071047008968889713287, -0.26871001720428466797, 0.14774474501609802246, 0.066773250699043273926, 0.14525343477725982666, 0.22031757235527038574, -0.12940090894699096680, 0.15773601830005645752, -0.12801098823547363281, 0.091374464333057403564, -0.22051951289176940918, -0.091146297752857208252, -0.027574021369218826294, -0.063858963549137115479, -0.14439648389816284180},
  {-0.10580033808946609497, -0.093686737120151519775, -0.16853466629981994629, -0.17708808183670043945, -0.065235726535320281982, 0.036748886108398437500, 0.074167415499687194824, -0.060641560703516006470, 0.098062381148338317871, -0.083337374031543731689, 0.16541497409343719482, -0.16231851279735565186, -0.13621613383293151855, -0.053813889622688293457, 0.035345949232578277588, 0.19258154928684234619, 0.14753063023090362549, 0.14345140755176544189, -0.14471542835235595703, -0.14748641848564147949, -0.041429027915000915527, 0.040552251040935516357, -0.12972024083137512207, -0.14177213609218597412, -0.035495385527610778809, -0.21673706173896789551, -0.024999981746077537537, -0.11527046561241149902, 0.077583543956279754639, 0.044769577682018280029, 0.030256196856498718262, 0.097481489181518554688},
  {0.10455065965652465820, -0.054053727537393569946, 0.12759564816951751709, 0.11055134236812591553, -0.093105204403400421143, -0.16108512878417968750, 0.091328769922256469727, 0.11675821244716644287, 0.19382716715335845947, -0.16245408356189727783, 0.034786868840456008911, 0.16355222463607788086, -0.053999211639165878296, -0.0082869930192828178406, 0.11982614547014236450, -0.16964374482631683350, 0.096518397331237792969, 0.12510627508163452148, 0.016626654192805290222, 0.065062999725341796875, 0.047353662550449371338, -0.19267718493938446045, -0.25358691811561584473, -0.042919702827930450439, -0.0033774236217141151428, -0.052607893943786621094, 0.047619085758924484253, 0.073204509913921356201, 0.023719619959592819214, 0.15516614913940429688, -0.23462375998497009277, 0.016481516882777214050},
  {0.15526263415813446045, 0.20674376189708709717, 0.14573037624359130859, 0.033768534660339355469, 0.049599722027778625488, 0.032422248274087905884, 0.070539161562919616699, 0.0030641613993793725967, 0.057899404317140579224, 0.15752226114273071289, -0.12960501015186309814, -0.0055103371851146221161, 0.15689016878604888916, -0.054586187005043029785, 0.018603026866912841797, -0.14343175292015075684, -0.025819022208452224731, -0.12206804007291793823, -0.090415470302104949951, 0.12831383943557739258, -0.097257383167743682861, -0.12439434975385665894, 0.021429462358355522156, -0.0092708561569452285767, -0.15425640344619750977, -0.12461827695369720459, 0.16957806050777435303, -0.17358362674713134766, 0.019377747550606727600, 0.011219973675906658173, 0.039121363312005996704, -0.051180992275476455688},
  {-0.057837717235088348389, -0.010605211369693279266, -0.076108217239379882812, -0.14191968739032745361, 0.050125267356634140015, 0.012842186726629734039, -0.093143329024314880371, -0.060566298663616180420, 0.032809097319841384888, 0.053736235946416854858, -0.0012348582968115806580, 0.17066609859466552734, 0.12790751457214355469, 0.10414817184209823608, -0.012132282368838787079, 0.016839679330587387085, -0.18136422336101531982, 0.045563500374555587769, -0.12356910854578018188, -0.047855701297521591187, 0.14043697714805603027, -0.15695407986640930176, -0.069523952901363372803, 0.034528970718383789062, -0.17701570689678192139, 0.22184139490127563477, 0.029978150501847267151, -0.11202716827392578125, -0.15275989472866058350, 0.10976770520210266113, 0.087380997836589813232, -0.17300708591938018799},
  {0.11320699751377105713, -0.081871733069419860840, 0.036590255796909332275, 0.17606425285339355469, -0.16682668030261993408, -0.025596290826797485352, -0.049390360713005065918, 0.14284072816371917725, 0.017770653590559959412, 0.11922328919172286987, -0.094104818999767303467, -0.18289892375469207764, 0.020363835617899894714, -0.16316615045070648193, -0.12212227284908294678, 0.10286428779363632202, 0.055219352245330810547, -0.16986031830310821533, 0.0025750836357474327087, -0.021718112751841545105, -0.20687052607536315918, -0.071390934288501739502, 0.16056416928768157959, -0.074031889438629150391, 0.14292554557323455811, 0.073812663555145263672, 0.15413151681423187256, -0.13957834243774414062, 0.13628348708152770996, -0.22494065761566162109, 0.017915710806846618652, 0.010852350853383541107},
  {-0.061801493167877197266, 0.19573098421096801758, 0.092907153069972991943, -0.11060903221368789673, -0.019383810460567474365, -0.023637132719159126282, -0.18299113214015960693, 0.037064954638481140137, -0.10939322412014007568, -0.17720288038253784180, -0.13251331448554992676, 0.10703136771917343140, 0.079807743430137634277, -0.031943734735250473022, 0.059515390545129776001, 0.092222921550273895264, -0.15003111958503723145, -0.045091219246387481689, 0.083023793995380401611, 0.13051500916481018066, 0.026143712922930717468, -0.099370963871479034424, -0.088259816169738769531, -0.050545990467071533203, 0.12426844984292984009, 0.098035797476768493652, 0.072027705609798431396, -0.18349117040634155273, -0.0098963361233472824097, -0.17809569835662841797, 0.047512091696262359619, 0.016771176829934120178},
  {0.14478288590908050537, -0.078583285212516784668, -0.087792254984378814697, -0.068826481699943542480, 0.11773852258920669556, -0.21109952032566070557, -0.11557289958000183105, -0.044419705867767333984, 0.052322816103696823120, -0.019371312111616134644, -0.0054064444266259670258, 0.18510948121547698975, 0.16733516752719879150, 0.033629085868597030640, -0.051790747791528701782, -0.096902705729007720947, -0.10319072753190994263, 0.016099823638796806335, -0.096085861325263977051, -0.13293845951557159424, -0.030426796525716781616, 0.084261722862720489502, 0.14234577119350433350, 0.12159060686826705933, -0.086348630487918853760, 0.069889821112155914307, 0.011208012700080871582, -0.12744861841201782227, 0.084336988627910614014, -0.035702455788850784302, 0.0074204993434250354767, -0.15798725187778472900},
  {-0.0023342201020568609238, 0.072263769805431365967, -0.019276639446616172791, -0.058590438216924667358, 0.18286512792110443115, 0.21004556119441986084, 0.14306311309337615967, -0.10429605096578598022, -0.12665361166000366211, 0.18063844740390777588, -0.093150019645690917969, 0.086003363132476806641, 0.093908742070198059082, 0.18505117297172546387, 0.15408332645893096924, -0.17004126310348510742, -0.043055396527051925659, 0.058313477784395217896, 0.10434230417013168335, 0.14670389890670776367, 0.19698032736778259277, 0.20967948436737060547, -0.0042104353196918964386, 0.028964685276150703430, 0.016339503228664398193, 0.12922909855842590332, -0.18941859900951385498, -0.018009791150689125061, 0.074620321393013000488, -0.085774883627891540527, 0.15483219921588897705, -0.16588498651981353760},
  {-0.12984097003936767578, 0.13703706860542297363, -0.052217826247215270996, 0.047481104731559753418, -0.061722636222839355469, -0.19365841150283813477, 0.22761638462543487549, 0.097176149487495422363, 0.0065687308087944984436, 0.037103872746229171753, -0.12282429635524749756, -0.0055182836949825286865, -0.12241765111684799194, -0.16699469089508056641, 0.17418973147869110107, 0.10484417527914047241, -0.13910210132598876953, -0.031389165669679641724, -0.0088574858382344245911, -0.17536422610282897949, 0.11136322468519210815, -0.044484101235866546631, -0.12861329317092895508, -0.024606999009847640991, 0.13610038161277770996, 0.16643677651882171631, -0.092580415308475494385, -0.053579606115818023682, -0.12228583544492721558, -0.0094537241384387016296, -0.16865126788616180420, 0.019758187234401702881},
  {0.019521348178386688232, 0.054337937384843826294, -0.067177496850490570068, 0.0030432119965553283691, 0.079364143311977386475, 0.14897878468036651611, 0.033229403197765350342, 0.066175922751426696777, -0.16257840394973754883, -0.020983304828405380249, 0.084094837307929992676, 0.14201788604259490967, 0.16990520060062408447, -0.10961019247770309448, 0.17980973422527313232, 0.099632926285266876221, 0.14869214594364166260, -0.11113139986991882324, 0.18370537459850311279, 0.14293126761913299561, 0.016082311049103736877, -0.22042429447174072266, -0.0079699512571096420288, 0.11007875949144363403, -0.14549554884433746338, -0.018833495676517486572, -0.046238858252763748169, -0.078999876976013183594, 0.00065125274704769253731, 0.061211872845888137817, 0.10825727880001068115, 0.085174620151519775391},
  {0.071386031806468963623, -0.00089408346684649586678, -0.036817178130149841309, 0.034973826259374618530, 0.095153503119945526123, 0.021959926933050155640, -0.091657720506191253662, 0.10645549744367599487, 0.088740445673465728760, -0.17491611838340759277, -0.027573266997933387756, -0.017871176823973655701, 0.051295105367898941040, 0.018316173925995826721, -0.17924593389034271240, 0.15770393610000610352, 0.040488556027412414551, -0.17005492746829986572, 0.12965604662895202637, -0.10403160005807876587, 0.17452664673328399658, -0.19913619756698608398, 0.054728131741285324097, 0.087746903300285339355, 0.19433796405792236328, -0.0056731924414634704590, 0.13268944621086120605, -0.092745997011661529541, -0.095691978931427001953, 0.028169276192784309387, -0.017013121396303176880, 0.11968504637479782104},
  {0.15278662741184234619, 0.17325533926486968994, 0.16277506947517395020, 0.086104057729244232178, 0.058149583637714385986, 0.074164956808090209961, -0.091378584504127502441, 0.028300693258643150330, -0.12060665339231491089, -0.20049515366554260254, 0.17497721314430236816, -0.0055583217181265354156, 0.063473038375377655029, -0.17552250623703002930, 0.15181770920753479004, -0.046901024878025054932, -0.15285086631774902344, -0.090851433575153350830, 0.14472828805446624756, 0.022133739665150642395, -0.10655751824378967285, 0.17902867496013641357, -0.15119124948978424072, -0.0067984447814524173737, 0.15571947395801544189, -0.033906482160091400146, -0.17788058519363403320, -0.14975564181804656982, -0.15415887534618377686, -0.11890047043561935425, 0.039779219776391983032, 0.048442140221595764160},
  {-0.10916445404291152954, 0.078379347920417785645, 0.12124129384756088257, -0.15578138828277587891, 0.10142032802104949951, 0.14362968504428863525, 0.10402915626764297485, 0.13588871061801910400, -0.17995430529117584229, 0.10270918160676956177, 0.081941388547420501709, -0.10954253375530242920, 0.16720351576805114746, 0.13266938924789428711, -0.18490190804004669189, -0.048743326216936111450, -0.12420933693647384644, -0.18655914068222045898, 0.0096187451854348182678, -0.12420420348644256592, 0.092527046799659729004, -0.052263766527175903320, -0.10414429754018783569, -0.034283872693777084351, 0.046163301914930343628, -0.061057597398757934570, -0.14764875173568725586, -0.14976885914802551270, -0.12787413597106933594, 0.22553426027297973633, -0.096797212958335876465, 0.14472295343875885010},
  {0.19759960472583770752, 0.15316575765609741211, -0.20509402453899383545, -0.10369161516427993774, 0.10163830220699310303, -0.11436381936073303223, -0.012256950139999389648, -0.043346922844648361206, 0.21336306631565093994, 0.099871218204498291016, -0.085052855312824249268, 0.024516839534044265747, -0.11605450510978698730, -0.14845493435859680176, 0.21397805213928222656, 0.079858079552650451660, -0.18465742468833923340, -0.11880920827388763428, 0.19640514254570007324, 0.15859498083591461182, -0.16040439903736114502, 0.030536444857716560364, -0.083363190293312072754, 0.18605138361454010010, 0.12658466398715972900, 0.010837906971573829651, -0.075764514505863189697, 0.029421454295516014099, 0.18487253785133361816, -0.050507824867963790894, -0.11582501232624053955, 0.11247846484184265137},
  {-0.0068956729955971240997, -0.11268555372953414917, 0.16307097673416137695, -0.083307549357414245605, 0.22035852074623107910, -0.18091075122356414795, -0.11507350951433181763, 0.057752463966608047485, -0.087854497134685516357, 0.0078536048531532287598, 0.024020092561841011047, -0.12902586162090301514, -0.14672264456748962402, 0.10556575655937194824, 0.12586806714534759521, -0.10696449130773544312, -0.065243445336818695068, -0.16981002688407897949, -0.094698086380958557129, -0.088136039674282073975, 0.0029297932051122188568, -0.075468540191650390625, -0.060089025646448135376, 0.073580428957939147949, -0.042400326579809188843, -0.083923026919364929199, 0.0045461496338248252869, 0.020703725516796112061, -0.029473010450601577759, 0.10842482745647430420, -0.037871524691581726074, -0.085175208747386932373},
  {0.18097501993179321289, -0.074260994791984558105, -0.21007336676120758057, -0.22550652921199798584, -0.060397438704967498779, 0.13665097951889038086, 0.071864247322082519531, -0.019071677699685096741, -0.14948931336402893066, -0.18089444935321807861, 0.16175919771194458008, -0.090192966163158416748, 0.22808709740638732910, -0.14182144403457641602, -0.050906475633382797241, -0.015448823571205139160, -0.15131120383739471436, -0.22275355458259582520, -0.14593052864074707031, -0.26344877481460571289, -0.14034311473369598389, 0.12479151785373687744, 0.047611206769943237305, 0.12378722429275512695, 0.076393038034439086914, 0.062869369983673095703, 0.058977764099836349487, -0.19968347251415252686, -0.032801404595375061035, 0.070270121097564697266, 0.14947150647640228271, 0.15338763594627380371},
  {-0.11232167482376098633, 0.070283748209476470947, 0.15846388041973114014, -0.18381446599960327148, 0.11261457204818725586, 0.20820771157741546631, 0.079926140606403350830, 0.13185963034629821777, 0.084299854934215545654, 0.064661242067813873291, -0.17732630670070648193, -0.099635481834411621094, -0.16173610091209411621, -0.10828161984682083130, 0.073311693966388702393, -0.11673400551080703735, -0.098786771297454833984, 0.054215844720602035522, 0.072534881532192230225, 0.047774672508239746094, 0.014143464155495166779, 0.11279169470071792603, 0.020279902964830398560, -0.051798339933156967163, 0.076106645166873931885, -0.014651737175881862640, 0.040809020400047302246, -0.020341049879789352417, 0.084318436682224273682, 0.14877063035964965820, -0.091913826763629913330, -0.092191286385059356689},
  {-0.17418971657752990723, -0.017711762338876724243, -0.0055545349605381488800, -0.048548489809036254883, 0.17447011172771453857, -0.22730134427547454834, 0.029477367177605628967, -0.094196520745754241943, 0.052115235477685928345, 0.16894418001174926758, 0.12459263950586318970, -0.095356024801731109619, -0.044757220894098281860, -0.16577453911304473877, 0.16695342957973480225, 0.15492871403694152832, -0.16851031780242919922, -0.061096739023923873901, 0.20798507332801818848, 0.057751342654228210449, 0.17437225580215454102, 0.20313456654548645020, -0.21183036267757415771, 0.10132721066474914551, -0.051178634166717529297, 0.20445160567760467529, 0.029607053846120834351, 0.022000147029757499695, 0.087571538984775543213, -0.094332106411457061768, -0.047779731452465057373, -0.18002185225486755371},
  {0.11056312173604965210, 0.035159777849912643433, -0.15086776018142700195, 0.016054851934313774109, 0.011124376207590103149, 0.20474576950073242188, -0.041903909295797348022, 0.12815530598163604736, 0.053705260157585144043, 0.13566449284553527832, 0.10490584373474121094, -0.013279366306960582733, 0.19077661633491516113, 0.047585759311914443970, -0.030443053692579269409, -0.11842523515224456787, -0.12968344986438751221, 0.21438704431056976318, -0.12522536516189575195, 0.18021623790264129639, 0.15274280309677124023, -0.21770140528678894043, -0.10176586359739303589, -0.00083098141476511955261, -0.11764412373304367065, -0.20173002779483795166, -0.12394256144762039185, 0.058977745473384857178, 0.11996857821941375732, -0.013342094607651233673, -0.044907424598932266235, 0.055671989917755126953},
  {0.16190378367900848389, 0.14554846286773681641, -0.021107196807861328125, 0.18920634686946868896, 0.14835940301418304443, 0.18356309831142425537, -0.040824096649885177612, -0.13286483287811279297, 0.090778827667236328125, 0.10981943458318710327, 0.17525401711463928223, -0.0052450620569288730621, -0.0074534351006150245667, 0.12090055644512176514, 0.058165222406387329102, -0.058846041560173034668, -0.15357661247253417969, 0.14716379344463348389, -0.19791390001773834229, -0.18058133125305175781, -0.038283791393041610718, 0.090727038681507110596, 0.14326433837413787842, 0.16487024724483489990, 0.049625568091869354248, -0.10010101646184921265, -0.18439073860645294189, 0.13440437614917755127, -0.086907699704170227051, 0.034639615565538406372, 0.10184291750192642212, 0.030164349824190139771},
  {-0.051594574004411697388, 0.16719563305377960205, -0.063715539872646331787, 0.080698117613792419434, -0.037791404873132705688, 0.043009012937545776367, 0.16942343115806579590, 0.14811702072620391846, 0.086270377039909362793, 0.14388266205787658691, 0.17805956304073333740, 0.16470701992511749268, 0.0064928941428661346436, 0.13123451173305511475, 0.11683841049671173096, -0.11394190788269042969, 0.14064931869506835938, 0.023094447329640388489, 0.057233303785324096680, -0.13433355093002319336, -0.16453072428703308105, -0.15855024755001068115, -0.11996126919984817505, -0.036813072860240936279, 0.030482878908514976501, -0.12904195487499237061, -0.033498562872409820557, 0.094796918332576751709, -0.11928379535675048828, -0.012804839760065078735, -0.082254707813262939453, 0.11951836943626403809},
  {0.080192334949970245361, -0.011343060992658138275, -0.20863243937492370605, -0.025682061910629272461, -0.010338925756514072418, 0.17394247651100158691, -0.088806651532649993896, -0.082755751907825469971, 0.049663934856653213501, 0.051111083477735519409, -0.20771078765392303467, -0.029036713764071464539, -0.15297161042690277100, 0.12102343142032623291, 0.078197427093982696533, -0.16810278594493865967, -0.15026041865348815918, -0.10842331498861312866, 0.062321297824382781982, 0.15378719568252563477, 0.22470512986183166504, -0.14422242343425750732, -0.018231693655252456665, -0.044618457555770874023, 0.10693696886301040649, -0.13702973723411560059, -0.046564266085624694824, 0.11324290186166763306, -0.10397256165742874146, 0.12581126391887664795, 0.13566321134567260742, 0.17293213307857513428},
  {-0.019795196130871772766, 0.18135446310043334961, 0.095434755086898803711, -0.15222553908824920654, 0.028374945744872093201, 0.15574984252452850342, -0.11526799947023391724, 0.16797846555709838867, -0.019155440852046012878, -0.084209099411964416504, -0.012663106434047222137, -0.016760580241680145264, 0.10200969874858856201, -0.014330017380416393280, 0.073316581547260284424, 0.082403376698493957520, -0.050743777304887771606, -0.16065481305122375488, 0.035459820181131362915, 0.19777107238769531250, -0.090773805975914001465, 0.12503829598426818848, -0.14800645411014556885, -0.048557415604591369629, -0.18328481912612915039, -0.084326915442943572998, 0.12472617626190185547, -0.056839678436517715454, 0.048746887594461441040, 0.0018605596851557493210, -0.13211363554000854492, -0.075823515653610229492},
  {-0.16487897932529449463, 0.11920975148677825928, 0.12689480185508728027, 0.0077827377244830131531, 0.12754541635513305664, 0.028951751068234443665, 0.14574579894542694092, -0.20567236840724945068, -0.15312577784061431885, -0.065330147743225097656, -0.090570442378520965576, 0.061371199786663055420, 0.091342322528362274170, -0.12178810685873031616, -0.096986614167690277100, -0.22578769922256469727, 0.00082893064245581626892, -0.044672809541225433350, 0.22039735317230224609, -0.061757657676935195923, -0.0093582496047019958496, 0.14555627107620239258, -0.11169639974832534790, -0.12621480226516723633, 0.015925200656056404114, -0.043327741324901580811, -0.097438730299472808838, -0.16137962043285369873, 0.070049986243247985840, 0.19893860816955566406, -0.11245895177125930786, -0.036975279450416564941},
  {-0.037471186369657516479, -0.098533220589160919189, 0.098069928586483001709, -0.081017293035984039307, 0.033024106174707412720, 0.072520755231380462646, 0.0023852074518799781799, -0.15631794929504394531, -0.26207804679870605469, 0.18529909849166870117, -0.071215800940990447998, -0.15578588843345642090, -0.031997703015804290771, -0.074488788843154907227, -0.087555125355720520020, 0.11843798309564590454, -0.013982717879116535187, -0.021314214915037155151, 0.0042372220195829868317, 0.040357768535614013672, -0.098541997373104095459, -0.10025357455015182495, 0.00080680981045588850975, 0.12149512767791748047, 0.13039849698543548584, 0.036144901067018508911, 0.084200397133827209473, 0.14601463079452514648, 0.16663275659084320068, -0.10797986388206481934, 0.14519754052162170410, -0.016568938270211219788},
  {0.037135273218154907227, 0.075485043227672576904, 0.12620066106319427490, -0.085475504398345947266, -0.00022538714983966201544, 0.096795581281185150146, -0.10163507610559463501, -0.10654751211404800415, -0.21660897135734558105, 0.11648713052272796631, -0.17477923631668090820, -0.057601794600486755371, -0.070405997335910797119, 0.15003894269466400146, -0.079565942287445068359, 0.044524725526571273804, -0.022101143375039100647, 0.16444984078407287598, 0.068128660321235656738, 0.11905281245708465576, 0.0021061312872916460037, 0.052416615188121795654, 0.18324948847293853760, 0.073129549622535705566, -0.12483621388673782349, 0.11959167569875717163, -0.21755881607532501221, -0.035505212843418121338, -0.16368144750595092773, 0.15548013150691986084, 0.085233628749847412109, 0.15369527041912078857},
  {-0.041765000671148300171, 0.17572401463985443115, 0.081431940197944641113, 0.25889140367507934570, 0.010799114592373371124, -0.10015756636857986450, -0.0047034444287419319153, -0.18371877074241638184, -0.12575215101242065430, 0.085144728422164916992, -0.0097457664087414741516, -0.20360580086708068848, -0.050431948155164718628, -0.038313675671815872192, -0.0073477299883961677551, 0.050003226846456527710, 0.068869255483150482178, -0.038600422441959381104, 0.12306591123342514038, -0.080835603177547454834, -0.099766492843627929688, 0.099358536303043365479, -0.089277915656566619873, -0.14449785649776458740, -0.029698278754949569702, -0.17010641098022460938, -0.12052657455205917358, 0.10649466514587402344, -0.081450618803501129150, -0.18965597450733184814, 0.10682383179664611816, -0.085803970694541931152},
  {0.019389875233173370361, -0.092063836753368377686, -0.052315719425678253174, -0.13621100783348083496, 0.10250195115804672241, 0.19720317423343658447, 0.0050616762600839138031, -0.15949504077434539795, 0.075417429208755493164, -0.063858345150947570801, 0.18095293641090393066, 0.010197552852332592010, -0.053982924669981002808, 0.095498733222484588623, 0.055085044354200363159, 0.14194904267787933350, 0.029369246214628219604, -0.12571631371974945068, 0.064003184437751770020, 0.011772273108363151550, -0.13853339850902557373, 0.23959928750991821289, -0.098019912838935852051, -0.17089639604091644287, 0.13003715872764587402, 0.021486923098564147949, 0.014314769767224788666, -0.096328169107437133789, -0.086277000606060028076, 0.10316254943609237671, -0.17573441565036773682, 0.11348072439432144165},
  {0.12685035169124603271, -0.23228473961353302002, -0.015643833205103874207, -0.17583858966827392578, 0.14845542609691619873, -0.10302784293889999390, -0.17961908876895904541, -0.16969102621078491211, -0.085337758064270019531, -0.090841822326183319092, -0.064121715724468231201, 0.029380967840552330017, 0.092295102775096893311, -0.010861214250326156616, -0.10038160532712936401, 0.16575892269611358643, 0.18453589081764221191, -0.071143619716167449951, -0.041060358285903930664, 0.076414607465267181396, 0.020405204966664314270, -0.089714631438255310059, -0.11236193031072616577, 0.0073206839151680469513, 0.16793304681777954102, -0.13457560539245605469, 0.17245407402515411377, 0.17171797156333923340, 0.16220343112945556641, 0.10901052504777908325, 0.033532962203025817871, 0.052879869937896728516},
  {0.12066050618886947632, -0.0075327511876821517944, 0.0037293941713869571686, 0.067252665758132934570, 0.14069414138793945312, 0.15622892975807189941, 0.14911153912544250488, -0.10745895653963088989, -0.26457741856575012207, 0.049363408237695693970, 0.23083397746086120605, -0.099667914211750030518, 0.15795053541660308838, 0.11038378626108169556, 0.033482894301414489746, 0.012071031145751476288, -0.015966860577464103699, -0.16860896348953247070, 0.023244522511959075928, 0.15561886131763458252, 0.15460272133350372314, -0.0037869568914175033569, 0.0091908453032374382019, -0.15914607048034667969, 0.11604781448841094971, -0.10850066691637039185, -0.13453841209411621094, 0.12343475222587585449, 0.21787327527999877930, -0.053837023675441741943, -0.013563862070441246033, 0.22707417607307434082},
  {-0.14655897021293640137, -0.19607625901699066162, 0.041970059275627136230, 0.16162836551666259766, -0.18255686759948730469, -0.066489472985267639160, -0.088151246309280395508, 0.14781534671783447266, 0.098050244152545928955, 0.10582276433706283569, 0.083149604499340057373, -0.0086132446303963661194, 0.15329164266586303711, 0.14131140708923339844, -0.14249251782894134521, -0.17755632102489471436, 0.22280910611152648926, 0.22930239140987396240, -0.071704804897308349609, -0.093547277152538299561, 0.15628032386302947998, -0.19177120923995971680, -0.11047579348087310791, 0.066790699958801269531, 0.15855158865451812744, -0.053310122340917587280, 0.14278888702392578125, 0.013093947432935237885, 0.0074766627512872219086, 0.086908847093582153320, -0.056889966130256652832, -0.028438776731491088867},
  {0.017227055504918098450, -0.022000763565301895142, -0.0074528665281832218170, 0.063912525773048400879, -0.16444805264472961426, 0.087210647761821746826, -0.046894855797290802002, -0.18478913605213165283, 0.18575026094913482666, -0.15852864086627960205, -0.17400845885276794434, 0.057823438197374343872, -0.085307016968727111816, -0.21149106323719024658, -0.057554345577955245972, 0.013614667579531669617, -0.057458698749542236328, -0.027836950495839118958, 0.067150391638278961182, -0.14119887351989746094, -0.10259670764207839966, 0.13107898831367492676, 0.070696592330932617188, -0.20322854816913604736, 0.027674907818436622620, -0.13719625771045684814, 0.022378034889698028564, -0.078301146626472473145, -0.023205710574984550476, -0.0022422585170716047287, 7.1097849286161363125e-05, 0.026572410017251968384},
  {0.12769801914691925049, 0.15516354143619537354, -0.094233520328998565674, -0.11994926631450653076, 0.077821291983127593994, -0.20789460837841033936, -0.092442877590656280518, -0.24150046706199645996, 0.093898929655551910400, -0.063533701002597808838, -0.15210898220539093018, 0.042852476239204406738, 0.074150227010250091553, -0.12444183230400085449, 0.12750031054019927979, 0.093558639287948608398, 0.040920089930295944214, 0.13327442109584808350, 0.20226846635341644287, 0.17743647098541259766, -0.12794074416160583496, -0.13810160756111145020, -0.087673634290695190430, -0.19757363200187683105, 0.14052411913871765137, -0.091874241828918457031, 0.048556528985500335693, -0.018398813903331756592, -0.15429995954036712646, 0.15647302567958831787, 0.010866929776966571808, -0.087025240063667297363},
  {-0.022088628262281417847, -0.10490474104881286621, -0.087330959737300872803, -0.041626691818237304688, -0.19525800645351409912, -0.026966899633407592773, 0.091622821986675262451, -0.054533276706933975220, -0.10669517517089843750, 0.17582124471664428711, -0.25053155422210693359, -0.19313767552375793457, -0.090125173330307006836, 0.15606337785720825195, 0.010079286992549896240, -0.10062072426080703735, 0.22872593998908996582, -0.087554775178432464600, 0.080388769507408142090, 0.0054806247353553771973, 0.19159914553165435791, 0.13173793256282806396, -0.18269832432270050049, 0.034676823765039443970, 0.011410629376769065857, -0.11719281971454620361, 0.077018953859806060791, -0.096109956502914428711, 0.0023989747278392314911, -0.063795417547225952148, -0.063745543360710144043, -0.24915517866611480713},
  {0.40181854367256164551, 0.38604637980461120605, 0.26215019822120666504, -0.36687490344047546387, -0.26215073466300964355, -0.58750683069229125977, 0.67429494857788085938, -0.13180005550384521484, 0.29411816596984863281, -0.34424132108688354492, 0.27411428093910217285, -0.59342253208160400391, -0.0031161012593656778336, -0.53824502229690551758, 0.068512216210365295410, -0.50043952465057373047, 0.43783619999885559082, -0.30098873376846313477, -0.44001987576484680176, -0.096667543053627014160, -0.026562059298157691956, -0.66309314966201782227, 0.10924082249402999878, -0.32725417613983154297, -0.026142023503780364990, 0.42458400130271911621, -0.46931821107864379883, 0.084006100893020629883, 0.23373354971408843994, 0.48081088066101074219, 0.064962580800056457520, -0.52094060182571411133},
  {-0.16552866995334625244, 0.027053626254200935364, -0.28899195790290832520, -0.036294054239988327026, -0.027781048789620399475, -0.059069719165563583374, 0.073182806372642517090, -0.00031480350298807024956, 0.024949837476015090942, 0.0056744357571005821228, -0.042802695184946060181, 0.16400966048240661621, 0.034896411001682281494, 0.090829789638519287109, 0.13789531588554382324, 0.0092078847810626029968, 0.26041424274444580078, -0.22942821681499481201, 0.034121423959732055664, 0.070176377892494201660, -0.00012066448107361793518, -0.056975159794092178345, 0.022145496681332588196, -0.13911524415016174316, -0.14285041391849517822, 0.14200182259082794189, 0.084308288991451263428, 0.063149839639663696289, -0.043366126716136932373, 0.18679215013980865479, 0.027818772941827774048, -0.22708882391452789307},
  {0.49626734852790832520, 0.28910058736801147461, 0.47183731198310852051, -0.15844126045703887939, -0.19759364426136016846, -0.65390312671661376953, 0.56087207794189453125, -0.45175492763519287109, 0.24980334937572479248, 0.012733886018395423889, 0.42069020867347717285, -0.28154507279396057129, 0.048784874379634857178, -0.51391792297363281250, 0.19138565659523010254, -0.16699242591857910156, -0.062852621078491210938, -0.42310017347335815430, -0.53876906633377075195, 0.078088499605655670166, 0.10491438955068588257, -0.33589690923690795898, 0.015814868733286857605, -0.089463904500007629395, 0.012311835773289203644, 0.40372979640960693359, -0.19888786971569061279, -0.19628243148326873779, 0.41336721181869506836, 0.49645617604255676270, 0.024474531412124633789, -0.49456924200057983398},
  {0.22224089503288269043, -0.049596518278121948242, -0.15842379629611968994, 0.056843057274818420410, 0.049712769687175750732, -0.062762714922428131104, -0.035326261073350906372, -0.11856815963983535767, 0.23690412938594818115, 0.16413812339305877686, -0.086902931332588195801, 0.0064692893065512180328, -0.031784493476152420044, -0.10732252150774002075, 0.10221272706985473633, -0.19535642862319946289, 0.18426407873630523682, 0.016008175909519195557, 0.054354604333639144897, -0.10628587007522583008, 0.18520987033843994141, 0.16730047762393951416, 0.051711957901716232300, 0.15291842818260192871, 0.016386847943067550659, 0.076988093554973602295, -0.20446518063545227051, 0.20883132517337799072, -0.16053575277328491211, -0.031629420816898345947, -0.058062575757503509521, -0.066687181591987609863},
  {-0.077026844024658203125, -0.098004236817359924316, 0.040042996406555175781, -0.22191910445690155029, 0.018362518399953842163, -0.31834882497787475586, 0.11567483842372894287, -0.19011393189430236816, 0.075697712600231170654, -0.12658515572547912598, -0.075076170265674591064, 0.10804241150617599487, -0.058109331876039505005, -0.028379857540130615234, -0.079389683902263641357, -0.22268475592136383057, 0.21967001259326934814, -0.18156877160072326660, 0.046778257936239242554, 0.0090877851471304893494, 0.052039574831724166870, 0.065160170197486877441, -0.10027887672185897827, -0.17881566286087036133, 0.10676763206720352173, 0.18056164681911468506, 0.19216519594192504883, 0.23111334443092346191, 0.20509505271911621094, -0.056714814156293869019, -0.085974521934986114502, -0.27379804849624633789},
  {-0.15776003897190093994, 0.0081491153687238693237, 0.048069030046463012695, -0.071182779967784881592, -0.15888670086860656738, -0.068451099097728729248, 0.13492298126220703125, -0.12530498206615447998, 0.17167253792285919189, -0.18766270577907562256, 0.064887851476669311523, -0.19313399493694305420, -0.12577702105045318604, 0.084545150399208068848, -0.0075596864335238933563, -0.030920408666133880615, 0.19705736637115478516, -0.041937585920095443726, -0.19808204472064971924, -0.10622746497392654419, 0.053452659398317337036, -0.12546209990978240967, 0.086697354912757873535, -0.14749926328659057617, 0.037602469325065612793, 0.20230445265769958496, 0.031914841383695602417, 0.11608421057462692261, 0.044922038912773132324, -0.19363892078399658203, -0.022711306810379028320, 0.012206550687551498413},
  {-0.0048235855065286159515, -0.13846914470195770264, 0.16319958865642547607, -0.034058339893817901611, -0.19936902821063995361, -0.081475012004375457764, -0.032912511378526687622, 0.062580712139606475830, -0.022169133648276329041, 0.10784790664911270142, -0.069385930895805358887, 0.11332059651613235474, 0.19111242890357971191, -0.088970586657524108887, -0.13385517895221710205, -0.16302014887332916260, -0.25677683949470520020, -0.084369696676731109619, -0.14782924950122833252, -0.043308399617671966553, -0.15716037154197692871, -0.18482722342014312744, -0.031772971153259277344, -0.12905642390251159668, 0.076486796140670776367, -0.14204896986484527588, 0.090167202055454254150, 0.17365588247776031494, 0.092549510300159454346, -0.15833249688148498535, 0.19181412458419799805, 0.098289564251899719238},
  {0.13208645582199096680, -0.015133739449083805084, 0.13741077482700347900, 0.060023210942745208740, -0.078068412840366363525, 0.28133237361907958984, -0.27051186561584472656, -0.16040307283401489258, 0.24216708540916442871, 0.025773709639906883240, 5.4543954320251941681e-05, -0.075527906417846679688, -0.19578774273395538330, -0.25276327133178710938, 0.14526131749153137207, 0.11008702963590621948, -0.045330744236707687378, -0.15759664773941040039, 0.16206640005111694336, 0.10157744586467742920, 0.12595102190971374512, -0.021939937025308609009, -0.25084108114242553711, 0.12597875297069549561, -0.17830334603786468506, -0.045958545058965682983, -0.0078929942101240158081, -0.13221427798271179199, 0.099254906177520751953, -0.084299370646476745605, -0.13117519021034240723, 0.082598112523555755615},
  {0.042124498635530471802, -0.22456407546997070312, -0.017900872975587844849, -0.064905427396297454834, -0.085709430277347564697, -0.034057758748531341553, -0.31727990508079528809, 0.0049074641428887844086, 0.20062476396560668945, 0.22942423820495605469, -0.11815609037876129150, 0.069145165383815765381, 0.049085747450590133667, 0.14450363814830780029, -0.018204350024461746216, 0.10425835102796554565, -0.30572786927223205566, -0.029180807992815971375, -0.0074606863781809806824, -0.20255652070045471191, -0.11899197101593017578, 0.13927501440048217773, 0.0092276055365800857544, -0.22284834086894989014, 0.17408564686775207520, -0.10218156874179840088, 0.45707800984382629395, 0.30044916272163391113, -0.14549267292022705078, 0.0061335880309343338013, 0.080610223114490509033, -0.39559727907180786133},
  {-0.12462392449378967285, 0.039491631090641021729, 0.047037232667207717896, -0.093748211860656738281, 0.20867323875427246094, 0.20194184780120849609, 0.095725141465663909912, -0.060244891792535781860, -0.17628136277198791504, 0.20824486017227172852, -0.15427397191524505615, 0.13708822429180145264, -0.19906175136566162109, 0.18787957727909088135, -0.0025691115297377109528, -0.046209610998630523682, -0.16948518157005310059, 0.10144123435020446777, -0.062511764466762542725, 0.038225878030061721802, -0.17044918239116668701, -0.14423738420009613037, -0.22385926544666290283, 0.063628524541854858398, 0.013841019012033939362, -0.10670675337314605713, -0.041778799146413803101, -0.032749701291322708130, 0.063703767955303192139, 0.14014162123203277588, 0.088846541941165924072, 0.23148033022880554199},
  {0.063030093908309936523, -0.24693907797336578369, 0.12647835910320281982, 0.082433514297008514404, -0.074971653521060943604, 0.069421909749507904053, -0.039126429706811904907, -0.029086807742714881897, -0.13280175626277923584, 0.15033413469791412354, -0.15552598237991333008, 0.30987617373466491699, -0.023265890777111053467, 0.21494071185588836670, 0.16182120144367218018, -0.060462955385446548462, 0.099312052130699157715, -0.093045718967914581299, 0.052294723689556121826, -0.22412192821502685547, -0.076035834848880767822, 0.0067676296457648277283, -0.011370114982128143311, -0.0043002697639167308807, -0.094801872968673706055, -0.16928628087043762207, -0.055715389549732208252, 0.31392088532447814941, -0.10716883838176727295, 0.17279702425003051758, 0.070855639874935150146, -0.13183902204036712646},
  {0.13553999364376068115, -0.00053597992518916726112, -0.15454618632793426514, 0.048046026378870010376, -0.10979581624269485474, 0.015747753903269767761, -0.13148245215415954590, 0.012766730971634387970, -0.10513617843389511108, 0.00029239017749205231667, -0.033552411943674087524, 0.12123693525791168213, -0.11895841360092163086, 0.11422061920166015625, 0.043595992028713226318, 0.085857361555099487305, 0.057141244411468505859, -0.068786658346652984619, 0.060823678970336914062, 0.026708874851465225220, 0.010943387635052204132, 0.018491275608539581299, -0.24735134840011596680, -0.059630822390317916870, 0.17378953099250793457, 0.052995938807725906372, -0.087930940091609954834, 0.028376737609505653381, -0.16710512340068817139, 0.12676076591014862061, 0.21180997788906097412, -0.20569448173046112061},
  {0.11005032807588577271, 0.19172978401184082031, 0.052640683948993682861, 0.016157096251845359802, 0.17122325301170349121, 0.15131786465644836426, -0.15908785164356231689, -0.19199040532112121582, 0.14657728374004364014, 0.060727123171091079712, -0.14293202757835388184, -0.064045853912830352783, -0.21464456617832183838, 0.029037939384579658508, 0.066130146384239196777, 0.084724299609661102295, 0.14220571517944335938, -0.10565400123596191406, -0.045392107218503952026, 0.093881279230117797852, -0.14037826657295227051, 0.027921563014388084412, 0.10963292419910430908, 0.10373012721538543701, 0.16126486659049987793, -0.018873950466513633728, 0.022242955863475799561, 0.21138155460357666016, 0.073418945074081420898, -0.081701196730136871338, 0.13239327073097229004, 0.20039807260036468506},
  {0.14518046379089355469, -0.15254569053649902344, 0.018824465572834014893, -0.079678103327751159668, 0.11835061758756637573, 0.0031153222080320119858, 0.045889344066381454468, -0.26876145601272583008, -0.11701496690511703491, 0.23673301935195922852, 0.0043788212351500988007, 0.079794086515903472900, 0.049903608858585357666, -0.17963840067386627197, 0.11396183818578720093, -0.21406817436218261719, 0.11755316704511642456, 0.13088509440422058105, -0.0090198870748281478882, 0.26751047372817993164, -0.087262950837612152100, -0.25038546323776245117, -0.093009226024150848389, 0.018021687865257263184, -0.17852410674095153809, -0.0021736307535320520401, -0.10309744626283645630, 0.053067304193973541260, 0.087739504873752593994, -0.0044513428583741188049, 0.20896726846694946289, 0.042732410132884979248},
  {0.17292110621929168701, -0.026685079559683799744, 0.15604731440544128418, 0.19542472064495086670, -0.11376738548278808594, 0.12819141149520874023, 0.061171390116214752197, -0.082016564905643463135, -0.010607765987515449524, -0.19250395894050598145, -0.18949060142040252686, 0.10304044932126998901, 0.25650379061698913574, -0.030808130279183387756, 0.078209564089775085449, 0.012389259412884712219, -0.14137738943099975586, -0.10357043147087097168, 0.066805079579353332520, -0.030575430020689964294, 0.20509982109069824219, 0.14356696605682373047, -0.25465020537376403809, 0.099334403872489929199, 0.10958682745695114136, 0.030381908640265464783, 0.11146526038646697998, -0.27657273411750793457, 0.089804902672767639160, -0.023740312084555625916, 0.12948840856552124023, -0.0037022689357399940491},
  {-0.10423576831817626953, 0.10415016859769821167, -0.071722641587257385254, -0.13440985977649688721, -0.098363220691680908203, -0.27806985378265380859, -0.13154020905494689941, 0.0026517801452428102493, -0.22294282913208007812, 0.25549775362014770508, 0.24637132883071899414, -0.11404860019683837891, -0.20397050678730010986, 0.0063754008151590824127, -0.0033520141150802373886, -0.029314780607819557190, 0.11249723285436630249, 0.092162527143955230713, -0.082710854709148406982, 0.34467065334320068359, 0.097969375550746917725, 0.10235601663589477539, -0.10882207006216049194, 0.089857049286365509033, -0.19544382393360137939, 0.0038297972641885280609, -0.057329166680574417114, 0.31867155432701110840, -0.16714645922183990479, 0.064592093229293823242, -0.16526827216148376465, 0.12685979902744293213},
  {-0.14014349877834320068, 0.027794713154435157776, 0.043887648731470108032, -0.058578960597515106201, -0.17680753767490386963, -0.023460622876882553101, 0.16762796044349670410, -0.012653201818466186523, 0.12768916785717010498, 0.022881692275404930115, 0.21723678708076477051, -0.23640941083431243896, 0.048359960317611694336, -0.16371129453182220459, 0.013547305949032306671, -0.26614686846733093262, -0.10215336084365844727, -0.21345160901546478271, -0.074325986206531524658, 0.11129079014062881470, 0.11361075192689895630, -0.23627574741840362549, 0.089495606720447540283, -0.14148400723934173584, 0.071484044194221496582, -0.17480693757534027100, 0.14365048706531524658, 0.34767574071884155273, 0.16883532702922821045, 0.29651436209678649902, 0.055686596781015396118, -0.011545384302735328674},
  {-0.092138446867465972900, 0.15940684080123901367, 0.11457849293947219849, 0.17884506285190582275, -0.18160830438137054443, -0.16511717438697814941, 0.046668905764818191528, -0.18575361371040344238, 0.038399998098611831665, 0.11572311818599700928, 0.023942526429891586304, 0.068304121494293212891, -0.29083123803138732910, -0.15201230347156524658, 0.12206140905618667603, -0.23891460895538330078, -0.012721626088023185730, -0.19738125801086425781, -0.041473500430583953857, 0.0062763132154941558838, 0.097445525228977203369, -0.092353947460651397705, -0.13598212599754333496, -0.038168609142303466797, 0.18497882783412933350, 0.18468208611011505127, -0.040258266031742095947, 0.24277523159980773926, 0.14744746685028076172, 0.15722836554050445557, 0.018227707594633102417, -0.14962494373321533203},
  {-0.17846007645130157471, 0.012908917851746082306, -0.0087399752810597419739, 0.034279610961675643921, -0.053949441760778427124, -0.051401417702436447144, 0.085384897887706756592, 0.13016782701015472412, -0.064285881817340850830, -0.18516367673873901367, 0.067791685461997985840, -0.0047536408528685569763, 0.014813954010605812073, -0.084645360708236694336, 0.067535974085330963135, -0.14784888923168182373, 0.11429012566804885864, -0.13246959447860717773, 0.13997645676136016846, -0.0060861357487738132477, 0.16854192316532135010, -0.018525706604123115540, -0.20950312912464141846, 0.13097940385341644287, 0.14596322178840637207, -0.030006634071469306946, -0.20527391135692596436, -0.20285671949386596680, 0.18091660737991333008, 0.083589479327201843262, 0.041969127953052520752, -0.26341462135314941406},
  {0.17344887554645538330, -0.14470343291759490967, -0.24204446375370025635, -0.076667428016662597656, -0.016047023236751556396, 0.17186152935028076172, -0.12539248168468475342, 0.033010348677635192871, 0.18723607063293457031, -0.091454580426216125488, -0.10199108719825744629, 0.087379336357116699219, -0.047895923256874084473, -0.22641493380069732666, 0.15755978226661682129, -0.040861491113901138306, -0.0072854198515415191650, 0.084840059280395507812, 0.0037886751815676689148, 0.33075049519538879395, -0.082338720560073852539, -0.091926299035549163818, -0.072571635246276855469, -0.23013134300708770752, 0.11368729174137115479, -0.19109408557415008545, 0.020385799929499626160, -0.019743936136364936829, 0.13433356583118438721, 0.16069360077381134033, -0.17196020483970642090, -0.10959494113922119141},
  {-0.13925693929195404053, 0.14948970079421997070, 0.10688795149326324463, -0.039539039134979248047, 0.059009674936532974243, -0.0098381396383047103882, -0.17565697431564331055, 0.063115477561950683594, 0.058525811880826950073, 0.0095704169943928718567, 0.12495743483304977417, 0.036168098449707031250, 0.084519311785697937012, 0.097353324294090270996, 0.050956312566995620728, -0.052975870668888092041, -0.12189890444278717041, -0.12376482039690017700, -0.017995249480009078979, -0.19990362226963043213, -0.077119104564189910889, -0.070736050605773925781, -0.099690131843090057373, 0.029702665284276008606, -0.062619358301162719727, -0.10011427104473114014, 0.018631426617503166199, -0.28708073496818542480, -0.060093052685260772705, -0.10354010015726089478, -0.19522564113140106201, -0.23779828846454620361},
  {0.038142681121826171875, 0.11948851495981216431, 0.12133061140775680542, -0.11818517744541168213, 0.025127053260803222656, 0.18673004209995269775, 0.079163983464241027832, 0.16053813695907592773, 0.053986921906471252441, -0.16014339029788970947, -0.25202414393424987793, 0.19811673462390899658, -0.084444060921669006348, -0.056871332228183746338, 0.12405239790678024292, 0.15758372843265533447, -0.094197429716587066650, -0.10281994193792343140, -0.055974252521991729736, -0.27995753288269042969, -0.23360027372837066650, -0.14584539830684661865, -0.11137000471353530884, -0.076633289456367492676, 0.21453088521957397461, -0.062615200877189636230, -0.088057555258274078369, -0.10702868551015853882, -0.20972707867622375488, -0.095839411020278930664, -0.13359685242176055908, -0.37236449122428894043},
  {0.061426401138305664062, -0.26260364055633544922, -0.14136713743209838867, 0.022812690585851669312, -0.16184216737747192383, -0.18516787886619567871, 0.055368937551975250244, 0.074548825621604919434, -0.22998593747615814209, 0.10245544463396072388, -0.066887833178043365479, -0.019905660301446914673, -0.12358715385198593140, 0.16427250206470489502, 0.11095608770847320557, 0.15446501970291137695, 0.25133001804351806641, -0.14541678130626678467, -0.089620523154735565186, -0.14589068293571472168, -0.10523992031812667847, 0.18227840960025787354, -0.26246759295463562012, 0.050674974918365478516, -0.22729004919528961182, -0.16925910115242004395, -0.16031678020954132080, -0.26135483384132385254, 0.078308485448360443115, 0.14137962460517883301, 0.12347851693630218506, 0.17058615386486053467},
  {0.15699468553066253662, -0.0029955424834042787552, -0.084697932004928588867, 0.018562700599431991577, -0.14909783005714416504, -0.086470395326614379883, -0.14403863251209259033, 0.14032277464866638184, -0.23281879723072052002, 0.16788628697395324707, -0.048957243561744689941, 0.20232287049293518066, -0.15180271863937377930, 0.024736776947975158691, 0.056589424610137939453, -0.18513534963130950928, 0.16878283023834228516, 0.047910347580909729004, -0.14541724324226379395, -0.14638043940067291260, 0.12796401977539062500, 0.041889335960149765015, -0.18502801656723022461, 0.19841313362121582031, -0.0011300912592560052872, 0.20579753816127777100, -0.095024101436138153076, -0.0037955916486680507660, 0.0080784531310200691223, -0.081203535199165344238, 0.079821527004241943359, -0.060208253562450408936},
  {-0.076645761728286743164, 0.23401148617267608643, -0.13909251987934112549, -0.050114262849092483521, 0.024845618754625320435, 0.086619809269905090332, -0.039656206965446472168, 0.16732688248157501221, -0.0072628450579941272736, -0.14343489706516265869, -0.024020235985517501831, 0.10639438778162002563, 0.036677327007055282593, -0.16982963681221008301, -0.032503552734851837158, 0.077072970569133758545, -0.21529707312583923340, -0.11713731288909912109, 0.27016884088516235352, 0.23120287060737609863, -0.21417888998985290527, 0.021679975092411041260, 0.28508660197257995605, -0.070648804306983947754, 0.067984677851200103760, 0.11091075092554092407, -0.11728612333536148071, 0.17163477838039398193, -0.10696604847908020020, -0.026754079386591911316, -0.13579417765140533447, -0.073744498193264007568},
  {0.10867818444967269897, -0.10896565020084381104, -0.16776826977729797363, -0.042983856052160263062, -0.078021533787250518799, -0.20759041607379913330, 0.099117383360862731934, -0.17145182192325592041, 0.17554712295532226562, 0.12490683794021606445, 0.023717980831861495972, -0.049349352717399597168, -0.22775793075561523438, 0.031293548643589019775, -0.12857213616371154785, -0.19051639735698699951, -0.089797593653202056885, 0.021710412576794624329, 0.19879713654518127441, -0.032963786274194717407, 0.045711886137723922729, -0.12297693639993667603, -0.097138106822967529297, -0.066246233880519866943, 0.089226536452770233154, -0.066385321319103240967, 0.052767392247915267944, 0.11023326218128204346, -0.0098302410915493965149, -0.12196745723485946655, 0.052358563989400863647, -0.048562604933977127075},
  {0.18051895499229431152, -0.0086961947381496429443, -0.060657128691673278809, 0.17920644581317901611, -0.029527712613344192505, 0.0073899263516068458557, 0.12754984200000762939, -0.16286021471023559570, 0.015434325672686100006, 0.10176773369312286377, -0.097164131700992584229, 0.073008470237255096436, -0.15253148972988128662, 0.14346390962600708008, -0.074963428080081939697, 0.0028181429952383041382, 0.11601693183183670044, 0.072269156575202941895, -0.11975966393947601318, 0.018091920763254165649, -0.11201291531324386597, -0.21450102329254150391, 0.037487044930458068848, 0.023896250873804092407, 0.11817493289709091187, -0.016054874286055564880, 0.22598613798618316650, 0.11921378970146179199, -0.055357370525598526001, 0.023669976741075515747, 0.086506135761737823486, -0.070792779326438903809},
  {-0.13756081461906433105, 0.070172250270843505859, 0.059014130383729934692, -0.014857100322842597961, 0.10108545422554016113, 0.040683750063180923462, -0.18031713366508483887, -0.16526809334754943848, -0.033349573612213134766, 0.049653485417366027832, -0.12786194682121276855, -0.17907017469406127930, -0.13022862374782562256, -0.16756747663021087646, 0.14044712483882904053, 0.033002085983753204346, -0.057646136730909347534, 0.18064478039741516113, -0.027300823479890823364, 0.15137775242328643799, 0.011812294833362102509, 0.099680580198764801025, -0.054572977125644683838, 0.066120073199272155762, 0.073713980615139007568, -0.10973580926656723022, 0.14748854935169219971, -0.11274472624063491821, -0.16033871471881866455, 0.12516279518604278564, 0.16358830034732818604, -0.011186768300831317902},
  {0.15386253595352172852, 0.048990737646818161011, -0.14863459765911102295, -0.13746176660060882568, -0.088468581438064575195, 0.16258151829242706299, 0.037115987390279769897, -0.17752523720264434814, -0.033922091126441955566, 0.021020855754613876343, 0.040837716311216354370, -0.099378027021884918213, -0.26508900523185729980, -0.15767836570739746094, -0.027502547949552536011, 0.011834419332444667816, 0.022686606273055076599, 0.078982882201671600342, -0.036792874336242675781, 0.0054357890039682388306, 0.20163601636886596680, -0.20416194200515747070, 0.075206369161605834961, -0.20856913924217224121, -0.0023630149662494659424, -0.065240792930126190186, 0.23016367852687835693, -0.040788158774375915527, 0.10422672331333160400, 0.020015958696603775024, 0.040630053728818893433, 0.14211426675319671631},
  {0.12960946559906005859, -0.093187682330608367920, 0.15610192716121673584, -0.0090763559564948081970, 0.13920621573925018311, -0.11124440282583236694, -0.018759369850158691406, 0.047861196100711822510, -0.083493545651435852051, -0.18265061080455780029, 0.032760623842477798462, 0.0098011055961251258850, 0.023286782205104827881, 0.062488421797752380371, 0.14904895424842834473, -0.075185142457485198975, -0.086994737386703491211, 0.010482767596840858459, 0.085112489759922027588, 0.12732590734958648682, 0.032334405928850173950, -0.19092418253421783447, 0.16903169453144073486, 0.065659232437610626221, -0.069937050342559814453, 0.087550759315490722656, -0.24612024426460266113, 0.040513005107641220093, 0.29797104001045227051, 0.17647115886211395264, 0.12007904797792434692, -0.089369662106037139893},
  {-0.35162183642387390137, -0.076210096478462219238, -0.25737097859382629395, 0.22573655843734741211, -0.14679987728595733643, -0.066811293363571166992, -0.24826708436012268066, -0.14986239373683929443, -0.071927040815353393555, -0.050525546073913574219, 0.17802080512046813965, 0.18719592690467834473, 0.089497983455657958984, -0.0024799732491374015808, 0.14023526012897491455, 0.10356722772121429443, -0.11525876820087432861, 0.18818528950214385986, 0.14134909212589263916, 0.18926879763603210449, 0.11242921650409698486, 0.026597557589411735535, -0.10625411570072174072, -0.22880418598651885986, -0.045767523348331451416, -0.22679597139358520508, -0.075359672307968139648, 0.040686231106519699097, -0.29517892003059387207, 0.070612773299217224121, -0.022747624665498733521, -0.16809697449207305908},
  {0.27346548438072204590, -0.068944849073886871338, 0.093655914068222045898, -0.19535030424594879150, 0.13671422004699707031, -0.031862471252679824829, -0.13344807922840118408, -0.073391906917095184326, 0.059145852923393249512, -0.11174708604812622070, 0.031167045235633850098, 0.099903263151645660400, -0.26159512996673583984, 0.12020227313041687012, -0.011379899457097053528, 0.17530962824821472168, 0.0026437249034643173218, -0.15434950590133666992, -0.17357528209686279297, 0.15100777149200439453, -0.22356115281581878662, 0.12453667074441909790, -0.19660392403602600098, 0.0048587843775749206543, -0.17653205990791320801, -0.014953705482184886932, 0.038040194660425186157, -0.011222900822758674622, 0.20988313853740692139, 0.21588736772537231445, 0.32567799091339111328, 0.20894446969032287598},
  {-0.089307658374309539795, -0.018842067569494247437, 0.010099222883582115173, -0.00020025650155730545521, 0.052299447357654571533, 0.10095474123954772949, -0.00080284394789487123489, -0.081276223063468933105, 0.018054539337754249573, -0.10555610805749893188, 0.042586524039506912231, 0.057062346488237380981, -0.15703921020030975342, 0.16801695525646209717, -0.014474515803158283234, 0.097130030393600463867, -0.0099897198379039764404, -0.029793590307235717773, -0.099716670811176300049, 0.024742599576711654663, -0.11764524877071380615, -0.22612226009368896484, -0.15179716050624847412, 0.027153547853231430054, -0.034297998994588851929, -0.021775819361209869385, -0.081520855426788330078, -0.11461823433637619019, 0.018597550690174102783, 0.010645764879882335663, 0.27412268519401550293, -0.13047593832015991211},
  {-0.29338234663009643555, -0.074603900313377380371, -0.25443539023399353027, 0.047146856784820556641, -0.043498259037733078003, 0.012592661194503307343, 0.081991553306579589844, 0.086476951837539672852, -0.029409069567918777466, -0.051467422395944595337, -0.13530087471008300781, 0.17547333240509033203, 0.044415269047021865845, 0.14486664533615112305, 0.081713832914829254150, -0.11954402178525924683, 0.016751859337091445923, 0.041524648666381835938, 0.11273533105850219727, -0.010804641991853713989, -0.093716837465763092041, 0.21017704904079437256, 0.045932829380035400391, -0.20616364479064941406, 0.072684697806835174561, -0.073435813188552856445, 0.21314105391502380371, 0.068565383553504943848, -0.20637769997119903564, -0.0018040933646261692047, -0.069016702473163604736, -0.17337095737457275391},
  {0.21179038286209106445, -0.10885314643383026123, -0.034319140017032623291, -0.070398986339569091797, 0.13017398118972778320, -0.21162520349025726318, 0.13119174540042877197, 0.076736673712730407715, -0.064680702984333038330, -0.22169885039329528809, 0.036680895835161209106, -0.081666335463523864746, 0.035071864724159240723, 0.017513386905193328857, 0.045400179922580718994, 0.10216134786605834961, -0.010647855699062347412, 0.038915265351533889771, 0.0063637848943471908569, -0.17535236477851867676, -0.18054343760013580322, 0.00055692996829748153687, -0.16769573092460632324, 0.11886922270059585571, 0.064929835498332977295, -0.062992922961711883545, 0.080203279852867126465, 0.17240400612354278564, -0.014445944689214229584, 0.083239033818244934082, 0.078472837805747985840, -0.0087323458865284919739},
