#include "../include/mlp_model1.h"

static int model1_sizes[] = {53, 32, 26, 9, 1};

static double model1_biases1[32] = {0.06547540219304453,-0.12323173533875906,1.0019224888172096,-0.42090823726215126,0.2802274565931416,-0.6019989731393268,-0.5829374337772133,0.33030243191733766,0.15743311061608836,-0.4688336452391151,-0.06851686696833378,-0.408868199132845,-0.3428126061658194,-0.2969840988852803,-0.7520603811527613,-0.035007608947958666,-0.4514131943767622,-0.22056932405568253,-1.176947255303461,0.2795958418261045,-0.404853074259057,0.6382576909901738,0.2899936091798564,0.004384462775462877,-0.916893324395022,-0.7351063968794218,-0.4306187960139837,-0.01849848071201214,0.07120527509381358,0.8062455009983481,0.7602300162249696,0.7033329090705478};
static double model1_weights1[1696] = {0.20445474453317045,0.8600537380925607,2.153035711971823,0.2864321804168139,0.11891110972084762,0.9157484010508153,-0.9541146314863359,-0.6323975947436921,-1.0765439626459405,0.23824151349147804,-2.8075134635137085,-0.28166084863419416,0.48829000818721807,0.6268184073903067,-1.44403985716046,-0.7745502469448277,-0.8105329973878865,-0.3819904481782753,0.489998801900561,0.2157025636768096,0.5081264124593835,1.8024020074530345,0.0944729950700917,-1.9528696058422435,-0.4034034170673711,-1.5803843851015558,-0.060379853986561094,-0.1709137037551322,-0.5933276799814027,0.16591303160740803,1.1081171206357159,-0.7191285878073311,-0.24231237354960844,-0.27989581748696435,-1.847601777950414,-0.4715752223304583,0.2924515645962043,-1.0947994329789321,0.4139943038307673,1.0347947168955236,-0.3072160730348469,-0.02569919351026997,3.2428895081425813,0.45732421981824956,-0.07998670699622741,-0.31148817561398756,0.5675584517806905,0.8591541590011492,0.9134174833196134,0.043473369266906016,0.06858529655157498,-0.3906542065785036,-0.15473718572273845,-0.4183583467839867,1.6316247869117664,1.4046872740034244,0.3328059021532352,1.1735971692881848,-0.5868644148276347,-0.04161033986897838,-0.18761443760364357,0.0024677255822744305,-1.1698801744544964,1.2811701992575144,-2.097047878290099,-0.11019973683237226,0.18825083876455248,-0.34272443815268927,-1.0818135281782262,-0.34410546338006764,0.5693362147364407,-1.1233422066335812,-1.2181904481585402,0.27420177488711583,-4.170593184902808,-0.4654191753226248,-0.38018628353938116,-0.8567807312228639,-0.8265559041499262,-0.9492417180437647,-0.6971142656325805,0.8276656027410544,-0.3080864316764359,-0.018251567691541567,0.8158053776796906,1.8599114291296721,2.479778665230948,1.9756137974240422,-0.16075936335162724,0.09509466398925549,1.0244605736517702,-0.8135816637332288,-0.4037686060483465,1.341034964056086,1.2255620454905216,-2.622439575654138,-1.3006514832517342,-1.0807710430618747,-3.1377549056519127,-2.1174764447253933,-1.1191368149276872,-3.4096390822273843,1.5691828930632141,2.771890889497201,-0.37319013949519575,0.4897310802747245,9.893234793459465,-0.422397736627571,1.2059126400860578,-2.18244770518819,0.19166985109402274,2.0109419566291877,2.62793225292151,0.9104915985566853,0.4776326087059588,-0.5705361140731258,-1.0383463959608012,-3.319429361938221,3.1776913907013267,2.100344795569004,1.8351111537715943,3.2462601370741786,0.5320228207641605,-0.5563446748936666,1.1908987738602845,-0.05746711851953374,-3.654895944373317,1.2915561019689648,-0.9394613284644117,0.5735559484730747,1.9123482347729364,-0.3097737670587695,0.16487059576674065,2.493808072439356,0.4674246021722093,-0.6516767641321722,-0.16696443352671447,-0.48847781008575425,-5.65517278388928,1.4049991237754826,-1.34206772846928,-0.694225277956499,0.9860051147940377,-1.2253598903192024,-1.6944229977554064,-1.4677346522168295,0.3204664957742124,0.05658897087126936,0.3684047346059315,0.4255071514524727,1.2002557666942004,-2.0942677147226036,-1.6232354349335811,-0.3646130862694492,-0.26004998624965575,-0.5874762474786718,-0.8239734517727763,-0.536618818195302,3.2764298542823127,-0.16254181015317143,-0.7550474142640129,-0.6474657369214069,-2.7626734606164947,-1.1213983088712927,-0.18379771046716845,-1.540531052780934,0.6354567790272587,1.0051075523854411,-0.8079150546115156,0.4922841414563079,4.134951694268861,-0.26704288248602964,0.26088468793133485,-1.0591020428765268,0.7213030583141417,0.9833103177788662,1.1922295709572805,1.1630118284914672,0.43011853953660995,-0.6115503735263178,-0.1921123167980903,-1.5434973763964885,3.554407119771723,2.609699922513151,0.9505881217128366,2.6066124739716905,0.2478543603070788,-0.11195389422994691,-1.1429465227420295,-0.015670526944216886,-1.7774472953570912,1.486838428588565,0.6208540860658694,-0.40712511725536915,-2.198683220640713,-0.6388133850201186,0.2326740019517749,-1.3471472903274573,0.5340136413905954,1.111529535011094,-0.026920843988656337,0.1363151003279937,3.4694690728757793,0.3551607355147511,0.2717258500689919,-0.4715271684655076,0.1368649006902645,0.9943376082375485,0.8253274191545839,0.23370807028419513,0.003559305725353923,-0.4513734550752303,-0.24585118154901903,-1.1437810107477,0.6575925749540051,0.9592075959756166,0.6502913400111191,1.649020930542247,-1.099545927409471,0.324698776248881,1.6517777702968452,-0.034332946098818345,-1.4423890378679811,1.6640309609811519,-0.5072610041720368,-0.30571649595598527,-0.9095836780694571,0.02202498073879946,0.5228840460572491,-0.5168509907398036,-0.006249091581718924,0.6608435760159174,-0.12940940158808284,-0.5786317273919104,1.4831107974347464,0.5711564780748288,-0.5357212136578688,0.008029732897033508,1.0180213896264292,0.3302996632599356,0.5814556062048921,-0.5165527888241968,-0.488180299724835,-0.4020940192890514,-0.22009608064572203,0.5851213769790286,1.0294908171682078,1.5432753442436737,-0.06308614054429941,0.25022432827085245,-0.5247337680124339,-0.24350328124553625,-1.3025040207016012,-0.010492952159509175,-0.918048328505024,0.19377061158411332,-1.6175596328682804,-0.24944956776381116,0.1702736559456581,-0.9503920597937485,-1.847296174612863,-2.329098044749877,0.9091637247132492,-0.15343757243612194,-0.7866434777166413,1.0787084111669671,-0.4477897637384029,-0.9315650320807023,0.4284708568365188,-1.9800940175268404,-0.5235449418915175,0.0763575601507012,-0.06592276249500281,1.2116472523319117,0.31491151992128513,0.1788326092926214,0.43211973855467567,-2.0453042342744565,1.7863282888766843,1.4396382815281505,0.760128844622202,1.50856162086825,-0.6670374515543783,-0.7090413517985048,2.2328055082732425,-0.8472963293657424,0.2901806208716511,-1.4001917884705495,1.3169776397476258,0.3824809664145099,1.9180617845915053,1.4788663102098543,1.1854102702237845,2.4745941975491768,-0.41405884371044255,-1.3222052032872544,0.2334100031811247,-0.19549669179882256,-5.055176940778236,0.4691068530864584,-0.5787222800787807,1.2968392151184576,-0.09958797407896715,-0.875303574681682,-1.6690933101818413,-0.9733055436180049,-0.06119343470348325,0.3265897756084177,0.4646808824784105,1.0337193062659797,-2.5647153453191156,-1.4480494714512593,-0.45740197119740944,-2.851767545941232,-0.3069888191977856,0.5845739041157566,-0.5419561020416221,-0.5007374200081751,2.6202405850918247,-0.7005989186415016,-0.06829468349508483,0.9300946164302709,2.165986692027329,0.36620747931399356,-0.23007865472779204,1.5968866867480547,-1.345469277090174,-1.8033288723797616,0.4402158375767632,-0.8233783962853629,-8.24619578219591,0.5789677253827954,-0.7932293565682303,-0.017261884129306532,0.9958298760700356,-2.0590736896715214,-2.122385445118282,-0.5157551199267759,0.4840245406079174,0.31254847725508406,0.9357270802481787,2.322319127363529,-0.3377610774521522,-1.2980741014081496,-1.5935254259476332,-0.6894655972848142,-0.71455282468173,-0.17561581157564804,-0.9560958068723958,-0.561278627281728,3.435926654667751,0.28199667758483965,-1.1578974681090386,-0.32833408459553026,-1.999871732922186,-0.8243878482578323,-0.9644541645602381,-3.295933571111841,-0.3773968589578187,-0.3124062551928917,-0.34687916442550665,0.14018835806679214,-1.8084419675268817,-0.41965989556444866,0.2023499683224712,-0.7888401800231487,1.4918869662441536,-0.5507997088649268,-0.6209182389960093,0.6421485466306475,0.6452512707191931,-0.3809598895715962,0.46505147784549894,0.37768063734423224,1.6734153974666939,2.544952029313457,-0.06117109386636631,2.3163597606465975,-1.648741565989358,-0.2224600816079735,0.28791938293535346,-0.5604580636099161,0.3282187543219835,0.6156328196957043,-0.5328628516355652,-0.41997497917913945,-1.259251243238392,-0.9091850114179616,-0.44011486260287963,-1.640030908695888,-0.1443322018697491,0.8897314140976565,-0.013235780652499118,-0.1427611296941311,4.440666786995584,-0.39574755187863847,0.33561683007867926,-0.2554566493624766,0.48705996719816325,0.9228928686074312,1.0922405795442818,-0.15906490818021615,0.40698681788683766,-0.134796323510249,-0.7847831937330209,-0.9546860605564782,1.8190603114941004,0.10039841653665665,0.5710347679655369,1.678427507724667,0.014929717228632917,0.214319639568058,0.16033857318185962,-0.21825377995542425,-1.3297703341615321,0.6185068590948091,-0.7501492035498655,0.06566415288773195,0.12491815744186574,-0.3994384917350161,-1.2957838606564411,-1.1177585816231803,-0.36656959279903567,-0.5967300033056887,-0.40149409437392286,-0.6613676198293404,1.5844175372670248,-0.6632404460090211,0.4635269172784954,-1.0909672868967835,-0.44020634429345634,0.23121282525076114,0.05416387256129083,0.559140159455879,-0.7257025879239503,-0.0038644557023314215,-0.10970405289484471,-0.5876955696252398,0.7627519130515895,-0.10411690566716945,-0.026103710192077675,0.6627694569441388,1.0285671628231423,-0.9032727787108629,0.5731637569055508,0.6212314542972912,-0.3506905611372966,0.5875222189757863,0.9813077495514678,-0.031134724116923973,-0.3225256005810878,1.1435624211569908,1.5652527800498928,1.7659608412147103,-0.0956509461206861,-0.6239369512763067,-0.12312273433423832,0.3419650346268851,-3.323351259363833,0.7524428558282356,-0.8959407560775839,1.4942136792640321,0.36277016525492767,-0.6716132579650013,-0.7160554415541509,-0.8262117545680786,-0.08652786449608263,0.176985604107667,0.2669228955081899,2.02163973480363,-2.456383709805551,-1.5482995734918223,-0.2945157203698319,-1.9387488242424797,-0.5676489934034603,1.1925858312958664,-0.7847501213551371,-0.6437418059831561,1.4426851107017742,-1.072049009711715,-0.022535599174449052,-0.05003136045372746,0.5866692304406113,0.23034152171062222,1.4060881218845616,0.5586018358658705,-0.004203569807194668,1.0580830803158738,0.5494002431233096,0.36905087794430697,0.9688889754929884,0.16349572412233032,-0.4844610318026768,0.8605953389301363,0.0946806493620375,0.2606869707068194,0.2818210823410434,-0.21996870279410577,0.5987175956316009,0.18541852412419346,-0.47919345778101496,-0.8022190740771385,-0.03754489233446772,0.43502131390038634,0.03481019466203784,-0.21895273840658303,-0.7796662604207594,0.48935213982810066,-0.2417572061752871,0.03672140064521734,-0.013428486149566404,0.4391697911912945,1.02557440034733,0.5800977804199157,0.9331805319207183,1.0192668885108285,3.144624778957148,3.130079952088225,-0.7093888851590348,-1.1099544651251687,0.9902509825259893,-0.29882833196186165,-5.188573883880506,0.2401383151035267,-1.260743475395203,2.151591797135215,-0.8671930489422665,-1.3358347104857624,-1.5017961268053928,-0.4699990455655536,-0.8249555441321519,0.7352914641256404,0.720164029059748,3.408071411562772,-1.8217349978932005,-1.0490690829440432,-0.359115357981009,-2.67898567240485,-1.2341158794993226,0.6572525567554134,-2.4244279893919867,0.6707102373356314,1.5802926616102582,0.5746962624621123,0.27485954509286326,-0.4109224176900407,-1.9006232922655255,-0.057673982667517755,1.320798221861681,0.5782174899808072,0.34383516013446896,-1.1207614034340012,0.5512882373439093,0.611319776652447,-4.516784998245205,-0.03653183718626636,-0.7805549603056331,0.7237342176562916,-0.3154708420926018,-0.8683427729621684,-0.7119147825269956,-0.2562771682929559,-0.8663896407146306,-0.1713908636684115,0.9204288348510049,2.305622942161594,-0.1586914955556663,-0.6585193158958512,0.43939621051083344,-1.5171289026120578,0.8363167186816196,0.8328255515507031,-3.0817307004052306,0.5246340129599188,0.9819907671081681,-0.1119836327667885,-2.154883197299233,-0.46283952398244493,-0.6739371847506943,-1.4535848815388304,0.5020907483072204,-1.1281709430153455,0.37536779814406723,1.5216600488244982,0.14932435356035478,0.40211242320120005,3.7939686341203798,-0.931647937975638,0.4671894555926156,-0.2890915266965502,-1.0179506108193928,0.6583473803382198,1.0273294501683286,1.1293065422695538,0.06338370161400886,0.175409333215514,-0.3107436933495698,-0.726942595769911,3.5152263904854073,1.154417211859377,1.0589621647157286,2.6097343347348194,-1.7214262269372866,-0.38316536601262613,0.46055226858719683,0.5368618444261275,-2.1870660466779155,0.5549152190197235,-0.6373935830211157,-0.25590157436967725,-1.860357167421896,-0.5456769859779899,-1.4621964846508781,-1.2250736225443766,0.9877506438528759,1.1163102753594494,-0.8178805349583187,0.12671976689204723,5.011251161562984,-0.2177803254567194,0.8851129134872975,-0.8760719726142693,-0.13172550737248312,1.0317779368821678,1.0757309408071432,0.13329239975269264,0.13836182806902245,-0.3852442143314039,-0.7292629425614499,-1.905600837838109,0.5473482651153647,1.7119041588046269,1.0557368375312377,1.500542437851392,0.7172394280317689,-0.6256821622350573,0.543654484533176,-0.11593275659272075,-1.959063697421432,0.4222871056179416,0.5616026423463497,0.28197494039379206,1.2873261062994787,1.4972869688801769,0.8008507645216769,1.8299079285182884,-0.48838925863595356,-0.10559500837596132,0.7919092021442933,-0.6436064787785992,-0.7290076005484387,0.5570450086763227,-0.47160880966487967,1.0798301914329345,0.5734633361165028,-0.42957213605702027,-0.6779288659965236,-1.0009317967011249,0.22363339495358991,0.10979184456422732,-0.3559911973747549,1.0835709688178083,-3.186561548824169,-2.2248986000960422,-0.6105745106458643,-2.570576101737387,-0.32736091642043125,0.44967280057339226,-0.5506623959226071,-0.429226739743116,0.7929440645529721,0.5215049551077146,0.7637792561085858,0.4705020076411257,0.46197012116378905,1.2212208500439,0.7907530616860051,1.2169980258653637,-0.019239702214449022,0.02960071986061464,0.27592631348451135,-0.19406940038760448,-1.7384196131729814,0.24155496290807596,-0.5784192457716839,1.4174481771820389,0.10497406016733703,-0.32890196469572835,-0.518196818098931,-0.14032766574757163,-0.0335135218764367,-0.025217411617929075,-0.008023583187049016,-0.3634370215912438,-3.019071031750071,0.43179930961715857,-0.8119744349854664,-2.417583528097914,-0.5632046351415988,0.3549094229220923,-0.39007990099321577,-0.13952480930740097,1.3467337300026667,-0.535419959520083,-0.6669502973404327,-0.03082665808595173,-0.731551948893336,-0.2796430798275002,0.31235146367846606,-0.5334675807732092,0.5935232555916664,-0.5807892543996683,-0.5900467244182483,0.062346910741565044,-0.6865883430808494,-0.6841854376021453,0.16666451414589664,0.23651163178999884,-0.9013754077338937,-0.15616545220260059,-0.3560392337953057,0.9235128467333747,-0.8442807133395837,0.1422561302540515,0.35667479380243344,0.40847007268322894,0.7898796576715121,0.5341830787888647,0.6915362095393899,0.7566264132252961,0.2570357366614132,-0.0962890096540696,0.5638809901964081,0.33487968811979274,-0.28895774819095466,-0.10971372611261974,-2.761336174210739,-1.2584156989133073,-2.6185149284393647,-2.7318017724249035,-2.0626327150064814,-4.410750437713435,1.5744430755003973,-0.02625824981104401,-0.7369763248989245,1.6347109607574353,0.5594706066345897,-1.2262886057508389,1.3068571641904816,-2.1539855889525237,-0.24702188155406019,0.33031560395899995,0.6863215354899522,1.9858248999264514,0.18037520421305556,-0.22715188236720998,0.8589578139040035,-0.5562556019126599,5.517505373344961,2.77304223343167,1.8263783663048323,3.4479790328745366,-0.820469169836306,-0.20502982618302862,0.9590044043860719,0.1516904214788288,-1.5362692611188058,-1.3348961711515006,-2.1397623016887017,-0.38657681962574225,-0.5789373776572911,-1.3269631508902893,-0.6826669585960926,-2.9328669598171695,0.60277176342199,0.30780256605247147,-0.2895283022845175,0.3004056576796989,0.7044095075965253,-1.2158462097619294,0.47452873575032506,-1.045540942081449,-0.3337445271189804,-0.006977915396842328,0.10480464691279656,2.0799535104900917,0.21488977162793496,0.051972572383916275,0.30408777075631666,-1.0411313277322127,3.218588794308207,1.749272250327878,0.5764361260786307,1.9302443648549363,-0.7326676372574965,-0.2974618574524157,1.501003509594944,0.38053388123309195,-0.31978751242786346,0.05144661322933057,-0.018455882929065765,0.35371380855743495,0.9255562209887642,0.22890220939639125,-0.5040022013912134,0.5385321599739838,-0.6644870184687812,-0.9860683489033047,0.18727805794098906,-1.1337496132121736,-0.12305903591058148,-0.4567645768046766,-0.17274436549750385,-0.06590961630021142,-0.34866950978572475,-0.2918744140508276,-0.47062176291068225,0.13122199409644164,-1.1169694941967987,0.07370393279216628,0.24474760584120003,0.3564062655287123,-0.7646915072811866,-0.9168909767031098,-0.3115692154424579,-0.916354312174295,0.7465966021946588,-0.7015323143648063,-0.12389683993919141,0.6671999751280949,0.2226337044717528,0.5701195262447916,0.6540094320298088,-0.026974743167261436,-0.35124377273941687,0.8013528673640887,1.1218521850510843,1.1281787808432147,0.11141389874357129,-0.022789805756418,0.0487485441225924,0.18509248490550595,-1.67162450961785,1.1032198834775115,-0.4356313473701315,0.8974123366949505,0.7763422008667252,-0.17951561338035243,-0.50724154511937,-0.5805817724602038,0.5658975263735734,0.1573940201702281,0.06857610273309783,1.1225544793600788,-1.334118724338725,-1.2544014959453709,-0.14039823532594975,-1.0292780424347716,-0.5729000211179486,0.7070940760773885,-0.5851434504262314,-0.8942774136897004,0.7154236708482548,-0.4798180516938247,0.4082390800890584,-0.052256117263284156,0.4784086273012901,0.3211233731281506,1.196465302043935,0.5341355560447338,0.06495537626025356,0.7360538865313418,0.019749593360823825,0.3351712943731903,0.02039774680272251,0.3018892040925262,-0.4518871598110231,0.7815772329406816,-0.016642760486624966,0.10016976804831824,0.023426065921670285,-0.4079715548620469,0.22747092662722948,-0.19334257523707915,-0.4173285685209338,-0.7890861539097583,-0.5324872304072046,-0.023310612195842788,-0.5593955383544381,-0.04539256577708828,-0.4634349786493406,0.5470779952582235,-0.35868249416726716,-0.2770788861113585,0.421227513785111,0.08888039838759723,-0.05114479565460833,0.4830778582428905,0.5137978982610127,-0.2522248327377958,-1.6985863573764688,-0.6443831360465739,-0.854679329237699,-0.8168225157867427,0.139659156805624,-0.8222979078843535,1.3943617277556035,-0.47287107842224124,0.4620176424104355,-0.5166461617342988,-0.6770288020344358,-0.0750143849116591,-0.1404000043130598,0.0033862088614474966,-0.12259321189747022,-0.07515593964729457,-0.10339105730733972,-0.5330753018400568,-0.40381232873851447,-0.5596495187839257,-0.5907008274666388,-0.14356932918326343,0.8459282699790689,-0.8080189241199072,-0.9063398736442574,0.5332198057912959,-0.09372331905049118,1.6162525121795814,0.6232266965978379,-0.12438150734651268,-0.40374672405028694,0.7073958581889964,0.9506409452424743,0.6374732984295214,0.01630508052703666,0.11513379624566586,-0.04807591907171228,0.18234825266126123,0.49389475283866147,0.8047108661611762,-0.30538895924263804,0.6110001047278497,0.7390188914963214,0.13866683783813039,-0.15916453466627908,-0.6465207618790171,0.43688919977926477,0.1335456857001309,0.04369594105445254,0.3178163231233094,-0.9344555985295789,-0.75970344262354,-0.07284507389521377,-0.5960010617301362,-0.47563359487840356,0.6168059842326198,-0.4991369242030001,-0.7589367455179773,-0.05785724906297028,-0.08513889596591379,0.607042339000948,0.04791712354928422,0.540709536209693,0.49324540878938217,0.69880819930346,0.21444461745254081,0.2947548979438001,0.128864329449985,0.13421885931914862,0.2151743412418411,-0.7069057903026326,0.45387700041543516,-0.5516700995444171,0.784906881386618,-0.0532072516683342,-0.0507874849177356,-0.19879246002485054,-0.4153204214285467,0.29377091778709125,-0.052139923085815804,-0.2729382603517449,-0.41837490505449904,-1.5676172072036716,-0.22798495179089948,-0.45777340610339945,-0.9796621041975981,-0.4446021535227644,0.41149041183674545,-0.5959707489378337,-0.004452159041040179,1.077228293381851,-0.2554928599987555,-0.6507812605113276,0.22562586303258056,0.13297479237633988,-0.3031923325549789,-0.19813682798557888,-0.27470417283420706,-0.25476412149488303,-0.6486865908119828,-0.17619085873923956,-0.49708394834014014,-0.0007101342857689077,-0.7188465132074167,0.15712617022807274,-0.38461992264381273,-0.5387517925724279,-0.06346432114403912,-0.34573904059643923,0.6263777910190743,-1.0236282870908695,0.23552617837689047,0.24629362280371248,0.2918111554194558,0.46499715986028445,0.0582452901561028,0.17839986627609858,-0.09502302927133033,0.7956272414344281,-0.7029324871962055,0.47324545119854056,0.47119177677214374,0.0705212568228907,0.5503900563775638,1.4430291182455723,0.4156426983214875,0.23297028507697914,1.6074687185270773,1.805431135782513,2.4982801080437635,-0.37941037397041416,-1.0176204211124602,0.12851393085720075,0.24667652637019147,-5.442011890336548,1.1594849063700958,-0.9956441314677964,1.8765347827205885,0.30703703986176234,-1.1642850558341398,-1.3514371232772122,-1.1119459440671098,-0.12607531429223268,0.22185658826618196,0.6070254985069602,2.51364898396424,-3.283181516423394,-2.650535124777584,-0.3819247771311321,-2.73615605938192,-0.8637379580954908,1.1703881025478855,-0.28877634541295943,-0.8227956481754382,2.4161785820042416,-1.406100095442846,-1.0246317400990141,-0.5891085009478012,-0.12057421962136529,-0.34045888713605243,1.332110214196843,-0.6188814021503087,0.8031025048232573,1.9623397496414776,0.5308892509303376,0.5779620957412295,3.4006134229830267,-0.36125398321228047,0.006696666521440634,0.05186375027646829,0.5964953114408372,0.8387868304242585,0.9038555382445133,0.546724451057907,1.0117785516720894,-0.050491434418049576,-0.8055441668496055,-1.5564929607471274,2.1737118123248127,1.699171783073987,1.051950196731826,0.6320609044390939,-0.32309498858208907,0.4012881895489567,0.8688073717567317,0.1495656644133299,-1.4172581993238969,0.12992937664076967,1.14940658458645,0.15984832084179573,0.31712045127331207,1.0833708413904195,1.659933374637483,2.923521073658457,0.048965335992610846,-0.05208737413580036,0.16839151428919963,0.20271540502291022,-3.30443854054584,0.7500602259547393,-1.0613206300274443,1.6928871785371793,-0.05769660003959595,-0.3700802187701153,-0.5264850214794217,-0.8368467162392002,0.12515271723866098,0.2505450052617641,0.2826910125526663,1.2326987657198378,-2.5294043487069104,-0.22364858036848398,-0.3612727479776206,-2.3569777982337268,-1.498518752760823,0.8742239631128402,-0.815004196755814,0.2606667320728215,1.4174292219892255,-1.5416372083813557,-1.5486332832016272,0.0019862752257953603,1.290985413954378,-1.1717313078841594,-2.1324893966283014,-1.5653040944751688,0.12332038564296333,0.2170213706155618,-1.1447999051166693,-0.2815239238525422,1.4462418864949451,-0.8156741366083019,0.8013737042026979,-1.9813183362809275,0.125406568243189,0.4172048212964924,0.43543156620060386,0.11583518255015669,0.9284335771252133,0.09823304666686401,0.05322662865966095,-1.857277233958682,3.6523068710875632,0.04018058913050044,0.30109066374569415,2.78251272693472,-0.6357810428229261,-0.8901694205253788,2.1733857817858446,0.6057078858772389,-0.017676131494260682,-0.34722445412118996,-0.19630046414723887,0.15328140626625653,-0.4995682635403652,0.08541987187801264,-0.11590882957213669,-1.117793717178045,-0.20853275480651123,-1.091557745127421,0.22315803951708899,-0.2078843692940103,-1.5733515246960934,0.00810127037819588,0.011192385632965552,-0.10167606974741415,0.8785268227947219,-0.42596901065099035,-0.430799788450066,0.35591857236713165,0.33708493063041584,-0.04614269025487909,0.45336776533071504,0.8162560174954732,-0.06453834273480107,-0.25349953295386324,-0.04898941207206764,-0.12043104557852709,0.3512857175743614,0.003327578602629942,-0.05265195511482113,-0.5088477251164955,-0.015067356549900072,0.3594415682630226,0.12017871016269899,0.214532219196186,0.09738437376150423,0.1395587020403192,-0.38314740130001235,1.2643113164042588,-0.04820256628820719,-0.06147701172529326,-0.09824135015733208,-0.012637540961209656,-1.2144077439345329,0.3390037557790227,-0.14241549887310948,-0.19211759951265847,0.5393319962843012,-0.14304011748722253,0.015247183226768978,-0.0439292427961266,0.23150035587520562,0.025855371073286317,0.10254153428205941,-0.535508093934959,-0.4672916108066315,-0.7138211949164085,-0.16047077295811424,-0.6887360260183671,0.4644488211976366,-0.0036832998631890373,-0.1268512403917283,-0.22828584158153192,0.802430313310551,0.48535188207976354,-0.5721327973320264,0.3676817362247176,1.1573753187824227,-0.05670819186500851,-0.5087048295212436,-0.28207892983098615,-0.41919928456888533,-0.18202531851720394,-1.0407844831412318,-0.19420300279434333,-1.3148638308913554,-0.21404810537363253,0.3162067452642396,-0.7017806967633367,-0.05028092131009138,0.019996359334064642,-0.48602603647236087,-1.2855737728186705,0.5832197926910141,0.1270925140999129,0.19005840581564587,-0.1814085570971602,1.0430169459065275,-2.0053545026190305,-0.23290182280341984,0.5468231998691291,0.1324548242898468,0.061028970549681365,1.4811604926855204,0.588362921317963,1.1060808508884716,-1.391825321846252,-0.25013534259791104,0.24346380521034702,-0.7904621293017073,-0.11289399257848494,0.06047037178355934,-0.7068459507050598,-0.06611287773546823,-0.35781098740692047,-0.002213815406854922,0.19927732194763617,-0.7531377383616679,0.1861352367537541,-0.10738061980885104,0.01884818589258088,0.7296797056719216,-0.12395123378131878,-0.09768652416537768,0.17572745182048416,0.2537043633148406,-0.20965961456039486,0.18130591869763185,0.09267147110605099,-0.18033976067843074,-0.09439645487556765,-0.06330365575646586,0.14729460708791328,-0.06408540611203481,-0.047857327969897986,-0.2011155918282888,-0.21619247854107412,-0.4194174491165997,-0.2657155452947182,-0.5888076763031411,0.6455139402135024,1.6072123585699176,-0.24383074171238345,-0.9548157825454526,0.4482363478824071,-1.1198994257041135,-1.6520956149676809,0.014472828451550412,-0.5792298417891002,-6.27172195490552,-0.1964049967387352,-0.1689963155522608,-0.41714831357486926,0.709457596827398,-1.6396105853952256,-1.8403797064132945,0.03422015952523613,0.31831516818360506,0.39248754733841434,0.6773069367501283,1.923984852017822,0.5530986945070271,-0.4002733044428625,-0.9740356452680942,0.18531529271721095,-0.38693092473407675,-0.315654187844229,-0.24942239373988723,-0.20119482172103717,2.4277837848357935,0.021278228374823203,0.6257789891933188,0.8263779646105984,0.8996538152505532,0.8789850761869014,0.5158362127122713,1.8391604072726644,-0.8488776204841973,-2.2352779147753066,-0.8441954655170932,0.6116928467402101,-9.783691759881393,0.48536553373249014,-1.2002787964752626,0.520649302751315,-0.4100692121808015,-2.2096155074762596,-2.537420604207564,0.33011208221681404,-0.5899011228065483,0.3570393392947413,1.0111934358323673,3.9328690400794417,-1.4074459830672998,-0.05714700344152606,-1.499067308517867,-1.505441071819648,-1.283693374799701,0.26879852912175,1.7226086640954978,-0.7777865674899737,4.137835078105664,-2.566221178475501,-0.060681590988465116,0.6586376577219594,2.247831167660997,0.13918429048732245,-0.10413814585831864,2.2564869743674882,-0.5496975235468103,-1.1216685620406621,0.70777669061384,-0.1722174018109117,-7.180638646352023,0.5759387499006967,-0.37778240203954233,0.12162574419222247,0.7027758985832655,-1.628952031299771,-1.8487478467931533,-0.5657737754802022,0.9265293235790696,0.5583289973265484,0.706266189854451,1.6621004470543554,0.40000413935463175,-0.4270247543938158,-1.1212014609396184,-0.06423839507716085,-0.46991006757792586,-0.13987449119901593,-1.0417791249465407,-0.5187967254261155,3.2284615279019504,-0.0005194683727537697,-1.587425259752005,0.19549011528887672,0.7298909732849486,-1.0974385946325829,-1.8284847121152619,-2.364585446858109,-0.523896913781866,-0.5212428624269217,0.7664956552307346,-0.9526923051917847,-0.8788471657428977,-0.6485941552675814,0.8285473355380363,-1.5747004554615454,1.8280185295399551,-0.7807238255548137,-0.598506164444865,0.1682796607275535,1.0764511734448847,0.17814648551705026,0.260804036782592,-0.23892690258870145,1.8153373427487305,0.5051221580351035,-0.8766487874506905,1.6527069829047394,-0.04178095243996349,-0.6150302061044559,-0.33960044881313395,-1.3390370517612442,0.7036125588423298,0.8332213684000684,0.8046993852592308,0.3871323322124881,-0.39986459749560366,0.6952624130226953,1.01645418950151,1.0712950862990558,-0.03574437215500715,-0.7131575924209133,-0.3966348838505671,0.008136866909010155,-5.420160141828252,0.739637182705046,-0.8500691329243819,1.0134142270355384,0.22053267223425027,-1.13261832764711,-1.0329376522590314,-0.027589495011079986,-0.07872028037432666,0.2286328884478004,0.7308074340671551,2.4386835735475922,-1.4410759514545108,-0.27170608620745856,-0.25565073195550947,-0.965138434779019,-0.3294062844244916,0.511009254524716,-1.3729172069429827,-0.6363924542818682,1.6073222015035142,-0.8714512585716836,-0.7328026777144812,0.4375893130494427,0.33782096395630457,-0.11710310635091727,-0.18845979499110982,0.059680556667822196,-1.0499114240679508,0.8881578168151596,0.6237660014500336,0.3602772507560436,-2.224102463035819,1.0140263382250316,-0.2532609877021063,0.40065910388415876,1.0109766171998418,-0.5076916078672032,-0.5307857444868025,-0.6152312125556214,1.5220200314909669,0.19206148726160757,-0.278980519812981,0.37141289863500165,0.839748735072848,0.7728509384249599,-0.7307511239530238,0.7349522768178738,-1.2667519564445135,0.13487186396841924,-1.5908597887905194,-0.54371456475967,0.16128782607362444,1.2130801608520874,1.250870996232117,-0.27803864968524666,0.09593582446990048,-0.2304492111289236,0.7052629130672324,1.278546063197554,0.10148692096324666,-0.407823209970369,-0.5584038408293014,-0.3015379929625446,-2.9562579905337905,-0.4036889827300841,-0.9497191755589971,-0.9182065777704677,-0.6950036645410466,-0.10973661155348596,-0.988384730621942,-1.6925513636820737,-0.19377382827824643,0.04347790205664087,0.05103438864346796,-0.05617454066610021,1.0935663163606817,1.0197094113271166,0.8423444145333213,0.7326467248867454,0.2255085631457342,0.3269340717565845,-1.5150962715275358,0.47033770684513343,0.16632118234881063,-0.15808312146060935,-0.8530566323670439,-0.4795051959310055,0.0043353827304178725,0.7908108098536071,-0.17777838024014367,-0.03197719869398932,0.27466723563424533,-0.2676624354781412,0.7567352967725023,-0.12137533832316859,-0.41195170062205827,-0.8351056529845378,1.0062537792313915,2.1991898914408847,-0.36070632769419714,-0.009358866279889546,0.24966819905265641,0.9097136896257422,-0.16883357770910196,-0.29109072561436045,0.136750202325457,0.8937245763527611,-2.5910637736555966,-0.4115644131593531,0.6157921002247597,-2.187066766734181,-0.2638447294445592,0.17374970112158275,0.8647777732607108,0.003769071267044429,0.03877742365861345,-0.7294639219911893,-0.8310486589379459,0.7535815300583942,-0.26508590342401883,-0.3069278636285893,-0.5309469262551965,-1.536654998318027,-0.15016142577108918,0.7025371075348433,0.4324170004371671,0.2122408964950862,4.11377254364708,0.9263711068408087,0.1713353690620813,-0.6332153440994281,1.2161271380406156,0.360478671707256,0.9740688165583566,1.5639763452067457,0.17028186993050912,-0.04210415335339579,-0.2550281772719774,-0.9450410700352166,0.9248726847554798,-0.8002534680002374,-1.511304272276958,0.8659442903831049,-0.06842660820249673,-0.46312634667972774,1.3306626635636063,-0.6858388422255419,-0.39446673490797635,0.5459167990078718,0.9755813725593195,-0.2341231424820407,-1.469583748550498,-0.26566413459459853,0.7856073150985693,-0.30734260418076187,-0.08510870760984166,1.1087195806280332,0.26000644682941865,-0.06361563795802302,4.43983661172663,0.5076588184890224,0.14489441135572448,0.0870942701687831,0.8431056706690675,0.9942032902696901,1.1586770781349607,-0.4102629254319003,0.13808796286354622,-0.4057688661993474,-0.6514767947802041,-1.2537261663223507,-0.05950906755130217,0.048254290593737495,0.3362320718805067,0.6875045741739783,-0.8068726549882835,0.4689597191290586,0.06834895090076257,-0.7383843540119912,-1.555923749578699,2.3248313301924073,-1.1356103584754025,-0.24624081408562976,-0.664311291379559,-1.0867541850276625,-3.0479967934661527,-2.694781497888837,0.1987848091982801,0.24743433253700864,-0.8517525221534177,-0.33246091919928894,4.473506234117259,-0.6142788365487695,1.1973344939012158,-2.062434817477901,0.20406268379171144,0.9188290850559868,0.97682683510889,0.8962777724153046,0.11882363515661899,-0.32692525161057245,-0.33693811737121904,-2.657687858734863,1.670527087024683,0.8568169529767898,0.2517017064220601,1.9896840032221637,1.4263157269878075,-1.0872961501303526,1.7586169871502553,-0.03417351043391912,-1.2801691058977058,0.021939823837639323,-1.436088602333371,0.362858586959974,0.4925511238870229,-1.1386692344309848,-1.4745804946470091,-2.292372426564582,-0.4770595959435894,-0.3436042736951102,0.3377869788467429,-0.24225647461485236,-2.8391639848022656,-0.2547176174957142,0.19751855508289973,-1.1591188480770276,1.514024605193797,-0.9046547228618383,-0.7791239340066101,0.3929146485534281,1.0890166972995556,0.027301497784385325,0.3967062310579641,0.5525372913343408,1.613838677801891,1.171803075547117,-0.72692783822119,1.6473830054915446,-0.44632498286715644,-0.4785253234183161,-0.24169054263625964,-1.354004439443495,1.0761599961573027,-0.1576600616563217,-2.2896838540867153,0.1276808379543875,0.8235172951947275,-1.699775343351719,-2.6308914459225816,-3.8402610400425483,-0.21388393697594202,0.6753154346748812,-0.3206404423710927,-0.4243955194551479,0.5703487506087561,-0.8772670777929229,0.7799407699396567,-2.1356541530475295,2.0666712234218894,-0.2810966881976523,-0.09229273254189653,1.118560235721726,1.1037766753445266,0.005390380027572784,0.12954331459894525,1.0264313581641984,3.45216594320155,-1.2636818847679412,-0.05208690688199378,5.229398768118438,-1.5057927888366172,-0.8624932870907126,1.9629277534823657,-1.4887012219067675,-0.3990363954898837,1.2230560033524054};

static double model1_biases2[26] = {-0.6461071910540339,0.5413481072466281,-0.06987392657552201,-0.46237512457542584,-0.921531994487558,-0.2334310244133579,-0.02921925428020245,-0.21526955469362666,0.04733536103708491,0.1849316607911307,0.24910941970485892,-0.3802536674820714,-0.37308994520155914,-0.07928767307982815,0.40844110898426667,0.061484447934157464,-0.693762011393923,-0.20653290485170384,-0.7567286120156427,-0.26018595774102593,-0.5864117194326938,-0.3585853448279513,-0.053831026048825684,-0.09987836588669427,0.1045785568105401,-0.34576683306679223};
static double model1_weights2[832] = {1.2166144937708567,-0.1026861937668796,-0.8164754407392839,0.19827046002666893,-0.7383267869751147,0.5463127597425652,0.23210823454070467,0.09405511886199813,-1.0507611169710127,-0.24882355270279669,-0.3001155340837848,-0.3827903099898353,2.6864739330880387,1.171841928044345,-2.141015875008705,-0.6738673418577262,-0.2234438252981464,0.2840321771956279,-0.6094090211537638,-1.1580421824237888,-0.20940639412149822,-0.020506552978279274,1.305554909678226,0.7793525589468218,-0.9549195900720776,-1.4451732592559883,0.6881610326440736,-0.17655184630663398,-1.2559701672219672,0.9421312879170409,-1.676578421953428,0.6591332048674804,-0.1405102374668964,-0.15141342571905075,-2.0097796539315405,-0.17084093875115078,-0.11143999537745658,-0.1419558779886637,1.0454620401044479,-0.1458077367760476,-0.964933878410949,0.24587742954075095,0.39236676762195344,-1.3876152207166679,-0.7938216618839744,0.3568077651699447,-1.1898545520656154,-0.9790369092862489,1.1237715162203545,1.2360485149752427,-0.8842983119114145,0.21986881159712926,0.9458517978735423,-0.015068492644322157,-1.7593092551547231,1.4726597369369008,-2.361032203834918,1.2154698558334245,1.0210399149300455,0.307247214037483,-2.201255851678767,0.05871819142903157,-0.5597791307539767,0.12919551377950877,3.271171275445859,1.1158253483325324,-2.6450232592375107,-0.6143073875993134,0.23485315026588202,-1.2907198466227428,-1.337902033731341,-0.7574882421681948,-1.0398599002924935,0.2974055651030641,2.1664240454686934,2.185451994078561,-1.3221732872719056,-1.0238143290309176,1.0185097120626365,-0.5187930561032766,-1.4136049252890301,0.2832189739379383,-1.0020010326102828,0.5577801489650704,-0.5060063673962141,-0.4994824027814281,-1.880868801145616,-0.25490778266066394,0.13790095237616967,-0.2388767420456109,2.199925085110465,0.044569569686858004,-1.8221688100341091,-0.20371594052087688,0.26434489314731263,-0.6391224551453843,-0.5580919253571452,-0.23381082798766964,-0.8596651147156116,-0.20831633150282863,1.2635848485761334,0.8355289123935126,-0.5478170847123066,-0.4449141843261159,1.4490606332932074,-0.31667301494821354,-1.2649931426989827,0.5776815511588496,-1.412560425616766,0.706839468488114,0.5863250811982398,-0.3368026392618435,-1.8059616333958164,-0.42620518901614124,-0.44123827045382336,-0.2773099846957948,3.4763870684716687,0.9747231196073206,-3.029660226590154,-0.6491610781576013,0.16476107312220264,-0.053813045508186746,-0.8166921299200579,-0.9471389807407279,-0.5920007551492232,0.0811085908276693,1.9398948537101444,1.277939520277495,-1.0164731534818099,-1.4540498763105845,1.7845623349937558,-0.32290629232905177,-1.3210246475249898,0.4129747747302567,-1.7664672685789171,0.8997953443578586,0.6438828461336608,-0.053079591116512566,-2.1893618111205715,-0.5487129223144016,-0.5482057627856549,-0.32541964493926556,3.9570959701358577,1.1469984128570039,-3.1894521225246346,-0.6981807676577458,-0.12934626166171528,0.46802227676638364,-0.8788089950150915,-1.336810561003597,-0.784363360286754,0.14674843791244546,2.288576618124561,1.6559010212417258,-1.2321755199822972,-1.8901750843275795,-2.0592761163901545,0.8112466409763968,1.5644336919300317,-1.36927133257606,1.1147168689747804,-0.8990693435068015,-0.49137297743124775,0.07752665137768625,2.2064483188867223,0.1462132319462891,0.4624544615498577,-0.31867879182113273,-3.43809539558786,-0.8219437617345009,2.885639474795877,-0.0014103890215352642,-1.339180052941133,0.7353356011811963,0.32771566732619534,-0.16800950262459796,0.8906554438083375,-0.129168028438949,-1.7723460415385541,-1.8810058164346852,1.0523346549784316,0.25920485994905956,0.3156587385589115,-0.07853149484478265,-1.6608311497127797,0.8049038423391951,-0.6992859935505139,0.3147231189781812,-1.0610384284936478,-0.7416844966075911,-2.237272045141246,-0.7202175122075136,0.8409168281981829,-0.4662575287961428,1.1219408273062266,-1.2519694294682964,-1.1595135766515317,0.4241576487170814,0.9416692996532912,-2.3528029800743417,-0.5841196534951453,0.3768621969819961,-1.0625239818211822,-1.2320075508678117,0.029043099925463313,0.7092855111934736,-0.5119294828726794,0.9964134932513334,0.6358516907608107,-0.09537682609864155,-1.495507319302773,1.0784060073913306,-1.3000125589146594,0.6087049932864996,0.7436644702318498,0.09177866803048979,-1.7991128977454314,-0.11866024988201532,-0.16206274150308167,-0.2147499978711189,1.3533963904753563,0.8043469580363467,-1.5548835356416943,-0.8948877425127076,0.2879876531303553,-1.4436331477147526,-0.5624597116762883,-0.18643477940455527,-0.7732284009380943,-0.5296747069872407,1.3818530779023468,1.5823033175508245,-1.083337463659093,-0.3045460252514238,-0.897365751061791,0.2766958433556917,0.8546914989832441,-0.7489404888384404,0.3692228812888629,-0.6657091677066329,-0.6840093118784835,-0.3665021608400953,0.572975188864564,0.11102365470760978,0.20891666089576108,-0.3586405744915009,-2.3901011221137405,-0.637949328443576,1.656991268816586,0.11989208610509064,-0.6770542008282756,0.23723516499886155,-0.22720778994374696,0.20713632007982688,0.11604275687198774,-0.2759125375247872,-1.2013884212851373,-1.2523323979453014,0.5103561911541719,0.4078430338318411,-0.8699714682870178,-0.08632435222116353,-1.2266644800102338,0.4093516503008651,0.3367838693520486,-0.576060822022151,-2.3758856507690287,-1.1689885481567255,-1.4337630416199323,-0.9455116470576003,1.2071281931174702,-0.735956739975989,-0.8334737450082439,-2.524650396195217,0.26272086375487946,0.9893982030977679,0.5888233274022154,-2.9777870406273195,-0.4735656145968998,1.29042876035309,-0.9942635974904082,-2.143006335589463,-1.5353347547659804,-0.16923753475026285,0.22695984440869157,1.94784708464096,0.9918401652320542,-0.42904492981765513,-1.952236139582504,1.1400465590308557,-1.5236323321233565,0.6903574151494635,-0.3045469017914872,-0.38499859224966876,-2.095681719526829,-0.6283091680427259,-0.028492108022924362,-0.24241940453569477,2.6741625042527897,0.254554042468778,-2.4672111743422787,0.05617836313908975,0.5987061891370661,-1.4493478092282586,-0.8135775605446344,0.03793630349037445,-1.0295701496362104,-0.6570223826283776,0.9463560845574677,1.2370373118947318,-1.0855029006022012,-0.2542276963817462,-0.8515257636900802,0.6149491169871755,0.5767684668795203,-0.1579706842286588,-0.2580780227255819,0.00044566053340120294,1.0859956366862842,0.6230618543347506,0.7504099594994266,0.3573048891503713,-0.8199092322844812,-0.07550452784159448,-1.6622093608099098,1.2979114011085235,1.4344217964396497,-0.7362208583248568,-0.8466491036081011,0.38788743885846105,-0.3499012134494427,-0.520087098593147,-0.32528534726219666,-0.017869920880823013,-0.012179748055515896,-0.19049111643239217,-0.2337610749852665,-0.3179786484318748,1.3972168720974874,-0.5778081368378185,-1.9651536404096432,0.862813614230028,-1.4690930338692734,0.8934503698684213,0.024884659598809075,-0.1175140028211697,-2.143280756349354,-0.3434186738627624,-0.4493321727759967,-0.24967849820058988,3.8701147256618396,0.8900916333677268,-3.320691881135684,-0.5312470560631671,0.3611400808208202,-0.5578613128762085,-0.84210638507198,-0.7757785974711519,-1.1161684091858903,-0.1860112361920467,2.1038111832850266,1.620368211286676,-1.1469342620276586,-0.8882795285091408,0.9185194935185627,-0.5458985863670741,-2.6090745422042674,2.0708482938378885,-1.8182225077087861,1.0752836314513237,-0.9968058366772358,-0.22897533716518428,-2.5034243397921156,-0.3310189452871017,-0.1573183458581888,0.1775554142796444,2.886432733659947,-0.47256252660717885,-2.194376983472483,0.4488668825852833,1.0969074109030175,-2.9227591986627477,-1.0593879278934506,0.11150724012883385,-1.5000554449159,-1.0645581712527454,1.984412689541924,2.278158656220387,-1.1871622613615778,0.42924125756351356,-0.5088011971902396,0.2586292791463985,0.3071757167412827,-0.5128518197804921,0.7357012295686614,-0.4173066681274807,-0.5267044951824955,-0.47682219274397886,0.15789798172339775,-0.47296144450004013,0.7388275488637138,-0.5690209387877704,-0.336449746952092,-0.7140864800574825,0.21434168439361728,0.21546740837991166,-0.3588267959346158,-0.14586843625948653,-0.09311171484307129,-0.15129708696047026,0.05966024543435826,-0.39606825897110554,-0.6220965244070532,-0.6276879969924628,0.34774641215154906,-0.07535728920019423,-0.5990478041666377,0.3872805502827941,0.36472154250106026,-0.4695086849147108,0.45465371096775553,-0.35773895762681507,-0.5626479035667907,-0.5601877798294278,0.5056095630354837,-0.16755484952983668,0.40114410017031027,-0.5136449226208715,-0.45511257475292494,-0.4763860654342615,0.08761739183933004,0.3334613219632856,-0.2891826362774853,-0.23776824727075327,0.10175417493865478,0.06694909832791571,0.3048648128992806,-0.20238522810982768,-1.0313291383655165,-0.7473476921582065,0.4822171210038963,-0.018565083120691803,-1.9786167636083503,0.5512114994257356,1.741710911454516,-1.0645917178576922,0.8170631424586486,-0.9324386112035555,-0.19925611694679743,0.04096268612470519,2.1397256308723684,0.3506187549784546,0.7277938806157317,-0.4022522226098053,-3.60037880567572,-1.2966400804800113,3.278020987874163,0.8436374239091036,-0.9543339101580618,0.36946230121330365,0.4141975517001394,0.7120745964664067,0.42302045347459066,-0.1398061674285266,-1.766758708541978,-1.8367004421131214,1.203149707202738,0.7944338315773053,0.7728578664894478,-0.0036159695167544952,-1.051408041317879,0.8079085420607824,-0.902731244818235,0.5388830747914662,0.26055796464538444,0.071283154166039,-1.427519340206356,0.15971195548495534,-0.03484978874310987,0.16263219761111045,1.063894854511455,1.0167229450493147,-1.0212148823600287,-0.38248994464803515,0.20841742794177334,-1.0819234390153316,-0.47192070119771,-0.48285694049894334,-0.7879435381639911,-0.21599745649293856,1.1854068160835458,1.1774289140027783,-0.6214080084358956,-0.5607321896829995,-0.338134946261513,0.01424099139960562,-0.3085935267941404,0.05840582460334304,-0.9283581434235106,0.19410543734596483,-0.030165321953461853,-0.14912831593162262,-0.21513466274530266,-0.10721965854179472,0.6941634751741343,-0.09863364331243009,0.6934622083416982,-0.12256836675639117,-0.07996042573767943,0.1062076235518305,-0.5283558637438017,-0.6029435945431295,-0.3768493025529078,-0.20970628223213286,-0.3574373613279948,0.07192077454268397,0.4779989126356361,0.30304326772419865,-0.14638157202604973,-0.2017302099632963,-1.2682763260099315,0.4772778402597619,1.787906974690313,-1.0914237804583116,0.30333697552212446,-0.37006342473413084,1.1156336972765306,0.5230601565471079,2.1702969472371594,0.631309686377347,-0.11387882923687845,-0.23627193842918381,-1.447931012679674,0.48649255827768356,2.2130942350547196,-0.260524650848077,-1.435909860195572,1.584427308596585,0.183543397689364,-0.3458836108658936,0.5254495201836112,0.6258093172900329,-0.5570697489055735,-1.2293874439294918,0.9025807447585382,-0.6597509139849905,0.10820198882033492,0.4681971229825904,0.7643177624192069,-0.5246226833757369,-1.3611718337339969,0.072898484343772,1.5382610013431277,0.7607953342218621,0.5430525001680967,0.44443398828380426,-0.9495375165641976,-0.20299007177203732,0.9186937460755668,1.8529511785295842,-0.1611953647769465,-0.9736418889068124,-1.0340761892213304,2.3643739655225615,-0.6505386115906191,-1.181072843537675,-0.4386513421976062,0.9361276355867524,0.8886694356950712,0.002746935208109723,-0.32689280521924063,-1.9448211109290625,-2.6061010604652926,0.7990947412279519,2.084808838422489,-1.355355401652691,1.540580854226627,-1.4365307316331906,-0.9268007014360894,-0.24455196858381903,2.2240002645748485,0.17687877994156048,1.0859248021320043,-0.11130254892523277,-5.712863614973902,-1.7934415594964064,4.884387469960526,0.8348658349922361,-1.0486901830350153,-0.44795003501725206,0.45876307667017313,1.1210067120068894,0.7234136882079764,-0.6285457522556559,-3.113578724689152,-2.415072362679641,1.8688322857306245,1.7687123188653913,-2.414837343791839,0.945275293152544,2.264191415474232,-1.4536315317930153,1.1158312045203065,-1.1373607615101817,-0.6548276112439061,0.14164619875393533,3.3916013562782474,0.4300618060047607,-0.14528325615313867,-0.3314629539564875,-4.241221351983842,-1.0821668962342572,3.5137298141307607,0.16035867158894462,-1.7741450692229614,1.2323315850350225,0.5924326519934562,0.16054399991074636,1.1282228782525296,-0.2869964494779894,-2.13143711905708,-2.171952283801319,1.4818499114800525,0.6350863461713208,-1.8076969503344953,0.8468852721940561,1.9922190061940694,-1.6599424399103877,1.6204164390132887,-1.3110101365214324,-0.5478604798683117,-0.1585648472409898,2.0517186004217605,0.13241294098190723,0.7813848922304008,-0.5130874509750714,-3.4403096694788586,-1.1099130045102812,2.986454515604943,0.19258473850317906,-1.3778319007575555,1.01401161304209,0.5463755683390237,0.18752878739094503,1.066025244403634,0.13488452163171452,-2.054190798369011,-2.222583253785964,1.266183102222594,0.47642905216743503,-2.075848830330065,0.6676524199481165,1.072481349447312,-0.42470911825745616,0.6048193600203786,-0.961033350415267,-0.796321277881349,-0.2901245812157737,1.1081380513934187,0.10955436554353903,0.987467332527915,-0.09111133451315337,-3.3536618575330457,-1.6254318839557123,2.778096166698063,0.8165808153497583,-0.18283863940838432,-1.3318548952885705,-0.08763301593052397,0.8810588039665394,-0.0028637453871916186,-0.8661310445064969,-2.295080923449839,-1.5870309850307796,1.0952602187442433,1.4661003560186159,-0.9085267845427473,1.0703718210276958,0.6818621625698105,-0.6036841303605563,-0.718025157484944,-0.18484668765046797,2.11309241142867,0.31589208277497616,1.0238834787245892,0.2307303017554755,-1.7670713491194183,-0.03473970711426221,0.45864763442794976,0.967227433343402,-0.12140329688870917,-1.006135288129338,-1.278290054236512,0.7018993801991439,-0.4785224575652404,-0.8008854537879805,-0.04343269059138479,0.26522627570446966,-0.07897330012992841,-0.23890367975551394,-0.10096617692814938,-0.6814635695178066,0.758522516700163,-0.2771242854329871,-0.7647921453091003,0.22575279495916425,-0.29186443883180485,0.3014283829105083,-0.41491052289031594,-0.40037765372405054,-1.220759170423782,-0.4832787053360822,0.1312987717205147,-0.23518464006074302,1.190953236157277,0.2357164065034672,-1.1079311334880364,-0.032207484744030006,0.14035050843891655,-0.8648357213993058,-0.4896756922625645,-0.28011549641420574,-0.630146817904752,-0.22625344100339959,0.596515708833668,0.5396567085216665,-0.47437604779045345,-0.3523659916742481,-1.8849691866381069,0.9422502548554569,2.2704277888175177,-2.26313448415965,0.6469891261326585,-1.222051272908753,-0.3683631783642235,-0.2101452353175195,1.9477288184784656,-0.10071962503855598,1.8577242551045732,-0.5305618596608886,-2.9489525797582106,-1.43905064990058,2.5785112411738647,0.1395424461725664,-1.1493182606710308,0.5378665852090388,0.005338267052433825,0.6588352745843413,0.4273796891176093,0.13571286120089185,-1.9501362919838063,-2.600758378100457,1.729219827641283,0.405136494952429,-1.1156345907220007,0.8345981469351222,1.8026404773772724,-1.314659824542235,0.47775181777726755,-0.5550419422248372,1.3115450601999437,0.28242247775700846,1.9358591532415677,0.3277188680881484,-0.3355217223710237,-0.5367918693139371,-1.7570377504169676,0.8079052990922082,1.7368725941809389,-0.456280726273289,-1.5380794049446955,2.5040812744350815,0.15020988164805135,-0.749479556164978,0.7540899555777228,0.8986699759925836,-1.0134361394518292,-1.6319292909939267,0.6624222318949712,-1.0720041848107107,0.3702615534793228,0.040966878750164845,-1.1471099205654036,0.7529885346304764,-1.6748314154893884,0.5233411456644163,0.2291275737908324,0.28304631672843866,-1.4802045018006795,0.09550297744810239,-0.0868595218856507,0.010212699389576823,0.8356477034709139,0.10910014953456065,-0.5379907802550614,-0.07913715965347834,0.11392545799662186,-0.6804238477843677,-1.047017975785799,0.13543345114202557,-1.2629743153922213,-0.09183376290143565,1.3371070680055503,1.09921156502774,-0.7254489703623552,-0.44356867906041436,1.0475564354676716,-0.13451551832722958,-2.2413642632966213,2.0148190422183943,-1.5723534837410793,1.162409416902652,-0.17856678875435666,0.1458871717168857,-1.9946290083183382,-0.06992466405898842,-1.9585756451217549,-0.06334779388121417,1.942947075550453,0.8456317420564703,-2.327771260118294,-0.4004623927456735,0.34331578651642203,-0.755448216390026,-1.0749933782564298,-0.6564270058660706,-1.4832280822249757,-0.7989037694951465,1.4412441186243063,2.1188849055937005,-1.925892736988251,-0.3731129851640399};

static double model1_biases3[9] = {3.368786422685458,-1.9138895631223327,1.592267329981183,-2.709433920388589,4.643895559083987,3.169078565560808,-5.162263077470842,-0.0353846654843189,1.2656894100725016};
static double model1_weights3[234] = {0.05529797847792338,-0.1545494399028833,0.15090965886792884,-0.25470263638137897,0.8534889607535925,0.7162235108527684,-0.9242008525330153,-0.6807999944210804,0.36917562973688456,2.825560361110483,-1.645361382889264,1.4491491364632316,-2.731327891801052,3.984079919410428,2.603424881601967,-4.26670894800855,1.8179673376690617,0.7261745611046048,1.4503547404693302,-0.7604136427035761,0.3645021333221766,-0.8623789349456245,2.1228154593161994,1.0032163687085334,-2.522295126941558,-2.2695636510572843,0.8182543549394353,1.012072972418657,-0.8495509749305938,0.7916766896331465,-1.8719532438838713,1.8767722466779788,1.5122379139975797,-1.5729513106638358,2.599836505854151,-0.1542381154739631,2.5911341296551362,-0.7730424942892913,-0.07085267464695118,-0.35584415724653023,2.59516904963227,1.8288458218201908,-4.288448835130347,-2.574242165827943,2.0429871708449725,1.255024375890006,-0.9533530248041444,0.5904895971530074,-1.1190286273997359,1.9959726903503052,1.4581245503294469,-1.8949018066189693,1.1752554066484862,0.7490975351848959,0.28799676810131036,-0.6808242771023568,1.2684527718364516,-1.7792852214970605,1.4677926612790275,1.0091846044619026,-0.7151693885954633,3.3856314714151345,-0.1430363677896705,1.4366982560650825,-0.9953090314402039,1.122794997786681,-1.6791419926586593,2.2135121421133044,1.6276361972625093,-2.4515436672023916,2.1334684165092748,0.5657634583205785,1.8362929821147695,-0.9272731383575273,0.8436709746032687,-0.8957499955789693,2.2662857458327825,1.5018004080603602,-3.023035808341435,-1.0134666076806038,0.8027331432004076,1.2156798302110106,-0.4965739418730867,0.740421555736462,-1.0198066471206166,1.7553900275093537,1.1731514307819684,-1.9911877551530421,1.6023167205450881,0.40746284571320585,1.5887021754670965,-0.9279892089949568,-0.16318016985047365,-0.37358543918728637,1.7203801130148324,1.3234833424324073,-2.9867728256536834,-3.1598410030416653,-0.0545384355516181,1.0201355103951382,-1.1617031053806257,1.504498026943372,-2.152713485826844,2.5071228757237716,1.7366144615849597,-2.216047246730909,0.6353483450674003,0.3723949905725397,-0.8750980448414833,-0.5627618833220244,1.965048971468094,-3.0545437584833115,1.1639463992345447,1.0602846053939834,1.1908130771867884,5.2805927939277515,-2.3049370470289863,-0.37040648182242514,-0.1783893453484009,1.0003277856363624,-1.1476585672742632,0.5487724013925795,0.1775431047178099,-0.24716353414499065,3.5799231306240187,-0.07653759951748842,3.441244854367274,-1.160062211376655,-0.284660389343339,-0.26160928474971007,3.475886873242029,2.1544238095761234,-5.230711377505121,-3.4750821819331192,2.8638738601355787,1.6419751527468336,-0.580087460229721,0.310273474086502,-0.805284341903716,1.8584442731241155,1.1188092823032083,-2.759906252501644,-2.210329044391192,0.7218656275235834,2.0844448108862985,-1.3259355959678991,1.075704794620155,-2.1865037103902867,3.6276767201456273,2.435509854594719,-2.99197279804102,-0.08212070818595141,0.6405336534919075,0.5085889157171853,-0.3622979696625294,0.35593363285585683,-0.8178699064121565,1.2452242993497336,0.767478447320907,-1.403224778556909,3.6158171898027756,1.3385402609645454,1.8684906194911552,-0.8348005749787716,0.5543753684722229,-0.8226595926795348,2.1031878432127598,1.38160387778751,-2.8555962028408595,-1.5628567455937807,1.1169635315810824,2.826609419762798,-1.3792516595631923,1.0091564140280782,-2.748389878646711,4.017873926589573,2.849576899807482,-4.333652285381614,-1.117338399890092,1.2973671770996305,0.8300651303796438,-0.494131875522034,0.11173120086069675,-0.009461377877342232,0.7014008311835992,0.4331518101406897,-1.4842619059538869,-0.22158233015565426,0.644882311548711,1.9047980654239292,-1.1917662376964668,0.9489777184037428,-1.711053557508333,2.8937811214228564,1.6487706482509843,-3.2291170341424964,1.0056326019167958,1.6056927224499857,0.5549046427008877,-0.5116416273108095,0.9357831624551082,-1.336362767619889,1.5613341290442961,1.0740239935644684,-0.7180851883284413,2.307779803133886,0.12244380629082052,0.11856961389641056,-0.5634518512817259,0.7898654628857111,-1.6681765586407726,1.2923383825373085,1.114232536094578,-0.7626024157439577,2.986355279824043,-0.09233574411071248,2.3328821949891583,-0.5746275513771705,0.22204930188518204,-0.549666664192754,2.7239910357531008,1.3849547124815518,-3.356085636067046,-1.544636444200248,1.0887209785011764,2.904385364242228,-1.5320123070558174,1.3444890850469144,-2.4441911366832505,4.330502533172948,2.7733877104553373,-4.831226557803511,-0.944377309745727,0.8758458583953338};

static double model1_biases4[1] = {-2.0433463989243474};
static double model1_weights4[9] = {2.894824101125461,-2.6206459968781877,2.4862836071975085,-0.40416761673201523,-2.406792919486253,-0.6823418010730453,-2.3733716728174805,0.88360341710794,-0.21229245823797915};

static double *model1_biases[] = { model1_biases1, model1_biases2, model1_biases3, model1_biases4 };
static double *model1_weights[] = { model1_weights1, model1_weights2, model1_weights3, model1_weights4 };

MLPModel model1 = {5, model1_sizes, model1_biases, model1_weights};
