#include "../include/mlp_mpaa_model.h"

static int mpaa_model_sizes[] = {45, 23, 9, 28, 1};

static double mpaa_model_biases1[23] = {-0.13824588808335855,-0.49556597957986087,0.8903651794281612,-0.4738302409600578,0.1302374920545267,-1.0060133373331033,-0.08573576762426977,-0.13969647469986426,-0.8394032454501726,0.045681357268590954,-0.12917354301660405,-0.3363281466967486,-0.20432845602638364,-0.0472334500837644,-0.1277173735898444,0.5816985201049688,0.7210154829744637,0.6311628834927686,-0.4486731961913535,0.11236572905487978,-0.07643560243339423,0.31546909086659225,-0.5403158775846867};
static double mpaa_model_weights1[1035] = {0.2859220301197236,0.4780100396765188,0.4809925863714866,0.6591396235044483,-0.2694539378230751,-0.9930824870943119,-0.6417978166564946,-0.6826292915603575,-0.3089168600281904,0.9464217958978421,-0.3679747236283671,1.0634550695014569,-1.1181319300726629,0.3857327653564859,-0.305525684987064,0.866664763339037,-0.02504629428253303,0.8895841162812977,1.42656272335313,0.07527836170528454,0.8330777010196149,0.3739754378533319,-0.36328001108079394,-0.1787459937726268,0.06370955883406042,-0.3589146601193471,0.17511163091904755,-0.3545581201213741,1.1135143638164735,-0.17062182803821754,-0.0004300324415811422,-0.33393122776856304,0.007163934249144309,0.3059804335484243,0.2102281825761602,0.6708361606035506,0.013291281532649477,-0.35115989591881014,0.5303405588112683,-0.9226570755865342,-0.7262726054215158,0.45526467613076577,-0.1347353422192883,0.547302370848639,-0.4254242761782518,0.3587184409624127,0.31469664343550646,-0.42051149113912406,1.1949340326169002,0.8592201442240629,0.15083540259374503,0.1317780869229594,-0.23984027647756512,0.07161325188118765,0.5037178514553555,-0.7157661999520227,-0.28178104501934176,1.4522557500209679,1.133627777966391,0.6203279276931879,-2.0807422576054697,-0.3595020001930959,-1.1211509298148652,0.5541065342162027,1.526572131321217,0.3569214014220758,-0.7924201305746056,-0.40755540063912044,-1.2033411720180827,-0.2514167664538343,-1.0202619725963273,-1.5022836201086398,-1.2516622389799583,0.4141054782031409,1.4282291814236072,-0.3320195958202093,0.8334811892557842,-0.45400706390061535,-0.31735951195793516,1.0512353024927346,-0.027795674281234153,1.1057276365469049,-0.055204025476919404,1.567112022039919,-1.0595915008570287,-1.7402101089715365,-0.6512477956871884,-1.1964848556692258,-0.13042457157491918,0.6711119102055433,-0.07891957972378831,-0.2900372428267999,0.5479154076857978,1.1351450504272624,1.671067143230928,0.7235611401250674,-0.8254833928327779,-0.7687706325281514,-0.05950686548581187,-0.9080612258898769,-1.116526916268379,-0.1092696922349771,-0.7669074445449101,-0.4874024798458588,-0.5886313011592127,0.4971347969097794,-1.1421846012736292,1.832004293241545,-0.27159822669441686,0.5947535426101774,0.04486391426812371,0.15135417131725423,0.15895049350891302,0.03891181151788026,0.43141627880892647,-0.795888979232092,-0.3451021186483829,-1.1358196859608973,0.8891597797990233,-0.13769184362205938,1.5738688843298916,-0.06583070443131832,0.05249554814398417,-0.1934173450171993,-0.2678388566832191,0.3505623312220372,0.7414133794276937,1.5921192754462683,0.050344110052928284,0.35492678534623856,-0.21152407796490147,-2.2141120458555448,-0.7760068790760959,0.27944242035637623,0.22654821279823642,0.5695115232798287,-0.2751479825290168,0.6522039911770808,-0.35847433822993796,0.24657569232400675,-0.8604396140482898,-0.25209243941278797,-0.23453913416820737,0.8731322316616511,0.13099587828819062,0.09843643381184815,-0.5784509391641183,0.13212028780305093,0.30950194651327545,-0.5058309851777457,0.2499203372464538,-0.2763295959558725,0.7085783353787475,0.29217773710766803,-0.22883782615803627,-0.8221486256814664,0.27787713450697404,0.001218054777863568,0.6417583615276634,-0.41309332808843297,-0.5313467829493622,0.4240379861822387,0.03988587406868464,0.7221786004099738,0.6285821159326547,-0.3037900371792372,1.3785687408983927,-0.28904338051319706,-0.4640549951019414,0.08882986618048828,-0.14236586264659892,-0.3534262163660171,0.8986916991153429,0.9678882437326631,0.44983529584741483,-1.3326038454685676,0.676636581928082,-1.3433367673365282,-0.07772612189253426,1.3110974671561968,0.08779270549497607,-0.21914650889979276,-0.46444619584869634,-0.5791654041945287,-0.833459848284175,-0.8976064448562603,-1.177313759854047,-0.15738255242579255,0.5086080441758505,0.5167798986366446,-0.3745094925737986,0.6673535388270169,0.30121596544618795,-0.6130681699233734,0.9689525126538588,1.1679381201468324,1.157382689473165,0.27041487326342967,1.6913657821280292,-1.043026266224906,-1.871476188415849,0.10861726996552322,-0.024098126374134065,0.04715539165387803,-0.10858761588607203,-0.32063908370056804,-1.241562343457567,0.7903243271852399,1.1067318860111803,0.5468219334040799,0.12375153003013153,-0.513994688126103,-0.5444247343231706,0.40048501914055123,-0.4761958527155241,-0.7310118336511308,0.2661538215805963,-0.7446915706254575,-0.5726650960164387,-1.819699576220386,0.05246022765880058,-0.13003142187107025,1.2954720183916302,1.7033491529671703,0.4421011106275489,-0.31921483454956323,0.23432904217617373,-0.5009574563090635,0.24668205764469855,0.5369570155895376,0.5373470926244857,0.3744158960353579,1.058123203685497,1.0144904434414628,-0.4725414475907294,0.1204975888945102,-0.14733062520564658,-0.6683451174193161,0.38911103300980565,-0.0007282993153408465,-0.59615437962462,0.06152638012154369,-0.8845824138919791,0.519825374230102,-1.8235802867277866,0.9065705752561192,0.6852394578782568,0.6189446779599304,0.9577925610045622,0.4849845388508791,-0.18019980422735749,0.2676213167760822,0.3536431313045037,-0.5432669613264454,-0.6849409103573477,-0.6862182941357413,-0.9961686290525665,-0.22309366481690626,0.6300332253716023,-1.230277566232557,0.3195289676518504,0.8925002872205859,-0.40902131740288583,0.492687361441311,-1.4129741684934163,0.8505381469258624,-0.8965098213561552,0.7064802382627756,-0.8150562609189609,-0.3928943879506196,-0.40721934664917964,-1.7879861449748153,-0.6044085727279784,0.4466493771539604,0.5030644458209546,-0.5315450461906384,0.7884933511493151,1.1190789556090148,0.7319341194252266,1.0876079303351671,0.40842716495517567,-0.8470854970275196,1.1739994391998654,-0.6417421570096903,-0.743697594039993,-0.47979609465248296,-0.3653024182269117,0.7214314011493117,-1.1091863108673636,0.77489945602476,-0.7243636344464275,0.7422472426853906,1.011394193935882,0.4097411776367513,1.0693187298410654,0.48765632813995874,-0.3139289822746929,-0.21609646538993188,0.4439243078444283,0.09683192333833443,0.23736095089184003,0.34270963263222637,0.6300559312297102,0.13413702795570173,-0.4284439583739381,0.6554649001099615,-0.2832660017642575,-0.30283226578146005,0.7977301309337257,-0.3973354320372803,1.1834651083559373,-0.6844891084656863,0.3428639639609381,-0.21087777905629387,0.6783553838185711,0.6070940188761442,0.2890428557045644,1.2522407149105668,0.343687936851075,-0.2650975938580166,-0.14106987545306152,0.43348305928080266,-0.9661571650096619,1.0618293350671886,1.416030270368142,0.8414882840649444,0.06450790461430042,-1.4350975287969094,0.9657046801220172,-1.1547708528957203,-1.5211452945066282,-0.44504328225395173,-0.6608686825301915,0.648710611817888,-2.21450403145093,0.35529358264465133,0.13890760707242633,0.6882732925319766,2.4831601559823224,0.2875083267271016,0.20403541461048755,0.5056565811792416,0.04832071376350856,-0.003206614596883605,1.4572942455953375,0.08940974601702388,0.7018852934227989,-0.8378349036545308,1.2460958456637876,-0.07344870325016874,0.7333470876474225,1.3517780221254014,-0.6658475822876716,-1.0572938141831076,-0.8500154240709146,0.03945320892097413,1.1758844296246966,-0.5399669502958294,0.9536181994944808,-1.0731256497491128,-0.7302915181998891,1.0529073217755875,0.02960938768663958,0.20056526249944087,0.7928852574183609,-0.1515425452573512,-0.132903678160013,0.09520740335386647,-0.8480455764125037,-0.36603485999978114,-0.42646606696557915,-0.22037510449523157,0.5199724182955492,-0.08548257803204534,-0.3756806059880188,0.4713000050852454,-0.527740982778862,-0.40416806284385576,0.5146404628467771,2.087364304594757,-0.40895422665300063,0.8040483822473653,1.981722243441424,-0.9056772321445401,0.19768883902634687,-0.16669023735917754,1.1327962583397473,0.2614200130947128,0.05868074432938872,-0.10721049547850701,0.5684023467374892,-0.19011328033451944,-0.5259538543801612,-0.18688460777313926,-1.0435017476331432,-0.1126369387752223,0.5001589526679944,-0.8167489417592813,0.5714468807743843,1.577290669521562,0.2552034505855873,0.6641851064797178,-0.5881075308501281,0.8539002712679962,-0.6971040574268271,0.383603411334901,-0.7263784925945879,-0.9545504061986096,-0.6191992916983671,-1.2831915617660743,-0.6121905683703648,0.542994676071704,0.2913596554777732,-1.4942501334566756,1.1192591731935555,0.5751628436720736,1.8065474689604637,0.2329989188964274,0.11211040614673957,-1.6035152622354845,0.4432835376116254,-0.24435251095394422,-0.212157188136499,0.42067125715766457,-0.9218031554348057,-0.4154215225194287,-1.460903525618621,0.3473924390169164,-0.44575385798252315,1.9537890755453815,1.0264876977380721,0.8365914411510771,0.3789191454044495,-0.1434031078743194,-0.4253323509868073,0.5234807992636642,0.32844295408682284,0.6802742522610223,0.1650607268721042,0.748667476201039,0.30953131891167746,0.16847210196042486,-0.7059243908922027,0.28205628608463,-0.251167530039426,-0.07353802743197295,0.517747749191632,-0.1276789011271587,0.1572808766789736,-0.9759735402637978,0.37551539686014834,-0.8937043739363426,1.072245034936273,0.843808278368147,0.28556687277736215,0.9374317547935032,0.0832896417846398,-0.20912489533445777,-0.060837425561852905,-0.125216832333887,-1.2790031584598307,0.2564134959756651,-1.2681077467881994,-0.4272754107408418,0.1653469245095809,0.8020242707612063,-0.21900774354266908,-0.18727300092899565,0.01871460393247935,-0.5625813630733218,0.6605516553651744,-0.33128654953924014,0.5410785752299011,-0.25058981625532856,0.04424423669316968,-0.8824986514534136,0.012553902230803092,-0.6076688471771742,-0.6869091409407282,-0.22000413789749498,0.33059652779273446,0.20558166078327886,0.4022378965371201,-0.35265865574263844,-1.01696513208002,-1.8687824942324502,0.437476631445733,0.635079348782881,2.4780549974596284,0.15864362145533878,0.3873144216412736,0.6975905782226764,-1.3839334711882147,1.2478744919022937,2.0751871543422062,2.016028436656826,1.0527592511787194,-0.29002944004913744,-2.1603469992754505,-1.472345841267314,-0.3076789501349066,0.5681281025952203,0.34778270138875367,0.409339313621276,-0.6150797249302662,-1.910789803389501,-0.2885498289487107,-0.6757566016428823,-1.4700035537489444,0.8498615443924273,0.3190276803921959,1.1277396808181748,0.19514114911029468,0.4168482259194258,-0.5465319125786542,-0.7820191295968437,0.8498216864909607,1.9765418924359501,1.0743764692618039,0.5826820566823753,1.6947946378339278,-1.1317081901347572,-0.35518327661640026,0.1508697770121205,1.9429679092057406,0.4461150828232117,-0.08028751576380322,-0.2505235974604575,0.138891798034645,-0.08316681370227665,-0.4089624072812713,0.31662762498198227,-0.9376958874506336,-0.368215686753249,-0.2256412223427103,-0.7989600336811623,0.28396817337537505,0.22572738442457607,-0.31154297772495027,-0.1296196021882858,-1.455153179701098,0.01247076669779868,-0.9187389193288457,0.31237798714173565,-0.16805558159322026,0.259011137616932,-0.5574264053217948,-1.7940878591934846,-0.6579903021256223,0.3313419685713028,0.7179653344425969,-0.0823795870195009,0.0991980351670083,0.9690402179561247,0.8892775462377918,0.9438417314854858,0.23626204954076946,-0.892446344381606,1.0754731641384974,-0.4268446139062722,-0.3088308179367962,-0.30303154660601145,-0.3129033979460387,0.5177358482013977,-0.80613784296327,0.6790800377768296,-0.564764002071591,0.5327855648399631,0.5948814812044213,0.41519373996804076,1.3426604783497562,0.5197469325984129,-0.20572101520506422,-0.04295811571230733,0.5112247280382176,0.9298169471994645,0.526412268136481,0.6778586050198483,0.6554652276099912,-0.17788083076137629,-0.22493991645349953,0.7344503813222433,-0.40013138988448044,-0.19133217272129102,1.1908063616514832,-0.6337586482444422,0.4928498429729149,-0.44835055856637746,0.08416157122908402,-0.6669466915213506,0.9632084030375981,0.45626501175534,0.4512696934427672,0.8961673583297426,0.5364708040960562,-0.41575745559516175,-0.19927836843628569,0.10350402708884013,-0.2902084518423504,-0.6508033665839562,-0.4351795948938703,-1.042810030366274,-0.8520747468818198,-0.22839161831050636,-1.4628447295704374,0.1164988063321699,1.0201874511901667,0.29626968125200337,0.09896914886726953,-1.7682239660226722,0.20659117406587071,-1.0026867546528269,-0.04113767726384672,-0.6526673260132602,0.5805494959339452,-0.2166772281489971,-2.2313898847086104,-0.8462871388686528,0.3296774741156384,0.7739698534415479,0.681392691308843,-0.3447738660583322,0.5352901185817992,0.24255790383700662,0.7667749366536978,0.37345076568313973,-0.29147985267248677,0.759329361624123,-0.43031409425973893,-0.24347646700523382,-0.11650112852671854,0.3174479682143815,0.6437285868338263,-0.1463739693969037,0.38973446487111657,-0.04863122166875431,0.2780732331000144,0.06940397454267383,0.1581219233383995,1.1254071988267589,0.11532018007690886,-0.03053302355503133,-0.1701909679617619,0.3152009933262323,0.6808889318060001,0.32586304487214796,-0.34771263202239533,0.7733110672267048,0.19638868326798506,0.08093728578819152,0.37743885562848245,-0.14657951566303393,-0.12270820655343911,0.9375227883642728,-0.18280486316091638,0.4680569632729874,-0.2532892650031312,0.31108865658502816,-0.9203069959317577,0.35249809553396394,0.7047383099676203,0.4054098185046288,1.2652501147219548,0.2613651814164896,-0.40207440681002615,-0.21167703759402837,0.3406422506597619,-0.7077918835318417,-0.29353369184874767,-0.04578139771579038,-1.2032072430929501,-0.0932325448565272,-0.11796410791029562,-0.7198048137359814,4.272739105986217e-05,0.33196502616934703,-0.6320117461974901,0.1629418083078549,-1.0832609134818139,0.05911155803141376,-0.6382228675788499,1.0497480016093823,-0.27962328127643227,0.23937863205410256,-0.08958944782000136,-1.7970126838516465,-0.5094220341835708,0.19984321935335467,0.4710836482284613,-0.7661711021518612,1.21846456017146,1.5396144857225535,1.1861494815926708,0.8637802396540261,0.08828759542077289,-1.5804376801185305,1.1869465805122672,-0.5932719073700007,-1.0323526241943564,-0.28980418615671405,-0.8083337181165354,0.10197836361088283,-1.791553083414881,0.5405101405360215,-0.7824962374073262,1.5831152176792105,1.4016958417811083,0.7054426171470995,1.1636828849087537,0.5160470116177253,-0.6344336719801472,-0.016961738733908518,0.43631695797251346,-0.6310639700163516,0.3502638763856941,0.27289389787422513,0.9606734482690855,-0.10742615176140342,-0.2987175372513761,0.8464341633898882,-0.42553684480506315,-0.03072577210716865,0.02163334678604172,0.058065381275807376,1.4058632855523499,-0.04971464565413864,0.33942839145095915,0.35455753707975285,0.2919424735881713,-0.705815653259671,0.2417568231205291,1.2065939794788734,0.5150530420153749,0.20742316622279966,-0.38106244241806014,-0.4501251164220993,0.3585832232805398,0.8359139176923888,0.6515659436953872,0.7045020681838099,0.3071296624173067,-0.5015680841100456,0.8189388710408214,-0.34327481666026627,-1.1042593386007478,-0.0474393073814428,-0.4402389934379442,1.4682283748761735,-0.5878714405787709,0.7808178697783303,-0.4594181133178856,0.8275617729097431,0.5979806974607067,0.027283788070565647,1.4584488284990555,0.61311163974214,-0.2321399540301243,-0.38581272751538154,-0.10829722453383492,-0.05035226774086018,-1.3880287221479475,-1.1294080059005427,-0.45376634625509377,0.18454528338149262,0.6166203719587314,-0.8562069307793881,0.6122452386025528,1.2562127955046347,-0.5400484758668649,0.9626470931009105,-0.1442442352250654,1.2250993015676204,-0.4760359360400662,0.6519902488694856,-0.46414419889223163,-1.8549331977184174,0.045673371328877284,-0.8623635029284399,-0.2570793569920931,0.14230426476843133,0.06445972974015014,-1.73537577118261,-0.31764341763596965,0.04728259830415747,-0.45599670040280965,0.8739200088109951,-0.2479076040062257,-0.5929214156308329,0.2480540651928777,-0.09146496045391998,0.14878517568993224,-0.5427105200011786,0.019289574317882873,0.24859983377623388,0.15976001785870203,0.18913645015610744,-0.2183489673002919,-0.3069826888151977,0.4281187168345595,-0.023385720943526516,0.6109451477171284,-0.10097986805110698,0.06454411041950503,0.22248323976299472,-0.4677762568233218,0.03371784027149726,0.35535582258516174,-0.1280346202967513,0.2486094281309875,0.3167324979915789,0.19000084160494,0.14571381319803753,-0.21003743321825596,-0.10299419285200086,0.3015560321323269,0.10161858631487969,0.11457048475242071,0.042073933004964134,-0.06254278102969214,-0.41266006590099363,0.013656135773917354,-0.741086589716949,-0.03328338921204479,-0.04693603432240539,0.049701260801532525,-0.1853973435265836,-0.08760238854141006,-0.3169604609600237,0.6392663507206451,-0.3381763321516837,-0.44758159088585675,-0.05353117864458076,-0.4876975424616157,-0.6171112911397545,-0.11511364262002194,-0.002135075725276419,0.390854958755673,-0.5632234909605247,0.41471463724098473,-0.3900146820381319,-0.14610238213172402,-0.21527183198762398,-0.6803893820735989,0.8756311715142283,-0.7842384431708247,0.4458254806580471,-0.8406248267314748,0.016437599457002825,-0.4049974905873949,-0.1664365620254303,-1.2527096743463786,0.05446537076161272,0.1449294198922404,0.44732775784703915,0.5152411028972371,0.06751092561109139,-0.8294413641228733,0.07728789374781073,0.03688514617867244,-0.058984374660877976,-0.31222171198108734,-0.09427757076690821,0.7421697097058847,0.20435062565111667,0.3470458031017349,-0.43466591144912525,-0.5071368719477647,-0.27014909748229876,-0.11226861916805495,0.3114037572144689,0.020524050898140727,-0.31595455778138803,0.09286106527254105,-0.6803995405128858,0.09578776271903632,-0.38500055985086123,0.7221043760879194,0.5116434448929227,-0.27853739921856013,0.192149160374253,-0.5139504833913618,-0.015057609799639743,0.38754546655452615,-0.3967521238335768,-0.2696974822450922,-0.23158337571711984,-0.4177499909730332,0.3632866106542996,-1.0207441902435808,0.1213991816085517,0.3104205151394726,0.37962098911121683,0.5363934169927655,0.13096743839158326,0.087381174369804,0.285927598649926,-0.3464495926336113,1.6753696323377558,0.28673530090820387,0.6893789327002308,0.33402468235529986,-0.03145102860473441,-0.4287815605402618,0.427534723051713,-0.09179994075995615,-0.04884579789186514,-0.25030340667703127,-0.7579097266932879,0.3662245396005784,-0.8829879299461347,1.1300807053754467,-0.7200260499307467,1.0822323114606058,1.4032081824286478,-0.08142678920651578,2.772371151049187,0.46926573422957324,-0.6130038939818221,-0.25795371850111254,-0.5340154819716315,0.13435383534601672,-0.006128023558339724,1.4278566588060813,0.7192986597892783,0.2981354522066091,0.5262328903560596,-0.3343150936024057,-0.20476749845316272,0.509904754343101,-0.2812526787909995,-0.6857368861967914,0.6291798973231357,-0.7251735147830576,1.0473389048392983,-1.2188221098122312,0.35081869892730494,-0.41659295228694593,0.6456574706001609,0.45293361709069535,0.42095561250897146,0.027248716947132344,0.1965865538332386,-0.2576258103681754,-0.170825944770811,0.1715159039553202,-1.075365683520513,-0.4332859275844026,-0.09941693338029178,0.8312819617636201,0.22188772243879432,0.041648843924999124,-0.33298102114634487,0.4334975326442339,0.31605135321783384,-0.7900420226199663,-0.3214999305762799,-0.28839890986747435,0.748926911921114,0.3432477591387076,0.10942684573392744,-0.850423205395757,-0.47954355491627876,-0.2461650479682151,0.5782849060198781,-0.04000080407406523,0.6958475489914643,0.3326232060379081,-1.156668323318484,-1.2348935885395829,-1.2859003735860461,-0.1808785670988942,1.4602369446990977,-1.2992223647932135,0.7393140801777528,1.237449326569187,0.02817781965732843,0.6775628419506882,-1.7283396271453255,1.7754833661833183,-0.9664319270120235,0.39339573175482795,-0.8288926859502443,-1.8448716531933755,-0.766622774316611,-1.4125879677482558,-0.8335854980691801,0.19043959624889412,0.3268810768063495,-1.3554096769050596,0.6227741444424842,-0.3256684962787034,-0.15404900796840204,-0.048612938420344254,0.004066283585131866,0.26154328120824005,-0.7566276208832067,0.33116386026979583,0.7592720698268676,0.25895856862975736,0.11208552409230846,0.502974015939104,-0.045772060965929715,0.7621753835226187,-1.0569471888190283,-0.43999230823434726,-0.5157528352811708,0.2969627900693225,1.1033847762734157,0.09649678357831606,0.2693486702077286,-0.120314496091584,0.4045721090590173,0.9183980292996501,-0.7181950164797486,1.6392264843070001,-0.3451071123895603,-0.846921117912218,-0.8706185389439266,-0.36016857704720057,0.4931775002722006,2.0283029102439296,0.126137625852634,-0.08586769775341539,0.49783428568294286,0.17502791574354906,0.20649298992344908,-0.41513415568381973,1.1785319241077323,-2.1683595974177496,1.1577571135162539,-0.5056768780374651,0.11188028658900438,-0.049411332589895676,-0.16341121261886757,0.32864575500905246};

static double mpaa_model_biases2[9] = {-0.31543707621160166,-0.6350893137275293,-0.2074924550632912,0.6510353365077979,0.2734881059286001,0.37695209784501776,0.09459105320327636,0.4106968605731986,-0.4734585598140169};
static double mpaa_model_weights2[207] = {0.28921588579572305,-0.25668078990908594,0.05267339809200799,1.0879038749831758,-0.915913509985312,1.5818229631742489,-0.5451590800252654,0.01886442025082531,0.16703180080195645,0.2622532982983488,-0.8226716876840364,-0.5957838578909851,0.7798973600694749,-0.6922597589540561,1.0994296122594323,-1.1083670729805453,0.6107788391020017,0.20123826140436724,-1.8160098244823806,-0.8334709353457265,0.17921245323553722,1.4078038422631394,-1.299935040454779,0.06623800365001724,-0.9883863436552289,0.857335914904767,0.6384557990050321,0.1403057182866272,0.024887935338808922,-1.365207092818699,-0.23858611654632844,0.1802295593476062,0.14619100233961244,0.7878381308818561,-0.0608183986103051,-0.23214056692753351,0.6470824942980969,0.889553859308644,-0.15889444013734147,-1.13859584943963,2.5409389171887122,-0.004777119313455008,0.24757372129559563,-0.759391675682845,-0.7753687319145242,0.8334470013865147,0.447755256795482,-0.10472187673949868,-1.491627350149914,1.9894175582839753,-0.24889487038384242,-0.15487050526742463,-0.43119675653069567,-0.8297843259814021,0.5927559429140139,-1.4627812666033382,-0.7028220935700118,1.2771828579319857,-1.1610659663511647,1.1471487326317378,-0.25295662139022196,0.8531711375094373,0.7576827284639203,0.19529512528976803,0.7222249907793673,0.9399732312698199,-0.4304361830644265,0.7407835570166078,0.045992526814375205,0.39338507141693857,-0.5162617398773571,-0.4487799143438176,-0.6477995698148215,0.19815074214879605,-0.06551664496727391,-0.38518398097769335,1.0651157666490492,-1.935152558210348,0.805383558569943,-0.5056120650574301,-0.514781033804717,-0.09452157157393087,-1.1183695271403988,-0.21654267433670837,1.1245326864303042,-1.357888466697539,0.7687484117646257,-0.1460049733745552,0.9426525360867096,0.6300645030637947,0.5101670380526335,0.39253690276023867,0.5178137564652042,-0.11610394930250863,1.2488306980193007,-0.007313832107925538,0.7090840798058503,0.067862917584742,-0.46497350635152823,-1.1845594666841963,1.9243446958730537,0.0516418446734997,-1.7774325465301017,3.568205597187181,-0.29927063068591336,0.6909752942807184,-1.5972884062989445,-1.7985468481682083,0.44450404090101103,0.23295984175696793,0.38582208751185676,-0.445246798485513,1.3947894505415879,0.44990130576811466,0.4851673881041129,-0.41156695384776665,-0.49883697468760146,-1.128715934707419,0.581966424939885,0.46765099337034954,-0.6810489939863801,1.7918443093282894,-0.04934656020356276,0.00023972042216851143,-0.3207492628617328,-0.7747451475567084,1.2858384824813436,2.51152650331245,-0.6448446927071227,-2.2721066725169403,1.4919925893190495,-0.12167164839518263,0.04599774504425463,-1.494933900477478,-0.6741709912341572,-0.5304660035652535,-0.9974328557568622,-0.011730277815505263,1.3370384732509186,-1.119682571609093,1.2033312827778855,-0.5172049168811073,0.6193183578284162,-0.07219952740599463,-0.7011412767426337,-2.483637269196274,-0.0379115346818129,2.229094148279911,-1.4619039584822107,0.7313630113469175,-0.9823525093102671,1.6819929879936588,0.7367449003225018,-1.526118568502875,0.04354219481188571,0.021762652330508305,-0.13012260885743615,0.31652750362897125,-0.5546655324150077,-0.06896559121218611,-0.06563065832852032,-0.43375116885116155,1.776944679074782,1.4836741226596157,0.1693721773400605,-2.1483325456513684,1.1799436660581473,1.0751182090618627,0.8185370285158672,-1.7719571516230608,-0.5390952340216068,-0.2254876267544948,0.007432286885929129,-0.34956104080183187,0.03629078006450647,-0.004779466301252153,0.24206295917787415,-0.0707287233349266,0.11848482854222898,-0.2132432163956664,-0.7583623119132642,-0.3499074997622662,0.6443911125378295,-0.25708386465252514,2.2953393558721196,-1.138762214068277,0.3685645845933359,-0.22249256654051666,-1.0784789693261492,0.23222239619420515,0.37056002739207866,-0.11636000809643039,-0.5995181236154296,0.670571312788507,-0.7674650666876631,-0.43874238277182054,-0.7142478883095967,-0.1358317968225795,-0.4629009939769981,-1.8882857380556466,-1.7963994067921414,1.5990804926960156,-0.5473314895224458,0.685434250655828,-0.565993693202003,1.2865151802687347,-0.03628007540070633};

static double mpaa_model_biases3[28] = {-0.16218236153391372,-0.06793647237700697,0.07434243663774588,0.019102052970187362,0.16496107188070028,-0.06454609777475528,0.1489478406983524,-0.052968635218650945,-0.06439159207636046,-0.23956451989982627,-0.20559648734222752,0.1935699464739903,-0.0014302623868806851,-0.1205716139168354,-0.014933547252585456,-0.21598931864417464,0.0038803991659615775,-0.4840333810765622,0.1511336966465374,-0.046292351602755126,0.16632950307333588,-0.08432177956625717,-0.1920995879850879,-0.08668606844149387,0.17614357566694702,0.06445246963042144,0.23842923064188107,0.28999872267939575};
static double mpaa_model_weights3[252] = {1.6509589114659948,1.5661090417714403,-1.7580763665636538,0.19002418013568212,-3.6745637267550664,-3.9959739269362275,0.5241372157900712,1.5671905094245813,-2.876320407329623,1.068934807489721,-3.4167829946974453,-0.2426429356354591,-1.7671999360135617,2.52063755997119,-1.9364033414038422,-0.2880411922783373,-1.168174281220993,1.8405116987907129,-2.6440384190600787,-3.572483915788073,1.7733676969059118,2.546936856004407,3.1675730549358065,-1.991982008589436,-1.539351737428773,-1.01483405222114,1.2680220721097173,0.36131777431642675,0.4082993808368308,0.6986111273714785,-0.6916377760078292,0.17447558144994976,-1.063961132999988,-1.6184008141034256,0.17591211078911215,0.901099824607564,-1.3790716564922731,0.6349337724815898,-1.415825436404804,0.048691952622225615,-1.2552119818768592,1.0951769839992949,-0.8502117807844689,0.04093170774911672,-0.6872863665026787,0.6394671170990094,-1.2843738128813442,-2.1118842091472216,0.9030159382583217,0.855101757134667,1.5760667134680497,-1.0023855192674065,-0.8334869536694152,-0.29155623157466487,0.6337356071613602,0.15492247194829414,-0.990632854073228,-0.9420702171202375,0.5261000410854226,0.6059690496651412,1.947626600765997,2.072031549237441,-0.19834266567507128,-0.5012943880556203,1.269339419539274,-1.0376892779128404,1.617002825844783,0.7942634977763828,0.710769176266997,-1.2013453954759048,0.7996879705999259,-0.18014277458821434,0.3942371069439977,-1.9100325893340822,1.5161277916065634,1.557938248103425,-0.5765619200992713,-1.5464645660851708,-1.7121144531348664,0.8378920359308311,0.7720947715248627,0.8700506718780535,-0.7777830328652752,0.3581261248547231,-0.3420500268494541,-0.14780522109542457,0.5199769503246363,-0.13033668100880663,0.6520824710855162,0.5909615389556998,0.03641830601454388,-0.5667456265469849,0.5325288118740691,0.020886461878091532,0.2814853424125472,0.12692053558276667,1.3876735543276826,-0.7352270756700794,0.5445838491175335,-0.00024010941772075682,0.10349675603228181,-0.6209279451563917,0.4466047766563343,0.6990781115195797,-0.40617784106380844,-0.2714665186026677,-0.628728532077558,0.3544815055549716,0.47219455133880267,0.0478825206510984,0.04755617389885802,-0.0735433221539935,-0.13730175196008015,-0.37753865488086025,0.3113965671477105,0.0774382815015016,0.5235684032516555,0.0945037608302081,-0.10980548531929017,-0.06308762119583698,0.22320847622227186,-0.0781724469341725,0.2710626308434082,0.11598987763670496,0.44921721558468364,-0.3903701232353564,-0.11268032013832939,-0.22215311275581465,-0.15338738089148696,-0.4112881477589754,0.31217635969751373,0.33684368414277294,0.0002324819787579879,-0.2669092929793082,-0.27680775277773056,0.1607246086804581,0.004037078044673593,-0.011361890646943141,-0.2889269051703565,0.009696995188312142,0.28438448817640793,0.4902625582170137,-0.8737256869846329,0.1129521725615205,-1.5974656014012314,-1.024555296530244,0.1872026120853112,0.5376336273583908,-1.017776922887581,0.04172416030058695,-0.7357822730946227,0.7488725637781061,-0.8094294162965426,0.9548339517279496,-0.5698474376245747,-0.003571564490663591,-0.4016112053188244,-0.5420636524784624,-0.8401818972049864,-1.396062834061783,0.3551639466311014,0.25728425122413673,0.8389428915769793,-0.5212475844108255,-0.6197975489591453,-0.09288702806332302,0.5206254022574595,0.23977256634394395,0.3447921648047628,0.34130325256147004,0.038796725348394505,-0.3573642546618546,0.08062940475792287,-0.5727086965263467,0.1954935582119466,0.1861907020526787,-0.41189274415699495,0.2389082412022897,-0.4263563238465386,-0.36308593505643216,-0.24325082834540468,0.3630348656406848,-0.09818483870496363,0.13178234725377874,-0.2443905244407562,0.6291579473764981,-0.36453479632933683,-0.6716273303752179,-0.002215087933224111,0.5128419916856563,0.7226721450681798,-0.4303148490686483,-0.0033053407094672683,-0.25523272862245655,0.5255597494836943,-0.0514731014661026,-0.3890103905859887,-0.27253463242787557,0.5753459699147228,-0.14820201664201701,0.5741757226128432,1.1563239156466876,-0.015419687841333686,-0.30584312048115847,0.8414712995665165,-0.32087314964985786,1.050049571517578,-0.12556849162686273,0.8825032302574359,-0.8724126616281711,0.34396121620173375,0.005920902992659745,0.2562329903716643,-0.669630624304062,0.5673203297750662,1.2601387449372277,-0.5446683784917041,-0.8168929905709397,-0.9738532795100294,0.26118836332052825,0.4380409753529764,0.32260378011250335,-0.16702864247366145,-0.13665521949547368,0.505675420334404,0.7683707717091135,-0.5468357810037626,0.0019076692735657394,-1.3590955381314043,-1.397834339675501,0.11794742161035839,0.4538362339579798,-0.9429348791632148,0.44917675238691174,-1.0760330274630183,0.1404178157742954,-0.4738717414272048,1.0268542044599982,-0.36387436565529335,-0.25997197002324834,-0.5113639246424303,0.32592980893936885,-0.8401038723123057,-1.0106921025787865,0.44431737057047005,1.1246778263675696,0.8962059911166338,-0.38795752070707906,-0.6074642835564713,-0.5466697932947856,0.5437595366172614,-0.03480088901543752};

static double mpaa_model_biases4[1] = {-0.9108053097460252};
static double mpaa_model_weights4[28] = {1.3805937169327263,1.6551191746825609,1.5512631324081902,-2.67929212439343,3.976910801190529,-1.535636579155841,-1.1330421110899316,-2.111112870227094,0.13638431939367804,1.3506429135651314,-1.7274751509502384,-4.520214076612628,5.449382646992569,-2.018903570375534,1.8921313193151215,1.3396705990135258,1.2036973233071668,5.042839159605096,1.1060023392568619,-4.151006981001408,-1.094318608669208,2.6900214359770183,0.39860359598391304,2.0029988126411706,0.31356178627118675,-1.1126983000657908,2.6744775525122315,-3.3305648387953983};

static double *mpaa_model_biases[] = { mpaa_model_biases1, mpaa_model_biases2, mpaa_model_biases3, mpaa_model_biases4 };
static double *mpaa_model_weights[] = { mpaa_model_weights1, mpaa_model_weights2, mpaa_model_weights3, mpaa_model_weights4 };

MLPModel mpaa_model = {5, mpaa_model_sizes, mpaa_model_biases, mpaa_model_weights};