#include "../include/mlp_model4.h"

static int model4_sizes[] = {45, 10, 24, 20, 1};

static double model4_biases1[10] = {0.15058564562431234, 0.13560458615678841, -0.20856577318685721, 0.43831047059235129, -0.54369362362156159, -0.052231865851566098, -0.32530125563788415, -0.08747253061269572, -0.26594494744266139, -0.4064053007935034};
static double model4_weights1[450] = {-0.35080227813084286, 0.37109012834524391, -1.749136469387893, 0.0064610843105123821, -0.17512559792754206, -0.37655659432463534, -2.0660458436249525, 2.3205140580644574, 0.32971025520808617, -1.341548635074578, -0.26883366158245081, 0.068191048135398641, 0.099263893100777198, -0.12609087993854826, 0.021335577149759942, -0.13954229868118584, 0.007171170716109271, -0.0025034562155551521, 0.083757747506215091, 0.16327153387045068, -0.0355705657536316, -0.082510001001624755, -0.15514349226978424, -0.0563243892436327, -0.057193090361519705, 0.15949170550433231, -0.19135362697853586, -0.17755813012790556, 0.18394258157783849, -0.15553040989615149, -0.027450598862903179, -0.07772869445020715, -0.059038793533309313, 0.30574409519266799, 0.33549130698129959, 0.16569213602741203, 0.175767195032586, -0.2507652415232221, 0.21789539774119604, 0.46603988390396967, -0.066459204502600969, -0.029450788894938268, -0.7431041642680386, 0.2242702099025333, 0.24343123181716669, 0.094462977805773535, -0.15775438884664952, 0.1462055026169245, 0.21490325170420838, 0.05422062880850561, -0.068447650876383229, 0.021147255541941145, 0.22269503732657814, 0.22713320838505327, 0.12765195983746241, 0.21596185803407741, -0.079198923900279938, -0.25014322524895832, 0.1116556588753283, 0.12746674279655118, -0.030948810347117731, -0.18473293715165473, 0.15684184597532003, -0.0031912490400204212, -0.061393722730630131, -0.026314454557552255, -0.1456238648063457, 0.16376220889740351, -0.11937626074831549, 0.39306808304824686, -0.037181276577833509, -0.27824349261937359, -0.33701729388140439, 0.027220189196888248, 0.37232572978575734, 0.041697444528867665, 0.18467998845882197, -0.092813479047880676, 0.076569648318706024, 0.062618968052651741, 0.14795495127560668, 0.19235717926881443, 0.11062062785835902, -0.037760166748473503, 0.13006583763746341, 0.068634647815811467, -0.00061077369694276099, 0.10611504748260887, 0.05686006704555558, -0.32396054463042978, -0.091770550274250434, 0.087130119681332455, 0.077092653544159381, -0.073746392290950175, 0.15714551652718983, -0.016117129205562641, 0.22680054650148596, 0.24289140858783964, -0.23477131917639721, -0.7865045884675147, -0.26403299201784508, -0.21738374493547788, -1.2238407405415961, -0.10021430235619345, 0.35323932252875279, -0.22600646085246048, -0.87365086038728268, 0.7314982482966832, -0.13241665968684585, -0.74888642493523139, -0.044652161215057315, -0.092382664991137856, 0.1361470872688432, 0.07257988421830075, 0.0050451368631255836, 0.081310255611232937, 0.066481786327196188, 0.044250607620361183, 0.077241492760279529, -0.13263584838657921, 0.23941904782274956, 0.072454278225270605, -0.20790605817552113, -0.18519801128019611, 0.0039038585510266822, -0.098661347282439305, 0.24701266246659828, 0.05773480428005888, -0.29096872263802925, -0.040080351412875984, 0.0095858501760915701, -0.23053528417817457, -0.18710508052055094, -0.14619243105169888, 0.27567641238406559, -0.097922081271363814, -0.16986877904362666, 0.10284812164433048, -0.075786806963450665, 0.16010946424269543, 0.42380847759834561, -0.17588459959178343, -0.086046627432318987, -0.19915030205211354, 0.19585179704999275, -0.34858592291294127, -0.1661953923577339, -0.31629313795869729, -0.35270138568093606, -0.26747390385307546, 0.27650351441190757, -0.29177528502298483, -0.040537917093422547, -0.27704164689019856, 0.35938878176582617, -0.44526161191561592, 0.26658792223472155, 0.090124957882956977, -0.51292459789933353, 0.17046435246450781, 0.1969127267651315, -0.20069899831978169, -0.16214711977142321, -0.31582119643641654, -0.0075835382664220588, -0.15156357341171164, -0.37596993111086818, -0.024377824295830481, -0.25580403706964155, -0.44580741682456437, -0.040769639624143948, -0.14861165904456805, -0.081612270973822898, -0.34365020148213482, 0.015876821424262888, -0.035517211757134792, 0.19354480046837341, 0.1113865171455644, 0.28941192245757097, -0.19313308096878401, 0.0718461216622127, -0.17216927855738201, 0.96999158222179482, 0.093071100689168504, 0.10984935099601056, -0.11819718780595359, 0.74351259602981157, 0.16373485527211057, -0.14380787852438701, -0.65406235822515812, -0.024219686702002082, -0.066349315919783755, 0.12872612355474139, 0.013278034702650598, 0.084142693884825648, -0.11994834024718801, -0.31494450053684375, 0.33991514411355161, -0.10606759457537854, 0.27803552792970559, -0.13688716326846739, -0.038751261579266054, -0.089398575145536771, 0.21482155163287789, -0.040520976230401337, -0.012359626332339051, -0.012131609456804089, -0.1419592307155903, 0.039618645013463905, 0.062549040481407164, -0.16894478856819015, 0.092321912068012699, 0.19421584226201816, 0.12702351852076241, -0.0014214774092712406, -0.31984614900021435, 0.1047929658633928, -0.046615947098842765, 0.20468520158687148, 0.20069647518985709, -0.043418965362326659, 0.1356731976759519, -0.062920807931125908, 0.074885670707371593, -0.48006744712067162, 0.12292756750192568, -0.048592441389412377, 0.0056922635303455387, 0.32955430226508109, -0.10237260710929907, 0.13298501846569541, 0.001905282266197467, 0.076047722937150133, -0.056832882688759176, -0.18316932305399339, -0.03385187474774818, -0.29706461933435602, 0.025706052617040606, 0.064109946076264399, -0.37472212181927322, 0.34668279667213536, 0.076752791920321625, -0.09796648703705374, -0.032632437521576713, -0.014646662904369473, 0.14028244216267011, -0.068232967332163899, 0.13641929465691691, 0.2053433074808492, 0.068573406031356879, -0.04591616597888306, -0.026817209101413407, -0.040683090613481181, -0.10068879901306736, -0.0084063757096576805, 0.08551496496262441, 0.1104567502899278, 0.047509829662249786, -0.079078104607648164, -0.029015873725210473, 0.13297984663984222, 0.088001144006342916, -0.28016539811606139, -0.063841227442203025, 0.069086584096111806, -0.084131198297721629, -0.15086630799147122, 0.47862636100813161, -0.2444403611027102, -0.34525720251676395, 0.13345929500987247, -0.03949392345362944, -0.33332494079254876, 0.207802318492215, 0.36465632186490582, -0.035714772299854002, -0.056924867557108919, 0.12931408361401098, 0.14011137588291867, -0.066102814333304824, 0.070422190496927065, -0.13449363857958249, -0.087368380955452754, -0.060074422580750929, 0.072758579748789715, -0.037388575256873988, -0.12563209723335639, 0.090237426979576901, -0.10135999677604934, 0.031534175563917362, -0.11225124209493662, 0.0027468929183689971, 0.14362492665717508, -0.070477108589824908, -0.22335375762238863, 0.0043575834072877156, 0.061441894934205474, -0.19176920198674902, 0.041571394008404997, -0.16316822387260826, 0.070070952294804145, -0.1326541934272121, -0.16577264601874048, -0.073798094477358453, 0.22291473260543274, 0.086826687047807757, 0.14715521524454414, -0.16764515303147431, -0.029030933057616996, -0.045791793551197613, -0.082275841477430292, -0.13994894683006834, -0.079435863837727994, 0.2024786237561455, 0.21563690595481294, 0.10569684862558754, 0.031649938723967472, -0.26422559372778914, 0.067648148237459182, 0.013913296325830198, 0.17503295310373385, -0.0097852671176451231, 0.16449636058835021, -0.35429286223579581, 0.59533934157766477, 0.01029678509167966, -0.34293651146862231, 0.07130759511705155, -0.13327060302478655, 0.095068660341343772, 0.042316254161074117, 0.23885257702651388, -0.5676567228946704, 0.47824001593279608, -0.08695438884030661, -0.14866331639654801, 0.073580656100641378, 0.49441448018633388, 0.55805259171153554, -0.91503838022266948, 0.27869923863225915, -0.30817604651394864, -0.80877025377919809, -0.058827453859526785, 0.0055047375491445831, -0.04884474881262682, -0.06317936294273728, 0.27125542565269728, -0.19603338535531384, -0.30310475587974606, -0.044896313207627402, -0.67331843550425541, -1.171422577857506, -0.17959485002014736, 0.28095338571197209, -0.12612636693348314, 0.04876498637977645, 0.77254385061863384, 0.097492186283477639, -0.97053512278186393, 0.20012661035999055, 0.36952390444671396, -0.50389897708389519, 0.61585221454200811, -0.0055070976717672953, -0.042504676732334497, 0.6716187377536218, 0.29429478164482159, 0.39657833823213645, -0.60177309308221771, -0.052807028771923406, -0.71079919750174658, -0.81911043483955248, 0.13350861029160055, 0.051451397404160701, 0.10725909561744777, 0.085925321461890636, 0.67426211208694897, 0.079691513962033472, -0.59949672524491349, -0.38121149022440487, 0.13398754951523656, -0.058371138195783899, 0.37911827227133937, -0.014704786913401342, 0.26079916676027964, -0.36720788468436161, -0.13588852187387576, 0.2414010694760807, -0.040141890656512011, -0.28792607958583027, -0.15244256919207122, -0.24054898120016238, 0.1213193790598647, -0.15577785230180935, 0.32238938146928597, -0.11497010668455725, -0.090923833536470489, 0.25304827742192398, 0.084408776626435728, -0.17955819948820895, -0.15492631759274131, -0.22501735688746843, 0.042038157017626941, 0.37268709320450882, -0.097957729389973644, -0.72184146257178283, -0.14457646822858372, 0.042546169338286012, -0.21037052706771597, -0.079586231170131402, 0.064547940932523015, 0.20772476049559863, 0.077079476298956451, 0.19784383152194981, -0.031810771600898485, -0.025396349923151634, -0.02160177789145214, 0.046031507469982046, 0.24813336914317877, -0.03117362635299761, 0.16146898369868934, -0.15755971749739325, 0.045764310986945493, -0.34873282282420937, 0.10420276484042529, 0.026961141434061291, 0.48610895370261697, 0.0466090194902396, -0.14455852788585094, -0.20769650778563778, 0.065975007093775087, -0.030787712719626974, -0.1655063495669794, -0.13958792587069668, 0.18951222564610873, 0.065185968337690997, 0.27699956590113484, 0.13662586198750379, -0.45325824061491626, -0.23713171563964922, 0.15484291296939853, 0.14647802047638411, 0.061266559939761184, -0.025358825597399708, 0.50876068235055161, 0.90392712362294847, 0.034626080362052121, -0.011052931931248466, -0.13210816521954746};

static double model4_biases2[24] = {-0.1707125737156063, -0.44125442548792787, -0.38987247449521556, -0.45581527801242727, -0.52740160066890329, 0.47846174040471273, -0.24666766549262292, -0.10634709482592133, -0.33914252758000923, 0.32203284315857872, -0.12092854389199031, -0.24346256244154235, -0.2132781107963361, 0.27124230742472438, -0.35837960945235686, -0.15454002077321927, 0.47417981607561377, 0.40504187802685848, 0.089059138309969157, 0.28480278072055337, 0.45930622120271258, -0.50658015147430713, -0.4687686511113629, -0.19786286167269734};
static double model4_weights2[240] = {-0.55203131798663319, -0.30875481245993791, -0.35888800986357405, -0.41601559312843384, -0.24993240099948363, 0.35761052818857719, -0.5243345756030503, -0.26791777039125941, -0.53997501055089758, 0.61355635776263295, -0.65469145628616499, -0.23244834191268329, -0.64691341524178214, 0.59667870773890264, -0.44326970742665028, -0.27687078167207857, 0.23527456501521563, 0.40234642576086582, 0.60776131394330268, 0.39512516898949968, 0.46634950586011981, -0.39916918751625047, -0.44599757521298433, -0.38870249955969205, 0.31279101579930846, 0.4598590715615819, 0.058174997535881671, 0.17194740675317663, 0.51435819006373373, -0.098598199436713468, 0.27122165209248195, 0.36441917601396634, 0.17628692972274004, -0.41525066275951583, 0.28065007259292524, 0.21175324457730918, 0.34005311244388048, -0.47016416578500281, 0.49974026415629064, 0.54374560699106811, -0.19207482595820988, -0.28340694334864741, -0.36002787413839515, -0.16370051619773335, -0.19889892724400743, 0.10399034316343093, 0.473185254491578, 0.45030397855482912, 0.69502318548133357, 0.60689775714833083, 0.49759421730731751, 0.41959461247864926, 0.66154515778937051, -0.27770828065649028, 0.21887517987546196, 0.255431986951214, 0.39562302402710592, -0.3148725405064654, 0.68629755775219925, 0.28854596420280537, 0.50327159921705367, -0.52824032410791166, 0.66927300213159047, 0.60516711485744812, -0.29909335155751793, -0.47007127241475199, -0.52945951841341887, -0.57377778874560403, -0.66519521867591125, 0.55846278062202181, 0.51565255087956452, 0.72720484501600136, 0.616349625010844, 0.39494489488700968, 0.52408472281017815, 0.60714627969341084, 0.56733480853284335, -0.50342397717092002, 0.37137246795804896, 0.22549184026590577, 0.60237579504703587, -0.29663457479843025, 0.25794878365845908, 0.45838952417147466, 0.47302760806940547, -0.41024314131654149, 0.17868700006334096, 0.47752819279999464, -0.36604808184441961, -0.24495516292435748, -0.34383874306159284, -0.23079938726036472, -0.35505684368453422, 0.37477850127922996, 0.50084687943510886, 0.34677931513290161, -0.67064635865354516, -0.7478031844606291, -0.51316586699658906, -0.54370657272502221, -0.57637214670628956, 0.40818064967855494, -0.66884121830707799, -0.83937395867113851, -0.61549149155740368, 0.56723178059839863, -0.63497457732587537, -0.64171943958443567, -0.36441912017328287, 0.52101755479743084, -0.58996559045846475, -0.60810655168907757, 0.53942888853160642, 0.58395272025395584, 0.73728757172879567, 0.72666453431732236, 0.39553378078488649, -0.40222480841270536, -0.50085532772346075, -0.77336433874455213, 0.39962275329847818, 0.64240443474577513, 0.43649050713002696, 0.35648163541216382, 0.50818624231953435, -0.5575779618903739, 0.26101007731366938, 0.26887147127987354, 0.25959304918476994, -0.5639605318679497, 0.27402791944622523, 0.49266206841748761, 0.32262313673143783, -0.43935780578808176, 0.62546538246806371, 0.42901419861684448, -0.33525010777961628, -0.59693900199984318, -0.52603031646374188, -0.68619084133552632, -0.59212034129969504, 0.30428923459142515, 0.23512926180172558, 0.2296937047100997, 0.28803082398394753, 0.4562121364552274, 0.29425405275851702, 0.38456504528080165, 0.44270368264666871, -0.36020516685865001, 0.25510416548051723, 0.62186927286215543, 0.50193854898552948, -0.65111993976359306, 0.62084622993603567, 0.64265045722279068, 0.25736375935711731, -0.53779532121213269, 0.59609406418166211, 0.55417145905374043, -0.59426326017413977, -0.58285823149170291, -0.51837554282354459, -0.48575080761255185, -0.37842134493327068, 0.34888061934110071, 0.38275946861305965, 0.58669239027811615, -0.53706291819777729, -0.45193305536157352, -0.27354702564615846, -0.17761210974272323, -0.36519020056710888, 0.36035154548826059, -0.48124175673701458, -0.39466798261723407, -0.29948521714410503, 0.22265080242222385, -0.42207434670331412, -0.43905993456102343, -0.53784187251204596, 0.30905399629937519, -0.46981731472667371, -0.49987199466057264, 0.19939552107691499, 0.47939394823858061, 0.41224484576263609, 0.37681022010407089, 0.45448039740841639, -0.34509031642648508, -0.45441853707643759, -0.37194381993158776, 0.4963254919351644, 0.55903848788119059, 0.45222716710270622, 0.29861866245940299, 0.38092185857473249, -0.53515453230671983, 0.56912265454285826, 0.51786396023510084, 0.40376024611638811, -0.1912513229656157, 0.52956665511919254, 0.33344620510915068, 0.31617636720828124, -0.57378569586385053, 0.3335719483248073, 0.32260440058336004, -0.61020052865183794, -0.56935971601308444, -0.57568233876816999, -0.29860850843938186, -0.67088047305017096, 0.45697882480557911, 0.37474630433324779, 0.7077063192875146, 0.32568670583280246, 0.46784566339933381, 0.69444330975114865, 0.65987242839806304, 0.61643714542188033, -0.60422326352444422, 0.32610937271399282, 0.58598562056306391, 0.68651023869927719, -0.46318499476389169, 0.50344435246161812, 0.37306114856905748, 0.611874423926413, -0.63741794926633477, 0.37737851488451585, 0.41185880718694323, -0.48295580541593269, -0.60028168691856121, -0.69254242656546805, -0.44204351675739417, -0.57544414086047058, 0.46874759933032756, 0.25319198071085597, 0.48647718720197963};

static double model4_biases3[20] = {-0.31520833442959428, 0.34392021289934815, -0.22594777015679351, -0.3088225237581097, 0.20151859956761692, -0.085821248215499815, 0.26858616295431459, -0.34619555182661582, -0.40076256600783117, -0.16197745129798988, 0.38134107529954669, -0.38012202590135807, 0.13107055314079616, -0.25460871548829395, 0.35701740062512893, -0.35023800423147738, 0.44354128259641395, 0.16175886319992677, 0.26256552449351689, 0.36657730861723842};
static double model4_weights3[480] = {0.39756636872901802, -0.22023055197523522, 0.2043679003739447, 0.47699341293621106, -0.47786460322405427, 0.21048306081251464, -0.49762721799243564, 0.47371197075560184, 0.42831908608678182, 0.35700280112570998, -0.41420841907561745, 0.52937346261631646, -0.39423872863858012, 0.49891706637660899, -0.3841967252449226, 0.31214902246154813, -0.37740318308059567, -0.4347888590768984, -0.25499707556147649, -0.37454825172784512, 0.25989883473529074, -0.20235124288684991, 0.31411222173587861, 0.37765668079799569, -0.18349810170579373, 0.41235528628463186, -0.52349436987195586, 0.53557304558905261, 0.41972726769819291, 0.28401586726036815, -0.51515190088764928, 0.49913309200853889, -0.30135173370221047, 0.38430544747413314, -0.19592836391644514, 0.49374128216394281, -0.51495510519782861, -0.43648858504172161, -0.47282201133911617, -0.27642270840062227, 0.036132777276852608, -0.25231432053621533, 0.26249118625212048, 0.32169132387800459, -0.24040602978213801, 0.27416474007368113, -0.28140212682010984, 0.1668186594193832, 0.073904916119188743, 0.14884538538218284, -0.0066335588659180936, 0.082076547667444405, -0.25469009855368807, 0.18307854598482418, -0.095920277416807559, 0.3328967218834657, -0.17753955593621015, -0.081843738038685609, -0.25255305322201499, -0.3701659794719544, 0.11506504821101267, -0.11428507490453993, 0.2094132864824394, 0.13516052335219134, -0.21050321960088639, 0.35249899941803386, -0.28590824224705597, 0.081215637659234022, 0.24825364286992072, 0.25801995362649144, -0.35760797535233485, 0.40153401574340797, 0.019382332194167629, 0.14034258510797518, -0.12499210675586216, 0.45539794011352291, -0.18251306485239727, -0.26755027454828928, -0.1304908331018616, -0.26279224212914071, 0.27230116965663054, -0.22855614177824496, 0.46891263560011204, 0.47391683675909818, -0.30938996132699975, 0.1182164351114577, -0.076778581357380624, 0.36542806223785934, 0.15473164474619364, 0.4717306134764217, -0.12977561754320893, 0.32889801271026575, -0.2368580199714295, 0.22939423649789992, -0.4882286595641121, 0.25130961384302591, -0.19003186322669158, -0.48221471222893575, -0.36475025546212053, -0.38905082601497959, -0.53332132122295006, 0.64815293791964834, -0.56270802100525563, -0.53279891101981802, 0.59498502640742679, -0.50276413482875371, 0.36122294296133539, -0.51041639478054479, -0.61350229771981613, -0.62570696882698462, 0.47721132033614033, -0.49973430539316172, 0.67877044038748069, -0.57556965453795672, 0.52310860502287504, -0.43467020541218621, 0.26566466832988961, 0.55440135261192891, 0.33849186195888686, 0.63190795678151368, 0.17946869214728689, -0.36725662131072212, 0.11546289465671059, 0.49256244710472663, -0.29382370287730669, 0.32337569589003257, -0.4433519884239745, 0.29989057699804017, 0.18519885095637786, 0.46481028218535281, -0.40070723301571809, 0.17892884476576285, -0.48041287087013351, 0.25426600450118814, -0.27557784691683263, 0.14096418385755036, -0.204883978384341, -0.28026290485557265, -0.26985002152273957, -0.36293516120205987, 0.2246633171408404, -0.27677568371853034, 0.071918339717381125, 0.092311231779610842, -0.081559098529711133, 0.40198111845189111, -0.25258351853409489, 0.0013209602363949144, 0.33537665721506504, 0.20701948046595292, -0.4124874860547284, 0.13099138534929111, -0.11786215644967582, 0.24280074670238649, -0.44962676719933597, 0.1703793195381138, -0.40019972773779189, -0.11038311055759392, -0.42599002469227176, -0.48851157534403572, 0.48019190997098554, -0.49776142877575413, 0.39888261622795501, 0.22445998334619491, -0.50436898607768876, 0.22236674545113524, -0.23525181423102615, 0.44328929762779157, 0.48921919655613455, 0.29071827734345079, -0.263307706936181, 0.23070268499705754, -0.41477631151554117, 0.5007792720919727, -0.54864043140548002, 0.17866081591705446, -0.47651152071784997, -0.5256736790893618, -0.47304839576335456, -0.3358233201299628, -0.5972694422308249, 0.64585107934765706, -0.36847028072144483, -0.54073624532283682, 0.39765069002533854, -0.53898646684121909, 0.52379768643282898, -0.59245386667462696, -0.4180567550884367, -0.53257207513958893, 0.50827751465565041, -0.50141441645255735, 0.42055145291928364, -0.32976021499567898, 0.60772804551206028, -0.65182418070042025, 0.63823417596411547, 0.4867205655849805, 0.65125553663206726, 0.57635237638490722, 0.31917980400512763, -0.5656622380316908, 0.24616262841328504, 0.36219319159479429, -0.28429408536189221, 0.23732824058044114, -0.49656284283318025, 0.45839263105892208, 0.5597862914409335, 0.34989270122912181, -0.48431934524271975, 0.26550780015410463, -0.54084416553995607, 0.52207888025556315, -0.50944353395141795, 0.38965274181120374, -0.45269020299238816, -0.31233132325609053, -0.28470367295202764, -0.23366126692776851, 0.10782253601342373, -0.4805968769729399, 0.0043065091130250659, 0.33786960900202778, -0.017179211354390041, 0.18845982284679413, -0.0880478800928816, 0.095468625328798726, 0.095967481911417393, 0.36936404318234567, -0.17900831283416452, 0.18270949255222893, -0.13919348758355818, -0.090554050103576172, -0.33199153033573886, 0.36207356783924505, -0.42978237150566295, -0.067701499073868923, -0.26479870072036982, -0.34102638001988234, 0.22810842712321894, -0.39236982479344545, 0.38657303837403761, 0.20599069759338792, -0.26921333093762051, 0.2784350149829648, -0.21139322196926574, 0.40237874532274076, 0.41196796761833671, 0.17699601758144623, -0.48801939542740513, 0.2165316919243846, -0.24575556198658724, 0.090011200166821237, -0.30534568905479265, 0.36391516373465932, -0.39252141348082792, -0.15844294350398516, -0.46071973967884783, -0.52063004836699722, -0.54762912063443892, 0.55338294803105148, -0.50523777445036877, -0.58369456862732128, 0.47231850111880486, -0.43442671567235219, 0.69226330435022332, -0.48895348046472831, -0.65269661408025925, -0.53343462929849161, 0.5070563065129301, -0.7336743133707232, 0.76071246123760883, -0.75900959106826382, 0.76826213202479088, -0.59853256924778786, 0.4286377933780714, 0.58871747267437746, 0.72273746727909138, 0.63486986242494281, 0.47517450455832566, -0.28347094448222232, 0.4116608717097886, 0.47985308177818015, -0.43649493182102789, 0.3238951149641372, -0.44878112969251149, 0.51162402248251959, 0.52976487344865597, 0.13138573897344502, -0.24534593556740608, 0.52934661385046722, -0.45814096860452069, 0.36224002729237537, -0.15866825275420274, 0.14579516358632336, -0.26109803343109189, -0.40969518181766412, -0.15608913238211961, -0.16028002565588365, 0.38950078571116409, -0.27589972770336285, 0.29232155161527362, 0.30263159897271086, -0.2353718729635407, 0.26870916245061216, -0.31827855787394166, 0.054279391936169902, 0.10739005590317022, 0.01544674177049914, -0.30951357841223509, 0.30901876101301978, -0.1951860607109461, 0.18178617312125434, -0.36109065569302151, 0.17068115065026512, -0.22577863745976104, 0.02465523992354476, -0.22226238578330398, -0.23885812186814809, -0.36105077308490163, 0.49327396746043678, -0.59551081288501717, -0.66210108440602733, 0.63609908424401285, -0.6712697603568315, 0.63655769694240938, -0.47917609530655392, -0.25701320114045922, -0.34239470180732484, 0.68715140361926796, -0.51320707438433921, 0.60171831600692827, -0.55131022407783803, 0.46705863948950832, -0.41269985047769181, 0.60712916260700167, 0.69121453000569577, 0.58753416886475762, 0.36990155410303954, -0.62478897778480669, 0.60933183414108238, -0.6469241230954309, -0.67567481519498751, 0.46767399952491984, -0.61302253028469955, 0.43344222242847291, -0.6379738517760285, -0.70302906451192793, -0.72924977079083064, 0.72857893545274777, -0.54484265467102544, 0.48623480439050287, -0.48054928775009614, 0.40826199952867703, -0.33850760188827933, 0.63589645256108518, 0.34874900486325838, 0.48281399633920635, 0.64915307460818561, -0.47136897074548401, 0.55655226939050073, -0.55109753962023411, -0.71295815692431919, 0.80133672685217505, -0.69840310516230508, 0.7682705893360694, -0.52219841310253212, -0.52596802625938877, -0.58115331887421018, 0.46597831495084374, -0.71471351883197742, 0.47872294561620021, -0.75280071977657348, 0.70948416520152191, -0.65546655356963923, 0.38833374957888278, 0.78416308578304617, 0.74295912885015913, 0.73421961833922156, -0.35683345784769926, 0.34756390138153725, -0.55951378615621039, -0.37929553156356316, 0.59292330079237487, -0.64972271732650178, 0.632823277900601, -0.62512748370110249, -0.60271159992324086, -0.48710815658771617, 0.53940597362396625, -0.45654306939710088, 0.34038840567070372, -0.37508310356632674, 0.40904451264265657, -0.66164394676522942, 0.65638484632886407, 0.69975914127204109, 0.65212694889473177, 0.59562786121131517, -0.53940555444848948, 0.54140216097562477, -0.72408074183608728, -0.56021843477207467, 0.48793508717450546, -0.63761543077513139, 0.62388923529942941, -0.53887237225054441, -0.69742901058317952, -0.65628953557201353, 0.60772764900151632, -0.70351810576170759, 0.69616357180134392, -0.57193356078867774, 0.53240253605800025, -0.50380213135568797, 0.66335190139773559, 0.47091275741422267, 0.60225086578872244, 0.52699824036363718, 0.10070223661618467, -0.077522060013113167, 0.20533990829173304, 0.15614994654576064, 0.040196484079229752, 0.22187201587196256, 0.032586746953512435, 0.12546692169786761, 0.25896160503856042, 0.21194287567254702, -0.012381770419764637, 0.27726841583258038, -0.21724268723151033, 0.18729114751402937, 0.032104255532593343, 0.025009944617819142, -0.073016538589973243, -0.19429649748115596, -0.14582587537514621, -0.16473658166365726, 0.17804864659649297, -0.19103371051098508, 0.43064497696000154, 0.28442852404874203, -0.50106304001237412, 0.19073992377018847, -0.21730370017502867, 0.40326299460124465, 0.3619433196997599, 0.19130069256041415, -0.22068943218444453, 0.32985610064373894, -0.1647597356591721, 0.10439041518237298, -0.18815572656893173, 0.33973545253488396, -0.12112181420552287, -0.32746777713595876, -0.22906968394037258, -0.1526308278636844, 0.15243793883048568, -0.15976099010430717, 0.38985573095355741, 0.13396514489773009, -0.39557847364836313, 0.39764873037102005, -0.49625580474570413, 0.30091164221141103, 0.26826992945836864, 0.36446808050737339, -0.50768562893204383, 0.50026951501206862, -0.098987025578685536, 0.50434883524260943, -0.21421695898801113, 0.1797395938424311, -0.22544007092070656, -0.50373395477758154, -0.52612626089008774, -0.43783632264701505};

static double model4_biases4[1] = {0.27365381432787733};
static double model4_weights4[20] = {-0.50052449319526615, 0.94300244961199575, -0.61885361801740746, -0.73082009214498467, 1.1907662915029626, -0.61995082789115996, 1.2167962443740443, -0.74846706735220903, -0.77958845250324404, -0.85167642883571737, 1.0465778544732502, -0.68501061271939734, 1.0992022968580966, -0.57468651291969419, 1.2041944678732404, -0.72952018857140055, 1.1101723432961719, 1.1099634274865415, 1.1534299723014745, 1.1696659082493508};

static double *model4_biases[] = { model4_biases1, model4_biases2, model4_biases3, model4_biases4 };
static double *model4_weights[] = { model4_weights1, model4_weights2, model4_weights3, model4_weights4 };

MLPModel model4 = {5, model4_sizes, model4_biases, model4_weights};