#include "../include/mlp_model2.h"

static int model2_sizes[] = {53, 21, 26, 3, 1};

static double model2_biases1[21] = {-1.0645165704263468,-0.9116720788815117,-0.5992395717005456,-1.934675700048809,-0.16679622107667397,-0.7292672244603676,2.5096995684827164,0.22789540904167727,-0.40434949241748186,3.0328735678040637,0.130726947074723,0.4880151992311647,1.0926023920001724,-2.8390214221753953,-0.1862464863182377,-1.569154685752476,-0.5612848916563169,0.3632403106397884,-0.47123371208301207,-1.4964692605743273,0.7224363582336941};
static double model2_weights1[1113] = {1.3944415296718298,0.3064791544943224,0.400790052156116,1.5747364983324712,-0.989114535431611,0.4613551495082517,-1.0349471002220976,0.0892918005311143,0.9258673388602439,1.5379603656214982,-1.9719237838433765,-0.5900720917699469,3.6970507749537798,-0.23458441266617627,-2.1800698223282993,0.19354927965296617,0.19641809188093645,-0.05969895943280491,0.20126019111440002,0.6173104774880949,0.7896726231869198,0.06419122909627041,-0.8055267183540388,-1.0071434888050352,-1.09844450000481,0.14018902386369564,-0.024656064588976973,1.230939619222838,0.15563339654012515,-0.5549959747445012,-1.014823826405195,0.42741273779158173,0.5008101589514771,0.8797580953096591,1.3927847006165996,-0.2956868069371049,-0.05328067043840458,-0.4731767210970259,-0.02180294848718172,-0.1621151915774288,-0.3737859220942116,-0.10175566111052271,1.8033365474676157,0.10043502894490258,0.6164630379218985,-1.6639227316993204,3.240177960916103,0.029951030535269565,2.026843566778606,0.023104337088729113,0.808070571758015,1.9293224531564965,0.7526213931124984,-0.29973635089665285,0.783616112902254,1.7266675289669924,-1.013737134548702,0.9465727126192357,-1.4317593400745454,0.14365125177945343,-0.07995026869703054,1.36560560778337,1.4019623975402489,4.738454490360959,-1.6537845304809307,-0.8158085410816411,1.787541341793021,-1.1265382432878572,0.3052814176929282,1.3231429043469243,0.576496123757938,-2.4048032877682077,-1.7573223353118574,1.1534769060647698,1.4387571486151371,0.1792594284122675,0.8701304488250402,0.23221590102854306,1.291107850594939,-0.6677633965692349,0.7893562570997698,-0.09320011160171071,-0.20472713544276006,1.7599860792860442,-3.157048670699235,1.0746063454209038,0.5955728957658943,-0.18422655702838964,-0.15664518452557127,-0.26804623970411257,-1.1551626468509233,0.3004766680658204,1.6991798708228112,1.0310501883267056,-0.1675867893409992,-0.3799227871585818,0.721176843983776,-0.49602426927785387,0.24975283024879488,-0.3143026367589021,0.576084741273053,-0.281784811328114,-0.2934704116808357,-0.31540444048441274,-0.8798147544558091,1.1626291413759662,-1.2602373339735224,-1.8668450146965754,-2.7183320681123866,-0.5578027846389304,0.4209408670367539,2.0110314765107793,0.34263374691523263,1.0239412332291853,-1.2740983627978855,1.677033634216606,1.3190751930157167,0.9110759055524724,1.7385198157840978,-0.27031592431967627,-0.019700156774317197,-1.4199213599359917,0.008163807814429658,-0.19213240837464363,0.8791977961960677,1.4591590177732656,2.6801315984463265,-0.9925076394796921,-0.7853266774002157,-1.2643172151634439,-0.8821228950376753,0.4976792032924362,0.9453284416481077,-0.012630731610070575,-3.965268280856403,-2.1604893433978605,0.49705534542274854,1.7241243011130993,1.2294098348964781,0.8499122637789455,0.5409223386379429,-0.17124469402026107,0.1395288352538609,-0.20159570388681775,0.052313209095446934,-0.316331131159808,0.2409100691090872,-2.9090088333640005,0.318001919577248,-0.5131267612029853,0.3432982306597775,1.5735011542205881,-1.066387584632959,1.3891731731663883,0.3075839875646077,1.0559602752965946,0.5433858395407971,0.1952954904629719,-1.3010345317781626,0.29946381920085613,1.2100747926822455,-1.6424000484303392,0.1515284330476466,0.10291278279207272,-0.22384701784755923,-0.3873790483602099,-0.7893962874154236,-2.1262943099819553,2.2233945175077623,-1.8344547358460437,0.32999275711279186,0.24795831846283423,-0.33062946460301323,0.03275763576124567,0.4782665293831057,0.10653893218797249,-1.9186712299009459,-2.0052400954857306,2.216823636711273,1.5162599444225644,0.9889006831942471,0.40015837306966984,-0.07473291471694841,1.9413943477920501,-1.1629307260954855,0.5539806297553778,0.6400900526839617,0.9248446706941071,1.6024548681986936,-0.2665568511347246,0.45449296186592375,1.2057870918468814,0.13507270701877525,0.35111824682102766,0.1539987984806328,-0.8456190493606376,-0.18865772766715747,0.5444616196229274,-0.7047307534185089,2.366714019280418,-0.18513306951826725,1.9793332186384012,-0.061481111523543505,-0.25206825809263284,1.143719459343468,0.19891923033522235,-0.6912454144421826,0.703472086065473,-0.6337673860610925,-0.039530057207083164,-2.165180884397415,0.009592921568079978,0.05011371184164384,-0.3547964765285876,-0.21314647179561777,-0.6686753498510971,-1.2245837988426207,-0.12843577530865344,3.177385659736157,1.159639471589623,-1.5025334384524878,-0.35589617473587115,-0.9555756985593881,-1.7548558933238805,-0.19068980836322474,-0.7281709740495248,-0.5944547607404429,-0.3753139243557074,0.10026128540789292,-0.3770594527118701,-1.5174850865949472,0.273511400259641,-0.18678803145837375,-1.713341103391346,-0.5553018751438296,0.1772693063556106,-0.34880497673992217,-1.567308095860729,-0.0598417220317711,-0.015146455561135929,-0.20363052339665352,0.3594934961799362,-0.23156887861938932,-1.0428401571885593,-0.39440117533362684,-0.7761091581325525,-0.44896448618833107,0.23958464806907104,0.11331350936973794,0.05888830847834397,-0.5176613329328889,-2.6444705935044572,2.438033628660232,-0.5641583396793598,-0.8060478210294226,1.1083323726855336,0.47755970573372847,-0.08555429959099288,0.7400820629663968,-0.14964288468707704,-1.5654258241405972,-0.38680159079275916,0.3313855467532384,-1.17156546226644,0.4712314015017487,-0.10231157452596265,0.16230824867040877,-0.6010100647512396,-0.35347499008074795,0.2384021308651645,-0.17281117531303344,0.13632775201143757,-2.1649672626391876,1.920232246061851,-1.6005797254002003,0.5127700069722347,1.9354051234731176,-2.0222252222428825,0.5452114661120767,-1.1541491312942296,0.9107544716850027,-1.4109840401160685,-1.1903871602029206,1.233432189727502,1.1852262631095714,-0.9293775921557467,0.15903000049296656,1.1256673843160219,0.4917064454678091,-1.6546470159643842,1.3255607106925242,0.34621777006232635,0.9680801815834841,1.436194195045896,-1.7902282075008304,1.2142914611184088,-0.12186136296280742,-1.5404233761492734,1.7801104944973052,-0.6788319736559953,1.1535012114035326,-0.729180285498177,1.3829806782502596,0.6419027436789208,-0.9583748256062498,-1.18242119468177,0.43800270673621866,0.008923686996163305,-0.746353559652501,-0.5020961843172693,1.5165296986796115,-1.563724457801854,-0.47566739140100794,-0.7600082405462958,-1.0624229373506076,-0.8919887297081944,1.4670425655526176,-0.33523224698178195,-1.2429992577401854,0.816660668270197,-0.22044011093361168,0.21366565544505933,-0.22815831924752003,0.7537077500845882,1.1902074216219154,-0.7239462847676886,-0.6961669147643793,0.8358123641094679,-0.633582622627387,-0.685715578393195,-0.5465222197969526,1.0350977925140932,-0.6281322130192538,-0.5206141023192995,-0.5271814929440358,-1.4638221891465908,-1.8570117423052472,2.11200908374643,-1.2783234821787677,-1.9192341235983015,-1.2928297885820188,0.0110438077115728,-1.27102795512416,-0.3496040590517236,1.6708439087182583,0.5515184119028905,-0.04086725968475196,-1.7371218375093092,1.1948155321261702,-0.02957752103959441,-0.895096467067824,0.8747976395861777,0.9790701761726434,-0.987954338401061,-0.07564261076818905,0.5430236383404328,-2.7076997668436307,0.12263685906347034,0.413714161780873,0.033267245820659735,-1.8000643586686635,0.26756243503569577,-0.9277548722516807,2.402173203345859,-0.3316970832258272,1.890519033849185,0.7506261610289054,-1.0444182218407554,-0.3149780312299196,-0.583389036803565,0.9508077555515346,-0.711884604526744,-0.7738962422919046,1.0451624729237912,-1.1810388326360222,-0.20931267443249607,-0.3553842808213518,-1.3238738661893819,1.6156467773223107,2.1810393424379053,-0.37708308086532105,-0.9770628081397484,0.13470721050649997,0.4687772368809446,-1.6392102390098038,0.22057144079099344,-2.599064162484606,-0.2933885374339174,1.4823848634738976,0.4076770917243978,1.675459398225853,-0.17178370300329202,-0.5109903066521734,0.43461294694910396,0.13714675127822895,0.391532433118342,-0.08831879660894192,-0.33025678325873103,0.33162103509000457,1.7551935127123415,-0.4506607031502454,0.05528325017497016,2.4177688486260562,-1.2092396170596371,0.3713711794731433,1.747411490703615,0.547436685146525,-0.4307998223140479,0.7989668300496902,-0.2146113881409451,-0.2849734726466389,-1.7071064222206227,-0.6450280595583198,0.7717370926503478,-0.3523030958067783,-0.5352149192650664,0.8512955965436758,-0.3602920437176809,0.20007840715170971,0.39462245892592845,-1.2053633021403107,0.9302086004192105,-0.6084603635381792,-0.3516518986624734,-0.38034821651783624,-0.0998041385182567,-0.39286016649273575,-0.17541660412190535,1.1981328455712414,-1.5267969013838385,-0.510342876491421,-1.2445559005931845,0.11693118205222043,-1.643158662479745,-0.3232630710450326,0.2632477545565747,0.42088149950156223,-0.36491202480761037,0.01900071430174193,-0.21474110380274564,-1.3743889121285868,-0.3934518653346213,0.9932384172740708,0.824205848875737,-0.5033532097194428,0.9511406462165322,-0.0986003930927266,1.267103551022631,-0.1833322405945432,1.7616590463001414,0.9147999896571988,-0.7271707089961735,-1.2068918774452244,0.4534431037415586,-0.8877267290340627,-0.3178506617573264,0.08495020881379363,0.8203444016767864,-0.48910782595229996,-0.07074959823989868,0.2366787989231258,-1.3816573809997552,-0.33733491377113145,-0.484463807894579,0.19686287366804117,0.36253303086178323,-0.9003905509265961,0.36637289719328703,-0.4971968388617087,0.45038998908196354,-0.45344056392242726,-0.6040094235713008,0.7013274251098655,1.123303908683191,-0.03141792387641156,1.1894454435006026,0.20196926329122397,0.8276749763968388,-0.45924798493071134,0.4913987580436376,0.26412852650586166,0.6774586308476379,0.9870800899493756,3.706972351789121,-2.1953733157650075,-1.3156854896090582,0.36432825110486367,0.3548202678609573,-0.41435821665603967,1.7988424411071413,0.1304935126630745,-1.3235784557448569,-0.7762296348620517,0.5366190742462718,2.4372617847483515,-0.9703132779448065,0.9828943704600112,-0.4279772698452868,0.5209213479501548,-1.0475243005631227,0.038842763548244764,0.3527747045752892,1.1068517050585283,2.9204247827503886,1.076305644966848,1.080860972151277,0.4921951872060304,-0.36977304429311014,0.8694091140383556,-0.10823314035568384,-1.4376230705031419,-0.041280410968436584,-1.0598532250241228,-0.06320406536806998,-0.1886846153729406,1.7468453187173203,0.4902088476235783,-0.14082485165416975,0.029480230243796004,-0.5850698329774537,-0.1832616820766281,0.26740529484951675,0.4636539718288536,0.33513608150497587,1.3424808968922863,0.7536995870252259,-0.9792450069013201,0.10029328909444542,1.3290721286788205,-2.310676282850544,0.588736837335637,-1.4830836015671343,0.7857731846130072,-1.0321711034060843,-0.5061372636447864,1.2402802144286427,0.29507475880815415,-0.6556246438780606,-0.15136068334934927,0.81623025401457,0.5369294509943475,-1.5764403610222097,1.2207256798992283,0.46211242417786247,0.7896530098736908,0.19458112523826043,-2.3189426362647154,1.5495448700252024,-0.4833808432997665,-0.565103799630371,0.7286646979067084,-0.17906692020239776,0.6731023268060075,-0.5668878506437088,1.3415514289780284,1.0190631180908698,-1.5642669223586538,-1.7989323139140858,0.05866926091243028,-0.584991553950557,-0.41746750587965337,-0.7065917069009416,1.2896609653726474,-1.4709117146376811,-0.33057570983405327,-0.638464609485982,-1.301443759318377,-0.9846766313404143,0.5757482633422238,-0.049897909133374975,-1.025421383451179,1.3738197908662626,-0.5833475876827784,0.5137427310412942,-0.25189723656503743,1.693844710063286,0.8162911538507545,-0.9741619844960541,-0.15340769686928335,0.5846677710361582,-0.5057521956796471,-0.5269152246326468,-0.7966113102851359,0.9766354441805511,-0.5244808045505546,-0.6195689107468881,-1.014112298123659,-0.7374423207994663,1.1012667010171466,-1.023124768096565,0.7508714699352784,3.566751737733244,-3.980663621257615,0.33239927729307517,-1.1159183680683382,0.7516661565298236,1.7868213057292355,-0.9299794167838165,1.2620253456684896,0.5289586958520877,-1.477765453185247,-0.7560091899061208,0.8097016361965932,-0.16625136004648275,-1.137940442579115,1.5422392516948722,0.425285561577584,0.7543407844438201,0.6295516637054245,-1.3410293568705651,1.0013541773416825,-0.4703090791681154,-0.5451856243858858,0.1466521160192139,-0.006002921616924775,-0.14455185149417957,-0.6611820500770925,0.5363023743342715,0.22392383759029402,-0.48006301520575584,-1.4573025605445615,-0.08218511873654377,-0.3344428193886704,-0.42486850866000564,0.09720507372088506,0.9771456895535983,-0.989625021322748,-0.18313195768890975,-0.4015436021756439,-1.2449736080467504,0.19597777603531344,0.8882836379255257,0.1799753004081032,-0.45355699790965487,1.4110680105849305,-0.7037280447870303,0.9937056271331012,-0.4519172719622592,1.711444078661951,0.7637448019497146,-0.7186335219297222,-0.3921745526919115,0.47782339538316776,-0.4321978593114135,-0.8303235760826305,-0.7577313358307476,1.175107413610994,-0.4348322860377653,-0.2886171876571171,-0.2781830285490821,-1.3385754258415152,0.9966383160140576,-1.031174526605089,-0.11553038263434695,0.6873256753027838,-1.974378911146858,0.4995641623046067,-1.3053849515882188,0.7377409502091781,-1.4110929115220516,-0.9227554561263449,0.9813994711496663,0.5083365182890066,-0.48521135050409875,0.062060159290603614,0.8063382917840565,0.7184495637829066,-1.5432524628469675,1.0098019399702858,0.4578926513995132,0.7326860877989783,0.9219163895107296,-2.291145032181805,1.0828179697822087,0.01948208541285123,-1.025417716501628,2.47117663054283,-0.57179411943677,2.2077451544300457,-0.6835491196198044,1.9423372505741032,1.0636479475107032,-1.0144009807318182,-1.1986019146500948,1.13816235963716,0.3943326853291051,-0.8877048132636174,-0.9793344958656931,1.7243122588130024,-1.7121500747249985,-0.46433236731166383,-1.4386078756377627,-1.0774948866224514,-0.26268931232060244,0.3579559682734528,-0.5386270259996941,-1.9256768597129732,1.1839080391788535,0.05219530430358436,-0.9307331834931837,-0.19798377341376128,-2.397655821540508,0.5661765029255684,-2.0553456565261623,-0.0017747084658898387,0.43154272708730185,-0.3746252221687671,-0.2766176511057126,0.18345100217096016,-0.01589688087689042,-0.3022352579802334,-0.11096290183448804,0.1735384023975034,-0.3916655883054032,0.051981868552067385,1.7101575095999255,-0.16027423200829743,-1.319788611068578,0.8368170309079108,-0.21887090638209777,2.7561542049685013,-0.6990425795413165,1.1168679361544844,0.8524712201685629,-0.8302436639667583,-1.6080567017807876,0.7286939234905315,-0.6048284570296464,-1.3570600440707519,-0.39211439314046587,1.0956573952320023,-1.1644203705754557,-0.6534366070608358,-0.3178847697815784,-2.0741139193614093,3.304177319579413,-1.3677417877058595,1.1381980837308665,1.0111379170757446,-1.093373470814402,0.7774582308738229,0.4291142913710216,0.7141343482928163,-1.7210576262375041,-0.5945318561143673,0.39589620600237346,1.8665248495932698,-0.8305637439301817,0.9430396871395001,0.16840246705091239,0.5248176210488344,-2.3058737047517748,0.9692510632465106,0.5755816410769907,0.3852533905198255,1.7824923857892978,-0.13997747125778684,-0.4922209210307644,-0.14661583287345892,-0.35207273818562895,-0.08851928776041983,0.42118433896156393,-1.1556273404691397,0.00233763636947915,-0.2828005782964951,0.019000337951679176,-1.0873536466938287,0.6604394196174308,-0.6303522039153259,0.6607216798535364,0.4890685762401877,-0.6067115635885774,-0.12028763062602646,-0.10629086974747286,0.3831222612461985,-0.7887458610540424,0.5786272027406434,-1.7625619301255766,-0.1551401622595342,0.8516355372154869,0.270104264904739,0.5152243400495996,0.11119770462470373,-0.7966629135277349,-0.10092323162926199,0.4748654918077704,-0.026216079141466633,-0.20584575428775545,-0.5104068271509743,-0.25250950160611063,0.058588898671255815,0.38379625802465,-0.12299559734462076,0.22760269576643413,-0.3957926128891139,0.3623053318344152,-0.35155425443901406,-1.146559295702529,0.48066738251115587,0.0007288051838333522,0.7186121346192592,0.5980299432244642,-0.8674935906873102,0.3113687015806539,0.2701430029731631,0.2332209050640139,0.41880946387775453,1.281219720478597,-1.0680097322845152,0.2522994608188884,-1.2275925299821804,0.08975318686410244,-0.24174816273533312,0.28550648767968134,-0.46082948072194246,0.1422596948751215,0.12916058239585637,-1.3645884273106006,0.1800510252769035,-0.5230146038807525,0.11190265406495213,0.058702871583649514,-1.1821201253947649,-0.5423817509178689,0.6622575840977198,-0.11508736021057374,-0.11062118279196032,0.0019087429504523385,-0.4497188346015285,-1.055451458282786,-0.004003450274417618,-0.4169789278597698,0.3326935582441554,0.32777813967649644,-0.39430034771512384,0.10298110250007443,-0.11110556759616859,0.019351306509687628,-1.0342831816262072,-0.08662952263354526,0.041186789378751656,-0.8527213649287921,0.19837319272940135,-0.09529606177250827,0.20114266625832433,-0.22757457629706093,-1.214036975489828,0.18169404025891853,1.2768558709660496,0.24936739256471085,-0.36375575318019804,0.4910193492050771,-0.5097296503126214,-0.7562847779275536,-0.18083730372033427,0.10804183093960305,-1.6007191039755466,0.19569491919848683,0.2691926233095786,-0.14724205185720018,0.2498372239344355,-2.8518494585840672,0.5145242489922377,0.8482525770896416,-2.0259059987385166,4.493297420051749,-0.7132009013536031,1.029230818071346,-0.5650570478926726,2.5215878905879046,0.21079544450794932,-0.6797024898121057,-0.42252611781993227,0.396806175563095,-1.2638548594211028,-1.0301988976415721,0.15126781895415292,0.9289670590092287,-0.9804838510443337,-0.8196356315178699,-2.210154461047201,0.37409124553826845,-0.9746774649719872,-0.2112827776598312,1.342660082644449,-0.7292896389076114,-0.3640998620638069,0.027262846479956485,1.7411013692124335,-0.36079788030585774,3.9483835171370574,0.4832966527651195,-0.6240833759939044,-0.48198058117365866,0.2839307927725924,-1.081509039090706,-0.624211238633679,1.2971783434919781,-1.25209406975593,-0.5155318329451769,-0.2711536577971747,0.051901433235573495,-1.1243822804899946,2.6352648410923534,-1.4838293257601367,-0.5940609190373894,1.3815273450573355,-0.12259845719005666,-0.25498874590786574,-3.329717989643271,0.3274734546272721,-2.7341451683904148,0.531952958465933,-0.20686992375495872,0.6583678764062894,-0.914523029283756,-2.34826061974386,0.3122764726622787,-0.24867038118178064,-1.3668387276714822,0.9852262436021764,-0.20284210096837066,-0.1297492740478022,-0.021223744038432697,-0.11853914433962755,1.0755626552636115,0.44934484748835535,-1.611758566592224,0.9385404971145639,-0.21844409688312877,2.0997103714498784,-0.5302428805698538,1.1447994313853505,0.2657715327632825,-0.9785089242501603,-1.5018157642267473,-0.1556595330292508,2.0260859562452747,-0.7423304923448303,0.24465074877920662,1.0782477789968519,-1.058490106352563,0.035059315069939846,0.09826427895062423,-1.867963159945418,-0.4882739978750918,0.5541697403919565,0.11883336610302486,0.5892586980152574,0.21737827597724707,0.14062193954346808,0.942101126573678,-0.01629964180500348,2.000140295355923,-0.6425955319842024,0.0025785279219975744,-1.2543978190570173,0.9592405547716082,-1.3312368627418216,-0.07337597915896846,1.1219715389461506,0.022739297260579064,-0.36139699238357464,0.07498648028118292,0.18086143612957528,-3.190833760402888,0.3642785094535876,-0.5987848286297823,0.5610619859859848,-0.3562720563781847,1.2787057320447197,0.890443381284378,-0.711501466454448,0.22036256470893756,-2.5106256122009705,0.10936485498308218,-1.049342774088742,-1.302746054265455,1.493096719702169,-0.463641824751948,1.1433655333342523,0.13714809434353942,-0.8984214481614267,-0.22380212033224364,-0.06165035623036767,-0.1315577095805045,-1.2710581167489083,0.538479716105184,1.218625222609772,0.23987036639190637,0.319851544204931,-0.6400433477343557,-0.4337771935778624,0.6443286420948185,-0.24222239526339573,1.7216281390317427,-0.508325027866554,0.036345662422337645,1.1711057159210883,0.3008696227862462,0.19482914050498334,0.01640746551790762,-1.0248309649057106,1.040574266799622,0.11414933434382152,-0.16099068441601672,-0.2570793432287763,1.2153444240429756,-0.9305451276394787,-0.4440749907018,-0.8882748650653641,0.40553834110597253,-0.8021541986873099,-0.7857740932179238,0.531567850561303,-0.08785108755617578,1.2874385434046496,0.3378124362143591,1.3653495317616393,0.4326269603242982,-2.0947412507119223,0.3054315324288911,-1.3760573674875753,1.069512697323935,0.28965641718089186,0.08824192137269031,0.468852717476979,0.5484164450214125,0.6775870166778857,-0.7492995919792089,-0.6332742323038786,-0.9687838259728432,0.03786952333092352,-1.7409148546198971,-0.09922321940641057,-0.11332140191466905,-0.02872035832136716,-0.5329918984533287,-1.771175257039145,-0.004131373601933181,0.6600468694789984,0.21492389148836122,-0.013133522587602118,0.2140830985164297,-0.39173109131615885,0.44781409821401974,-0.24093041120479872,-0.22778201071735507,-0.771467794025259,-0.8704431806564955,2.6205343875207143,-2.399099878133617,1.2768225104539537,2.526867587162374,-0.6120952899982286,0.297195648204171,-0.1499545202030836,0.7471027028683261,-2.028731672733927,-1.1195219196572062,1.1845057365539864,1.9633340635968528,-1.2272756841582033,0.14162083029001735,1.3336491921477043,0.04152778103674825,-1.887185367951886,1.4947853230401216,0.28405076568566673,0.27843033911216974,2.5537021010936085,3.0624476961595875,-1.2006889939158725,-0.387500593000358,0.6157029995738719,0.7326071267924749,-0.09864760460922106,-1.9376857854587095,0.019090394836362868,-2.0706003400647077,0.11016260419141415,-0.445743133028573,0.05463142602458821,0.10628833360096863,-1.211317175168304,-0.21267222888794196,0.41382534315563557,-1.0603281069610015,0.6141100747516657,-0.1863163986940352,0.031160598177472156,-0.7228214359749144,1.3252822352000369,-0.5859776556414568,-0.5212674095189387,3.2468684936140564,-0.00453982560753462,0.9355888780436697,-2.223016287902167,0.39322092521484414,-3.075319445537907,0.23089544684224975,-0.2953429912049345,0.19493126376710543,-1.0295139535078843,-1.6303678880968977,-0.043543868420173444,0.4402132903590259,-0.8294147757534734,0.4732250480346882,0.7101395903875132,0.20617817651491088,-0.368409962858506};

static double model2_biases2[26] = {0.09903688446508899,0.5299032301993811,0.13144141249521554,0.7626382398820262,-0.030903688564408362,0.5012010088717036,0.5056947963759693,-0.1759799681662455,0.44028874381588906,0.004764279029093956,0.07271062892572018,0.1305596342838321,0.3446295179957975,0.39090320172391757,0.8411292885689275,0.5914841152019966,0.031339832388453226,0.852461981056636,0.41839021978950014,0.8289173149346071,0.2705971851138912,-0.08491290308593524,-0.049222085627044686,0.568104017669313,-0.8248597141964525,0.5877330782102698};
static double model2_weights2[546] = {-1.1007276505144588,-0.29332276122011436,-0.20804550291098764,-2.443105108769939,-0.8720510397765788,1.1630610234253684,-1.535240011979941,-1.0608356779342294,0.599703145328731,-0.7378039106335609,-0.12478354415584524,0.341874164030542,-1.4290182864442116,-0.014209742368140902,-2.1074221710039938,1.0191446045641024,-1.2338089528783038,-0.16068904962229108,0.6098742563746846,0.2794586865362327,-0.677644066354324,-0.024265515231935694,-1.2297263279455064,0.7865327715946576,1.8323775538601201,-1.517241474013205,0.6877313294120354,-0.36028903842097665,-0.059195307368676654,1.3926561386658545,1.5681196804448128,0.06093091445157562,0.6973304998967049,0.6618484308135197,-0.31727552325620556,0.36175601562767745,0.6946850336562842,0.4996215489772665,0.9474413591293347,0.7711939175095849,0.7432848526212686,1.3165036199354303,1.0602246036766472,1.8766851614635294,-0.34738669814265805,1.5692026788023714,0.32549863232686177,0.47004062484326237,0.32844118237694553,1.0442288994121995,-0.790075005605647,0.9281955229905147,0.04267781799972913,-0.06380567731327987,-0.19872674866458606,0.38468620936269676,-0.6374733211795967,0.7352041189244948,-0.09010910084481955,-0.23150698297792388,0.2043218252973362,-0.133866066789918,0.5438899003814865,0.5213206167093771,-0.01469237462266536,0.4707184129691265,-0.06994322583776,2.0948074960865335,-0.14510701516843558,0.9182272956104062,0.34198315128767415,1.6481874486996013,-0.011409435498314224,-0.00506803767488524,-0.14255620466122415,1.6881075545689748,0.25473785488420964,-0.4486404754693275,0.5932154917419334,0.5569793372791649,0.42962478129654,1.2255841121715123,-1.0377988149400021,-1.1242232039306124,0.8588322331226442,0.300025256203238,-0.31474596276444455,0.12638386896551979,-0.21271097982502707,-0.1945932369734484,0.8008085600899016,-0.5276130530341666,1.5112342436305357,-1.2647206207558717,0.9581654982525399,-0.5851795524765218,0.33386102641567433,-0.40114758473558065,0.314883179155537,-0.23837928054953256,0.9678964331737758,-0.6913282407163307,-1.2256391054780214,1.1271651759886756,-0.511700569497127,-0.0852713391506102,-0.07745462583992081,-0.7188508104697778,0.09577111240579053,1.564426819663139,-0.6213589669507732,-0.8773921189866701,0.7544972268852028,-0.8830385371311077,0.3733776518721756,0.48182135641979285,-0.5579105188595275,0.4425373506128314,-2.732234163485939,0.7570248086017494,-0.9265705149517428,0.9995059206781352,0.471334401451529,0.7151860520615291,-0.45723290742288536,-0.125430914781228,-0.6296605430935366,1.0098843601844032,1.1173790604477276,-1.2546841632954953,-0.21505926262702416,0.022061759119788665,-0.0010094012673858167,-0.3478454916982583,-0.10128296850630923,-0.6315616202133641,-0.1344308105268136,0.17201481397682256,0.1992560119329533,-0.250230682518994,-0.004068454713800644,-0.22070108700308394,-0.12065342774761742,0.12468739641723144,1.1150405221012762,-0.4505246513459907,0.4067353708929413,0.17650485867157448,0.2469207511382055,-0.25399152537214514,-0.026116972287321703,-0.06536047102272574,-0.11316422917758416,-0.43611965204404035,-0.36502987482231103,0.4447944821890097,-0.6263792192395816,0.301757723660079,-0.008379921967728904,-1.4223747596295613,-0.5109931605706128,1.6512811641451826,-0.9526793678534837,-0.7710775015569453,0.32548775206537933,-0.5916011557344799,-0.05743219050491809,0.4906474235436554,-0.886476703355154,0.1646432624075722,-0.6801935418731062,2.0452568256151538,-0.7703126971092087,-0.021243846626947543,0.7533742271796405,1.0417434705568085,-0.41324288964620115,-0.07426621922897386,-0.2862383665623271,1.403136496750524,1.2540877614749897,-0.9000219096727122,-0.015673883384496535,0.17536975183964956,-0.16010323220103787,-0.28592686663340683,-0.371529647146693,-0.056460737605328,0.08564159417695821,-0.2824083423571618,0.23383244338971915,-0.13587623002737215,-0.042375176807943504,0.1938356734478375,-0.052394354261469184,0.08192118748374999,0.07271687965941392,0.3429281817655205,-0.11095701037060511,0.2467634222090489,0.3174371025900999,0.3385650123395178,-0.2371786643502263,0.06831487473725852,-0.3263095937380505,0.024763069963867988,-0.15369858413349113,0.1766232902028719,1.212063931837743,0.9716093088923717,0.5794245910471589,2.97467865297135,0.21841099887902574,-0.3155809084129774,1.8356522510664055,0.5275085299890896,-0.027301889357523184,0.46359631207294233,0.1571766692005494,0.025505268506975466,1.5423971466867408,0.5003653141960602,2.5145148222837785,-0.2994275735921627,1.0550450343323867,0.7035268258614416,0.03696868014364653,0.1452857363336905,0.9330122751253976,-0.021345019657292328,1.0911846658668045,-0.3639630088234546,-2.2779577051710045,1.9855121787081496,0.017837718732273775,0.12174934603752366,0.515570576552415,0.18548158763088282,1.2572897467066553,-0.25641759278129606,0.46002104049293613,0.5438885499247299,-0.13014330556339204,0.35916350788364104,0.12635921790220891,0.02674330808454608,0.37518923973170265,0.3257153041193128,1.848710630214949,0.00630458979910217,0.19302462442711693,0.36059903029725676,-0.5811002568413101,0.41673861458509714,0.7489652826127757,0.24093433484670315,-0.7699830236499481,0.18707086787898972,-0.7412070000850666,0.5844324094908743,-0.5068970626448129,0.1497715335423315,-0.15701910775316805,-1.6229312913669458,0.10894288149581753,0.6590514756134874,-0.9220845803120571,-0.6933844655610429,0.24644396116121406,-0.23906070728881013,0.28893182320954525,0.2664204418314384,-0.5596970468056767,0.37657478011741996,-1.6660320640857404,0.8874577140048077,-0.6063849900837875,0.6273340398605103,0.32211747199371477,0.5409070473160013,-0.32628861010064303,0.10977718368966372,-0.6001326463867002,0.40957701811518604,1.0813343304075718,-0.6303867912239207,-0.5159657661424408,0.40838127317936634,-0.08818111121534412,-1.529818404608858,-0.8207018488435975,0.2520716278394038,-0.6364818969584205,-0.5230644922194434,0.3130950869624395,-0.4247493741356242,-0.36139902909942334,-0.14814929895790033,-0.6473743158937469,-0.5286334463064278,-0.3732961958545977,-0.6072102658840764,-0.7585228741196609,-1.0034579200418527,0.6854258954201724,-0.6081884226526266,0.03095080347481819,-0.5564611889592557,-0.08858311686610618,-0.21843689983680947,0.4366179300928571,-0.45883443058402723,-0.0995049407603731,0.2642930215279417,0.0598886426780011,-0.3084447762637024,-0.0053210976341676085,1.3911621477423075,0.06912207459330992,-0.376856939893475,0.4006579014527617,-0.20870360749777242,0.33213836105116656,0.3519106483627207,-0.22136264361456148,0.7263313816850727,0.11752057161613574,2.0125702102295544,-0.36426707169480993,1.016597483398129,0.7586595073733718,1.023419905196558,0.1043290721247198,-0.18828085878726375,-0.07020119078007296,1.489494292387784,0.2600735355055333,0.07407160961851075,-0.1610599967608647,0.32241589708818147,-0.0461824983269545,-0.9373856404128947,-0.0740561674284185,0.7138369783659647,-0.3252599136023532,-0.3785412921822148,0.36865682254973964,-0.5044104357254576,-0.1464557402964257,-0.13927412455814445,-0.37256397983981177,-0.19741676646544237,-0.7100896217388359,-0.24642230682739993,-0.20642249875455362,0.14183370394204198,0.4909678944974846,-0.5244769144009749,-0.2804416444056206,-0.45756820223530764,0.137816231010977,-0.1533083403618632,0.37000438708315725,-0.24661947064192916,0.4808546783780742,0.4465064493214171,0.17824314696122484,1.8275804103441333,-0.42869707229532583,-0.8469173967484627,0.7763108788632422,0.16734271292121955,0.08780051770249345,0.22050565023597107,0.17972594871989167,-0.030484298010149614,0.8840307934897393,0.4286166526707746,1.1407351787711542,-0.016663932751661073,0.64108852461055,-0.01497614986227894,0.13830035970183818,0.3465681720263902,0.0900042673071881,0.08563643463309971,0.29610203758379405,-0.20482123660095108,-1.033274963037991,0.7705081202810545,-0.3917715510504268,0.12874340055865632,-0.10211010755913942,-0.8366063564955845,-0.14896833574563156,0.0877397310217578,-0.4067838694735491,-0.16695129367515696,0.1602867464160677,-0.5251132822415912,-0.10321784531674384,-0.032429369060140226,-0.38795952161720443,-0.0736652671055865,0.004799632586488672,0.2320355980819851,-0.1936116090447321,-0.4756299097628169,0.5183118422380766,0.43580936001838205,0.06507656954195462,-0.08456990804317746,0.050555110012181645,0.507177972280388,0.1415685329711638,-0.09960502910619629,0.8601380585442296,0.5556327285979985,0.283548710509305,2.0054221113437896,0.32780596003838264,-0.2958731417174765,1.0746801622511843,0.44723414683849666,0.2390789782521093,0.3533611680893362,0.4128937164085814,0.036448713095696667,1.243704154651718,0.73465443887299,1.8077316119472742,0.9044174970145022,1.0146958145346334,0.646782511224528,0.1475599216209696,1.0685751536312091,0.3034340452214313,-0.062296783842088914,0.6334894070401142,0.581819971396674,-1.2352171082647305,0.9853575211016206,-0.1245759377220555,0.08636957867025122,0.07850066057949567,0.2383493245261572,-0.680509570882833,-0.5917921848814077,0.00761566654387821,-0.2609645393944945,0.352112972218104,-0.24859036057940134,-0.03354636330275098,-0.14166907198299572,-0.03069926025863651,-0.0019557678444635388,-0.07454386121442606,-0.06361358002651948,-0.030077880312690885,-0.10129801621708127,0.3776963866576544,0.05648557817646324,-0.13923831997279612,-0.3048937797676181,0.020482585353129888,0.04146830345412453,-0.3474047531143122,0.16085278407405737,-0.09447441474178471,0.1630734893426935,-0.044333790815961754,0.06963150073213864,-0.07992522483547256,-0.4970316925192688,0.028643131350412902,0.14437090241346462,0.17493533872699382,0.12310267255608694,0.013809306991457325,-0.12712317145012866,0.11311314948026624,0.05322088486913625,0.9524053738213035,-0.425123614920857,0.39891943573540234,0.1620497539963012,0.002566127605101001,-0.2717257526194915,0.13487285233181237,0.19911830574110367,-0.13547263713933852,-0.3312740314540949,-0.4772555089351008,0.5734090146816514,-0.029730406187467157,0.3705429020017582,0.27600756395737586,0.08532027014182499,-0.48404540747480973,-1.1104069496440907,0.2854133841480348,0.0564088990923699,-0.10901129713836705,-0.2226589933893704,-0.09077425986835204,-0.09530200410125482,0.2987795795940872,-0.38017573111037756,0.9194572684651208,-1.5793358032460911,0.36870219445707075,-0.26266971755080243,0.23518414342644856,-0.6368178860111207,0.21870048881552334,-0.13081134538480915,0.3555426719188508,-1.0915449875875574,-0.7321802084069625,1.0486558429926072,-0.8113295227888266,0.01864144807648017,-0.09390170335260618,-1.822793832381282,-0.5714130324893338,0.36939669833446026,-0.8101996805523763,-1.0304139353293542,0.6553752237487898,-0.6954596174350173,0.09330737937013847,0.25087581924220836,-1.114184371699026,-0.05148395883851347,-2.7288640993398183,0.9297717507000284,-1.0931702926542195,0.12554467135913225,0.9693227717212761,0.30676973826703846,-0.36911105618849765,-0.309841660987294,-0.5817373474102737,0.6001970834990957,1.2237899102802572,-1.2942341862203142};

static double model2_biases3[3] = {0.1707988560421471,-1.151302378966428,-1.5576333619596994};
static double model2_weights3[78] = {0.573797705726706,-1.0734739705623537,-0.509177407526966,0.5665630137783715,-1.310928293203552,-0.37303545359984436,0.17360397653961046,-0.8613184235395182,-0.9715669684139806,2.2833258958077507,-1.0342091300501373,-0.4808821531578971,-1.5401071852624912,0.6984906868781643,-1.9894219640980815,-1.9582750092002108,-0.4647838888728864,-1.8226187343826958,1.2417660516038524,-1.2481101683679683,-0.34762946834134106,-0.45771196632420247,-0.25853002315066165,-0.5804521715226383,0.6426523697678139,-0.49811331048841945,-0.9391220161491268,0.1364421996764108,-0.7728034095263362,-0.6261039086566469,-0.2952662325414037,-0.6399258677369742,-1.150792772439175,-0.5121392634386899,-0.3781568672083767,-1.1288673967979193,0.8355328105086848,-1.118538258721614,-0.32121033020205936,-0.5655614326919541,-0.3431295668656262,-1.5656703226533486,3.3507186808716356,-1.9082928219381394,0.5223690310645783,-3.0380960367592507,-0.021386646468360103,-1.904197902942419,0.07053999509437901,-0.38266812485542834,-0.12883412595241073,-1.3018295312062689,0.4076249274617351,-1.593866916597467,0.9846329904997371,-1.4024565636209205,-0.672109368981338,-1.7604950819993037,-0.10499666890133769,-1.4079942416675155,0.24796169501422866,-0.8917419805000276,-0.7661825983844942,-0.19859627954126102,-0.4976805776716404,-0.8467218617365707,0.565809104599821,-0.8677240897508102,0.20349142134836487,-1.920084194679139,-0.22098295123707778,-1.731317598046224,-1.7031257571572407,-0.25554861401796103,-1.3555549745489341,1.5363155886396216,-0.9179413458860439,-0.19891635278758413};

static double model2_biases4[1] = {-0.009125091546148658};
static double model2_weights4[3] = {3.120667974510952,1.250324010705534,2.6224840954238395};

static double *model2_biases[] = { model2_biases1, model2_biases2, model2_biases3, model2_biases4 };
static double *model2_weights[] = { model2_weights1, model2_weights2, model2_weights3, model2_weights4 };

MLPModel model2 = {5, model2_sizes, model2_biases, model2_weights};
